{
  "layers": [
    {
      "activation": 2,
      "biases": [
        -0.13474278276076057,
        -0.06721666319637179,
        -0.1811469115868941
      ],
      "cols": 3,
      "rows": 7,
      "weights": [
        [
          0.15033365736180465,
          0.4597382671037991,
          0.633123896237214
        ],
        [
          -0.10207536868806502,
          0.20454312293355856,
          0.60333936724047
        ],
        [
          0.3526483395636423,
          0.5420392185309639,
          -0.8745495330630976
        ],
        [
          -0.20153600240731245,
          0.6246339969969502,
          0.24030662173875
        ],
        [
          0.9026396963593419,
          0.3765329401238957,
          0.9522915266606696
        ],
        [
          0.04978190340083776,
          -0.0793665405425961,
          -0.042166058592703684
        ],
        [
          -0.18609133600058136,
          -0.3016480401083274,
          0.8633071486737196
        ]
      ]
    },
    {
      "activation": 2,
      "biases": [
        -0.3288712742665527,
        -0.05289332789719221,
        -0.2627062755337614
      ],
      "cols": 3,
      "rows": 3,
      "weights": [
        [
          0.5054824323280999,
          -0.7923630407154368,
          -0.2573852010452262
        ],
        [
          0.0639445140214271,
          -0.3249450579812662,
          -0.3117499767327363
        ],
        [
          1.2070988680130803,
          0.8502085182711783,
          0.45253665500254636
        ]
      ]
    },
    {
      "activation": 0,
      "biases": [
        0.01404257622179979,
        -0.032489967598942036,
        0.016636292886345532
      ],
      "cols": 3,
      "rows": 3,
      "weights": [
        [
          0.7759128938721223,
          0.6712176347159508,
          0.7783932680954749
        ],
        [
          -0.16468970797345842,
          0.9554691773781671,
          -0.8541257271868845
        ],
        [
          0.519555193625666,
          -0.30105008958537155,
          0.6606058000065216
        ]
      ]
    }
  ]
}
