{
  "layers": [
    {
      "activation": 2,
      "biases": [
        0.0,
        -0.6757825799291541,
        0.0,
        0.0,
        -0.12908401270589123
      ],
      "cols": 5,
      "rows": 7,
      "weights": [
        [
          0.3308192176707816,
          1.166223884617217,
          -0.16792250354963725,
          -0.40906100594593153,
          0.593963858388388
        ],
        [
          -0.6091358581850868,
          -0.429297504626627,
          0.49675333794459786,
          -0.596200237654697,
          0.3076474396271242
        ],
        [
          -0.2543904979159059,
          2.2623403090389025,
          -0.5835214158967704,
          -0.6343048491141949,
          0.16156293673124217
        ],
        [
          -0.3734994187643872,
          -0.2996010040251905,
          0.32661808039535406,
          -0.4197658938823659,
          -0.6200081956713408
        ],
        [
          0.28927220111291424,
          -0.1654814233327411,
          -0.5069719276401531,
          0.5060841984477223,
          -0.5537315758560163
        ],
        [
          -0.26834333395266863,
          -0.29938377977630204,
          -0.04047455015506555,
          0.6767591990759603,
          0.42463248141455134
        ],
        [
          -0.11936333470200751,
          -0.7814573682521093,
          -0.019040954727331784,
          -0.22782329714059885,
          0.020985623976924335
        ]
      ]
    },
    {
      "activation": 2,
      "biases": [
        0.0026412904504291472,
        -0.2125990599571311,
        0.08578128178520739
      ],
      "cols": 3,
      "rows": 5,
      "weights": [
        [
          -0.6636316222475983,
          0.8048699527241489,
          -0.8109112507998343
        ],
        [
          2.5476163756942376,
          0.06603374218237369,
          0.7934376600852383
        ],
        [
          -0.44179861264831083,
          -0.686113399976407,
          0.42246461180888634
        ],
        [
          -0.007470732383022428,
          0.4863633901120988,
          0.6864704471245051
        ],
        [
          -0.8556823251531909,
          0.7262245353941381,
          0.3222451809036672
        ]
      ]
    },
    {
      "activation": 0,
      "biases": [
        0.1544606468106622,
        0.8447033695665487,
        0.7935703296101086
      ],
      "cols": 3,
      "rows": 3,
      "weights": [
        [
          1.3477176722421704,
          -1.4945149576307992,
          -1.613000175509599
        ],
        [
          -0.7698842603004272,
          -0.8803897663746661,
          -0.5498371250783924
        ],
        [
          0.7062930505841108,
          -0.8027835184142915,
          0.07701151534449045
        ]
      ]
    }
  ]
}
