{
  "layers": [
    {
      "activation": 1,
      "biases": [
        0.16862479705596303,
        -3.004196759020173,
        -3.6807395072175972,
        1.9543795078622108,
        2.951812598772423
      ],
      "cols": 5,
      "rows": 42,
      "weights": [
        [
          -0.06741014738428491,
          0.21686880364184738,
          -0.1012010719069011,
          0.9090988706896067,
          0.32864419739243594
        ],
        [
          0.024707275368416427,
          -0.9388786690267497,
          1.6434744818652116,
          -0.6499377733547133,
          0.5969321804225335
        ],
        [
          -0.9818747540640453,
          -1.2698667834211208,
          0.8612211061553027,
          0.6438070789968405,
          -1.4815429421016033
        ],
        [
          0.7102743097240435,
          -0.03984978083698813,
          0.07372246992328109,
          -0.5081992071588362,
          0.2301321207274067
        ],
        [
          0.28847556296354526,
          -0.7038920060809535,
          -0.4681131861043637,
          0.7092390425563745,
          -0.4669843195024361
        ],
        [
          -0.18562733385718258,
          0.9191695312520529,
          0.9056662735018641,
          -0.34761216866432454,
          0.6353141301651798
        ],
        [
          1.4061698862030543,
          1.1644534190874987,
          -2.368372590899812,
          0.9687598869611669,
          2.007467917607639
        ],
        [
          1.2994396786418243,
          1.3242055230578216,
          1.6152856588994375,
          -0.7723951097648378,
          -0.9298527291445999
        ],
        [
          -0.5672336182878422,
          -1.3556560589758109,
          0.27679148699900785,
          1.8316433483715826,
          0.8340180953567969
        ],
        [
          -0.045575753826094655,
          2.1463546841166252,
          0.33471149732294736,
          -1.1382483482242227,
          -2.3482473570662563
        ],
        [
          0.7885059428998078,
          -0.17058993661029098,
          0.30474007628665756,
          0.20423597983860167,
          0.3471678818990591
        ],
        [
          1.153286607468592,
          -1.061713170979895,
          0.6365267529990932,
          0.4524159826760603,
          -0.7398069128835221
        ],
        [
          -0.6975981176897684,
          -0.7183249227898965,
          0.43340526198314494,
          -0.14670788183505798,
          0.6202411113812816
        ],
        [
          1.060869234792222,
          0.8136170801301094,
          1.3123999586850577,
          0.37637008495083946,
          1.1195034894369893
        ],
        [
          -0.1543395020839796,
          -0.09943930247919255,
          0.10867950101250352,
          0.41585674021888597,
          1.8300225578454794
        ],
        [
          -0.6149008474698527,
          0.8024479010716994,
          1.07066097962084,
          1.9693152233882154,
          1.7075399672049745
        ],
        [
          -0.02741446017341313,
          -0.2773805903199386,
          0.979059865392646,
          -0.2203567208151069,
          0.7253217798350665
        ],
        [
          1.9019366273167368,
          0.0049974705023319976,
          0.8501087860410952,
          2.2144593190060182,
          0.7419589805105052
        ],
        [
          0.8033589829597778,
          -0.3006165255876174,
          0.2872713691367772,
          0.08063542929170672,
          -0.5572057485146673
        ],
        [
          0.29313526779923327,
          0.9694357280454865,
          -1.2315254948751768,
          0.5725556164536232,
          -0.05065654417366751
        ],
        [
          0.6743544584939449,
          -0.5359950772375803,
          -0.8824043520481059,
          -0.6985939220897149,
          -0.3667643140839222
        ],
        [
          -1.0717276171249184,
          0.7644863684391913,
          1.4308265581604176,
          0.08392811157717159,
          0.4063098319090843
        ],
        [
          -0.2480143954725786,
          1.1201162975764407,
          -0.6550290761844483,
          -0.7287988860214416,
          1.2324016330275627
        ],
        [
          -0.40726408385729806,
          -0.6254734347075156,
          -0.05798272662286103,
          1.1810598813451592,
          -1.097053761660314
        ],
        [
          -0.2680345905642518,
          0.9201581037540462,
          0.4065511768637656,
          -0.4054650985113336,
          -0.9043234187140029
        ],
        [
          -1.2578868583852223,
          -0.25844143634995814,
          -1.1843653911212553,
          0.04681280404408056,
          -0.6161612630469723
        ],
        [
          0.3906316315238039,
          0.16969098355227213,
          -0.4819245839773757,
          -0.21535750715445304,
          -0.09554908091509279
        ],
        [
          -1.8502317900739564,
          0.3967204728817196,
          -0.1668540244015377,
          0.23072281712734813,
          -0.8810638069434118
        ],
        [
          0.4519585992255671,
          -1.3381114736505402,
          0.11966520064888453,
          -0.6014263926849269,
          -1.3643911210979252
        ],
        [
          0.22123166612732065,
          0.01960683982346041,
          0.6976765767723646,
          0.0754022346264169,
          -0.24273333388158583
        ],
        [
          -0.7709453221625098,
          0.06001095850598994,
          0.6440196740054439,
          -0.06574369646802254,
          -0.5671267909595726
        ],
        [
          0.40722982466056995,
          0.0409251484244512,
          -0.9247097196557849,
          0.9834510456589296,
          -0.002416013986536353
        ],
        [
          -0.43737820493969204,
          0.11122447134235225,
          1.2395975289421521,
          0.42956580210368844,
          -2.046486849716359
        ],
        [
          -0.28399030194492564,
          -0.8392763075701495,
          -0.20837903704162286,
          0.5078889306895532,
          0.86240418642094
        ],
        [
          -1.697762267671905,
          0.8886946303727498,
          -0.13045248952289643,
          -0.5761404509578871,
          1.5854291629609385
        ],
        [
          -0.2795375274296742,
          0.848242442208209,
          -1.2002676369215772,
          -0.614082048084024,
          -1.888327477298299
        ],
        [
          0.9348013033573016,
          -0.6772791562116003,
          -0.029854292840733893,
          -0.5717855419168146,
          -0.043957676533058945
        ],
        [
          1.771788750450072,
          -0.09693190227749043,
          0.5670895676746048,
          -0.5179650252291905,
          -2.731740454415374
        ],
        [
          -0.0033458263870572266,
          0.5719469925950719,
          0.40333086319297473,
          -0.6250026838698914,
          0.3075422381225543
        ],
        [
          0.3965027575389296,
          0.8473620099521922,
          -1.0630509753458384,
          -0.0461253865359624,
          -1.3362185027404014
        ],
        [
          0.5083997351393816,
          1.8197169180020472,
          -0.9373131271008767,
          -0.33799782182265964,
          -1.0790496228550022
        ],
        [
          -3.1512479583673816,
          0.37587054998958797,
          0.650347330043636,
          -0.5729188685413354,
          0.025881949251694607
        ]
      ]
    },
    {
      "activation": 0,
      "biases": [
        -0.9892068450868465,
        0.2719641877099131
      ],
      "cols": 2,
      "rows": 5,
      "weights": [
        [
          3.8472451136239743,
          -0.4114113960150938
        ],
        [
          0.5810820063650755,
          4.373251018364074
        ],
        [
          -2.3964632570051148,
          -2.6606705555728825
        ],
        [
          0.48157680833508765,
          -2.308715673661596
        ],
        [
          -1.5558372984579967,
          3.202484670812608
        ]
      ]
    }
  ]
}
