{
  "layers": [
    {
      "activation": 0,
      "biases": [
        -0.15246357301828517,
        0.015494440711712496,
        0.10682169901931766,
        -0.04390976967060841,
        -0.0556698779170419
      ],
      "cols": 5,
      "rows": 42,
      "weights": [
        [
          -1.7644324692066284,
          1.2881725185916189,
          0.06958904432105863,
          -0.3606386842387108,
          0.2629728530527904
        ],
        [
          1.9637485003433044,
          -1.0304482860525226,
          -0.20602684940749985,
          0.08606467210501344,
          -0.31678489082527156
        ],
        [
          1.0869051397590623,
          -0.9831639593312687,
          0.14273818045310263,
          0.11360547703541889,
          0.09563121841816537
        ],
        [
          -2.0484280837982336,
          1.42991303455097,
          0.6465695639620042,
          0.06287081204807346,
          0.23747997143103894
        ],
        [
          1.7309822393080232,
          -0.8895955010999222,
          0.14569901837040403,
          -0.043892960582575746,
          -0.060452485554674126
        ],
        [
          0.7210946809094018,
          -0.6246542499909546,
          0.23086003591697216,
          0.28604283318774504,
          -0.32173868042909404
        ],
        [
          0.2209339432384419,
          -0.17296018472982358,
          -0.07724075764733372,
          0.03732560912161027,
          -0.3004178991076775
        ],
        [
          1.531374538264006,
          -0.7527593717216899,
          0.05684694044463891,
          0.27686913802534996,
          -0.34759575436298557
        ],
        [
          -1.112504596896213,
          0.5641886178697906,
          -0.060738571298512525,
          -0.16840114956382715,
          0.22405245992028036
        ],
        [
          0.24239950669337587,
          0.11607609836944917,
          0.04705026839030302,
          -0.23600094153708687,
          -0.333897484923083
        ],
        [
          -0.15507441235679148,
          -0.2086554078862441,
          0.10706099318213742,
          -0.21161769064804498,
          -0.03177853255824142
        ],
        [
          -1.420069826684509,
          0.8212360667889393,
          0.08830843103950818,
          -0.10165547807612316,
          0.3415156873839406
        ],
        [
          -1.3277718438153379,
          0.8351840552705669,
          -0.0314140034262141,
          0.013797051116899684,
          -0.04918831859432828
        ],
        [
          0.2646202179867526,
          -0.060444349775480896,
          0.09412149576958713,
          0.4240093178559809,
          -0.24743646831581262
        ],
        [
          0.40435005403374535,
          0.18439636420225966,
          -0.1819844710203694,
          -0.001974877037286885,
          0.03417810687122844
        ],
        [
          0.024503716593504307,
          0.07937884721649223,
          -0.09374176287969704,
          -0.05198157020887831,
          0.2027922796350679
        ],
        [
          2.1700941154682396,
          -1.0730846582770908,
          -0.5530642160563661,
          0.0014043703200138787,
          0.008832039926004395
        ],
        [
          0.34139532678662826,
          -0.40427012440613525,
          -0.160120066567894,
          0.23115249883750164,
          0.1847933987820052
        ],
        [
          -0.5724198904740824,
          0.1936129134572759,
          0.14132129206264746,
          0.04020388001860564,
          0.27108540786406693
        ],
        [
          0.29811760339559873,
          0.020254226092618628,
          0.12430556463933598,
          0.4099098017554263,
          -0.2597933626116928
        ],
        [
          0.13312338865294082,
          0.07189514005574271,
          -0.2233641809532423,
          0.026477709506985466,
          -0.12369367666369277
        ],
        [
          -0.7643595135173574,
          0.5578100159164062,
          -0.0838505635865051,
          0.2612920403352455,
          0.23405180068534306
        ],
        [
          0.2395439432822133,
          -0.559048071534327,
          -0.051461695695070205,
          0.20762568282257335,
          0.026549695427951766
        ],
        [
          0.5144894948861339,
          0.2467207966998723,
          0.3928865380499624,
          0.1822390137282004,
          -0.048141082132830165
        ],
        [
          0.4139030815142478,
          -0.5137490477684341,
          -0.18916739040518912,
          0.10647958502966244,
          -0.05094387030186758
        ],
        [
          0.8829544230109048,
          -0.8426130507115143,
          -0.26808228099650994,
          0.23288010958403868,
          0.0783454384787859
        ],
        [
          -0.9161768436624842,
          0.40818267096434413,
          0.1265114241979492,
          -0.29480589662792966,
          -0.25791584851903954
        ],
        [
          0.41401014357653354,
          -0.43216148874885557,
          -0.2430155591621439,
          0.24795279349844604,
          0.1826866233946908
        ],
        [
          0.17225233846375176,
          -0.14609808633511337,
          -0.17889231419581672,
          -0.06468105958644711,
          -0.252065333407825
        ],
        [
          -0.6192680708761198,
          0.4529490569431902,
          -0.041774711557171135,
          -0.19847047753167418,
          0.07464151960732052
        ],
        [
          -0.43615749926493846,
          0.20093064340398809,
          -0.12579526588402012,
          0.10911791074404353,
          -0.23616916502949764
        ],
        [
          -1.0643475344838402,
          0.940719518999272,
          -0.04579160039872524,
          -0.25815415868451136,
          -0.22305051336211315
        ],
        [
          -2.0253653330046557,
          1.435346143387852,
          0.3930499715774687,
          -0.05974495972691716,
          0.28876394479481327
        ],
        [
          0.06120794490394967,
          -0.034156992361442026,
          -0.08178404042976098,
          -0.1104559861007394,
          -0.0026681028994732466
        ],
        [
          0.0971016829583624,
          0.5326484094419942,
          0.11506409597687917,
          -0.303679800196085,
          0.2342611710062087
        ],
        [
          0.486712781520669,
          -0.7031233610452191,
          0.11334954534395866,
          -0.09884962319354534,
          -0.1283161440782184
        ],
        [
          0.8013467921907124,
          -0.370602232148969,
          -0.11261121505016579,
          0.049470069962985676,
          -0.2628851469904187
        ],
        [
          -0.3010417136031061,
          0.2763608500016001,
          -0.19234375557894992,
          -0.3118701388752018,
          0.27889741928551576
        ],
        [
          0.7192511514343335,
          -0.8336181460787401,
          0.1381033651753876,
          0.16881793134687836,
          0.20731067011272025
        ],
        [
          -0.5629615643379415,
          0.20839848774350428,
          -0.202601627539491,
          -0.1452797644125684,
          0.279178956636012
        ],
        [
          0.10079337993390464,
          -0.21378191526861823,
          -0.207598758893307,
          0.1316173053717193,
          0.17969130941502903
        ],
        [
          -0.5803686327006683,
          0.03930278499973451,
          0.2719860981784312,
          -0.4385660436091948,
          -0.032016245205110094
        ]
      ]
    },
    {
      "activation": 0,
      "biases": [
        -0.20069748349034225,
        0.008256369214312866,
        -0.06664725338536787
      ],
      "cols": 3,
      "rows": 5,
      "weights": [
        [
          0.6089785680702783,
          -1.388436501392255,
          -0.57377988655519
        ],
        [
          -0.4516841944675506,
          0.7270117382774909,
          0.8369199264933458
        ],
        [
          0.1481717279912242,
          0.2592511841624523,
          -0.06627347430678164
        ],
        [
          -0.04735714979754737,
          -0.12892112524269345,
          -0.25238254387962505
        ],
        [
          -0.028587151702707828,
          0.4021808497029696,
          -0.4257908316229248
        ]
      ]
    },
    {
      "activation": 0,
      "biases": [
        0.6085887057417028,
        0.6075446501666011
      ],
      "cols": 2,
      "rows": 3,
      "weights": [
        [
          0.49999453379868325,
          0.487071126512346
        ],
        [
          -1.1135627046001928,
          -1.0720245923403107
        ],
        [
          -0.5646794141599686,
          -0.6412657983839194
        ]
      ]
    }
  ]
}
