{
  "layers": [
    {
      "activation": 0,
      "cols": 3,
      "rows": 42,
      "biases": [
        0.2634280861242624,
        -0.01154021270997073,
        -0.08708686768802074
      ],
      "weights": [
        [
          0.07837933108108211,
          0.008909729299900117,
          0.1688923622243303
        ],
        [
          -0.7374114025395451,
          -2.8733375507082566,
          -1.0079065535665104
        ],
        [
          -0.20920103292650885,
          -1.2215242227661618,
          -0.6065958901105328
        ],
        [
          0.8459534425432559,
          2.3997785340621682,
          0.6777774592764351
        ],
        [
          -0.09147543771992703,
          -0.985072922664963,
          -0.44508982834214833
        ],
        [
          0.3109658475116344,
          0.6667895014767549,
          0.36202537631304743
        ],
        [
          0.7781516900063055,
          -2.4026179910759335,
          0.43632325981964437
        ],
        [
          -0.0364006657239584,
          -0.4129534044198129,
          -0.025926030358330555
        ],
        [
          -0.4441362165659542,
          -0.9157755568921404,
          -0.32952411868203574
        ],
        [
          -0.5189892136707625,
          -1.143140533183816,
          -0.3242349756890283
        ],
        [
          -0.22252020680518564,
          0.4359738085199695,
          0.030806686374411155
        ],
        [
          -0.24752004125877,
          -0.1651072100559864,
          0.2472419215761725
        ],
        [
          0.007639562162731978,
          -0.3351824329925117,
          -0.0846353683133627
        ],
        [
          -0.14116493265237312,
          -0.06432224555939177,
          -0.07882286430247103
        ],
        [
          -0.5282937002998638,
          -1.2523562224101188,
          -0.28578144070739914
        ],
        [
          -0.11376135252020994,
          -0.5525122596061669,
          0.21029337576457294
        ],
        [
          -1.054830289448035,
          2.4798037876479624,
          -0.6597258020275069
        ],
        [
          -0.07914740218190831,
          -0.47788956233576046,
          -0.032686766998238394
        ],
        [
          0.3665776536146977,
          1.1136109013040207,
          0.6509905104203947
        ],
        [
          0.2750780184863826,
          0.8392692277697722,
          -0.08563277647448354
        ],
        [
          0.25184815286888496,
          1.013570331859534,
          0.5856490260864953
        ],
        [
          -0.22023918317894536,
          0.23189565349453906,
          -0.2993248579062907
        ],
        [
          0.06433966058029941,
          0.17253876011106123,
          0.11935782923776446
        ],
        [
          0.37129149284578983,
          0.1269905431313376,
          0.1604704352316354
        ],
        [
          -1.1847350931970146,
          2.5570270487962765,
          0.559631636670301
        ],
        [
          -0.05622274915276644,
          0.029265783991202894,
          -0.15298660664292396
        ],
        [
          0.2720343489669746,
          0.35807736294645387,
          -0.10622888975263708
        ],
        [
          -0.14993071737065433,
          0.44922453318381134,
          0.18452949846902575
        ],
        [
          0.06856147539656081,
          0.24126728309781334,
          -0.11927285580021835
        ],
        [
          0.4909951326623928,
          0.9715356342472838,
          0.30817498127751375
        ],
        [
          -0.07124786207645231,
          0.5377881858920528,
          -0.14297759477275895
        ],
        [
          0.4902100887494014,
          0.8145570098964139,
          0.6120149585995932
        ],
        [
          1.108433340026879,
          -2.0193886177176266,
          0.8514826337009422
        ],
        [
          -0.0049735681616697785,
          0.40057177860841214,
          0.1421249096106975
        ],
        [
          -0.027206926130096086,
          -0.17366776000597975,
          0.11809346294601204
        ],
        [
          0.30027633024702094,
          0.4891665625452197,
          -0.03661602665830512
        ],
        [
          -0.35345995018515475,
          -1.0199970511513285,
          0.02298614784346606
        ],
        [
          0.30190445009021843,
          0.6154413239441183,
          0.23454137890796808
        ],
        [
          -0.6214956198481403,
          -0.7455931340023769,
          -0.3532463666234697
        ],
        [
          -0.222946928992151,
          0.11172162449037465,
          0.1540214432323401
        ],
        [
          -0.8329005414257773,
          -1.7463719879647421,
          -0.6991095132714521
        ],
        [
          -0.6766296107041478,
          -1.118303227293562,
          -0.7375469020933382
        ]
      ]
    },
    {
      "activation": 0,
      "cols": 3,
      "rows": 3,
      "biases": [
        0.3019180600042256,
        -0.14624485978190735,
        0.1020311266641338
      ],
      "weights": [
        [
          0.39559278451822794,
          -0.34371180955421793,
          0.13082014343894616
        ],
        [
          1.7100897256334937,
          -0.8035633729554303,
          0.01156693341915753
        ],
        [
          0.5863484232402291,
          -0.25446624989528543,
          -0.13796810766835998
        ]
      ]
    },
    {
      "activation": 0,
      "cols": 3,
      "rows": 3,
      "biases": [
        -0.04701031364523293,
        0.28760183455079885,
        0.15513194897602184
      ],
      "weights": [
        [
          -0.24071046122821654,
          -1.2973435231881407,
          -0.17305590021862577
        ],
        [
          0.6021438345041414,
          0.4636643009357766,
          -0.33268531087844183
        ],
        [
          0.12486315992326558,
          -0.14021344647748105,
          -0.412158489620586
        ]
      ]
    },
    {
      "activation": 0,
      "cols": 2,
      "rows": 3,
      "biases": [
        0.588851390389391,
        0.6467345593994079
      ],
      "weights": [
        [
          0.25628777238274486,
          0.5086485040644488
        ],
        [
          1.012310516928006,
          0.888215643914407
        ],
        [
          0.018206438575856413,
          -0.18312681182191878
        ]
      ]
    }
  ]
}