{
  "layers": [
    {
      "activation": 0,
      "biases": [
        0.24856785960169053,
        -0.007403751481851796,
        -0.10646380376665114
      ],
      "cols": 3,
      "rows": 42,
      "weights": [
        [
          0.0479187339529216,
          0.013592796794366837,
          0.17357510136331392
        ],
        [
          -1.0418151078729823,
          -3.0212656658183477,
          -0.917412263478177
        ],
        [
          -0.2512770167470049,
          -1.1855857942448964,
          -0.5704781593494749
        ],
        [
          0.8037891364240476,
          2.733186438548504,
          0.9783613604352236
        ],
        [
          -0.051897136283717844,
          -0.9137817534678065,
          -0.467209073404847
        ],
        [
          0.3447400171040583,
          0.7193204706556573,
          0.30751022476701606
        ],
        [
          0.8135071612190891,
          2.392043402459901,
          0.6594319004280038
        ],
        [
          -0.014798293187304861,
          -0.41735507074332245,
          0.019748071567771183
        ],
        [
          -0.4623363643199392,
          -0.8866784832599228,
          -0.3153934363629531
        ],
        [
          -0.4669843978999889,
          -1.3032308226767393,
          -0.3230684259592318
        ],
        [
          -0.17316795995471593,
          0.39759428682231,
          0.08777062191649196
        ],
        [
          -0.2516973131588651,
          -0.12591380757839085,
          -0.2206782005982039
        ],
        [
          0.0016363271165523029,
          -0.35770179001010227,
          -0.0898612019667039
        ],
        [
          -0.1388519670046083,
          -0.058300171647605994,
          -0.049252424495122474
        ],
        [
          -0.4737871843719163,
          -1.2174767106858506,
          -0.3658266071326239
        ],
        [
          -0.13204680701635074,
          -0.4586930668727391,
          0.19304742915695927
        ],
        [
          -0.9994776934578978,
          -2.382501491735352,
          -0.7476495321361758
        ],
        [
          -0.1251024779939858,
          -0.5193998128668741,
          0.004719947613185406
        ],
        [
          0.38497832223554573,
          1.0938980142933308,
          0.59293758624669
        ],
        [
          -0.2421434942453403,
          -0.8265085457786093,
          -0.00959234453482105
        ],
        [
          0.3172307079294528,
          0.9691590961654913,
          0.5115193259508456
        ],
        [
          -0.2171017617196493,
          0.1881725548542519,
          -0.31508104051699803
        ],
        [
          0.0772420556724019,
          0.16531084800089296,
          0.08859709790844507
        ],
        [
          0.3721144944253917,
          0.0910472953640658,
          0.22065164455268493
        ],
        [
          1.0487031954755641,
          2.5426200141169892,
          0.6091199118611084
        ],
        [
          -0.05805796468347649,
          0.06901716228322076,
          -0.14859316888617372
        ],
        [
          0.25947627306434007,
          0.3061063401640621,
          -0.08800360938347107
        ],
        [
          -0.11122579416407792,
          0.473245091628309,
          0.14070655597200635
        ],
        [
          0.0579822626147503,
          0.25831496979547464,
          -0.1357898050342479
        ],
        [
          0.48619864997449724,
          0.9236760729067857,
          0.3428625638687633
        ],
        [
          -0.052227631733753124,
          0.560549397308333,
          -0.058023041088448954
        ],
        [
          0.48229135914771615,
          0.8075759745820504,
          0.6118782165943412
        ],
        [
          1.1344908697963854,
          2.176605532026765,
          0.8982071827529713
        ],
        [
          0.007040808898578262,
          0.4286968248334143,
          0.1477790248026185
        ],
        [
          -0.03842029893330112,
          -0.22601390735280036,
          0.1132485131941789
        ],
        [
          0.2906472054880258,
          0.4919498975217203,
          0.0351217306179844
        ],
        [
          -0.3514936247722685,
          -1.0244638516632851,
          -0.1596931278870308
        ],
        [
          0.30806632153668634,
          0.6057819007830939,
          0.23565329609369484
        ],
        [
          -0.5828220765990314,
          -0.7834110839599541,
          -0.37812910911025255
        ],
        [
          -0.2510434930867649,
          0.14402204295765525,
          0.10419576878757462
        ],
        [
          -0.6987200785504419,
          -1.8025439726910983,
          -0.9087725492245206
        ],
        [
          -0.6377542148175341,
          -1.0960778450743953,
          -0.7414579007817632
        ]
      ]
    },
    {
      "activation": 0,
      "biases": [
        0.31890020706075944,
        -0.09394124945584226,
        0.09971850933840973
      ],
      "cols": 3,
      "rows": 3,
      "weights": [
        [
          0.47062690656950684,
          -0.3771632526619507,
          0.19576220220895826
        ],
        [
          1.4394978402964922,
          -0.6668208215393414,
          0.06779333408648182
        ],
        [
          0.5329321626193646,
          -0.17364660931270426,
          -0.15290332832282078
        ]
      ]
    },
    {
      "activation": 0,
      "biases": [
        -0.09398606391206264,
        0.34537114148951764,
        0.148496626245739
      ],
      "cols": 3,
      "rows": 3,
      "weights": [
        [
          -0.2715670805674808,
          -1.3901715644400838,
          -0.026189243126613075
        ],
        [
          0.722422067899346,
          0.41612149731325354,
          -0.3597371590709427
        ],
        [
          0.11464559662823083,
          -0.1543450135226044,
          -0.3844203900088699
        ]
      ]
    },
    {
      "activation": 0,
      "biases": [
        0.5842063164461709,
        0.6408731099334343
      ],
      "cols": 2,
      "rows": 3,
      "weights": [
        [
          0.27061785520909976,
          0.4712205622905315
        ],
        [
          1.0028338585097702,
          0.91204171385846
        ],
        [
          0.0050753664031798155,
          -0.16363317841737235
        ]
      ]
    }
  ]
}
