{
  "layers": [
    {
      "activation": 2,
      "biases": [
        0.1344251819080394,
        0.0,
        -0.03536164298414428
      ],
      "cols": 3,
      "rows": 66,
      "weights": [
        [
          0.037271530470863505,
          0.2587801051170842,
          0.048136180467199294
        ],
        [
          -0.3231394949073693,
          -0.2204798666304842,
          0.07285529562927304
        ],
        [
          0.04251208021956358,
          -0.09387637367329728,
          0.077557762917612
        ],
        [
          -0.033547706085864555,
          -0.15128146970788264,
          0.25521834254074804
        ],
        [
          -0.04278836417579042,
          -0.09856944533720355,
          0.02416990157979594
        ],
        [
          0.07424149582044126,
          0.0011515740441972381,
          -0.15113553602994223
        ],
        [
          -0.24693435020883303,
          -0.10783325162371366,
          -0.1709184920898805
        ],
        [
          -0.4482501202864409,
          0.003065016240418587,
          0.3278795821481988
        ],
        [
          -0.22162382899059246,
          0.20392721081071272,
          -0.15089652611016144
        ],
        [
          0.16307499133451808,
          0.2638032312199265,
          0.13817571322531091
        ],
        [
          -0.12238970222600903,
          -0.13359837676190695,
          -0.04438377684863075
        ],
        [
          0.08840767649583774,
          -0.14180991059620526,
          -0.17878084706958522
        ],
        [
          -0.09370187249106911,
          -0.1473881026647266,
          0.2793660761264754
        ],
        [
          0.13993594968651168,
          -0.12697808378820796,
          -0.02442611524514346
        ],
        [
          -0.025538146404961805,
          0.24910306987988895,
          -0.1575030377029613
        ],
        [
          -0.4345524594277359,
          -0.08649150316513865,
          -0.07575481134962614
        ],
        [
          0.15087775599061184,
          0.11499399080083197,
          0.354766411847317
        ],
        [
          0.016267644861090235,
          0.03484211119128798,
          0.16399356288628283
        ],
        [
          -0.1308562448133833,
          -0.048087055274600936,
          0.3335853577616246
        ],
        [
          -0.019431143517318773,
          -0.2172182713815791,
          0.13986824729728872
        ],
        [
          -0.1150452680533346,
          -0.12465271494645667,
          0.21284575415314863
        ],
        [
          0.16593573564949082,
          -0.1828670563190201,
          -0.16892066594260127
        ],
        [
          -0.0077353388465202936,
          -0.16648146109437445,
          -0.24243400493305967
        ],
        [
          -0.16681324324113755,
          -0.19535661782335706,
          0.035755075609579016
        ],
        [
          -0.07802918897740309,
          -0.12119609991249794,
          -0.21409267641156174
        ],
        [
          0.39533729690934527,
          0.1152150067059589,
          -0.29961493462436567
        ],
        [
          -0.34602798305706384,
          0.21084948094164077,
          -0.1107141481666078
        ],
        [
          -0.3769616190999052,
          -0.1676319529510001,
          -0.1403558662914858
        ],
        [
          -0.12385072243281274,
          -0.06933503968442081,
          0.21572269925988227
        ],
        [
          -0.4574808022280102,
          0.0672094722462509,
          0.5212865343289088
        ],
        [
          -0.14833060930642705,
          0.18421589622644724,
          0.16016543502406924
        ],
        [
          -0.16157732795925697,
          -0.16451137494043588,
          0.08335132387981603
        ],
        [
          -0.09365287214229887,
          -0.11111680727479735,
          0.25318780117825235
        ],
        [
          -0.045644750858227084,
          0.25452070271767513,
          0.31967775624961
        ],
        [
          0.10167703189126634,
          0.14341861009050894,
          0.038614498643092146
        ],
        [
          0.20698842139882578,
          0.05548057092489005,
          0.07837254197505329
        ],
        [
          -0.18905015870894754,
          0.03902481105770978,
          -0.011895634097340098
        ],
        [
          -0.16309685321300715,
          0.06817846994601717,
          0.3799881104364693
        ],
        [
          0.136764765870878,
          -0.04333885315017499,
          -0.00698306956260579
        ],
        [
          -0.18138299979372177,
          -0.03284148979884372,
          0.27312886909158457
        ],
        [
          0.13885422880113563,
          0.05576479476823101,
          -0.27897220824250013
        ],
        [
          -0.137035563968972,
          0.09783234913291412,
          -0.0467587864816779
        ],
        [
          0.14384308006538032,
          -0.004403162525294989,
          0.2199833150053495
        ],
        [
          -0.197936879708543,
          -0.2829744851841631,
          -0.12242836449618869
        ],
        [
          0.03548399132343848,
          -0.06443475786826733,
          0.18122277707158707
        ],
        [
          0.29506816894133214,
          -0.14124949040418558,
          0.1886899279461044
        ],
        [
          0.18144483565817257,
          -0.16469112930329302,
          -0.29776623028842675
        ],
        [
          0.3367426144697683,
          -0.18340926071678865,
          0.2198940094137663
        ],
        [
          -0.12142062300178853,
          0.15697441952254088,
          0.08093752258850546
        ],
        [
          0.27725110446371515,
          0.23758939192457132,
          -0.23743584767562423
        ],
        [
          0.1894313792262476,
          -0.15303042296344332,
          0.21167214141866225
        ],
        [
          0.36591565688777905,
          -0.004835580566197161,
          0.08253050408068822
        ],
        [
          0.017014079391509708,
          0.11635722142739376,
          -0.2072867003013002
        ],
        [
          0.2506444899884547,
          -0.054285908348746685,
          0.021743691487229884
        ],
        [
          0.06344029378043735,
          -0.012436930882002848,
          0.20356662797650352
        ],
        [
          0.12861677279968736,
          -0.2496874184873185,
          -0.03163899971564036
        ],
        [
          0.30373183378083995,
          0.2913974766299098,
          0.05666738454311517
        ],
        [
          0.05426972041004927,
          0.08537407783057324,
          -0.30291390755231545
        ],
        [
          0.07087370193071935,
          -0.02299120101391792,
          0.14649583983991393
        ],
        [
          0.21205172827813124,
          -0.1151903150880972,
          -0.09481012679973023
        ],
        [
          0.12204491872747282,
          0.2041425404593572,
          -0.07754238305526455
        ],
        [
          0.40391792042993624,
          -0.24552613635015524,
          -0.048159739996250055
        ],
        [
          -0.14768098518173062,
          0.04769522620209138,
          0.2368646888208286
        ],
        [
          -0.05674681664554727,
          0.11919312052931916,
          0.16087857350767412
        ],
        [
          0.06978956753579892,
          -0.16252349647485892,
          0.22274287803426313
        ],
        [
          0.021062829243025893,
          0.272158384980452,
          0.14178997417672903
        ]
      ]
    },
    {
      "activation": 2,
      "biases": [
        -0.09264782323424436,
        -0.014508878552441115,
        0.24425630315291008
      ],
      "cols": 3,
      "rows": 3,
      "weights": [
        [
          0.726388327680688,
          0.3930500329743727,
          1.170361467146363
        ],
        [
          0.18166624716560653,
          -0.7750926147099084,
          0.15920621396936774
        ],
        [
          -0.7700157525615484,
          -0.9833646876151151,
          -0.6169359267123663
        ]
      ]
    },
    {
      "activation": 0,
      "biases": [
        0.012777978799130642,
        0.8085957348952594,
        0.7516094775688597
      ],
      "cols": 3,
      "rows": 3,
      "weights": [
        [
          0.9016057284761353,
          0.14275246331175862,
          -0.11487155085491209
        ],
        [
          0.7170502274093671,
          -0.6174303056328486,
          0.14683438888624706
        ],
        [
          0.04014900256884325,
          -1.0557260584695918,
          -0.5963016273917433
        ]
      ]
    }
  ]
}
