{
  "layers": [
    {
      "activation": 0,
      "biases": [
        0.05005688893550383,
        -0.022519517486557214,
        0.01082928336999164,
        -0.06416508044090088,
        0.07967307177446704
      ],
      "cols": 5,
      "rows": 66,
      "weights": [
        [
          -0.3201292943642102,
          0.13250150370656255,
          0.25882912039254835,
          0.12161629731916802,
          -0.31104364716750055
        ],
        [
          0.06744687280484889,
          0.0919331164732709,
          0.18390049389277496,
          0.15545260180379847,
          -0.17129748794351196
        ],
        [
          0.10117499123009395,
          -0.17158077079223563,
          0.02216183555668224,
          -0.1060332452479479,
          -0.03002980420331324
        ],
        [
          0.262036376888099,
          -0.2337966713094454,
          0.023711515900469365,
          -0.02740643994261015,
          0.1299479490326907
        ],
        [
          0.016110951671925514,
          0.23901575620763507,
          0.06517358438157535,
          -0.00288387178032805,
          -0.34715356400956227
        ],
        [
          0.293325219353938,
          0.058516806677147065,
          0.0703337082091823,
          -0.14072919121601657,
          -0.014509435911783494
        ],
        [
          -0.1625979924037325,
          0.29195685376220637,
          0.14275049951124463,
          0.004505490230511419,
          -0.20744349406013726
        ],
        [
          -0.06572736311203559,
          -0.34471164614655214,
          -0.16623878570606773,
          0.0016875354876978467,
          -0.15697072115501579
        ],
        [
          -0.04661389655344354,
          -0.3694855765352428,
          0.03209346631350627,
          -0.1391712986240933,
          0.352755427673113
        ],
        [
          0.19370301559363765,
          0.12105298464681757,
          0.15395170332343563,
          0.23258483402872804,
          -0.2067748873281373
        ],
        [
          -0.0802639373561243,
          -0.01765104481321184,
          -0.1648848464369764,
          -0.036611441451537385,
          0.29969783034569564
        ],
        [
          0.020040108363742225,
          -0.2530458203945909,
          0.14642810091095146,
          -0.10626837164311252,
          0.19056853492499382
        ],
        [
          0.2176454887404587,
          -0.33852365542450996,
          -0.14276880349930351,
          -0.1985189097115913,
          0.13227417693244298
        ],
        [
          -0.12923490168914087,
          -0.14336936196441916,
          0.2632248393914147,
          0.21249951524478197,
          -0.04175495169769297
        ],
        [
          0.1637687239918949,
          0.24197510359322336,
          -0.09799158229177679,
          -0.1773128928063963,
          -0.08837248953575023
        ],
        [
          -0.1852247826112809,
          0.10340494748501321,
          -0.019807314813461114,
          -0.27955828372499003,
          0.16824397643353853
        ],
        [
          0.19250029091869075,
          -0.2764805221156053,
          0.18629315559335255,
          -0.13384618499585296,
          0.46274772290428
        ],
        [
          0.06822729557946434,
          -0.14574059635270575,
          -0.13340217206001848,
          -0.22785701394632263,
          0.1357239867915954
        ],
        [
          0.1697804903539647,
          0.22910314241585011,
          -0.04780930010554491,
          -0.17113692427409033,
          0.13079554071568228
        ],
        [
          -0.21570280704587658,
          0.26381011799223336,
          -0.27887086311112036,
          0.20420725417123065,
          -0.15266908236994406
        ],
        [
          -0.3173339568057591,
          0.08875717382080207,
          -0.2610479481426313,
          0.04703079605291298,
          -0.0856961587537715
        ],
        [
          -0.15122342595180768,
          0.7490134465651261,
          -0.06364108781766194,
          0.3564208484758516,
          -0.11793946884776278
        ],
        [
          0.0925411682172575,
          -0.1714696902827561,
          -0.0266220257279754,
          -0.008272133607117904,
          0.11367067957145062
        ],
        [
          0.05726598655308019,
          0.7220016931347221,
          0.2038940914813017,
          0.6150018120240536,
          -0.218726894506206
        ],
        [
          0.21173093164841,
          -0.414300008782304,
          -0.27025070674342416,
          -0.022810705237914338,
          0.13530311087129557
        ],
        [
          0.05319535700342131,
          0.23068169048237058,
          0.050647354946188175,
          0.15576627205051596,
          -0.4528630973955338
        ],
        [
          -0.10182215398364074,
          -0.04858009587875194,
          -0.18128096130817942,
          -0.03927115640454963,
          -0.3815376180249593
        ],
        [
          -0.12084075153644584,
          -0.42744489957291504,
          -0.12394439548719366,
          -0.2225508999337619,
          0.22874385345158807
        ],
        [
          -0.07536119047906727,
          0.5613757849300911,
          0.07270458910251104,
          0.45653955899811116,
          -0.5223184771486015
        ],
        [
          -0.06373776723808545,
          0.12432782968865609,
          -0.016915059289010614,
          0.17021764203869366,
          0.22908623086386815
        ],
        [
          -0.1564010294439856,
          0.14061283539946093,
          0.12964323665704502,
          -0.10382414765685033,
          0.034693305128072234
        ],
        [
          -0.07756690619157992,
          0.0817059521740658,
          0.06345406750661352,
          -0.19701768723917348,
          0.011330548800619619
        ],
        [
          -0.03875638585870568,
          0.3162209953678892,
          0.26130977722264037,
          0.28347352871117454,
          0.2118275211102792
        ],
        [
          -0.13290618758164996,
          0.035817119046021764,
          0.23032905288649455,
          0.08736847307152282,
          0.06447426852594332
        ],
        [
          0.09123064751950005,
          -0.04265242877567374,
          -0.21624679678208397,
          -0.1634698735905046,
          0.01538378511418388
        ],
        [
          0.19193830819200272,
          0.48326078864919014,
          0.02292679599782364,
          0.16315446792459037,
          -0.10280489088081964
        ],
        [
          0.17910110983385022,
          0.10397879605569389,
          -0.2473728304573295,
          0.1676773984676331,
          0.17378837772816874
        ],
        [
          0.08404298266764684,
          -0.16506100135293483,
          -0.19859161550166002,
          -0.11109741331157119,
          0.0732465604815832
        ],
        [
          -0.0397256672899666,
          -0.34649062065780145,
          0.2668684490078262,
          0.10627431061026807,
          0.12326991859346753
        ],
        [
          0.07295496112626407,
          -0.004486606590974521,
          0.08449035824103958,
          -0.07598449016962625,
          -0.022286606815850783
        ],
        [
          -0.14214475985621927,
          -0.03221319311419289,
          0.10945956093517573,
          -0.07958235626804479,
          -0.030705906782519627
        ],
        [
          -0.1158304960729272,
          -0.12436450844520965,
          0.20556189138302594,
          -0.014378170808937758,
          0.05219988210577637
        ],
        [
          0.208670555472299,
          -0.1897970396503661,
          -0.20374379468126355,
          -0.17601853863734845,
          -0.1874419702187844
        ],
        [
          0.29213416669863546,
          -0.3161372629940849,
          -0.17935822639565405,
          -0.24921400345416356,
          -0.028036644238668314
        ],
        [
          -0.0024717964255868406,
          -0.26768496475668446,
          0.23304582024156648,
          0.06169009423469542,
          -0.15303409720575717
        ],
        [
          0.12623523925339628,
          0.30156846798937714,
          0.01281818237285311,
          0.06574223410903804,
          -0.05081371899877391
        ],
        [
          -0.3138007028490788,
          0.2918071855783165,
          0.1745553650616112,
          0.07728471842098071,
          -0.07699917350759226
        ],
        [
          -0.2885735801986345,
          0.09159595074331055,
          -0.2823162300852954,
          -0.21601286313264553,
          -0.20996395083511582
        ],
        [
          0.2062808561986537,
          -0.39320395873552644,
          0.23512776147595954,
          -0.45297560937585885,
          0.020539179790786205
        ],
        [
          0.03906816122319206,
          0.13654478657306957,
          -0.03660669287748519,
          0.26942081855805344,
          0.07604618739811973
        ],
        [
          0.16913658596985687,
          -0.21408843883872838,
          0.09068099597870756,
          0.011161815357315178,
          0.3329748608904051
        ],
        [
          -0.13665437070437114,
          0.2207236207120901,
          -0.23285645191803864,
          0.09530856740179017,
          -0.0909827827732362
        ],
        [
          -0.2629441117566784,
          -0.2878759024860611,
          -0.23864058621752168,
          -0.007327111831795819,
          -0.09618835174769583
        ],
        [
          -0.1377603059527831,
          -0.00895853950877067,
          0.2295919545656107,
          0.18406951404032465,
          -0.15771678252858917
        ],
        [
          0.1179781742708152,
          -0.2094343939973903,
          0.08077773103520604,
          0.14837277267724328,
          -0.11123554710538325
        ],
        [
          0.19693437181535767,
          -0.0765455276010729,
          0.26883018730072816,
          0.113497948949775,
          0.19045752806342509
        ],
        [
          -0.06666370028565742,
          0.006030807562552326,
          0.13393409990171085,
          -0.1946790927895081,
          -0.14715124078221475
        ],
        [
          0.075879275022604,
          0.22354037178963873,
          0.17860120875709987,
          -0.08203087126171618,
          -0.1806505375730289
        ],
        [
          0.24344840177554083,
          -0.13196005535217434,
          -0.07934933608035462,
          -0.32199699272168114,
          -0.10996594233702699
        ],
        [
          -0.1038038554570965,
          -0.030180691060698355,
          -0.12714441604152324,
          -0.2843221428496502,
          -0.06781064476863684
        ],
        [
          0.13997972325592303,
          -0.42277287896099536,
          0.29476025053447785,
          -0.2506571594571322,
          -0.09886312419664936
        ],
        [
          -0.1215348947013645,
          -0.10992587606527925,
          -0.25023055505636393,
          -0.02995191188158933,
          0.1644196394909347
        ],
        [
          -0.27281467346484245,
          0.31045833777965287,
          0.20360304695319537,
          0.11091572722058139,
          -0.13068673266610906
        ],
        [
          -0.1575276221354755,
          -0.08108669654418303,
          0.24911187605202448,
          -0.18368700983206535,
          -0.2033044683213474
        ],
        [
          0.10236987133931656,
          -0.09627101953288975,
          0.13933864375225996,
          -0.13367473051462223,
          -0.033776017274574015
        ],
        [
          -0.12896203524014738,
          -0.2439665216792453,
          0.15054909420989973,
          -0.024225037630152487,
          0.21236708056855297
        ]
      ]
    },
    {
      "activation": 0,
      "biases": [
        0.022470686696698824,
        -0.02546564948007712,
        -0.05782710522706957,
        -0.02198227211005875,
        -0.06254700097052678
      ],
      "cols": 5,
      "rows": 5,
      "weights": [
        [
          -0.21468115161588117,
          0.45623247764262226,
          -0.17379850212180983,
          0.08592087921719349,
          -0.7658212775524962
        ],
        [
          0.9041431229784305,
          1.0776267723168418,
          -0.28663167483177143,
          -0.9391525733533311,
          0.6803969032035876
        ],
        [
          0.3860945600465829,
          0.46274256006288916,
          -0.013213543626615276,
          0.14847958912494882,
          -0.37945482202049635
        ],
        [
          0.37930145013743394,
          0.8464082854763867,
          0.690580058449285,
          -0.10322311215324514,
          0.24880053297148508
        ],
        [
          -0.2749110319789724,
          -0.7646302750542758,
          -0.13441336246998378,
          0.21622987057283502,
          -0.7181398519347483
        ]
      ]
    },
    {
      "activation": 0,
      "biases": [
        -0.07487965073183031,
        0.11101982992712926,
        0.046197855412227894
      ],
      "cols": 3,
      "rows": 5,
      "weights": [
        [
          0.4888043305257205,
          0.38988704267552027,
          0.9097252618443751
        ],
        [
          -0.27735601955908523,
          -0.6078748030546087,
          1.1144291556114696
        ],
        [
          0.035808625630228665,
          -0.5933754439248328,
          0.3771464491536215
        ],
        [
          0.2550466343250492,
          0.3115097319827613,
          -1.1082695552928286
        ],
        [
          0.1022346971090746,
          -0.5878467037384739,
          0.9039058888672454
        ]
      ]
    }
  ]
}
