{
  "layers": [
    {
      "activation": 0,
      "biases": [
        -0.13508457321968842,
        -0.2507668071903165,
        0.05867822122734901,
        -0.20970992840421002,
        0.16216611179050233,
        -0.2455286697526697,
        0.09620657647194664,
        0.1899731845528279,
        0.13559745566447975,
        0.05067812337469047,
        -0.11781623275557544,
        -0.1046471446835043,
        -0.11743755848074827,
        -0.4054929602560711,
        -0.0650865926274668,
        -0.10252870194561427,
        0.07347097560194821,
        0.033113550758100144,
        -0.032264952865864026,
        -0.23715551585486547
      ],
      "cols": 20,
      "rows": 42,
      "weights": [
        [
          -0.16610124397407597,
          -0.1426763808998584,
          0.16256431613198594,
          0.327036127411793,
          0.23312453443504658,
          -0.3203948425360446,
          0.527939340779355,
          0.6080433702230408,
          -0.15764575863382088,
          0.36960198098998115,
          0.23499625294737564,
          0.09021454262464065,
          0.1987785148387088,
          0.24784865796522285,
          -0.25251868377163716,
          0.15263839319500383,
          -0.2776995647028711,
          0.38878295954768466,
          0.21669165086600087,
          0.2043041176046585
        ],
        [
          0.040225673929088844,
          0.2653498023554295,
          0.43780444378354144,
          0.39488493018690113,
          -0.06195302484060002,
          0.0111909042203994,
          0.5067618046303256,
          0.7602968169102418,
          -0.21037485379068407,
          0.11945206203785631,
          0.17468572629394927,
          -0.14567228304605528,
          -0.18061525563261605,
          0.8059444817621724,
          0.18009165366462765,
          0.24324203654075785,
          -0.7644545418962292,
          0.89623161992641,
          -0.1353303074170511,
          0.7491615676989145
        ],
        [
          0.05626470703996002,
          -0.014057601599851937,
          0.10056480840946341,
          0.11126097947581844,
          -0.16047326028942374,
          -0.07795402660288014,
          0.32270210394844856,
          0.2828458806096614,
          -0.020622314233006256,
          0.41774794503702156,
          0.04138480783626941,
          -0.20733602077550226,
          -0.31039975442020606,
          0.4554286711839183,
          -0.23742662154819702,
          -0.233901931811118,
          -0.6441838516034017,
          0.2504820192226537,
          -0.014895978935808213,
          0.20849746300887959
        ],
        [
          0.06969456870137257,
          -0.08461226715452849,
          -0.5712974792307489,
          0.13746330848321284,
          -0.1405841596632443,
          0.3011245328904951,
          -0.8049963597463463,
          -1.2262281553497116,
          0.08188861369380862,
          -0.4067870754719595,
          -0.26241834260951036,
          0.2840891291658767,
          0.14810108222957874,
          -0.29313756597381835,
          0.42978883388177275,
          -0.18228299832397216,
          0.7953762404657064,
          -0.4312044077589498,
          0.15640875147829666,
          -0.28311078338092305
        ],
        [
          0.08811930574979705,
          0.3664150308536678,
          -0.03256735378401993,
          0.5184074496795488,
          -0.2239128441181246,
          0.1578372813238788,
          0.5652821736840011,
          0.21558564286511187,
          -0.2889444953553894,
          0.08600746769776095,
          0.3198652167032707,
          -0.10380539275653643,
          0.18153939668833236,
          0.6403745150548877,
          0.24977510753487292,
          0.1461444641764034,
          -0.545129047660316,
          0.7573760804487215,
          0.09961758592777632,
          0.5962978989271273
        ],
        [
          0.12731023692998086,
          0.03608523102873516,
          0.018681889940331042,
          -0.3025417759035827,
          -0.21024155751964074,
          0.12997867494658133,
          -0.1681578518460749,
          -0.23534523442065824,
          -0.05284797419299483,
          0.14602887353861368,
          0.038664730249164996,
          0.14672591763390605,
          -0.14182692746063555,
          -0.06647772577013475,
          0.037164455667365384,
          0.06222243937719218,
          0.5631817428298741,
          -0.046995851065224296,
          0.08914161550592764,
          -0.7136371432944757
        ],
        [
          0.20861566555807431,
          0.24351272464284007,
          0.5371466324927684,
          0.23278519642765222,
          0.14510290721260183,
          -0.21705867088529354,
          0.5547498176993435,
          0.29771568395705705,
          -0.2166120550361591,
          0.4184088762005126,
          0.26047786965662384,
          -0.14366145666359287,
          0.11099108092651758,
          0.6835583131957708,
          0.10339733813934754,
          0.26899298067382627,
          -0.5814050673330469,
          0.584190667801775,
          0.027465207316723014,
          0.6765918077902122
        ],
        [
          0.2268649173852226,
          0.195818862159692,
          0.1816192249196848,
          -0.2827402050602646,
          0.3352070650819492,
          -0.1308410030009245,
          -0.14041838719879773,
          0.36763393067817607,
          -0.03107267185645597,
          -0.21542160829121326,
          0.34799385433060875,
          -0.2071535229273799,
          -0.3375076500902306,
          -0.14534110530520664,
          -0.03471160937875713,
          0.28298889462397736,
          0.4768788111593568,
          -0.42903629599795134,
          0.05419860706863946,
          -0.04662371962249976
        ],
        [
          -0.4534254040648011,
          -0.09621306618232671,
          0.3947899455313031,
          -0.37536261869997817,
          -0.23744652381937853,
          -0.025478168943815424,
          0.19002522738291022,
          0.8714990346267316,
          -0.09765141699381409,
          -0.04161061561490248,
          0.4200679803885042,
          -0.2990331944224971,
          -0.27841788762422,
          -0.020906016597246394,
          -0.4575316763666476,
          0.029921448853574294,
          -0.09509108209316358,
          0.002573860914236866,
          -0.16970783876605275,
          0.17758823667159748
        ],
        [
          0.1978218413845729,
          -0.08991359103331917,
          0.3815790823327931,
          -0.07017309865733172,
          -0.045683040176129994,
          0.08511741010033161,
          0.16388399279642676,
          0.4333364615421474,
          0.1482554899010708,
          0.1938928293096009,
          0.19743739948333036,
          0.019531675879367306,
          -0.17953659069243372,
          0.1411188945061625,
          0.25524485814359227,
          -0.1197153201095683,
          -0.2735128411029076,
          0.05321787717552601,
          -0.24681287318708844,
          -0.19310987542253574
        ],
        [
          0.4138729559406729,
          0.09475858408881037,
          -0.3138665383342638,
          -0.14174990947421573,
          -0.38625154051993177,
          -0.07150804179620285,
          -0.9856240828631813,
          -0.19497333583291698,
          0.19715511006178618,
          -0.09788920694405884,
          -0.2125665109022275,
          -0.14148345456884823,
          0.03909808160141784,
          -0.3469324622731313,
          -0.026340215598876025,
          0.14202728664393752,
          0.8762487548359144,
          -0.531323891822547,
          -0.15838715772345324,
          -0.7443904588146377
        ],
        [
          -0.4065615320123862,
          0.141057039955076,
          -0.1633482704858421,
          -0.05519706278777485,
          0.3638921766647155,
          0.22902538142606374,
          -0.14814928848277503,
          -0.06875578563884219,
          -0.08710938288612798,
          -0.058968632727697076,
          -0.15746002399605225,
          -0.10520622034709974,
          -0.2490684838130035,
          -0.08704099082020457,
          0.08379015480768202,
          0.06255939286285256,
          0.06391747260255212,
          -0.2501708507907697,
          -0.23423194310866527,
          -0.22422798862562182
        ],
        [
          0.06872350260755594,
          0.017623534594043196,
          0.08304813661828804,
          0.04120779997447216,
          0.1427069444336002,
          0.004654884912759423,
          -0.354282449608838,
          -0.2962369570345327,
          -0.05974787109372693,
          -0.20451423473309474,
          -0.11059355874984356,
          0.09633108776301616,
          -0.0554726189824617,
          0.11771245587407525,
          -0.10682376805762187,
          0.22267562824137205,
          0.3151507678291644,
          -0.24097629341769172,
          0.06782762208975093,
          0.09201566168667334
        ],
        [
          -0.22322900692414377,
          -0.4389517129155869,
          -0.35294334702777613,
          -0.5286244922498932,
          0.006284406757486343,
          -0.1687049020009135,
          -0.8799423829638349,
          -0.8790644422022177,
          0.25267054986442533,
          -0.13929528096329252,
          -0.2818333621410137,
          0.11232184068889646,
          0.18569806161199134,
          -1.2301190977240593,
          -0.18343762931571858,
          -0.44759372375919954,
          1.2439903922285556,
          -0.9382996805161242,
          -0.029042353016713256,
          -0.7574416431385712
        ],
        [
          -0.1264683361512533,
          0.11360957051574665,
          -0.2697366665206212,
          0.18944095253281068,
          -0.015867954691885025,
          0.20329018610541089,
          0.18179084979302457,
          0.12598280363128112,
          -0.05288324933968097,
          0.19779865320889578,
          -0.4291673720490623,
          0.22846563090257332,
          0.14865871407977113,
          0.2921039071791895,
          -0.16099753917707335,
          -0.05008377036287331,
          -0.0451288164044329,
          0.1935026367478267,
          -0.13437404344220388,
          0.14254921069928156
        ],
        [
          -0.01300955618163237,
          0.1316295306915679,
          -0.49607802699443687,
          0.04276198509916282,
          0.10919736585394658,
          -0.019272942160383884,
          -0.2575857088051413,
          -0.20833612073445204,
          -0.1297386782240897,
          -0.2669118854276218,
          -0.18720195730571254,
          0.35991483382795747,
          0.057420366864608385,
          -0.20271635669388094,
          -0.029725670927901453,
          -0.05816048152164028,
          0.18995460492347999,
          -0.26261757586893264,
          0.1697639998135664,
          -0.33065943256118
        ],
        [
          0.13105185574835693,
          -0.14984308183748152,
          -0.5114239174428196,
          0.03668837181333718,
          0.13354491956365874,
          -0.14325101735264495,
          -0.21234091116969395,
          -0.6493150538238409,
          -0.14813507084523905,
          0.04068217565953607,
          -0.5765416310354828,
          0.31175815094973186,
          0.09185663177320778,
          0.07886826459966793,
          0.5118032639090825,
          -0.2414816652158205,
          -0.2096962689821874,
          0.038857667256174504,
          0.08228689028918328,
          0.23759703466767695
        ],
        [
          -0.13976450324161604,
          0.2035770369484474,
          0.3416035388380366,
          -0.4863352106818427,
          0.001687361974534548,
          -0.05013399264308954,
          0.471462998197092,
          0.33724266754697846,
          0.3168746302382836,
          0.5082759044121323,
          0.18664596619140308,
          -0.38102229841951774,
          -0.3016204830606237,
          -0.04419288830263386,
          -0.25297456032607507,
          0.09923881044160389,
          -0.03306344603152815,
          0.4525230336263916,
          -0.5360916419477333,
          -0.37374992044762323
        ],
        [
          0.21639691386541202,
          -0.22681599282724826,
          -0.09611473862036404,
          -0.6641450638199458,
          -0.051227313492231856,
          -0.17421742391011566,
          -0.7480648234559725,
          -0.6041641325392353,
          0.08533140626597648,
          0.040686523954530276,
          0.2308720952507108,
          -0.11344706303648688,
          -0.32917567339289266,
          -0.3248949168198453,
          -0.17491291913103238,
          -0.006065434252457178,
          0.9683011532129028,
          -0.35286350915803827,
          -0.40715196590179503,
          -0.8272367289770854
        ],
        [
          0.022913627202832337,
          0.0013330211685527167,
          0.16226202741745727,
          0.19471063876693642,
          0.17419866615192914,
          0.17684259292535034,
          0.3432224712921858,
          0.195488015884506,
          0.18578835258155188,
          0.11148887794364488,
          0.22169001571667682,
          0.0035945833062767307,
          0.18072209373755707,
          -0.01706201274138056,
          0.020888557717111643,
          -0.1953747985486819,
          -0.19207777078392427,
          -0.06946800712657451,
          -0.16675425134306118,
          -0.23192485311686212
        ],
        [
          0.011810165569911261,
          -0.15417297955562953,
          -0.08527755662619044,
          0.09943203775781013,
          -0.12302318561648401,
          -0.05339939286594068,
          -0.13868278713192692,
          -0.1307866042260191,
          0.20825290227931717,
          -0.212080866180756,
          -0.17302742580331334,
          0.23428166247701532,
          0.1325733908068719,
          -0.44068692897591555,
          -0.2720460746011009,
          0.2302767451490722,
          0.21645403601096683,
          -0.09180293062041127,
          -0.20201338649896391,
          -0.44694052542914386
        ],
        [
          -0.09391420760879027,
          -0.09598025032187207,
          0.4267712978181572,
          0.15755569790323004,
          0.4088469087082388,
          -0.1345186316754552,
          0.41803609868363956,
          0.9452254218597074,
          0.06903353287907639,
          0.45500100209274363,
          -0.2029211777909405,
          -0.4144899523604553,
          -0.1700676043234683,
          0.479539946345318,
          0.218647640685132,
          0.31250719374954017,
          -0.3770132011991335,
          0.1410732600331388,
          -0.15713850443640007,
          0.4316698854378145
        ],
        [
          -0.13397365728941096,
          -0.02841335039126001,
          -0.6340861447683886,
          -0.09208015090316597,
          -0.10567010980124011,
          0.11710401005568356,
          0.14024303963276025,
          -0.4489444759587167,
          0.016494344614605923,
          -0.13626554694248322,
          0.000528674924743623,
          0.22315407590489902,
          0.4920445253293731,
          -0.036234316745247935,
          0.24487578077731562,
          -0.07074798030012487,
          0.12164376982029061,
          -0.3456275581059584,
          -0.09092989817733296,
          0.16868770903587105
        ],
        [
          -0.07026249134779716,
          0.3717199712811882,
          -0.2696589769888596,
          0.7547093030186651,
          0.14933894039743908,
          -0.003412423261869186,
          0.694989398211648,
          -0.04679083351247646,
          -0.2725387883215445,
          -0.058414604057183114,
          -0.04997009850605214,
          0.19129936827587052,
          0.5330378904560359,
          0.727102360440718,
          0.011842693182572432,
          -0.2267282160239063,
          -0.9440551928314952,
          0.7703693562256743,
          0.46265192751618134,
          1.0185373769529065
        ],
        [
          -0.020886080878066107,
          -0.10681178730787984,
          -0.7143839942614632,
          0.26319165314819315,
          0.04358825073508451,
          0.3821846964168603,
          -0.5283204524022894,
          -0.657111523366092,
          -0.28243096075192314,
          -0.5370880611531421,
          -0.6370177336620882,
          0.18130729058072095,
          0.09864501156555325,
          -0.269603193222258,
          0.12876750534360223,
          -0.5357674050866404,
          -0.2753514359018434,
          -0.3914222125702845,
          0.162855016324933,
          0.08232627308476505
        ],
        [
          0.20833335929858374,
          -0.21640163285882855,
          -0.2445697227097756,
          -0.1744396415063052,
          -0.20871023099192215,
          0.2472893095593233,
          -0.1472997478958964,
          -0.489366325235988,
          0.011045832826363207,
          -0.007764529836124949,
          0.18188332420730013,
          0.083701899274157,
          -0.32503155343070667,
          -0.6751461053904443,
          0.2721289053549658,
          0.016933231009996046,
          0.8801261367209691,
          -0.5978621885659391,
          0.012371185257703584,
          -0.5177535090535915
        ],
        [
          0.3517712682188075,
          0.1149657263152016,
          0.3970992973275943,
          -0.24217652742892795,
          -0.2944644126969234,
          -0.06455228807332669,
          -0.6864657467899079,
          -0.3316330508133018,
          0.12498103189986697,
          -0.28704982902449844,
          0.0856026064161878,
          -0.2883700804761062,
          -0.3550469242164773,
          -0.7617995243247444,
          0.22076591244463564,
          -0.03466224132353135,
          0.8609880049134612,
          -0.5083488608307835,
          -0.3025642460594365,
          -0.7786978569024392
        ],
        [
          -0.3039925388568685,
          -0.18155862620849988,
          0.3462362584500215,
          0.03600740017534887,
          0.087186010608051,
          0.21672011716598172,
          -0.009588693264829197,
          0.06866361949656657,
          0.2193727189168567,
          -0.03470557950235827,
          -0.2270439857278366,
          -0.21417934804085192,
          -0.10191086726955971,
          0.38171182405803,
          0.10278709279716772,
          -0.029539249620952144,
          -0.4428353835880741,
          0.061761837068600514,
          0.0911444089866866,
          0.2990721165227393
        ],
        [
          0.018502207444722384,
          0.07675340259303755,
          -0.0533433840451085,
          -0.4157015852330234,
          -0.17125329817045118,
          0.19863578017411027,
          -0.010337908047083177,
          0.25538770608082484,
          0.31702241129440284,
          0.07241345977235866,
          -0.2133480103936618,
          -0.2234214981579148,
          0.08439342748677948,
          -0.01763760769185496,
          0.11603535113836039,
          0.29115939798373613,
          0.10279186979188482,
          -0.15675819967437504,
          0.3072461720117958,
          0.031126443990235637
        ],
        [
          -0.2494317352960115,
          -0.2018343037135077,
          0.24788229345208151,
          -0.13994008890371676,
          0.18421138753294433,
          -0.14664587325851086,
          0.047744103092073414,
          0.11401910339926546,
          0.13790909277177982,
          -0.14123841724039693,
          0.30782877638774875,
          -0.23392191408632884,
          -0.16274200404179298,
          -0.031035341915815605,
          -0.11535306416122183,
          -0.15318507357701933,
          0.24448105526655592,
          -0.02487942544910413,
          0.02716166367026016,
          0.1824497513337248
        ],
        [
          -0.06188245814666709,
          -0.10106776424178651,
          -0.165133470578669,
          -0.07304998568661011,
          0.05885012470547836,
          0.05881899266281907,
          0.3383456464081488,
          0.13764289763897888,
          0.22199208436101622,
          0.26614168100485946,
          0.1106282758000452,
          -0.0181020925833281,
          0.3350183354475817,
          -0.05784148569684249,
          -0.013156913970043108,
          -0.39717823185885903,
          -0.04130607523355399,
          0.2230154637912513,
          0.3209160213077333,
          -0.008844174397254713
        ],
        [
          -0.23177761614461015,
          0.2142098899311414,
          -0.5089839264006485,
          0.2860200148783366,
          -0.08354677985190766,
          -0.10598313433363726,
          -0.035940054622728035,
          -0.36589607338048036,
          -0.24433346694584815,
          0.06769884152645209,
          0.01888997528535921,
          0.38041813586719575,
          0.28716804877066604,
          0.30235830549073917,
          -0.10370612742099027,
          0.11013705058041438,
          -0.2636190920351901,
          0.0023415007236368525,
          0.45910467562831303,
          0.16815257581715204
        ],
        [
          -0.04221130671773641,
          0.23735418268828698,
          -0.30973597771406713,
          0.3882874837946786,
          0.1325228619517311,
          0.2574807714837734,
          -0.20038788618247796,
          -0.6959821506603536,
          -0.03112522539520261,
          -0.3314194523402093,
          -0.20896030960117573,
          0.007583877737854053,
          0.3190627584294385,
          -0.27107366729917814,
          0.07731710888666199,
          -0.15906052515168073,
          -0.17981423693452483,
          -0.22501571432392145,
          0.3933944695157245,
          0.25598207052602906
        ],
        [
          0.4339779950913006,
          -0.26257985175361537,
          0.2782064086968025,
          -0.683492613163221,
          -0.13809833980954794,
          -0.09892799887510344,
          -0.7637032272808317,
          -0.1720593679877655,
          0.29895156677281,
          -0.3065533950733195,
          -0.027984582301328508,
          -0.060549582409121484,
          -0.3978015321126533,
          -0.6414918730405003,
          0.0678667079329501,
          -0.0122049703443359,
          0.7105765591547453,
          -0.5770790581364063,
          -0.4773543705488964,
          -0.905829589465703
        ],
        [
          0.2722706484584613,
          -0.19731767669556025,
          0.5308649396650882,
          -0.20757507978763917,
          0.3148301534086713,
          -0.1263125096658442,
          -0.08349503559089377,
          0.1953236051073616,
          -0.10752414020295126,
          -0.08725006789711844,
          0.12824135455859714,
          0.2430673567665212,
          -0.3019185430884919,
          -0.21753241265093687,
          -0.18507686756900288,
          -0.07576922892243079,
          0.21274650415702703,
          -0.19436904157281404,
          -0.35682706640503326,
          -0.4228414800710247
        ],
        [
          -0.3156766553422857,
          0.18823376986475732,
          -0.297472404515006,
          -0.18722744685466347,
          -0.09966892538944806,
          -0.2164925725137818,
          0.007939390590940022,
          -0.31603341890033004,
          0.046308449045555374,
          -0.17993518594250915,
          0.04307420428851939,
          0.11713306260325512,
          -0.039976637393119914,
          0.13133218336149188,
          -0.24748940755720575,
          0.13442607892276479,
          0.09000773189580527,
          0.05627503080313864,
          -0.3026660719284861,
          -0.10875979092394208
        ],
        [
          0.10017108009794069,
          -0.06662137155524729,
          0.5373587166595061,
          -0.2736890363458326,
          0.459326449529274,
          0.12836749665768948,
          0.10866110391642544,
          0.6966179455097588,
          -0.05233213686496779,
          -0.10015383757938812,
          0.1850339998752145,
          -0.23528966280286448,
          -0.29062016001382035,
          -0.2060593766805327,
          -0.19184892802051,
          -0.030027040692917374,
          -0.36867564579042195,
          0.20837329159565846,
          -0.3361875177678756,
          0.14554398455241058
        ],
        [
          -0.12161764460541964,
          -0.019812360265922035,
          0.07425828420076477,
          0.49294910885403515,
          -0.21806944202018236,
          -0.07642725802976233,
          0.09161289355002969,
          0.4538881190234074,
          -0.4007365597083792,
          0.34764656930575255,
          -0.17301466550394898,
          -0.0384327804645045,
          0.053813024552152054,
          0.5674064531260151,
          0.11940907111644049,
          0.34037916261421053,
          -0.8365995192072754,
          0.567767466256283,
          0.3392910491320166,
          0.9352506886504843
        ],
        [
          -0.4538376109655943,
          0.07113671048831229,
          0.45458519012619464,
          -0.0010460571253619526,
          0.029147232257234517,
          -0.05579503315075238,
          0.7308925049994788,
          0.36081713194683157,
          0.18688056531144165,
          -0.02104637425714734,
          0.3317960444226666,
          0.07355383238412266,
          0.22083356656742748,
          0.031240784520600518,
          -0.023274155242634452,
          0.25502649766015484,
          -0.24566110295171528,
          0.3148047117106564,
          0.2600130815972279,
          0.11073519604771404
        ],
        [
          0.17081965857880346,
          -0.2550289239421316,
          0.16101104207386505,
          0.7702848301850285,
          -0.39930171101363743,
          0.2563918301660137,
          0.4223958000728246,
          0.04860328525310511,
          -0.12688671940662113,
          -0.169740286063918,
          -0.22689407511620782,
          0.02336669366084356,
          0.4856421152158331,
          0.3436890111430791,
          -0.16985623196480537,
          -0.17227123534481165,
          -0.8642978570747726,
          0.3618767232195103,
          0.3980564439221154,
          0.9538143818421259
        ],
        [
          0.12209652489160357,
          0.16720522700297027,
          0.0027158108099284103,
          0.13453880803645496,
          -0.07710668696687924,
          -0.011822234783103576,
          0.7179694260116825,
          0.31411900619426686,
          0.09714507252590264,
          0.17686977839752185,
          0.35873741577305907,
          0.11835780989785454,
          0.10483921459214834,
          0.3990544337506516,
          -0.18901931061328187,
          0.05083847767727193,
          -0.524283256770851,
          -0.005688071718009585,
          0.08096422991332602,
          0.13428768439987093
        ],
        [
          0.19219306320626475,
          0.15305352267401656,
          -0.10621094028461779,
          -0.15997317562313948,
          -0.219057845434594,
          -0.13823169625459786,
          -0.2741610822248951,
          -0.23440085321283166,
          -0.18508604887896665,
          -0.13832610536481255,
          0.31600340150447925,
          0.21103039223107722,
          0.1464261606631867,
          0.09776690087984397,
          0.0030178826425986682,
          0.0056748979199146695,
          0.056959901975271274,
          0.13825879718429193,
          -0.03383531323215776,
          -0.06288707094147197
        ]
      ]
    },
    {
      "activation": 0,
      "biases": [
        0.0032109651884345645,
        0.016138072616334743,
        -0.10746643863619863,
        -0.17126860668015534,
        -0.04221791431321037,
        -0.004347513130308151,
        0.154387633246685,
        -0.11762750271856434,
        0.05952333644943495,
        -0.07164320443251741,
        0.17657061710873703,
        0.12741438722310733,
        0.053912040137481645,
        -0.14015520691229783,
        0.04429746211781117,
        -0.21794590086554885,
        0.20321390860811833,
        -0.16318801377417697,
        0.2162271804132661,
        -0.11164552932823045
      ],
      "cols": 20,
      "rows": 20,
      "weights": [
        [
          0.14394291131150386,
          -0.13019670688049373,
          0.18623861854151655,
          0.003051480682083522,
          0.4382937817242659,
          -0.14240179317484433,
          0.030014496354009077,
          0.13229547262662705,
          -0.021554994500868334,
          -0.08209322244987949,
          0.07111689861439434,
          -0.11924256362802874,
          -0.03127131429533489,
          -0.08649752097057456,
          -0.1123575442159002,
          0.13095314235313524,
          0.13141327225716104,
          -0.07619089183485361,
          -0.07601939809758287,
          -0.15426990518026024
        ],
        [
          -0.2052898514063678,
          0.18892691166283368,
          0.2768135539664287,
          -0.1558619461881763,
          0.020231756742658393,
          -0.05412691652015622,
          0.1698248582234339,
          0.16813959343463897,
          0.13409168283042006,
          0.0382967304942949,
          -0.08900505608070862,
          0.06048426141187692,
          0.1717658842794043,
          -0.15723120797013412,
          -0.025922630933488983,
          -0.0020654440900706615,
          0.18333656823217165,
          -0.0231854225791953,
          0.1868005573234417,
          -0.05713533356718588
        ],
        [
          0.0478872844213259,
          -0.16408872206099864,
          0.28165177175059347,
          -0.08901278988067746,
          -0.06614409874760308,
          -0.20735813512318788,
          -0.20007289487019694,
          0.1142658318762495,
          0.1890161017028651,
          -0.016332789348335687,
          0.16936749374689017,
          0.16737707851014139,
          -0.21807525726615426,
          0.20608679142410494,
          -0.30532884932019405,
          -0.03229355088232956,
          0.04602159950661405,
          -0.24153582639932747,
          -0.23564178341406153,
          0.1784974881102102
        ],
        [
          0.06297576111882414,
          -0.18626755605338724,
          -0.1498351902250123,
          -0.20061856657259483,
          0.13750299157801793,
          -0.08796291523849512,
          0.3522685371472452,
          0.04463376273832001,
          0.16531924038949555,
          0.03258289167039814,
          0.06559878062258687,
          -0.08881871636860722,
          0.25537835155957705,
          -0.15468709264999753,
          0.11836927250037474,
          -0.2665821589367451,
          0.22471447689646756,
          -0.4030719979167521,
          0.03839144140858001,
          -0.3857396611305278
        ],
        [
          -0.053312503776069026,
          -0.021821400074305986,
          0.06885459610372252,
          0.2937898359731604,
          0.01604622951837646,
          -0.1288081601051006,
          -0.24184320621344393,
          0.06073299869766293,
          0.2361592971876798,
          0.1132275386924798,
          -0.12609735737758107,
          0.2177302480867396,
          -0.15331117673687863,
          0.15171178941028857,
          -0.055447036315233914,
          -0.08780471742001753,
          -0.19403887838773465,
          0.12121080450809257,
          0.17747885427884094,
          -0.2957272127418478
        ],
        [
          0.11828279589579593,
          -0.12354133954482846,
          -0.1810115504090361,
          0.005543637550971625,
          -0.07632319054299071,
          0.03243798820037366,
          0.061769502204531805,
          -0.12654496637395118,
          -0.22055665482407052,
          -0.015598445495747175,
          -0.14498671898844165,
          0.13196375795709886,
          0.19852540729022694,
          -0.3021009614642075,
          -0.007846316031731818,
          0.044143586456296575,
          -0.037123698925432276,
          0.061847285528532095,
          -0.10973822509124961,
          -0.11726907507887893
        ],
        [
          0.015913366658276126,
          -0.08908951502413695,
          0.19966561903060037,
          0.3274808657884722,
          -0.2563192787911497,
          -0.14898445165318652,
          -0.03947671331286166,
          -0.24840141733834967,
          -0.40356736444569763,
          0.02123052022753759,
          0.1891328520815392,
          0.43543054138451825,
          0.053698785549688946,
          0.18024883236127656,
          0.0669626625302171,
          -0.30740778183424994,
          -0.07772661243412794,
          -0.19352586758625678,
          0.09952394833456268,
          0.013015005545674163
        ],
        [
          -0.40789508610070313,
          -0.148469413820451,
          0.4564184965802115,
          0.4348734839443077,
          -0.5798607325017199,
          -0.09198593086277526,
          -0.2508141195022841,
          -0.18240153346780114,
          0.07677315622112423,
          0.06303639292059553,
          0.12468388294664136,
          0.19660368070676096,
          -0.07745583338063633,
          0.377580187263411,
          -0.17784214372163074,
          0.06447460200903547,
          -0.20720566574689245,
          -0.4313558749654097,
          -0.2942692415203437,
          -0.07867937930845928
        ],
        [
          0.07825788363774878,
          0.23156376627156394,
          0.08768133828923515,
          0.016843782012873353,
          0.012895962054590223,
          0.06289100902498446,
          -0.13125478809601476,
          0.13337132338752988,
          0.1735540978479959,
          -0.306591468266514,
          -0.22509486791591066,
          -0.18849008348457,
          -0.2416244377659572,
          0.17503604138037418,
          -0.05282323720970795,
          -0.1966526146186064,
          0.23046307703174534,
          -0.045610377539947414,
          -0.0364637138451445,
          0.08282221568343161
        ],
        [
          0.03740315411563207,
          -0.015111194831761463,
          0.10139307197232188,
          -0.04724819332114548,
          -0.08025255290722748,
          -0.058649511431354155,
          -0.10317719434727554,
          -0.05645204559161726,
          0.06164016477218801,
          -0.22664052367919374,
          -0.16218166344710477,
          0.2888334535739397,
          -0.046111911203508694,
          0.2880485120122511,
          -0.11431343921886926,
          -0.00917669140211773,
          0.11382695900603257,
          -0.06759630127418051,
          0.23951992459546573,
          0.28858544369072253
        ],
        [
          -0.13754945656455939,
          -0.23891204277902126,
          -0.23222497487249424,
          0.012404701890000674,
          -0.00044547261919173394,
          -0.35307771215733275,
          -0.0375022470926995,
          0.2585732784221173,
          -0.02317214152028006,
          0.27098048576809436,
          0.07074092542911684,
          0.264074134622007,
          0.049995161028138904,
          -0.04119834463669214,
          -0.13074424051631361,
          0.08458341374858461,
          0.20979192317120035,
          -0.03769789540363581,
          -0.267752700276642,
          -0.05362087255508924
        ],
        [
          -0.18998447948194444,
          0.003234298545243489,
          -0.1206533656953071,
          0.04891237595181232,
          0.0756337307980292,
          0.21537706179187674,
          0.22958429235903322,
          -0.0005749667609958938,
          -0.05207109109768106,
          0.10239779569257804,
          -0.10852941045272939,
          -0.10422178376566794,
          0.07085821398914703,
          -0.18097995791295898,
          0.017140082937181545,
          -0.08318757524267321,
          -0.13964613154238817,
          0.12387145263847375,
          0.22507584701093597,
          -0.0014212760815560674
        ],
        [
          -0.031641774938932034,
          0.31192213929989776,
          -0.2875789487987925,
          -0.03717807536724168,
          -0.11505507773169159,
          -0.03845447036596413,
          0.2687936434045045,
          -0.06499477349017502,
          -0.021874772152147493,
          -0.12946387587135444,
          -0.08863435550959939,
          0.017068798338089858,
          0.0663842847351613,
          -0.08813506479121201,
          0.15320903871267316,
          -0.16067089049250713,
          0.28734404314075296,
          0.029465101797296445,
          0.23908542716630915,
          -0.12254354088411219
        ],
        [
          0.040688738788474704,
          -0.2564508746587773,
          0.3263651468645464,
          0.1623836063731852,
          0.028672348078041414,
          -0.012819416127972189,
          0.35262938089987267,
          -0.2827067577316057,
          0.177217511479673,
          0.22637941642268758,
          0.26222467782087394,
          0.08553500157399663,
          0.27208342141879005,
          0.1590906295288237,
          0.06667351883523875,
          -0.20868449824826477,
          -0.11323186499887555,
          -0.06282030402150844,
          0.1671489997260391,
          0.029102682860378384
        ],
        [
          0.07444081223319562,
          -0.1446054416084098,
          0.10761131563636427,
          0.1710324705561359,
          0.2762932430353388,
          -0.0994149658534102,
          -0.23348711750307222,
          -0.06258170758827623,
          -0.0765844226865252,
          -0.14536139177884083,
          -0.21990091140704876,
          -0.0010739676029663677,
          0.17116278569552526,
          0.15956577493989646,
          0.1393721232153053,
          -0.06489540299469791,
          -0.045895239511242414,
          -0.12844130448721008,
          0.0771490940918685,
          -0.061734842576221964
        ],
        [
          0.23284617586451,
          -0.12074140100736329,
          0.20569784861230572,
          -0.07798273474100256,
          -0.060530028348103906,
          0.16455052469967887,
          0.08336130351067902,
          0.08154218078128726,
          0.15071919885106272,
          -0.04415764873590102,
          0.26275728384560193,
          -0.16570687481414356,
          -0.1278664431511587,
          0.09705518969003707,
          -0.01776107338769892,
          0.008572662687724934,
          0.04588769114600542,
          -0.009570496122468153,
          0.09429982368880419,
          0.22005683639512755
        ],
        [
          0.20449237239579357,
          -0.11431542261291947,
          -0.19082395792460863,
          -0.2471713102427826,
          0.17967150148063724,
          -0.05212873295163107,
          -0.20331021051542192,
          0.3020423648823739,
          -0.2531948298828027,
          0.02267792448114242,
          -0.3402501087701322,
          -0.3876975783025224,
          -0.26213681842534997,
          -0.19624023197551502,
          -0.08411153936052412,
          0.21600375855285983,
          -0.41008659210330695,
          0.10653561086868328,
          -0.2272175373168345,
          0.014196064424899632
        ],
        [
          0.0499520834070389,
          -0.19801365933716789,
          0.028239038303380145,
          -0.006247216318756696,
          0.03140848305467389,
          -0.11552058839724087,
          0.13822596947322308,
          -0.25938662371063487,
          0.3944198073155851,
          0.13297637369407828,
          -0.061499243440355976,
          0.09961744370367755,
          0.2788651981142824,
          0.17730690580785433,
          -0.10209606875431243,
          -0.03399829792835546,
          0.006207292546254995,
          -0.31702494978833284,
          0.09975898329079098,
          -0.11815818800219376
        ],
        [
          0.22775723914618115,
          -0.33865341015674566,
          -0.18374625457411983,
          0.11544995927649411,
          0.18845854439534016,
          0.16705704190069004,
          0.2499607294227534,
          -0.05208144479577283,
          -0.2755241852890919,
          -0.24700573792999622,
          0.16628227585719677,
          0.26889163184933246,
          -0.10806576225263761,
          -0.08341936039985853,
          0.11326093903797267,
          0.05046890590176235,
          -0.01666364420617967,
          0.018280804764835283,
          0.37975727302556056,
          -0.08516331165378002
        ],
        [
          0.09771256035070912,
          0.13913736809772212,
          -0.04483841157589382,
          -0.016987461647229318,
          -0.30134240019256403,
          -0.15629820705251524,
          0.4679279969428269,
          -0.10894343597036849,
          -0.0267206022551972,
          0.033819080499786096,
          0.004914700752406148,
          0.3322490755418188,
          0.0913208229374829,
          -0.07719785637542319,
          -0.0674209472827172,
          -0.160224372192255,
          0.4832428468050345,
          -0.4231687140905341,
          0.3546833672594688,
          0.07392816157587903
        ]
      ]
    },
    {
      "activation": 0,
      "biases": [
        0.5043398219679246,
        0.7495975307091972,
        0.6795895455267111,
        0.8306836131548381,
        0.4283350103062463,
        0.6959369102586734
      ],
      "cols": 6,
      "rows": 20,
      "weights": [
        [
          0.018100286460905703,
          0.18280715074847967,
          0.03787103843243223,
          0.16471969366049993,
          0.34442981244196563,
          -0.06400877112604995
        ],
        [
          0.08026622616483063,
          -0.08287665325885517,
          0.26998510540068443,
          0.21760216849187977,
          -0.18454300919262712,
          0.07232134958122145
        ],
        [
          -0.08165487650349698,
          0.14588564739671606,
          -0.5438607893435494,
          -0.24521832158580448,
          -0.07038325542403656,
          0.13780117534812422
        ],
        [
          -0.3587667943240186,
          -0.3890638466777124,
          -0.015452775723773337,
          -0.15125727992749105,
          -0.3761437408101824,
          -0.010610564612227733
        ],
        [
          0.5420650191562352,
          -0.14973047193042724,
          0.2160670092789398,
          -0.05999978456949601,
          0.3893536276766574,
          -0.39906102648355624
        ],
        [
          0.04303788163042119,
          -0.15906822558813885,
          0.4428205106596279,
          -0.052787015904543155,
          -0.14215634632828025,
          -0.09101866703881922
        ],
        [
          -0.5723640999275242,
          -0.46762901977533716,
          0.08769534093526184,
          0.007651207572177969,
          0.5405554434592175,
          -0.3363935713205023
        ],
        [
          0.571668655417326,
          0.20095956229753706,
          0.17084927061284877,
          -0.003892187761632439,
          -0.17894889781274198,
          0.23986803413838165
        ],
        [
          -0.20437612821430556,
          0.1728274312544128,
          -0.07172867502284064,
          -0.311526800671479,
          -0.04799640449911097,
          0.07463084452889461
        ],
        [
          -0.17936112557641,
          0.1299273006988049,
          -0.12516665068394628,
          -0.1333375923786061,
          0.14758739548199556,
          -0.12339936752481194
        ],
        [
          -0.03392921567241372,
          -0.129468520892759,
          -0.2735332389711777,
          -0.263199101618318,
          0.04300372310360827,
          0.3180952040417828
        ],
        [
          -0.3015212880304818,
          -0.3532672251146065,
          -0.40247249365388243,
          -0.12400487701322968,
          -0.010867885362480357,
          0.47020916529751694
        ],
        [
          -0.1436388731564615,
          -0.2860248035272853,
          -0.21333328887065883,
          -0.1255406379510715,
          0.7578750218912164,
          -0.2269410084104439
        ],
        [
          -0.3465803113383801,
          0.07886118523064578,
          -0.3484567090432716,
          -0.11751825684391705,
          -0.31629644609623336,
          -0.03467431003647417
        ],
        [
          0.01021486320715178,
          0.05517440384669398,
          0.06488702158243921,
          0.44617439981517826,
          0.5163741973275546,
          0.27249215412134775
        ],
        [
          0.22468861486335429,
          0.35624083614858626,
          0.07116080829117165,
          0.1039519033135658,
          -0.0678652471908396,
          -0.11420466443842253
        ],
        [
          -0.21689908253675066,
          -0.25662415484781753,
          -0.14812726428624434,
          0.010677553443029151,
          0.25646435272470625,
          0.025236600856063805
        ],
        [
          0.3711020870583291,
          0.010285365720857366,
          0.4898598971636503,
          0.1670251265613292,
          -0.2839806376003366,
          -0.24425486215901693
        ],
        [
          -0.3847188053441642,
          -0.4188409609989818,
          0.21639425962137118,
          0.07575930059355399,
          0.4008925132618113,
          0.12758510746886015
        ],
        [
          0.07694868102075407,
          0.2233773332898294,
          -0.14015166491737638,
          -0.06934241453471689,
          -0.13233036181436839,
          -0.0481750997976533
        ]
      ]
    }
  ]
}
