{
  "layers": [
    {
      "activation": 1,
      "biases": [
        0.12579652165381844,
        -0.0062396106704198425,
        0.09679786332148409,
        -0.04169295375001411,
        0.10794753755664084,
        0.04839226551106302,
        -0.016142728840559874,
        0.06183921093143914,
        0.01699295778335275,
        -0.005843971702403469,
        -0.030582934796113015,
        0.20349743215659263,
        0.03831098430694923,
        0.007550546059797149,
        -0.0023979106769257312,
        0.0018247663466589429
      ],
      "cols": 16,
      "rows": 42,
      "weights": [
        [
          -0.03637492370962337,
          -0.13796203530932108,
          0.26465056770524953,
          -0.2626050256273525,
          -0.2440153433390507,
          0.2462369729577693,
          0.19893056728663114,
          -0.16203490706803161,
          0.08283015867377426,
          0.11836703085923515,
          -0.2764892808799281,
          0.3269777094468036,
          0.17498719903014265,
          0.23935299039708163,
          -0.08841015724110293,
          0.15717805270208518
        ],
        [
          0.1273893909081746,
          0.10812356075687886,
          0.05914212686766844,
          0.24833756647252028,
          0.3121551827774426,
          0.13212525082372076,
          -0.015169651683471503,
          0.09253607893253257,
          -0.23782466139786618,
          -0.10662542881670546,
          0.21922299007902818,
          0.079056751756019,
          -0.001900849266437662,
          -0.310983922025702,
          -0.28052451077476076,
          -0.2691595787284817
        ],
        [
          -0.05442979126044216,
          -0.24287965766924324,
          -0.033635027351936554,
          -0.15216142753027762,
          -0.25018700521893045,
          -0.17581454685464115,
          -0.14820064953666642,
          0.18935323008102284,
          -0.12799078295210095,
          -0.1551562987304948,
          0.15184706778316967,
          -0.25121628046915895,
          0.07848966053733107,
          0.08417711557492015,
          0.2589426110879955,
          0.19072882331430038
        ],
        [
          -0.11812705120109321,
          -0.24609746779953118,
          -0.130042257655927,
          0.139419848536905,
          0.011247062458107016,
          0.04736423348635504,
          -0.22529536922820215,
          -0.16252319764513368,
          0.20339313589437472,
          0.14210994937649873,
          -0.0043898127490583465,
          0.26753299219363913,
          -0.20879444495281443,
          0.08679999376390585,
          0.2346848324644425,
          0.14739119422795513
        ],
        [
          -0.09535178594149193,
          -0.03390016911561442,
          -0.01870445058592029,
          0.20018591822048032,
          -0.12753913157509345,
          0.3035295680831586,
          0.05409502919453978,
          0.063748257444137,
          -0.06248308988460533,
          -0.11132105475561478,
          -0.06099598199592661,
          -0.08057502517462468,
          -0.16465244883357283,
          -0.04884544078806112,
          0.05311136431301483,
          -0.17047852179683676
        ],
        [
          0.21809968573157731,
          0.2199649630566774,
          -0.0318372492232581,
          0.07210921824163653,
          0.11470629278392891,
          0.3388568654916995,
          -0.14663790008671038,
          0.17544308355340824,
          0.060712427558607174,
          0.04565356811598612,
          -0.02423874233277038,
          0.06953674607312213,
          0.03952434956332785,
          -0.10736514717758538,
          0.10501340290024035,
          -0.24426561112389755
        ],
        [
          -0.02253630332505627,
          -0.0518129310876501,
          -0.11865427815481631,
          -0.11371985047144029,
          0.27023659994735355,
          -0.11499432456436598,
          -0.13941188804072507,
          0.2088187799992549,
          -0.15746980311845468,
          0.1406104717880727,
          -0.04132262601520191,
          -0.0412102600383214,
          -0.2406500443665493,
          -0.07105102087373687,
          0.26613842590109,
          -0.03483585076512247
        ],
        [
          0.17516109000221805,
          0.014902624353623738,
          0.16058016413220824,
          0.19324979935452094,
          -0.11941303318155172,
          0.11121603270877797,
          -0.28525008134569596,
          0.30171784736875173,
          0.11529542235950956,
          -0.17217593815112087,
          -0.24931436020361988,
          0.022250216386441105,
          0.31964618146816726,
          -0.272632692868164,
          0.09109075916480493,
          -0.2652877735144162
        ],
        [
          -0.012274208611965416,
          -0.24555064505574684,
          -0.1556162524513715,
          -0.11194700301069341,
          -0.1770764482925288,
          -0.0017803475568713748,
          0.20164506093333437,
          -0.015575771417526868,
          0.15232000629204806,
          0.20713147127095793,
          -0.25748273733718907,
          -0.22652538454255264,
          0.27113595379535044,
          -0.16015737116625142,
          0.25565296091894496,
          -0.15631961779673686
        ],
        [
          -0.23300152102932842,
          0.1620920384133563,
          -0.29786143780854607,
          0.21951987503872933,
          -0.2585095767078131,
          0.01859758212759398,
          0.017838705921712772,
          -0.05168083038107759,
          -0.19712216044631023,
          -0.3343760295789389,
          -0.0650047776358027,
          -0.07579522283034078,
          0.23542280343066146,
          -0.10727283311507921,
          0.16559213231970302,
          0.050373866114912715
        ],
        [
          0.0497129804325401,
          -0.17875784995482688,
          0.3028518216269137,
          -0.23964837332492003,
          0.1524216379875766,
          -0.17549482997833266,
          0.17731104377265555,
          0.24616142849500025,
          -0.2936184542630158,
          0.17626666058994556,
          0.24103542478515383,
          0.013143938062644918,
          0.021960655623655397,
          0.13296181912172653,
          0.21200594647006865,
          0.21138117893332228
        ],
        [
          0.34013219835463804,
          -0.09417040872094348,
          -0.24156013632891798,
          0.03692406133587639,
          -0.2589302462108507,
          0.24471178158761486,
          -0.05549794519073711,
          -0.050450436362542636,
          -0.2671079540605131,
          -0.17065970079590112,
          -0.03857408103414698,
          -0.056769055373426414,
          0.1782226618166918,
          -0.022905715659493436,
          0.20173182306234463,
          -0.0540100681882751
        ],
        [
          -0.12562660240342918,
          0.2849668711416029,
          0.08330558489168641,
          -0.007382576360614333,
          0.2957027159713142,
          0.17984976930168953,
          0.2641583074918506,
          -0.011338762225754986,
          0.28003630187924317,
          0.2802387567597246,
          -0.019637750990263995,
          0.005181168639385966,
          0.23447179621133232,
          -0.09107341828601115,
          0.26125764324108786,
          0.045867633219426045
        ],
        [
          0.3429628230624977,
          -0.1128574503709672,
          0.15560355165710327,
          -0.1524084929463968,
          -0.17256017390711512,
          0.18289133118443954,
          -0.2721256928046692,
          0.21768677541487813,
          0.03075580085503327,
          0.1981066795138286,
          0.2059302783709561,
          0.22650394954164893,
          0.15830025479098436,
          -0.05136925766059152,
          0.22370683964676588,
          -0.19286179267160244
        ],
        [
          0.3288152423828311,
          -0.307481918261918,
          0.02487730787169989,
          0.051832417823356076,
          -0.09382899408650781,
          -0.20697368676413466,
          0.1522884634677014,
          -0.17562338157821766,
          0.046044392251864574,
          0.23107202407040783,
          -0.29748886791455703,
          0.08401799733960308,
          0.11225966319853423,
          -0.2200861952099346,
          -0.07782151378990564,
          0.15344751223392017
        ],
        [
          -0.1109230056865389,
          -0.09417819756039839,
          -0.03244874025075352,
          -0.25692417669453027,
          0.10315311300868883,
          0.18653370607472022,
          0.07945387565548699,
          0.1051181828978335,
          -0.09238199417884319,
          -0.009669546068509038,
          -0.26429861849164904,
          -0.11105787841607383,
          0.18456742100605855,
          0.13036857231114657,
          -0.23338420415594335,
          -0.2021755876019063
        ],
        [
          0.28396585888128495,
          -0.1121910058839101,
          -0.09487933379224633,
          -0.1299254099353422,
          0.0807203835179341,
          0.04880213724131154,
          0.02607474007181011,
          0.2815495127375821,
          -0.2836101754330524,
          -0.21698716782541774,
          -0.10689777056055524,
          -0.0027131557944203633,
          -0.3423336022978734,
          0.055010167024485856,
          0.2970093978713229,
          -0.11291651722779393
        ],
        [
          0.10541053615046345,
          -0.1321457274979064,
          0.01523470092121139,
          0.3078410966299324,
          0.1375680591488485,
          -0.35700342039857,
          -0.12387646549933981,
          -0.27949159424623626,
          0.18308034650365332,
          -0.3590349531549632,
          -0.21482516218137993,
          0.01576293324070184,
          -0.01920698832306182,
          0.2064087372959683,
          -0.09152685510130534,
          0.3438082773527281
        ],
        [
          0.10469849525875496,
          0.26100504746434244,
          0.08210172698290619,
          -0.11468279451262091,
          0.22107435729605757,
          0.10205498987370126,
          -0.24471414596117866,
          -0.23182521034320838,
          -0.1210174317714732,
          0.09028599177813658,
          -0.00652645170633209,
          -0.22221228704221097,
          -0.17376133211949135,
          -0.09218871657223428,
          0.10223525591376363,
          -0.1182876670666301
        ],
        [
          0.20977116452758202,
          0.29784121028706356,
          0.26553750972047196,
          -0.2879471101233427,
          -0.29420014830810487,
          -0.06492618139625295,
          0.2509672613079793,
          0.13279090203102506,
          0.08659633717066263,
          0.10852168286611845,
          0.07571254458359238,
          0.3502597781373392,
          -0.13590783548965493,
          -0.2666345228226572,
          0.19922521869549875,
          -0.05748329363672262
        ],
        [
          -0.25111566960211584,
          0.0016420435929998334,
          -0.12013662069162809,
          0.06997658411585488,
          -0.08206189567567862,
          0.1821028001321468,
          0.34532616690298645,
          0.1643770861787319,
          -0.3156505295913183,
          0.21925977840477476,
          0.10003999879414109,
          0.227437705674325,
          -0.31873305918429246,
          0.20967929934352622,
          0.22696651440315158,
          -0.2911230141327776
        ],
        [
          -0.31302860166822843,
          -0.21377793451841853,
          -0.07102367631633634,
          0.0570058563200086,
          0.19040819176509338,
          -0.3444701795289093,
          0.3156306599146575,
          -0.22425673921764325,
          -0.24243914782264073,
          -0.07773122421264429,
          0.38437605705398975,
          -0.1817506578018695,
          0.01062134066383144,
          0.2819962223093329,
          0.20843906455052336,
          -0.13973857480936905
        ],
        [
          -0.2587584327251147,
          0.12095870271316296,
          -0.18040267674716026,
          0.22956226007235161,
          -0.32098810692287955,
          0.039348133212505604,
          -0.25865462261140243,
          0.09549894772512686,
          0.054243941255579874,
          0.03637593513209569,
          0.33120424350932953,
          -0.1573754855573368,
          0.003107748254935707,
          -0.2946485886922622,
          0.0581178632692111,
          0.17969714540830348
        ],
        [
          0.15293534931822675,
          0.1677801998597832,
          -0.19094490882063767,
          -0.012247530172464932,
          -0.055893925245358446,
          -0.3757326521041141,
          -0.08602581488246488,
          0.1370840989606096,
          -0.1281804780663743,
          -0.029901106140397975,
          0.1917976747320461,
          -0.2842155894389998,
          -0.3166427351424248,
          0.06641614924405,
          -0.3231663951595933,
          0.03122838256243132
        ],
        [
          -0.09413116945420251,
          0.2754129418462718,
          0.04564849256751537,
          -0.00017752813351069343,
          -0.03932714214197687,
          -0.34009617517170204,
          -0.15675001269050523,
          0.002759743464422596,
          -0.0461145965415544,
          -0.20967295263313265,
          0.3425742307039099,
          -0.14688404566498897,
          -0.1651972824838221,
          -0.177185725664378,
          -0.05759322099524095,
          0.17014998821400998
        ],
        [
          -0.425256619095979,
          -0.12443545492627027,
          -0.07545631920851563,
          0.22097310679435467,
          -0.17173880564310198,
          -0.3686177996559805,
          -0.024349260267675598,
          -0.44723150889208546,
          0.01834587951313385,
          -0.16196691432450744,
          0.41590185812104147,
          -0.23521159389124274,
          -0.2569090477721203,
          0.1927839045908026,
          -0.33377578111378525,
          0.07043774032777421
        ],
        [
          -0.059320200063525015,
          0.16068608360841707,
          -0.032167023685538323,
          -0.14267436618996995,
          -0.2870523467371444,
          0.06618464190432562,
          0.10001806487175666,
          0.13648184309578168,
          -0.2416141917484549,
          -0.19376435527627547,
          -0.1617859489572657,
          0.15889281786571408,
          -0.34036287654337666,
          -0.2637835958712831,
          0.14102290624415198,
          0.006972347444717336
        ],
        [
          -0.27001724051663767,
          0.28588566134789267,
          0.023724766694189103,
          -0.15924911558450225,
          0.09582010514529768,
          -0.15797523077672754,
          -0.20246656849063324,
          -0.033783279869389386,
          -0.020227142094998783,
          -0.2739358467442271,
          -0.12107503666746446,
          -0.25192380022005384,
          -0.1280434612403139,
          0.08272282418653497,
          0.07596943256903538,
          -0.013546963972921338
        ],
        [
          -0.07431323807011407,
          -0.027414749102892735,
          -0.16599214415457011,
          -0.25713406184791104,
          -0.1707850166017323,
          0.00594214788214048,
          0.3361938900206404,
          0.16471654011676246,
          0.1862134343664916,
          0.11728996563469411,
          -0.00044174285503577825,
          -0.3863190000457624,
          -0.3141003960129445,
          -0.015367288364305044,
          0.054012981678412154,
          -0.162362502503597
        ],
        [
          -0.21141965156092504,
          -0.03074201130349493,
          -0.2178375031636584,
          0.018053316536470913,
          -0.1071749481371106,
          0.15352872400303302,
          -0.04021965074666859,
          -0.369109997414336,
          -0.231415037511716,
          0.10267576692816223,
          -0.10986191958538583,
          -0.3232715915489404,
          0.004768638413695871,
          -0.12136311233068758,
          0.18787958983641878,
          0.24992917917293342
        ],
        [
          0.1049041992501976,
          -0.06096967989207147,
          -0.17580680683683975,
          0.36989484423724966,
          -0.18472971989623072,
          -0.1045148407355722,
          0.1390062681664923,
          -0.05512678936569407,
          0.09150649355605837,
          0.12488311719439583,
          -0.21662133082760246,
          -0.01439252156666538,
          -0.34624622967944146,
          0.09887063562568188,
          -0.3738185431472648,
          0.3376363196900585
        ],
        [
          -0.41776497076935276,
          0.21804888786563123,
          -0.35404401272946334,
          0.3139558808603829,
          -0.014945795589418857,
          0.1197174271968769,
          0.054256916454814355,
          -0.05713723817715186,
          -0.07583704804508541,
          -0.30809713783011866,
          -0.14809624781402883,
          -0.22313899010597205,
          -0.12246852126494193,
          0.15752078241621942,
          0.027741862968499672,
          0.21942800966521991
        ],
        [
          -0.17831679243827736,
          -0.14497129309992027,
          -0.04550790594295356,
          0.025372734596371457,
          0.06896319466666563,
          0.020081144776591914,
          0.3414153850299122,
          -0.2880859838746476,
          0.00109742451299681,
          0.23854676444850165,
          0.05149543066512419,
          0.12130270245711612,
          -0.0454399784165593,
          -0.07135428409801282,
          0.12247656469196737,
          0.2998318541387748
        ],
        [
          -0.4373150329335134,
          -0.08628863187436012,
          -0.20466073720168362,
          -0.04422813845453723,
          -0.46032280116101887,
          -0.2687842461199448,
          -0.019565112596155766,
          -0.5002685058003106,
          0.10820141212093243,
          -0.3088130962879482,
          0.05022842783912507,
          -0.5080713607328261,
          0.09672702553125187,
          0.11852609630892368,
          -0.2274619295809715,
          -0.014000185989559152
        ],
        [
          -0.22623299563174812,
          -0.04299932612868825,
          -0.04862782149480742,
          0.28422971466233704,
          0.12502052926851367,
          0.16187705187572105,
          -0.1949396538742146,
          0.07683821518721279,
          0.24976798669501113,
          -0.18615716791957118,
          0.12213596822238679,
          0.06630072663475309,
          -0.3659665601106209,
          0.1404081235473849,
          -0.11870677320409238,
          0.08470663484323364
        ],
        [
          0.10702289217153542,
          0.21651884101767274,
          -0.25774549403270025,
          0.10215070418138125,
          -0.3688036613513244,
          -0.12727846509033622,
          0.036104130958257354,
          0.08502570204345242,
          -0.21507596892103842,
          0.12732927824641188,
          0.32491921017137565,
          -0.2803313582927076,
          -0.07298855544869927,
          0.18665762507783604,
          -0.0730102473244554,
          0.09354119607387258
        ],
        [
          0.03183334741194593,
          -0.06745916591558199,
          0.11551921597724571,
          0.3733662658311751,
          0.14120910830944508,
          -0.32314093364381796,
          0.0978356985766932,
          -0.33975166845541765,
          -0.1749431294681526,
          -0.02307338814040817,
          -0.10880143156543445,
          -0.44409894475780864,
          -0.1888473338073827,
          -0.18475651873829507,
          -0.3022714721531642,
          0.20860318066990777
        ],
        [
          -0.2290560993627213,
          0.12116117241774009,
          -0.2029156775935061,
          0.21592415676813903,
          0.03351230901054507,
          -0.07000364598594343,
          0.3339154660412588,
          -0.3550837585860128,
          -0.23002429660763613,
          0.0008042618199957684,
          0.22463568365641243,
          -0.15052080230741105,
          0.05958466019859058,
          0.13775446798243346,
          -0.37054814356086335,
          0.3156944011448224
        ],
        [
          -0.3348591715057694,
          -0.13015981493636997,
          0.05778820172350009,
          -0.11737501158883268,
          -0.39269623154488587,
          -0.38790265526498857,
          0.3859135690682164,
          -0.3802094324335319,
          -0.268461652086586,
          -0.0979017028020531,
          -0.18804241285016018,
          0.0419976681576054,
          -0.438185906516566,
          -0.26517037129703097,
          -0.20869861511112534,
          0.10340600162953884
        ],
        [
          0.07193048012633423,
          -0.03995714941448132,
          -0.18831693755417767,
          0.37366917154573986,
          -0.42033400823967737,
          0.09232177270127298,
          0.25799125160079994,
          0.019237644627358098,
          0.052887622215724225,
          0.30048714275102184,
          0.27780312331052215,
          -0.10021197007893176,
          -0.22589808677856257,
          -0.22095792248805793,
          -0.4708346954805934,
          0.2339577906200548
        ],
        [
          -0.2438283773320146,
          -0.01534967034848964,
          -0.2842944758034159,
          -0.11843123466840312,
          -0.23410709792174927,
          -0.08757851956089736,
          -0.0789854469147428,
          -0.15936921216498048,
          -0.013032449056264354,
          0.19779826579984677,
          -0.05934037651955047,
          0.10091729429629087,
          0.12006963894705262,
          -0.03886819291821202,
          -0.29037933566945373,
          0.20108968594648075
        ],
        [
          -0.2777617962750225,
          0.05908754301153874,
          -0.13124491468741023,
          0.17669764953634465,
          0.061015152158920935,
          -0.40801949993187825,
          0.43045257431023903,
          -0.0391034294744738,
          0.12817012252675627,
          0.11279511532310171,
          0.287721488003892,
          -0.010419151529793242,
          -0.21113859921435274,
          0.1749293932337944,
          -0.12365080155420152,
          0.10391618625310829
        ]
      ]
    },
    {
      "activation": 1,
      "biases": [
        -0.06270595008874345,
        -0.0055274624784079065,
        -0.07469806183125306,
        0.13474526810578577,
        -0.0264843323896933,
        -0.01757884242764914,
        0.02608414431094489,
        -0.17780083791294649
      ],
      "cols": 8,
      "rows": 16,
      "weights": [
        [
          -0.15506320564235818,
          0.4482567237636283,
          0.419987906159678,
          -0.5795898436313363,
          -0.17196099626922862,
          -0.12378331729629093,
          -0.033756855647704136,
          0.5445256503514181
        ],
        [
          -0.15750054803507085,
          -0.2660444010187664,
          -0.10489133007585764,
          -0.22067172529575557,
          -0.033484053591659624,
          0.033850613534744764,
          -0.25457404884907836,
          -0.07194984532307305
        ],
        [
          0.17848934897579521,
          -0.21504525964926188,
          0.560443395456177,
          -0.5101813765547278,
          0.3265609657619879,
          0.04059065267413161,
          -0.49621796545439395,
          0.3804007651335533
        ],
        [
          -0.469615312004709,
          -0.12589312060694224,
          -0.5236565854916296,
          -0.035604468415901466,
          -0.5356481634801489,
          0.036926344112717266,
          -0.21730941735312642,
          -0.47524080927039203
        ],
        [
          0.09602476966645963,
          0.5637118565138342,
          0.558496270451677,
          -0.377573714333471,
          0.1557230086225182,
          0.32237248063197516,
          0.3676432273976641,
          0.5093876954873096
        ],
        [
          -0.1385746419865725,
          0.5605179216835726,
          0.4278707345374965,
          -0.0012894713176685672,
          -0.12817022007185777,
          0.4063079196859658,
          0.23876455390465165,
          0.6966205604075384
        ],
        [
          0.3419746820041672,
          -0.3991961963154893,
          -0.5822205894839216,
          -0.0915180782036776,
          -0.27812716426544404,
          0.3994817766632684,
          0.1830261662605161,
          -0.30599855785146335
        ],
        [
          0.23353921899447933,
          0.5196611108176677,
          0.38054447732307745,
          0.24162105471061532,
          0.28216831003448084,
          0.07479551480744283,
          -0.5420682159080281,
          0.6401774054141741
        ],
        [
          0.31454885684850925,
          0.372416630564693,
          0.27805230829217314,
          -0.43856493275278585,
          0.008357622190771378,
          -0.42902900942190086,
          -0.08344464707592977,
          -0.46863705173957226
        ],
        [
          -0.08476528405393463,
          -0.33806941288262227,
          0.03463679496577694,
          -0.09732508825922874,
          0.47236548916305404,
          -0.2029578697156686,
          -0.10261211967297028,
          0.06515668029520075
        ],
        [
          -0.3560197887850605,
          -0.4920526511884571,
          -0.4431755218883311,
          -0.31263956067863685,
          -0.10605499687412677,
          -0.1831852133928652,
          0.08409680729156283,
          -0.5556113399529313
        ],
        [
          0.47867960278571225,
          0.457997125739659,
          0.44143652256923355,
          -0.3976863004436187,
          0.43275587206482935,
          -0.2934066209297308,
          -0.49086520372645337,
          0.6794867683760724
        ],
        [
          0.2824618798683902,
          -0.03083189457781369,
          0.21551534923248714,
          0.05435095090541404,
          0.45754529687943,
          0.4217944623290043,
          -0.5240156230024312,
          0.669182353681815
        ],
        [
          0.4954158537512051,
          0.16308281252035825,
          -0.10805042280242103,
          -0.11272618265807995,
          0.3132260267912045,
          -0.015368558428227796,
          -0.2884263894808081,
          -0.5242446566939237
        ],
        [
          -0.4711784655577753,
          0.4003884102131367,
          0.43541693510384083,
          -0.17898201969880498,
          0.06804941859714722,
          0.2991620532469705,
          -0.3297358054678041,
          0.4583721429497695
        ],
        [
          0.22776910378261447,
          -0.3180712149451815,
          0.19535369920130585,
          0.5416867135481193,
          -0.26117567301303735,
          0.4036497748119101,
          0.5163802096799152,
          -0.16593986240599806
        ]
      ]
    },
    {
      "activation": 0,
      "biases": [
        -0.09976446250653416,
        0.06495700915600613,
        -0.06855013592299443,
        -0.07348586772207047,
        -0.029250704760934984,
        0.6227869944934628
      ],
      "cols": 6,
      "rows": 8,
      "weights": [
        [
          -0.5540034717046629,
          -0.6314155342352199,
          0.08059729854113634,
          0.7459420534204171,
          -0.2473519145015217,
          -0.03038525319606956
        ],
        [
          0.5353898606396081,
          0.2473681074063549,
          0.6864117185805713,
          0.4361824143448368,
          0.5675757514757676,
          0.3371511417646278
        ],
        [
          0.46266349457958145,
          0.43031894511205526,
          0.4106616407557126,
          0.7806327330219117,
          0.4313851010554117,
          0.20105282339226313
        ],
        [
          -0.9302397815121227,
          -0.6001467544210902,
          -0.2969630969000461,
          -0.25801003550675417,
          0.5739313133185311,
          0.2473345435664634
        ],
        [
          0.8205867164826337,
          0.29827043115903784,
          -0.05838560270150103,
          -0.013041895941729107,
          -0.09887149124339754,
          0.08570972741802112
        ],
        [
          0.2506877970052751,
          -0.07149656473706394,
          -0.08994522390898729,
          -0.4367549371972098,
          0.028904088838409364,
          0.15365995208610728
        ],
        [
          -0.9825482836112472,
          -0.009301953323066662,
          0.0371011308710193,
          0.11554329850219783,
          -0.49575360647057254,
          -0.09120521200795857
        ],
        [
          1.017222748181628,
          0.7932114667885533,
          0.7565977717844169,
          0.468243174162896,
          0.48242964553482165,
          -0.4437003688641905
        ]
      ]
    }
  ]
}
