{
  "layers": [
    {
      "activation": 0,
      "biases": [
        0.6120974387935013,
        0.2904238988614617,
        0.8416832603121539,
        -0.21975569247280788,
        -0.5184814933750345,
        0.8945987649658785,
        -0.3972001319920299,
        -0.7094229658528484,
        -0.43142474392970687,
        0.593846742190442
      ],
      "cols": 10,
      "rows": 956,
      "weights": [
        [
          -0.2459398758817665,
          -0.09736309187210666,
          -0.26660870649354496,
          0.08895791691028394,
          0.03392702586192525,
          -0.1649699062152081,
          0.02233401844056103,
          0.14178519865048003,
          0.09679099811781035,
          -0.19994489363328805
        ],
        [
          0.04804878322041984,
          0.019893084478924246,
          -0.03728540099912455,
          0.08183566340746963,
          -0.03590890873586877,
          -0.05141211829245869,
          0.024932815630901543,
          -0.06445748179292321,
          0.004693177639506862,
          0.03747321313224949
        ],
        [
          -0.04329393827964827,
          0.0028546148813361704,
          0.017257788517736263,
          0.03427767099479684,
          -0.02223924991325311,
          -0.020901430032923357,
          -0.02902693392109991,
          -0.051755848502318284,
          0.06444988322913717,
          -0.03366358588255588
        ],
        [
          -0.24432811514246516,
          -0.11895726437789718,
          -0.3231115605684373,
          0.0091529538927623,
          0.14292071320235866,
          -0.3637676252414512,
          0.12146890301969361,
          0.19391777100184968,
          0.09997303071212071,
          -0.26300043399918915
        ],
        [
          -0.08039652134945344,
          0.004940147755841875,
          0.0024306125326571094,
          0.016497247081954967,
          0.06971163852851354,
          -0.06664329388651469,
          -0.01280896800703202,
          0.0407747927048394,
          0.04754525299840209,
          -0.08467186927126585
        ],
        [
          -0.1250420040882544,
          -0.040708337925745186,
          -0.2623836373390225,
          0.09439443848604759,
          0.04748269249982683,
          -0.1427427611563024,
          0.023204695007309106,
          0.13648004031097835,
          0.07529863212986876,
          -0.12588758622296414
        ],
        [
          -0.05216294014700373,
          -0.04837933365549819,
          -0.14044647650530045,
          -0.04537541889703076,
          0.005968795783594535,
          -0.11321201763183388,
          -0.022485671328501367,
          0.13667968225882426,
          0.09183405499568116,
          -0.09215346917670766
        ],
        [
          -0.08129092354747033,
          0.03235489516511366,
          -0.11253058532126689,
          -0.006259931375114343,
          0.08664046542270584,
          -0.14407100945113374,
          0.13360481481374442,
          0.17686242795468896,
          0.025303906007278238,
          -0.11987652227975498
        ],
        [
          0.00029793208568576067,
          -0.02543160515038885,
          -0.11725297690472704,
          -0.06898610098086444,
          0.08581576228493035,
          -0.06156624576256447,
          -0.012727709764698924,
          0.023235209584568633,
          0.09382109125225851,
          -0.02056536113237468
        ],
        [
          -0.20801006826629065,
          -0.11512214187186899,
          -0.2689168114899398,
          -0.009273316627488115,
          0.1559467543713569,
          -0.24426288813071712,
          0.0985507031874478,
          0.13211929127761962,
          0.174656586524266,
          -0.15713104055615998
        ],
        [
          -0.023849187105725127,
          -0.0017477255973319082,
          -0.1305965336983835,
          -0.04933696744748424,
          0.03714288947599987,
          -0.08538544013268767,
          0.02706569279357664,
          0.025234816695671278,
          -0.03515209723189689,
          -0.11524111677935492
        ],
        [
          -0.21294045472402734,
          -0.04451418258706901,
          -0.22896248910249656,
          0.08119061140470382,
          0.08681774724873886,
          -0.24371498446829024,
          0.06739999788680835,
          0.19345225985997352,
          0.026795406464873352,
          -0.18737670889055985
        ],
        [
          -0.11425083515012768,
          -0.10243562291050319,
          -0.06280926034890691,
          -0.04915295943619176,
          0.0062811497679964145,
          -0.09822193625869459,
          0.03236583421699725,
          0.11085534402444297,
          0.008885480108708552,
          -0.12133530107149795
        ],
        [
          -0.18410453358975803,
          0.03732929787205149,
          -0.11007516634395925,
          0.06517264263369102,
          0.06075468105139929,
          -0.12086554667926634,
          0.07651916144141176,
          0.12184201851956138,
          0.14281486380407893,
          -0.09784750374197446
        ],
        [
          -0.032193273144882475,
          0.008107273632208246,
          -0.031357632879165646,
          -0.03983034549902281,
          -0.08924524216081278,
          0.11856129473701615,
          -0.08531562387089935,
          -0.03687029168436575,
          0.006935174313508424,
          0.01029945279789117
        ],
        [
          -0.22668219484660737,
          -0.016974883291530643,
          -0.25874554350019596,
          0.02613040990143902,
          0.2052431184126091,
          -0.3149743595278249,
          0.19202943460052743,
          0.29245760969523427,
          0.15797235775043264,
          -0.246932375403314
        ],
        [
          -0.14993175661451663,
          -0.07334296110093294,
          -0.15287214237568789,
          0.023703019747744188,
          0.08422611302778957,
          -0.1339018337449293,
          -0.030488470796298527,
          0.05291928847223358,
          0.05329229375974574,
          -0.13147604855486983
        ],
        [
          0.30329567317099737,
          0.1414807689500616,
          0.4314958055741551,
          -0.07115627270201309,
          -0.19915967210417407,
          0.43878083398097534,
          -0.2711105013733414,
          -0.4480899565440314,
          -0.22008573807305876,
          0.3522116327231752
        ],
        [
          -0.026925337948396043,
          -0.03932959845670397,
          -0.14540504045652247,
          -0.03013421416690569,
          0.12129286200855513,
          -0.06134386006829516,
          0.044146814236279745,
          0.10716844906469865,
          0.014649579027583473,
          -0.03879205725949452
        ],
        [
          0.5654441767808501,
          0.12931608942204922,
          0.6719198831972558,
          -0.047174535785589215,
          -0.28577138034093325,
          0.7550546494215172,
          -0.30234167398262685,
          -0.507220302681509,
          -0.35927927998254194,
          0.5247276994097443
        ],
        [
          -0.09112699222186063,
          0.04632900031746435,
          -0.1381674565690197,
          0.017455048183706325,
          0.10489128898110238,
          -0.1534023385328988,
          -0.0004262908371965626,
          0.013197460706873734,
          0.014773754822211053,
          -0.09339574958577182
        ],
        [
          0.31766269221577276,
          0.07051264410588838,
          0.35083598350474576,
          0.005678136939510844,
          -0.1552530361225121,
          0.317482647602642,
          -0.14776479528917605,
          -0.21250330255450742,
          -0.14067672774572113,
          0.17391575655823122
        ],
        [
          -0.17700753539814834,
          0.02332699078373048,
          -0.16473027833381143,
          0.06365848194973023,
          0.17263200633904757,
          -0.19270677045379142,
          0.06590936212815006,
          0.10254901292837894,
          0.03534272175634118,
          -0.1263010266673806
        ],
        [
          0.08456571895786544,
          0.019974830185507962,
          0.07182036199052999,
          0.013182412360068277,
          -0.05308652911464159,
          0.003578270710229637,
          0.023822445160902928,
          -0.04513340503574894,
          -0.052248690822410966,
          0.049247192452103634
        ],
        [
          -0.07302008624852722,
          -0.05275919250295435,
          -0.20392664651985673,
          0.028529119458895857,
          0.10536863041588893,
          -0.1227803998793771,
          0.010935249696562808,
          0.1444140666194951,
          0.04970580413877158,
          -0.10866446251693092
        ],
        [
          -0.013070070417953173,
          0.08332360487805394,
          0.0838861364673429,
          -0.04937723524192723,
          -0.07394613625112162,
          0.03560216191004975,
          0.0025647720447565477,
          -0.04288690169005893,
          -0.10793706878743943,
          0.07581797650441001
        ],
        [
          -0.0528609035658433,
          -0.01073939762541916,
          -0.12495163244496123,
          0.07766037591720895,
          0.06821983685576974,
          -0.18713629870589318,
          0.11269399963069865,
          0.08113265096893309,
          0.022979656943180833,
          -0.02436980666697136
        ],
        [
          0.04599290710071251,
          -0.058331525310601456,
          0.1334375853451903,
          -0.014977382343646399,
          -0.09547101766853368,
          0.12601103581912687,
          -0.04829363339239318,
          -0.09380921615332727,
          -0.004323163800671413,
          0.010584361471485509
        ],
        [
          -0.12606200113814825,
          0.02489784559947314,
          -0.0892615192605476,
          0.04360688381747971,
          0.07487208129245222,
          -0.1480670248686343,
          -0.0010090931064182303,
          0.06649932335733712,
          0.034408389149540225,
          -0.048383170643116896
        ],
        [
          0.42385387715558065,
          0.09119352275087114,
          0.6181479520498318,
          -0.066815786327378,
          -0.23785891598234005,
          0.5429549910430883,
          -0.2064158065778527,
          -0.505570076191351,
          -0.2650552681261441,
          0.5197231110055741
        ],
        [
          -0.12373303078045363,
          0.0034482291960378883,
          -0.11597689755196869,
          0.03237455497831981,
          0.0827010285207653,
          -0.07888072172998838,
          0.14727798536768796,
          0.16533201400350694,
          0.1205822332155926,
          -0.1313451637768475
        ],
        [
          0.33088119180705927,
          0.20026878381488059,
          0.5277632045389492,
          -0.11600449151007601,
          -0.2000031179845702,
          0.49854363090640286,
          -0.20605230383698045,
          -0.5090751274417966,
          -0.18989769617464866,
          0.45517634431079407
        ],
        [
          -0.05315378812380186,
          -0.026246243818909467,
          -0.09869555236179503,
          -0.026074472939680054,
          0.11791635718107822,
          -0.16958389106304292,
          0.06395768795059191,
          0.058486224183699656,
          0.04706878469247059,
          -0.1697075703687257
        ],
        [
          0.3990855223990939,
          0.16440287889098526,
          0.5903690837071282,
          -0.21146161791619736,
          -0.2911985198616827,
          0.5831307320271666,
          -0.2807967858745464,
          -0.3878986532545165,
          -0.2512918207062469,
          0.5233045750719917
        ],
        [
          -0.11085678652082623,
          -0.07217668415412552,
          -0.132229687643467,
          0.0959098546234369,
          0.04147873549285465,
          -0.1950706693405046,
          0.020846895637541878,
          0.1141040364317988,
          0.12925903251512358,
          -0.11732382099387487
        ],
        [
          0.25122592781308317,
          0.1573647516518416,
          0.46450864683051984,
          -0.1626242375148403,
          -0.2150921680884475,
          0.38073748753355324,
          -0.13636180559407082,
          -0.35054977330348747,
          -0.13888182441101826,
          0.44299961446163644
        ],
        [
          0.048740965031373366,
          0.03199796040812343,
          0.03710583827063157,
          -0.01706951167898896,
          -0.014801925646661981,
          0.13285786645771772,
          -0.04483500801128105,
          -0.12901004848279127,
          -0.007806170287146372,
          0.0657505620934001
        ],
        [
          -0.03447182428774145,
          0.0001294186204401151,
          -0.10387561474079895,
          -0.022078041303316795,
          0.1006974362015986,
          -0.07756865584908416,
          -0.00752550448235418,
          0.06840168913615262,
          0.06832581028032661,
          0.050580637347204846
        ],
        [
          0.04508820822895322,
          -0.05315026763552535,
          -0.07466332154310665,
          -0.03181272104133139,
          0.0679242136406608,
          -0.024554605760916063,
          0.02981214684541518,
          -0.05999194308559228,
          0.0879330773592236,
          -0.04201257305099584
        ],
        [
          -0.2752640490542989,
          -0.07447531054056816,
          -0.32239863017844267,
          -0.026173144471494655,
          0.18202706460403462,
          -0.25530586793039334,
          0.09608070357594815,
          0.25591138901675003,
          0.10187754822665204,
          -0.23479613005645353
        ],
        [
          0.008549204945739785,
          0.027176737819937583,
          0.008937411618662539,
          -0.050636873752394555,
          0.04030025509729392,
          -0.06928410018778661,
          0.05261805044250455,
          0.0889508748632013,
          -0.037459018186942784,
          0.044997465991626524
        ],
        [
          -0.2522448202983908,
          -0.01832613467624787,
          -0.268315336697617,
          0.044713382856856464,
          0.08791516145977424,
          -0.2732070816341579,
          0.09269641192865267,
          0.13425557433342575,
          0.1112017496957919,
          -0.1476404983854925
        ],
        [
          -0.18591441382610696,
          0.029479998289692326,
          -0.25237797761708686,
          0.06414706375416852,
          0.0820370088809776,
          -0.13782182381089372,
          0.14800202371120588,
          0.11737858529651317,
          0.13162672460402947,
          -0.23285576003107517
        ],
        [
          -0.27098927368655906,
          0.004863592796427773,
          -0.326901453590958,
          0.05506202421193581,
          0.15662707549770022,
          -0.21088250882784718,
          0.19145996892333791,
          0.23420257087546123,
          0.15035480172191154,
          -0.24823057956110578
        ],
        [
          0.1348149986590668,
          0.06591774121893602,
          0.15085958573099914,
          -0.06909139144448781,
          -0.12469886181275056,
          0.14492687440128407,
          -0.017717027528761954,
          -0.1187493926168485,
          -0.12317714419348681,
          0.08139393435876749
        ],
        [
          -0.3190645103550753,
          -0.157028710189004,
          -0.5094408136002153,
          0.042215013505717755,
          0.1873563979888128,
          -0.5133114328418984,
          0.24074686564571296,
          0.33561012471364166,
          0.17735468172555335,
          -0.38872638371978263
        ],
        [
          0.1435620702985551,
          0.072731579775316,
          0.08405256090217136,
          0.03137547708793297,
          -0.03597287841959639,
          0.13511885718046573,
          -0.018436874438705203,
          -0.15671580167221097,
          -0.0676652532691049,
          0.09674474112803688
        ],
        [
          -0.3456507118682936,
          -0.07120164077424507,
          -0.4457775975987977,
          0.02600572282115155,
          0.15643059258121528,
          -0.4885637664682066,
          0.20647256248315257,
          0.3510138583407848,
          0.13754797199337845,
          -0.36513869174969105
        ],
        [
          0.09974376554313674,
          0.06521778894296698,
          0.04806251774122893,
          -0.05965597608697057,
          -0.10677455099285402,
          0.12041702575819516,
          -0.02046801960871638,
          -0.007428300411198639,
          0.008007679681984663,
          0.11598228830719447
        ],
        [
          -0.2791936703130615,
          -0.06376770254864973,
          -0.3596875638817375,
          0.10223945516115066,
          0.10477805666090068,
          -0.3524085481539243,
          0.10933119230046824,
          0.32397096074756065,
          0.1330234497470457,
          -0.24972230195730813
        ],
        [
          -0.020855248965124088,
          -0.043736907699870646,
          0.0231784563702363,
          -0.010635393995171815,
          -0.055213320834798366,
          -0.05451906949111301,
          0.025042305035731658,
          0.015267332707733982,
          -0.0617091194599321,
          -0.015516011242221236
        ],
        [
          -0.34093335957822246,
          -0.012540032412855211,
          -0.4257776789281983,
          0.06405245707299109,
          0.08314023871198431,
          -0.4221742543478823,
          0.1950245433687204,
          0.3645411544382499,
          0.09013131790189886,
          -0.2781478573167679
        ],
        [
          0.041012391889466246,
          0.08116545803698477,
          0.07414589945675136,
          -0.0849748829526473,
          -0.011910220811629476,
          0.15650362076543664,
          -0.08458999449883813,
          -0.07440673120980226,
          -0.1110307968031743,
          0.030070661688622005
        ],
        [
          -0.30247784803270494,
          -0.12224058234744656,
          -0.3320991145623066,
          0.14484452603652798,
          0.11412747662405175,
          -0.4480134883552955,
          0.14890189449242255,
          0.31595614037700676,
          0.25239556802287727,
          -0.2417168515996252
        ],
        [
          0.20156218852319546,
          0.07369089225817706,
          0.1316986151557472,
          0.010314821765134144,
          -0.15197860838623448,
          0.11636719102182452,
          -0.062319298110231985,
          -0.166807192776054,
          -0.12589566247445005,
          0.17742574605502398
        ],
        [
          0.1287621266312878,
          0.12681292051423432,
          0.19747953703278787,
          0.008282929179966618,
          -0.13576976202989632,
          0.27957763961061505,
          -0.05410243832230485,
          -0.1813577522931642,
          -0.13342201810518325,
          0.13733065548217913
        ],
        [
          0.03621347611671411,
          -0.000953143931715918,
          0.16600268435865412,
          -0.05473737353909451,
          -0.03391222583047311,
          0.20739464195685375,
          -0.02124115826366413,
          -0.18341632166844193,
          -0.018974133205560823,
          0.03118750732112019
        ],
        [
          0.22723191491774114,
          0.01046669548837568,
          0.17642044831338133,
          -0.08186302450609315,
          -0.042959755443253235,
          0.13666779058588072,
          -0.08522567290790006,
          -0.1572758655779211,
          -0.03324826320335867,
          0.21122737071281034
        ],
        [
          0.16582419438778187,
          0.04807645706439324,
          0.20763172625307136,
          -0.03347179053846424,
          -0.14008997927334663,
          0.12154661154254649,
          -0.03740447592834373,
          -0.177731917205883,
          -0.11137263762974382,
          0.17808726737358369
        ],
        [
          0.15908231535552564,
          0.06513988424330674,
          0.15884411402005646,
          -0.09409710730592083,
          -0.0006532726915851163,
          0.1297429440671197,
          -0.04681232473134428,
          -0.16835124195957468,
          -0.04565929747284898,
          0.1408916656071154
        ],
        [
          0.14338961246821458,
          0.0795300527623176,
          0.17314859079588532,
          -0.0405749316634151,
          -0.11969747359083815,
          0.14343663700677375,
          -0.10788703469735292,
          -0.13524489990925695,
          -0.05355699195280256,
          0.16919599963028872
        ],
        [
          0.0018304332022140582,
          0.04308821439606256,
          -0.024040598232157033,
          0.0056169399216839805,
          -0.10147654748464695,
          0.07344512715728611,
          0.012772109019116315,
          -0.09399008804416707,
          -0.04130090323859088,
          0.006561753703326708
        ],
        [
          0.01703165199745161,
          -0.02147741677543469,
          0.08365793727284003,
          -0.0389315595403858,
          0.05240416042399055,
          0.0879770106730389,
          0.046349074368465505,
          0.018960659274849877,
          -0.057839986937644604,
          -0.003521443070334435
        ],
        [
          -0.25978390019699565,
          -0.14628696652558582,
          -0.26543788458508705,
          -0.014856613126610322,
          0.03698819167503716,
          -0.35461782781764134,
          0.17680657932942306,
          0.20239123746158802,
          0.18413319214591775,
          -0.25133305543460693
        ],
        [
          0.0635908402781564,
          -0.010982042376120408,
          0.048448890353614146,
          0.001269844583178087,
          0.027549397772307787,
          0.005582660098037658,
          -0.09738070560668965,
          -0.05970692518223017,
          -0.06324430607434395,
          0.03613745703237887
        ],
        [
          -0.04461330700698424,
          0.05513331980007065,
          -0.012620368838644548,
          -0.024115492318516965,
          -0.004125900411397457,
          0.05217845133022338,
          -0.02003389395643516,
          -0.022714028757007485,
          0.03255684371725503,
          0.07074194641492175
        ],
        [
          0.0017378209961894419,
          0.07244210204592222,
          -0.011484494010788503,
          0.0618936019691456,
          0.0060333405614193545,
          -0.06395858088268853,
          -0.062493885158230185,
          -0.0252895504149517,
          -0.048721255852016206,
          -0.06634364334136927
        ],
        [
          -0.2774499256105226,
          -0.0027618034473689906,
          -0.2953337805054325,
          0.060777296931584124,
          0.1622463595407424,
          -0.23570165404423613,
          0.05212258054247512,
          0.22436400486915198,
          0.18220538241035428,
          -0.19666917785621826
        ],
        [
          -0.3218733960042197,
          -0.0789763516957515,
          -0.3093925571093459,
          0.0578915163044111,
          0.18896661220692498,
          -0.31860617168978017,
          0.08013826057184437,
          0.27863121037528293,
          0.17189046145135592,
          -0.2691881731365549
        ],
        [
          -0.2125665784155072,
          -0.108260806645441,
          -0.36169950808348406,
          0.12693591110733274,
          0.05769133307909057,
          -0.21601908606193834,
          0.16322803485409376,
          0.29459475027154197,
          0.0635479593465725,
          -0.29232614959221354
        ],
        [
          0.05897676711179331,
          0.06667158265660052,
          0.023585512283766583,
          -0.04392450545721528,
          -0.0896653541034167,
          -0.012814794533983131,
          0.04058913658037592,
          0.014480003043632684,
          -0.07078928517056637,
          -0.03054959324905006
        ],
        [
          -0.11303504606862336,
          -0.06194193152534855,
          -0.22804201003338848,
          0.06514146947652756,
          0.10707231407290416,
          -0.19209678876323724,
          0.025595194015983536,
          0.17117068549511572,
          0.13657943729266475,
          -0.181735972675609
        ],
        [
          -0.08874114298076573,
          0.04833867417336573,
          0.01429902859986609,
          -0.047322005894878866,
          -0.028038301511805825,
          -0.030926116795585573,
          0.026685556685475512,
          0.08607266240630593,
          0.005315495206735192,
          0.058559817060837835
        ],
        [
          0.03168211401225741,
          -0.03885499620922386,
          -0.022221128895049617,
          -0.0025398432315668035,
          0.02842387687938251,
          -0.03595188345526624,
          0.07393156484265576,
          0.0795191728667775,
          0.08319010699956492,
          0.012631027749129437
        ],
        [
          -0.24066205570468813,
          -0.06968039804563965,
          -0.20237150626404415,
          0.10996593040595533,
          0.1653775648177873,
          -0.28706185179391497,
          0.12404682502001309,
          0.10904293073480495,
          0.06990174580317172,
          -0.12888580581736625
        ],
        [
          0.0989017065713238,
          -0.006530681799856404,
          0.008116276045489944,
          -0.037688825207388074,
          -0.07447799779333358,
          0.08479931212719491,
          -0.03721325209279022,
          -0.01015313085810524,
          -0.017140223402283654,
          -0.010292093773641969
        ],
        [
          -0.08087724931793605,
          0.027532586235189026,
          -0.1241127843689377,
          0.06190319198634418,
          0.02779487533461876,
          -0.12108771283991603,
          0.08224281131858077,
          0.10237419450279249,
          0.07101470470974036,
          -0.11314443356395502
        ],
        [
          0.0664386462676463,
          -0.04510561016643914,
          0.15809567945827438,
          -0.09423789243983807,
          -0.04328424583056749,
          0.09090909512608912,
          -0.027147430056702695,
          -0.16494940176757186,
          -0.08864815417485729,
          0.04438432141071928
        ],
        [
          -0.2027488528088768,
          -0.027746626020339782,
          -0.22662845552975627,
          0.0971139961703198,
          0.1434161696583891,
          -0.11099857449230699,
          0.061152890534806256,
          0.12487805535917632,
          0.07311967616959178,
          -0.08474876633854539
        ],
        [
          0.1065470283999186,
          -0.031432629622273424,
          0.12212484230725315,
          -0.0016640546176365802,
          -0.0383856182899776,
          0.14403006650394073,
          -0.018700675783495636,
          -0.04938435267187096,
          -0.0885237703063612,
          0.013493435312442863
        ],
        [
          -0.14799159686427335,
          0.0046088745888792255,
          -0.034341416357513165,
          -0.03174132260113052,
          0.07930817966152952,
          -0.031194774614213654,
          0.059960122873056125,
          0.013066109675778665,
          0.04255457172113158,
          -0.03268061876549352
        ],
        [
          0.1477646574287415,
          0.086788483908658,
          0.09058393429005002,
          0.019814250803164044,
          -0.09487129479776993,
          0.1602135035242487,
          -0.03855137644717843,
          -0.05422303880327709,
          -0.13988721230885384,
          0.06233784797084008
        ],
        [
          -0.071989412973753,
          -0.004459402803725643,
          -0.15047353469812158,
          -0.050047179440849465,
          0.10176605884153471,
          -0.13368720437228968,
          0.09505890840649456,
          0.011019974843802773,
          -0.009876732422459754,
          -0.1091726779033316
        ],
        [
          0.16253527063950354,
          -0.03261769491142839,
          0.15095323564608146,
          -0.03338655748090938,
          -0.0768991882323731,
          0.16785625328620343,
          -0.14794800327165653,
          -0.12014967178566498,
          -0.0020494524815531864,
          0.10328670023115982
        ],
        [
          0.04025464531038809,
          0.0037067935167695546,
          -0.09268475158856906,
          -0.050888816876889224,
          0.002642031672853031,
          -0.08782306252001174,
          0.06293479723496877,
          -0.009278978641905473,
          0.08487356069447835,
          -0.07144170461774538
        ],
        [
          0.21131404153170968,
          0.05082823275315302,
          0.14429236108597807,
          -0.11539807295651144,
          -0.11850107479459428,
          0.22097864517276802,
          -0.06026594666591411,
          -0.24103729509946203,
          -0.042709090532697114,
          0.24064999356327033
        ],
        [
          0.1295282232006562,
          0.09815754476256486,
          0.20397801838718493,
          -0.10275617537973908,
          -0.0745862745490832,
          0.20258855269830528,
          -0.01615518511758584,
          -0.07310428128909491,
          -0.02384493594715391,
          0.16598344279083527
        ],
        [
          0.3115093457734307,
          0.08374364837843544,
          0.2904421501061266,
          -0.07039980845360745,
          -0.1424533453172895,
          0.33647435448220975,
          -0.07383727253647199,
          -0.35027398808982296,
          -0.15186877557192704,
          0.3023606235379069
        ],
        [
          -0.009020045297662524,
          0.029285905990078707,
          -0.052771791835062656,
          0.02405517635964,
          0.02201090116689829,
          -0.04083378212986617,
          0.051825353514973097,
          0.07350330328267474,
          0.05745732434301009,
          -0.09493002083385832
        ],
        [
          -0.19277068158783534,
          0.0004055908386077996,
          -0.30961809197173307,
          -0.026406803814668645,
          0.2179017127792405,
          -0.31678201218319524,
          0.07698197411509175,
          0.18314301578942704,
          0.19568543923007947,
          -0.21792124840147326
        ],
        [
          0.044780577946133764,
          0.013474731959525477,
          0.013916456926409738,
          -0.020617502292371383,
          0.04497234053821902,
          -0.08066611570816035,
          0.006092413883193692,
          -0.020766464142683697,
          0.02770659573892301,
          0.0020802301385628545
        ],
        [
          -0.15688893006859067,
          -0.003430385240804977,
          -0.17326362651066432,
          0.01552623229587341,
          0.0825215393539136,
          -0.2152149032059018,
          0.1720496197629392,
          0.18630058249387257,
          0.02879783998538911,
          -0.11228917298046792
        ],
        [
          0.19546662057452854,
          0.08751333765259992,
          0.22640991785416417,
          -0.04638588232222833,
          -0.18664995041584545,
          0.1698920393393897,
          -0.07699541899388215,
          -0.18718995117508733,
          -0.042018803262566434,
          0.139974215869253
        ],
        [
          0.33782537456914047,
          0.17004346197012893,
          0.42000612928081565,
          -0.1329477259435383,
          -0.16890482054163505,
          0.34818456363890676,
          -0.14975461022823472,
          -0.3409718835874456,
          -0.22744608401641667,
          0.2104996444750768
        ],
        [
          -0.018695382958560647,
          -0.012226905819757938,
          -0.1034337566223653,
          -0.05091063642230527,
          0.08575075362093407,
          -0.10087905653688863,
          0.10647740596644274,
          0.13869594841069532,
          0.01766557818233302,
          0.010546357709031815
        ],
        [
          -0.19552080373449052,
          -0.07060124851476525,
          -0.24251268408303062,
          0.06226634249890576,
          0.05421900496473258,
          -0.257774006865198,
          0.10724425453843336,
          0.23524030019567024,
          0.1156694244307521,
          -0.31937307753703786
        ],
        [
          0.03275234955281911,
          -0.04214459056199447,
          0.02226704967882351,
          -0.04567259767071292,
          0.05693991871599016,
          -0.058041687828485455,
          0.030973156759868527,
          -0.060113961204529776,
          0.08642819281378115,
          -0.029691404755601586
        ],
        [
          -0.07401187997841026,
          -0.02500379227128067,
          -0.12059384280418756,
          0.10968408623739866,
          0.15566894659474476,
          -0.20923820156432754,
          0.14891184506328353,
          0.20813777467046396,
          0.15299711904572622,
          -0.07274839486723786
        ],
        [
          0.031406016295875014,
          0.012804950858756294,
          -0.11827450694998544,
          0.04068556118288469,
          -0.008166709960139122,
          0.019917062354059475,
          0.08222038141923112,
          0.04637828152017913,
          -0.04571089807441002,
          0.030070318530595802
        ],
        [
          -0.19771805425502276,
          -0.0023085817991627474,
          -0.23861099071844255,
          0.04167626748394661,
          0.14829648248103353,
          -0.10162425505809985,
          0.016512464690509127,
          0.11864172684080367,
          0.09867842890229159,
          -0.11095420778412114
        ],
        [
          -0.025638714248778408,
          0.04666033110428625,
          -0.06268670740817506,
          0.007433822336708694,
          0.08109154448238662,
          -0.05625418744243327,
          0.09221674066281967,
          0.11653283320546318,
          0.013814926413645852,
          0.01809088083946492
        ],
        [
          0.14038067851826433,
          0.015034072342321028,
          -0.023320223039826397,
          -0.016283276473510914,
          -0.046036097533746045,
          -0.0034665514820211778,
          0.006580902732522695,
          -0.05905760866679863,
          -0.04190234369794405,
          0.10000854293579622
        ],
        [
          -0.031456085347294944,
          -0.062012724622258104,
          -0.04235484701304784,
          0.03199501278002155,
          0.09392851691079626,
          -0.01008322557502987,
          0.07616117792609846,
          0.07887075217310616,
          -0.049280906658534955,
          -0.05527180212854819
        ],
        [
          -0.12018651422435823,
          -0.10282114958443267,
          -0.18323221475740734,
          0.002331611617410648,
          0.16607203324914643,
          -0.13254652670711833,
          0.1407625158740708,
          0.19412259721964228,
          0.16073401153512057,
          -0.03876591729530053
        ],
        [
          0.2968766078429723,
          0.13601097460726905,
          0.45745638703312375,
          -0.10972622247148732,
          -0.12940413979199153,
          0.459915277641431,
          -0.21419223633134676,
          -0.28579314174843967,
          -0.19179695850665301,
          0.3723540235490112
        ],
        [
          0.6791405318404532,
          0.14016912642164495,
          0.7197948580087895,
          -0.16657388300793294,
          -0.3606774693783616,
          0.8573648556766668,
          -0.42015249191798676,
          -0.7193207777543535,
          -0.3619413178084798,
          0.579279407805059
        ],
        [
          0.18633617440358535,
          0.06481131983113136,
          0.2802988819066417,
          -0.02399507011248601,
          -0.2277761158292548,
          0.4035723028671131,
          -0.12163793825677338,
          -0.3410108842454117,
          -0.10180786431848049,
          0.27546892728617955
        ],
        [
          0.531305069529382,
          0.16934892996242543,
          0.5474547934946908,
          -0.1663891334490142,
          -0.21456696712078507,
          0.6361426760689565,
          -0.23919329735197664,
          -0.5732107305280247,
          -0.23735504113735933,
          0.4152274582775992
        ],
        [
          -0.12396917543180086,
          0.04187375250523622,
          -0.07598576152143685,
          0.004823388900640898,
          -0.03149785220880012,
          -0.1645115943507582,
          -0.02187669432955657,
          0.08315487770540272,
          -0.016086646210094636,
          -0.10537393686036348
        ],
        [
          -0.07216586356904688,
          -0.07416779393855576,
          -0.12633640104248584,
          0.0016146797457015577,
          -0.03848174029395113,
          -0.12857813668847654,
          0.08445301902655195,
          0.06968117260107455,
          0.03463634967812669,
          -0.1269823451001882
        ],
        [
          0.17159293352155916,
          0.10488412189644018,
          0.22160105703127422,
          -0.1095865323783224,
          -0.0924260192684669,
          0.31183189050358046,
          -0.19741467737735896,
          -0.2762816381719711,
          -0.1296030162644226,
          0.17733722435966456
        ],
        [
          0.5069042952573332,
          0.245309325822837,
          0.7685340611517312,
          -0.15059701353583246,
          -0.3096206318762239,
          0.7975497771794802,
          -0.3269241998114362,
          -0.6464478818480155,
          -0.29771969789642033,
          0.5544635319719645
        ],
        [
          0.05387140216648352,
          -0.031006093392311484,
          0.1291361793096136,
          -0.05944037735521652,
          -0.017695507141337465,
          0.13682488576913077,
          -0.01878053223891,
          -0.043056376296708096,
          -0.099918853626945,
          -0.007414992067744661
        ],
        [
          -0.01371507386002446,
          -0.015230640282773076,
          -0.01872448662564861,
          -0.05195736541269937,
          -0.024952449885860598,
          0.06409707966243489,
          -0.03774347185935915,
          -0.020066759934971586,
          -0.10090804874917095,
          0.05255347038230992
        ],
        [
          0.17907606810974436,
          0.04437109524905367,
          0.1680367680604502,
          -0.09145954968758224,
          -0.056832636829210574,
          0.13180550503361552,
          -0.03207200891474868,
          -0.1420218892969331,
          -0.12312168437770697,
          0.17008460750249568
        ],
        [
          0.4174329298798204,
          0.14986219068225812,
          0.4598369437687613,
          -0.08352414052542226,
          -0.24445557428751089,
          0.5069459642650785,
          -0.17742480855804207,
          -0.3710508602252947,
          -0.18570997350544105,
          0.39898199806167794
        ],
        [
          -0.537755382315893,
          -0.08693467887354622,
          -0.6514599373420814,
          0.1584182813214414,
          0.26789717725574114,
          -0.5690003689274135,
          0.3433075355784447,
          0.5381224603571295,
          0.21718107179066837,
          -0.4398600629287227
        ],
        [
          -0.20111947896628918,
          -0.1315612085364585,
          -0.20839408115451916,
          0.13873038149270633,
          -0.002768034716447292,
          -0.2161917268489846,
          0.09899559661226501,
          0.13765779578779874,
          0.017417885475946027,
          -0.20477573068698823
        ],
        [
          0.0003611290238099677,
          -0.04497511530503271,
          0.04993648196479508,
          -0.04231952536167346,
          0.00872565723054453,
          0.03315292439313848,
          -0.012061515956879727,
          0.04514548391058336,
          -0.027544502156227495,
          -0.05127965658505602
        ],
        [
          -0.20225539787563432,
          -0.0037873268978054356,
          -0.10558295183418491,
          0.08585600401617495,
          0.12922566623437123,
          -0.10133256582247437,
          0.03557376748111726,
          0.2207685634794735,
          0.1585284327692244,
          -0.11085756459403091
        ],
        [
          -0.011810991904761321,
          -0.008003981382681357,
          0.031733799890976785,
          -0.039292720516630346,
          -0.07524541585866074,
          -0.03002674523183947,
          0.015367985545002665,
          0.001768235997737899,
          0.06035141585829663,
          8.531489477107875e-05
        ],
        [
          -0.15360593721103608,
          -0.0919438529235222,
          -0.11230607840367644,
          -0.015379843647941389,
          0.1084933650317329,
          -0.15296951833062616,
          0.12202168146257238,
          0.17250043252244482,
          0.009803976145799394,
          -0.10417382891600781
        ],
        [
          0.054144136949810656,
          0.10947768041802541,
          0.20674379057830922,
          -0.03720622660390008,
          -0.02554044454599861,
          0.19037455172288692,
          -0.07663547855305305,
          -0.2182500678074834,
          -0.14463244256923463,
          0.10539673390457982
        ],
        [
          0.2516733051916585,
          0.0026969325548175074,
          0.30180542858734666,
          -0.12025897297482646,
          -0.14007934125516264,
          0.3476452633658682,
          -0.11464877683489501,
          -0.23372767457166266,
          -0.17541598857321078,
          0.2556809080775208
        ],
        [
          0.10158223744346984,
          0.12117279918248179,
          0.17120822291007307,
          -0.08059562365831846,
          -0.11051996947109095,
          0.2114185528378136,
          -0.16611809456314372,
          -0.23748465837284272,
          -0.11401711555392752,
          0.1008220645099423
        ],
        [
          0.24538566370637896,
          0.04028578618512099,
          0.23525682323395122,
          -0.06205007690761707,
          -0.17083107011295004,
          0.30741139403784273,
          -0.10352611106795814,
          -0.19400489728028109,
          -0.07573773097981781,
          0.17063938885916807
        ],
        [
          0.23182166585311575,
          0.04542452821655346,
          0.28632634199897405,
          -0.08765662027284055,
          -0.15101693502981633,
          0.36010503010744876,
          -0.24675907383310136,
          -0.3484540921062072,
          -0.23840918485619267,
          0.27522503989543073
        ],
        [
          0.575169847005,
          0.11687133020913498,
          0.6006796287172813,
          -0.10727550829776505,
          -0.2294608541675982,
          0.7324146556291689,
          -0.35949731372032673,
          -0.4695626447828895,
          -0.2758501049312162,
          0.5033527306763432
        ],
        [
          0.0009596399358724912,
          0.017347464682228548,
          0.03905534030439934,
          -0.07006434899819992,
          0.053416349146390686,
          -0.023248057470859937,
          -0.07617010460986882,
          -0.0069401115641200195,
          -0.03782541558866713,
          0.0632746964673979
        ],
        [
          -0.0847769243358498,
          -0.035597318809421685,
          -0.11327549394146216,
          -0.009441765544484023,
          0.08007486184766757,
          -0.1740802089423541,
          0.054024829086651356,
          0.16041184273120282,
          -0.007470339200751559,
          -0.13028160094209162
        ],
        [
          0.40168354857087496,
          0.09669151530552593,
          0.39128927199135166,
          -0.0055194670601689776,
          -0.14920038236057176,
          0.4220112475892404,
          -0.13318562110098703,
          -0.3895937459573539,
          -0.25109360007840603,
          0.28568777546512786
        ],
        [
          0.634700711976504,
          0.24656014195614964,
          0.898256299793897,
          -0.19614189416672284,
          -0.3446680607807372,
          0.8345217414310097,
          -0.399387720199493,
          -0.6930900818908106,
          -0.4312741074692092,
          0.7107807208784684
        ],
        [
          0.28290231418002953,
          0.15403739515904574,
          0.4982467596824011,
          -0.09209895808267379,
          -0.25570332333789975,
          0.5112790109387547,
          -0.2539469604713081,
          -0.36714667745372676,
          -0.19181755329377348,
          0.3343697407410166
        ],
        [
          0.7096536697662525,
          0.22640397604651716,
          0.8620276329352962,
          -0.14561761945415655,
          -0.35643074510078065,
          0.9230250475308005,
          -0.39161058318791664,
          -0.7565064072967969,
          -0.4233251998725611,
          0.6601218458865324
        ],
        [
          0.08682275106420004,
          0.04346081078374356,
          -0.014959407982786083,
          -0.06672770534624249,
          0.0009156595755435875,
          -0.0077724253890357415,
          -0.08190977629875584,
          -0.10422655650966473,
          0.04181412869715587,
          0.038465025578548924
        ],
        [
          0.13312968296493707,
          0.04308065668479948,
          0.17044151488272186,
          0.015562011076128304,
          -0.1671831054476982,
          0.286642340318356,
          -0.19776725598062747,
          -0.285038731542251,
          -0.04413605173819404,
          0.10577985160615883
        ],
        [
          0.09047464426724137,
          0.06343124931897336,
          0.1015777963353426,
          0.048972016152877565,
          -0.03914628071725636,
          -0.010215530172700348,
          0.005336159498658928,
          -0.08942299988101118,
          0.03489270671260416,
          0.027090806799757304
        ],
        [
          0.24302483379223153,
          0.005699078153719097,
          0.30561729079228483,
          -0.012977027032847319,
          -0.09067290325241217,
          0.2932972747888367,
          -0.13707311075564163,
          -0.19114410101812956,
          -0.08878423084360722,
          0.16554386031273485
        ],
        [
          0.16621365565410418,
          0.04374864083691642,
          0.18461840420934478,
          0.013798685157122334,
          -0.0554405494469026,
          0.19230855583664566,
          -0.033883824500882925,
          -0.14511483408401074,
          0.008229414014624242,
          0.03557999725912477
        ],
        [
          0.3803324872244048,
          0.10324730334829374,
          0.3898214123478756,
          -0.10260032443665151,
          -0.1860188569376653,
          0.5370256894557778,
          -0.2413513905050926,
          -0.34421047487577855,
          -0.22272996400136583,
          0.36750413755261163
        ],
        [
          0.179689575422411,
          -0.012907968081484433,
          0.24880963619920454,
          -0.06984008912858261,
          -0.1808751343230399,
          0.24541254557117204,
          -0.10257051525884753,
          -0.15260255322535637,
          -0.053592719214294,
          0.15659065069493272
        ],
        [
          0.35854964026674396,
          0.18020651778722713,
          0.38950204663183635,
          -0.03990193391556968,
          -0.1735964887771706,
          0.32062752667989763,
          -0.2336835024278315,
          -0.28313470182572614,
          -0.12580454544475797,
          0.32656484291233023
        ],
        [
          -0.03104903620046647,
          -0.007993490750649248,
          -0.061887103529974154,
          -0.0028866938877739755,
          0.11254188465681376,
          -0.08016336113142314,
          0.0534467322138627,
          0.0830427640836738,
          0.1006863362997192,
          -0.13203841787454837
        ],
        [
          0.08665175745390724,
          -0.04025310369187732,
          0.07419119430561891,
          -0.017534937902811503,
          -0.11718691946613333,
          0.03474961313114457,
          -0.021099763443843306,
          -0.0448149712714034,
          -0.05668364526096174,
          0.03137144348750064
        ],
        [
          -0.211861136591626,
          -0.035150942700278,
          -0.13416519124227877,
          -0.04062479054652156,
          0.06772655501220318,
          -0.185237271243984,
          0.16396680849278297,
          0.22647239907303626,
          0.1245838322572829,
          -0.18391730784822494
        ],
        [
          0.06788933236441165,
          0.07843303987811359,
          0.045153683019519844,
          -0.0036390020584441164,
          0.03450625667415538,
          0.023720353627393703,
          -0.05119061142095497,
          -0.010842978141191005,
          0.022286177678016557,
          0.015217091515265395
        ],
        [
          -0.13367781506586723,
          -0.010492398255148557,
          -0.20444538684491503,
          -0.053900937706604486,
          0.01897187349485146,
          -0.10103786012348266,
          0.036363616692983776,
          0.15325468358013522,
          0.06951081587553946,
          -0.06968518511916895
        ],
        [
          0.1124313250247563,
          0.049621152758234144,
          0.10783326967629941,
          0.052873692082964704,
          -0.1183609782187518,
          0.16979706505797662,
          -0.1318544761191004,
          -0.18131235225780193,
          0.000941627137330467,
          0.14651780574462184
        ],
        [
          -0.12998617537770443,
          0.04626656521743805,
          -0.09782063362752719,
          0.08000421880697742,
          0.0006570031007828479,
          -0.13457625738893697,
          0.08446501500410877,
          0.06377531421718058,
          0.010449942133612304,
          -0.07267284584824846
        ],
        [
          0.19436798512632358,
          0.04661549830779538,
          0.10437461745063227,
          -0.041452155846887995,
          -0.05975305527137033,
          0.1748500858610046,
          -0.06402363924731061,
          -0.1386756984438484,
          -0.027176095394377178,
          0.07510138446259038
        ],
        [
          0.02277962996834082,
          -0.04882773297279971,
          -0.05507665383316074,
          0.0063451684327098115,
          0.007903913415741015,
          -0.047142282545578805,
          0.026306690043962026,
          -0.07894031934443996,
          -0.058085025131012345,
          0.014021345069492075
        ],
        [
          -0.09690044761185575,
          -0.06693311396782237,
          -0.2039913048440984,
          0.0969580675376208,
          0.09839143730256761,
          -0.2349711507951805,
          0.04117546639981383,
          0.10092002725969439,
          0.09177518975235856,
          -0.18270948845495927
        ],
        [
          0.11358923457982298,
          0.11730493340085861,
          0.09357942083781176,
          -0.03644374487025274,
          -0.10143445518985218,
          0.12906613722824964,
          -0.07902232201575632,
          -0.08436990269442474,
          -0.15239378097786715,
          0.17219194229270562
        ],
        [
          0.2225088863715144,
          0.007314414620361541,
          0.24857426351365652,
          -0.1255480160075127,
          -0.20749562190214207,
          0.3247013043530028,
          -0.15411209495766798,
          -0.17289693481254767,
          -0.09936474475290467,
          0.18038409102887878
        ],
        [
          0.05403218568581437,
          0.04723097635399033,
          0.18506595341469834,
          0.030419500708184336,
          -0.12128419425601251,
          0.16589911054403458,
          0.0033821567436046096,
          -0.03843387084709526,
          -0.025144537877960536,
          0.12392149761750862
        ],
        [
          0.172681806153124,
          0.09234360962601226,
          0.3111033882182813,
          -0.13998776980055944,
          -0.042575136474758066,
          0.3104088640142548,
          -0.18544272947531887,
          -0.1446995392713435,
          -0.12928534277130393,
          0.19452609507274102
        ],
        [
          0.1298672682993484,
          0.0460827793462731,
          0.19770444951686747,
          0.006627271736994362,
          -0.16250021389134855,
          0.2151281326237382,
          -0.05822418382982034,
          -0.21787199482819541,
          -0.11000222605849816,
          0.1792390065640695
        ],
        [
          0.26115331908974443,
          0.13082075670394985,
          0.2514405556973301,
          -0.008659877571238515,
          -0.11883634517289077,
          0.2522676720054681,
          -0.1629688020466426,
          -0.27612505797609155,
          -0.18005747756385093,
          0.18507853071387484
        ],
        [
          -0.08828585537381989,
          0.02297125433478831,
          0.016593141372269825,
          -0.06266228703232399,
          -0.006115489875363171,
          0.044656954153067946,
          -0.01602948657800258,
          0.02625900878416438,
          -0.05201414443819313,
          -0.044050068168604795
        ],
        [
          -0.2814884320898731,
          -0.07336270033601013,
          -0.24939634305127503,
          0.041106539402585594,
          0.15785084138182454,
          -0.19484261626819785,
          0.19752084545103316,
          0.2740264341013897,
          0.05769081114266586,
          -0.18608283076377838
        ],
        [
          0.04570489075120219,
          -0.0015071458340028354,
          0.027070040577804013,
          -0.060995558811509296,
          0.016822222794438273,
          0.04451881959219166,
          -0.0892639838362245,
          0.010444486150335374,
          0.047811902914257506,
          -0.0355478980555861
        ],
        [
          0.23087788989719182,
          -0.0269155926015172,
          0.1395722388757467,
          0.02751724920850504,
          -0.13780578646552719,
          0.1418561771390216,
          -0.05687118734669844,
          -0.22705636196111892,
          -0.06739990260998444,
          0.1233834888364502
        ],
        [
          -0.021168402405507686,
          0.06100676669722144,
          0.026573431953312625,
          0.06349089955264885,
          0.08470484187195071,
          -0.0559063945363349,
          -0.021135034018298093,
          -0.03429556994145901,
          -0.04204632291360371,
          -0.03293697642702175
        ],
        [
          0.10278120835595347,
          0.03267090227862219,
          0.15334327422623178,
          -0.06185146733450151,
          -0.1279906014829327,
          0.17971356428016128,
          -0.06367123813412486,
          -0.18616627664434368,
          -0.14468557685854433,
          0.07545031854148826
        ],
        [
          -0.020063444387696524,
          -0.07150227279018327,
          -0.154669394959972,
          0.08237895480524107,
          0.0034535004655323422,
          -0.06275771820549847,
          0.013127769815180464,
          0.1072579603254496,
          0.07683600495679183,
          -0.06831450875560924
        ],
        [
          0.1433804876551605,
          0.07089054473087121,
          0.14882829201093167,
          0.04941494005184634,
          -0.03847079529933853,
          0.1914901879537505,
          -0.04092067592750631,
          -0.18746768086895657,
          -0.11285824142092693,
          0.1195117774299497
        ],
        [
          0.14721269009341542,
          -0.012169661247937056,
          0.15382779650800396,
          -0.00894158189017248,
          -0.006554644969202103,
          0.19515278537354402,
          -0.053472531838879934,
          -0.10431978015306566,
          -0.1026555040772135,
          0.1563419023091324
        ],
        [
          -0.04854728725555599,
          0.0370329893767057,
          -0.12601970332709667,
          -0.014199473163527125,
          -0.027996510307484915,
          -0.1096423400244459,
          0.0008976758414243695,
          0.05841761402243612,
          0.05999234720927096,
          0.04565181976710145
        ],
        [
          -0.1428925397698541,
          0.022973237714357164,
          -0.15122063944005137,
          -0.045768150486156366,
          -0.010493764041180135,
          -0.16089248949148113,
          0.07297725935844947,
          0.13332264662123394,
          0.040192966397119424,
          -0.15530931945764606
        ],
        [
          0.2059476407130569,
          0.14195334022573516,
          0.31786530765399446,
          -0.04913207280844276,
          -0.1219133491121594,
          0.4123520650171585,
          -0.1676445128392616,
          -0.30828770280696194,
          -0.19311354863867494,
          0.41678231725301934
        ],
        [
          -0.151756687073053,
          -0.08356420969632361,
          -0.0793311277701906,
          -0.023539915989508147,
          0.12760595616869655,
          -0.17310391040911677,
          0.07732710894567364,
          0.15193473046315822,
          0.06918084190164035,
          -0.052983459313886164
        ],
        [
          0.2564372039013637,
          0.14123345909902071,
          0.44462673473755765,
          -0.12869149948598008,
          -0.19718396382586773,
          0.4748436347267845,
          -0.232679463863669,
          -0.5089976909251909,
          -0.2418711920508778,
          0.4146687724905119
        ],
        [
          -0.06271849165957512,
          -0.05475658176029913,
          -0.07425212458011438,
          0.06365102136809969,
          0.002344439334272307,
          -0.1402988317641348,
          0.060094577018241384,
          0.06001097326389682,
          0.08595618225327514,
          -0.11494416943870825
        ],
        [
          0.33305683267062264,
          0.18398511681101432,
          0.46626476998791105,
          -0.0758054186096785,
          -0.31975326135840704,
          0.49797697503262994,
          -0.28410724384899455,
          -0.42761507456537207,
          -0.20420175150772593,
          0.4862841657945845
        ],
        [
          -0.1493601199942455,
          -0.010817632219511413,
          -0.1486529004630394,
          -0.027079801239813857,
          0.0646047222915492,
          -0.10831767122721485,
          0.11571991848192437,
          0.08393662081685206,
          0.11322714070269208,
          -0.06640639425289442
        ],
        [
          0.3368373014795379,
          0.13357226741209555,
          0.6250971709026187,
          -0.09492798130161963,
          -0.25372065919462317,
          0.5010158597734897,
          -0.2717413066165935,
          -0.45956629444039604,
          -0.22904766495765932,
          0.4410632960615655
        ],
        [
          -0.015607663978049292,
          -0.03585853141035164,
          0.023466342821303807,
          -0.03011654894207015,
          0.008761676474352028,
          -0.04069686139972154,
          -0.02835010123046147,
          -0.0527065758441736,
          -0.039056269432564995,
          0.0326432624744325
        ],
        [
          0.21729405215140077,
          0.05883204622044105,
          0.3068095027184833,
          -0.07820894444518255,
          -0.10274595264235822,
          0.3919467900580979,
          -0.17577229077153664,
          -0.3322547934558407,
          -0.23517451993424265,
          0.2773217521895932
        ],
        [
          0.048423583301350444,
          -0.02329958553928632,
          0.013973335412177509,
          0.027286822833419794,
          -0.09489031379531694,
          0.05152287700080808,
          -0.03073699612115861,
          -0.04782371851530362,
          -0.03541336106874933,
          0.09806694934909624
        ],
        [
          0.2965621644027448,
          0.03617271249790352,
          0.40885057381674045,
          -0.05207241253518765,
          -0.21664474293842065,
          0.2758514821033502,
          -0.16348691492503567,
          -0.2695631476706527,
          -0.13927230235885596,
          0.26627030528637236
        ],
        [
          0.10193792804634412,
          0.041374791442044,
          0.08963347919004283,
          0.052738251160616,
          0.017511477416941253,
          0.09234303724415234,
          0.05101205985782399,
          0.03127031174652307,
          -0.017241764671822042,
          -0.017837701614072155
        ],
        [
          0.2161825018483124,
          0.004106049331428296,
          0.2783383281120943,
          -0.05075241256744786,
          -0.08165980257140613,
          0.27874844886357436,
          -0.09159177208807162,
          -0.30879933813683474,
          -0.09100122557715874,
          0.24565861031633127
        ],
        [
          0.09809231050551444,
          0.07664846591691549,
          0.03090783098178333,
          -0.04418046427677019,
          -0.02779560964445696,
          0.1065878562446775,
          0.004417629724137812,
          0.017379058234797084,
          -0.04628983582353849,
          -0.01783963051079534
        ],
        [
          0.014277444060968973,
          0.04833159858209742,
          0.12560543709399954,
          -0.10232966508029438,
          -0.06193913553051103,
          0.24116763461347057,
          -0.10247046251013277,
          -0.16947038498614017,
          -0.15676947265983007,
          0.20797907347124214
        ],
        [
          0.114224154895241,
          -0.007400423884469743,
          0.061073792022070576,
          -0.016349999811848332,
          -0.1292111376628154,
          0.08845097395872067,
          0.0020992442167234323,
          -0.11697648653439931,
          -0.12645777104903014,
          0.07295824411683044
        ],
        [
          0.21498243865860323,
          0.0048895568024122735,
          0.2678128122100608,
          0.04293731354363237,
          -0.07045465543869438,
          0.19770427267894924,
          -0.08512091568717517,
          -0.25389208580558975,
          -0.18344209725514624,
          0.14615296127728616
        ],
        [
          -0.403289011487027,
          -0.18878816206339233,
          -0.4478328552373957,
          0.005900532126643871,
          0.24594165493563314,
          -0.42519552444750747,
          0.15867756938588873,
          0.4679165231850066,
          0.23644516099627189,
          -0.44469506527971003
        ],
        [
          -0.1829157548124138,
          -0.13397948837182827,
          -0.3284086260700785,
          0.07232644734867523,
          0.15867501148361665,
          -0.44266733926841895,
          0.1391124141824526,
          0.39986087087147326,
          0.1895138351076661,
          -0.31815545960320885
        ],
        [
          -0.006610266729873765,
          0.0583464241626484,
          -0.09977777154993336,
          0.07763805466595411,
          -0.01760800898672717,
          -0.044496734416343345,
          -0.023117302815384277,
          0.029815506279835754,
          0.009244260748853234,
          0.022631304945155247
        ],
        [
          -0.15534974799659945,
          -0.099643726484555,
          -0.2266388270563241,
          0.08936135060362789,
          0.1281696392757404,
          -0.31246746569633876,
          0.10128685118760208,
          0.20215980591708055,
          0.11762395891509965,
          -0.12984991897268575
        ],
        [
          0.11977972843299939,
          -0.013052172090705791,
          0.10586362786737295,
          -0.08847559835646207,
          -0.07020179975880904,
          0.18269463605440664,
          -0.11664528082169923,
          -0.019127432050178427,
          -0.056624998517083226,
          0.11745496114952941
        ],
        [
          0.13782897631916233,
          0.10626115665840886,
          0.36913895042012823,
          -0.04818424767571262,
          -0.13481289654580642,
          0.23733768989941842,
          -0.1784464393479489,
          -0.1995184560321888,
          -0.1572068086529324,
          0.3275796780143533
        ],
        [
          0.1252330461373518,
          0.045012033481900575,
          0.06195364525335051,
          0.016274620453287644,
          0.011559432250837698,
          0.07580953393895282,
          -0.06167622672020773,
          -0.17457515762849157,
          -0.021099196612737275,
          0.12963208045481867
        ],
        [
          0.1733247542952888,
          0.12372022857632173,
          0.3616426822065493,
          -0.014981155880588662,
          -0.07651162780923162,
          0.289741107991684,
          -0.16713363843007453,
          -0.3174248135735176,
          -0.14876716621375818,
          0.25262701430523427
        ],
        [
          -0.029740940639963756,
          -0.020586800930211237,
          0.06106545866977404,
          0.011219687423077818,
          0.012983612440211248,
          -0.034601654049218514,
          0.02579936857638848,
          -0.06767105657748022,
          -0.0792402595465647,
          -0.06887052383955836
        ],
        [
          -0.1262585136303895,
          -0.04652475182549253,
          -0.19025584064842227,
          -0.013983847097177305,
          0.1076291481806885,
          -0.20686605583721054,
          0.09501150091964082,
          0.17589395160447646,
          0.0547717692128211,
          -0.020405297439503266
        ],
        [
          0.09251571960825143,
          -1.9155644743996215e-08,
          0.0946279929864869,
          -0.028403191435038902,
          -0.023364923847068807,
          0.01365527099461861,
          0.04692451957203283,
          -0.03337399428308645,
          -0.032412459107128755,
          0.0787994400411254
        ],
        [
          -0.027400163793587447,
          0.0369104521665526,
          -0.09872797087958846,
          0.015642315289820432,
          0.0032530521301088505,
          -0.07396755564189232,
          0.005949897756521548,
          0.017298489116318115,
          0.061615109066724384,
          -0.052484607576077265
        ],
        [
          0.040619776993987604,
          -0.0032998997017762354,
          -0.025367374936902977,
          0.034425812536485564,
          0.06801930033679736,
          -0.004031791455937967,
          0.013611489349826656,
          0.03281805801898246,
          0.006262963548118585,
          0.07758076533253291
        ],
        [
          -0.1797933204501051,
          -0.07698709276847666,
          -0.2290589836134025,
          0.010796328832713578,
          0.1269303320623513,
          -0.15474592912015556,
          0.05797466666709095,
          0.07723592235337226,
          0.055515242304486435,
          -0.0449692952072929
        ],
        [
          0.0075191875957073195,
          -0.008533044918525549,
          -0.10880132543815761,
          -0.06371815029692654,
          0.017138440410327235,
          0.0016576224869900584,
          0.011404581946059509,
          0.06589417340351439,
          -0.04587297023210629,
          -0.07936069745720022
        ],
        [
          -0.16698004474783673,
          -0.014926620785748667,
          -0.2312315386197804,
          0.08701063404369816,
          0.18508635683131486,
          -0.30110675960288913,
          0.06756141192197818,
          0.17048752104819134,
          0.14343846960675255,
          -0.2553335128052947
        ],
        [
          -0.09205282709916116,
          -0.04647648684668794,
          -0.039042699605628846,
          -0.021479088978177203,
          -0.048093263630410166,
          -0.0651314673028544,
          0.046792071984416844,
          0.041756968373517854,
          -0.001091770195056645,
          -0.04258799854533724
        ],
        [
          -0.14274112508679881,
          0.03520854645041375,
          -0.08057130478271111,
          -0.013875029591443683,
          0.05676315119887413,
          -0.12376463963982393,
          0.052466236357507,
          0.051588248567601275,
          0.07625332688873271,
          -0.06773008575515707
        ],
        [
          -0.07294125450343636,
          -0.05832843083893421,
          -0.03471559919499603,
          0.013847751473390289,
          -0.06943014198340819,
          -0.0045179033968893965,
          -0.0038436690848033636,
          0.013849688945746522,
          -0.03276389705907304,
          0.04437693884812217
        ],
        [
          -0.06905533516811715,
          -0.08740051202206073,
          -0.21325557178009294,
          0.03194502816033792,
          0.07837349979872628,
          -0.1402721282997151,
          -0.007133057711041768,
          0.1676138586372503,
          0.0335802770025261,
          -0.11791393481715617
        ],
        [
          -0.005427359199656879,
          -0.030776316495125154,
          -6.532245327713362e-05,
          -0.004993368044651717,
          -0.011622084666572208,
          0.028026370795125256,
          0.04366059641756586,
          -0.08529512818713968,
          -0.009449141210838088,
          0.030766176534098123
        ],
        [
          0.0676849287526527,
          -0.03200752428805212,
          0.085000367757064,
          0.027175720593279704,
          -0.13396213214340086,
          0.13410566909975327,
          -0.11132039651011277,
          -0.04904748711377,
          -0.05881413156135968,
          0.025108270800018036
        ],
        [
          0.05897334861857101,
          0.01758021341597795,
          0.053829818586658015,
          -0.052048030915340604,
          -0.11028424785192804,
          0.15078878798418158,
          -0.05481734150923955,
          -0.16017793813366424,
          0.014459221435903138,
          0.06490008428948106
        ],
        [
          0.3582327084641023,
          0.13369957101553592,
          0.4634911576864918,
          -0.0835165427593634,
          -0.15513156124817942,
          0.39295652003198234,
          -0.1860693669318998,
          -0.36109155169300317,
          -0.2610154451563734,
          0.36581147546044146
        ],
        [
          0.41314634555985486,
          0.18841081078922464,
          0.39869406032941695,
          -0.10763318116596017,
          -0.25444687547124895,
          0.46944634479973335,
          -0.21932037205302665,
          -0.373067646250866,
          -0.15489942720808572,
          0.2781626502000048
        ],
        [
          0.6624520987185826,
          0.20963156956328272,
          0.8080512552418162,
          -0.22185943962411206,
          -0.36209883001676507,
          0.8072935575835369,
          -0.3759783120957775,
          -0.6381745305021211,
          -0.40822246825760544,
          0.6890988337993099
        ],
        [
          0.1319698977641646,
          0.026785963825576728,
          0.10410276380358145,
          -0.05872450275333036,
          -0.0863049425531636,
          0.1189330544528299,
          -0.10162679155365607,
          -0.13986189015478892,
          -0.036337238133185075,
          0.10730022634685955
        ],
        [
          0.19839991655598388,
          0.03672065204419107,
          0.21836093423524913,
          0.020274297297723867,
          -0.04133406019141188,
          0.235871751641524,
          -0.15524882839403034,
          -0.16660912319750767,
          -0.16511908069657408,
          0.11041346414927349
        ],
        [
          0.22590896005555097,
          0.06354422697886053,
          0.2890496267018584,
          -0.05075815057056281,
          -0.2247671327995622,
          0.3764935439851853,
          -0.2282882860923087,
          -0.3292728363261556,
          -0.1702363220608325,
          0.32207886936893987
        ],
        [
          0.8048436456343074,
          0.2877088157046428,
          0.9350814801861846,
          -0.21800578958472897,
          -0.4724901183281361,
          1.0428440217984902,
          -0.513472062054388,
          -0.8761522384574124,
          -0.5029136186922164,
          0.6581832388785304
        ],
        [
          0.07501466866220789,
          0.03620680942881635,
          0.009054333930055324,
          -0.03372004430100503,
          -0.0833642760065873,
          0.01245153057135161,
          -0.090101377662463,
          -0.11292218230854865,
          -0.03493224740246895,
          0.04743181331227461
        ],
        [
          0.2472157572809303,
          0.12277870505137332,
          0.3795269343492756,
          -0.1419995106345517,
          -0.1290620299305301,
          0.45530076779376033,
          -0.22118344837605897,
          -0.3038740546846772,
          -0.22757166058884945,
          0.27390193082079395
        ],
        [
          -0.008062145033446308,
          0.022082669660179858,
          -0.0064913817281386016,
          0.06353646066843419,
          0.05934310271316646,
          0.06173141583493506,
          0.02197272580875496,
          0.04409981560899428,
          0.013198210365876645,
          0.004822856791719697
        ],
        [
          0.1907547629451233,
          0.11551506561893736,
          0.29212257557800186,
          0.01579796512570208,
          -0.133535451301662,
          0.3487153855710585,
          -0.13688734617087658,
          -0.2159018860151077,
          -0.1472468549350293,
          0.2651472438153727
        ],
        [
          0.006219605887413817,
          0.07548202200592123,
          0.10774135775871349,
          -0.005793901118294654,
          0.04212074515734098,
          0.02198494799814665,
          0.005766821960910837,
          -0.04101348854905424,
          -0.04299333747985068,
          -0.010359065455582675
        ],
        [
          -0.29384902367780935,
          -0.15308481515687536,
          -0.3505031422957219,
          0.021362261146690185,
          0.20319227935479237,
          -0.3812845192612052,
          0.2270628149383758,
          0.235518982707168,
          0.1077702911299082,
          -0.33848275103066844
        ],
        [
          -0.014348060767208027,
          -0.055073935369511676,
          0.0303679763606093,
          -0.0035486090244831675,
          0.0261815533884308,
          -0.007730749742922673,
          0.025622779780506758,
          0.07734551518618034,
          -0.03248077659382727,
          0.026570799630676503
        ],
        [
          -0.13282427988209727,
          -0.02581850937438998,
          -0.341881398576844,
          0.034268951106277805,
          0.15177085604382962,
          -0.3528909507253188,
          0.07385410560927337,
          0.29705011493816375,
          0.1298993063032889,
          -0.26027418346960346
        ],
        [
          0.10863039990811815,
          -0.020912603486656533,
          0.040426837929153844,
          -0.014509686974637797,
          -0.017450701653250886,
          0.10973552145253711,
          0.026003580478561758,
          -0.0627347300005616,
          -0.0942083361705265,
          0.11567856516886064
        ],
        [
          -0.19046076178754992,
          -0.06336901646282597,
          -0.2797530531166301,
          0.00823239914831445,
          0.15346011325260786,
          -0.37017430074684815,
          0.0994408916779877,
          0.22373159639373022,
          0.2340435259856766,
          -0.3245622609471305
        ],
        [
          0.08797191134567116,
          0.043733055656687336,
          0.08077857599178218,
          0.007562540079147112,
          0.018545367833564697,
          0.1562770580847354,
          -0.03964998823680334,
          -0.12860286569669072,
          -0.06937821359729149,
          0.09648663981291516
        ],
        [
          0.0811783479858091,
          0.03990915333663599,
          -0.05596676164377058,
          -0.07342099454582075,
          0.046073959673789425,
          -0.014920757425342256,
          -0.06884116697525612,
          -0.05193435724465985,
          0.03223804892366115,
          0.0716229594458742
        ],
        [
          -0.014885469622471944,
          -0.0988403334845768,
          -0.1752172801474025,
          0.09556251880912203,
          -0.0037645563792765096,
          -0.10096206363289784,
          0.06953730077477172,
          0.031206273637615627,
          0.11000436200562165,
          -0.06317977515571545
        ],
        [
          -0.17708837246250578,
          -0.036932045309496404,
          -0.32757500618270036,
          0.027076895931087787,
          0.14325926723710886,
          -0.22345172053719606,
          0.14909287643759872,
          0.20313737923415598,
          0.09541054705615518,
          -0.2812910891868147
        ],
        [
          -0.005605322975197627,
          -0.004666814440554657,
          -0.023506522170419476,
          0.054037754456230866,
          0.004798302675312329,
          0.025377964340720007,
          -0.010291883408970538,
          -0.014617422849707259,
          0.0431506708913846,
          -0.10106282530277075
        ],
        [
          -0.17603101939365642,
          -0.13014991039804777,
          -0.24899627034807595,
          -0.023865412661881094,
          0.038418692371660346,
          -0.2557809717442463,
          0.04024902373342277,
          0.1697786101920998,
          0.07099523759120824,
          -0.20042819024410652
        ],
        [
          -0.2790432420295695,
          -0.13275448162171494,
          -0.21889603835112398,
          0.06591255606667752,
          0.07427873557184425,
          -0.23635472665778864,
          0.09489555506231462,
          0.24903113094415927,
          0.06734352423456659,
          -0.21281563395966113
        ],
        [
          -0.1479347429364147,
          0.012650090574673744,
          -0.1401052952956746,
          0.07032726959359582,
          -0.009876808240353061,
          -0.16005775813352502,
          0.05582466979580627,
          0.09483699890457586,
          0.07422051892021232,
          -0.09063494114739794
        ],
        [
          -0.014758032362184016,
          0.014554996319391758,
          0.05965190384480409,
          0.031621339657028735,
          0.046260535362455404,
          -0.014135989380416778,
          0.038862468360414924,
          0.001308880955771116,
          -0.017528912105761407,
          0.058085977505063426
        ],
        [
          -0.28280231719031973,
          -0.06501221978982412,
          -0.2904185381665413,
          0.027363489367921996,
          0.1689142858580993,
          -0.33467526605571146,
          0.1307671280833365,
          0.23868965200828277,
          0.08858607427191531,
          -0.1686400195112466
        ],
        [
          0.09309181538977063,
          0.001325092095535392,
          0.07231212284816882,
          0.0178958102116062,
          -0.0295103798720995,
          0.034522557986599686,
          -0.07939323602848124,
          -0.03733034188966961,
          -0.001986611593797685,
          0.09356608650437659
        ],
        [
          -0.25345454180644955,
          -0.13346485045654544,
          -0.2567398612489067,
          -0.010961286994457338,
          0.03566722960438982,
          -0.34061878955800007,
          0.11236339732700251,
          0.23586384827299295,
          0.10902577541250402,
          -0.18668865554441327
        ],
        [
          0.06091321844864988,
          -0.00859448833869952,
          0.04350428001684702,
          0.014236522367040294,
          -0.07407315090000231,
          0.10153840415532892,
          -0.11258019185729146,
          -0.1550462780180327,
          -0.08323582418157864,
          0.0024032791383210798
        ],
        [
          -0.18476449000673964,
          -0.09759080851807414,
          -0.3333612017513337,
          0.06378990663151807,
          0.07330886841914437,
          -0.40833068562846264,
          0.16671021686317328,
          0.22578354974064863,
          0.08398420723930274,
          -0.26802818700437253
        ],
        [
          0.049602747800305755,
          -0.0031605432990742463,
          0.12126912560200548,
          -0.0892159388867772,
          -0.05028197390653091,
          0.06895539615796327,
          0.015190799697699634,
          -0.07922793218919388,
          -0.08652516816167333,
          0.007353329711385869
        ],
        [
          -0.30155174833819737,
          -0.07860947420432317,
          -0.284374386304052,
          0.08839425626143052,
          0.06704951759706998,
          -0.3256347976872319,
          0.2037657242260108,
          0.36887460348913187,
          0.20472551413562814,
          -0.36146579542376694
        ],
        [
          0.0649068852879673,
          -0.03937053725209629,
          0.07214490821965937,
          0.015097657396092921,
          -0.037229869700779114,
          0.06594254417305649,
          -0.0039874111837106384,
          0.03767693266792684,
          0.000402267957276416,
          0.03475319648473073
        ],
        [
          -0.29485306357921226,
          -0.1424962824339656,
          -0.2971455063993235,
          0.08338107163633016,
          0.1479797637322374,
          -0.29879968972117266,
          0.19715881098496443,
          0.19973094293468194,
          0.12297388578217422,
          -0.22321851128904238
        ],
        [
          -0.08661191112387577,
          -0.0026054987156256494,
          -0.12519036914081297,
          0.023502761224896068,
          0.07152000693641741,
          -0.13675242309688335,
          0.11398180514840639,
          0.07324440615432931,
          0.03343075533068256,
          -0.14660831755361825
        ],
        [
          -0.07188342238093094,
          -0.02365687729536957,
          -0.24992972647759581,
          -0.021252708706731297,
          0.08318960432456786,
          -0.2066968657568701,
          0.1043391239074881,
          0.17279052560922126,
          0.015871061888028257,
          -0.1887843344242386
        ],
        [
          -0.24231260440505678,
          -0.03754882256646033,
          -0.3521625439229818,
          -0.005832490359686913,
          0.11637386252396836,
          -0.27410698332158057,
          0.11644281794977827,
          0.20818836066114457,
          0.07357138392023185,
          -0.25498678890481763
        ],
        [
          -0.05378519684690345,
          -0.06046753473254219,
          -0.14653461984196967,
          -0.022454412257435722,
          0.04990578354573705,
          -0.05389952795050081,
          -0.05937321104243129,
          0.10197702032290223,
          -0.05287075760069033,
          -0.09772663164642817
        ],
        [
          0.09313363844441806,
          0.02281101328454129,
          0.08275598283009505,
          -0.09248955682376929,
          -0.11653252422241893,
          0.05645868817540756,
          0.014013233762862256,
          -0.08177528499642621,
          -0.003506004200025686,
          0.16459599732188307
        ],
        [
          0.015563760673360997,
          0.10107514738821677,
          0.05667032933018129,
          -0.07062635594346156,
          -0.006653309220658317,
          0.0333879606140315,
          -0.08326849775841672,
          -0.13043906505063685,
          -0.00012703411498280324,
          -0.009590778639704544
        ],
        [
          0.06043997133018798,
          0.06022695545574748,
          -0.009454210167869997,
          -0.03824095507654426,
          0.011415753256702302,
          0.050994126375787215,
          -0.03115243035547911,
          0.05338167106557339,
          -0.04339705762371986,
          -0.04856171953786807
        ],
        [
          -0.185891151745782,
          -0.15409173048260832,
          -0.24893484913575978,
          0.11274051110547967,
          0.10408997326474316,
          -0.3250821046920218,
          0.21367198223943382,
          0.27498098112931335,
          0.2097820726935599,
          -0.2219455479514555
        ],
        [
          -0.0941248928654876,
          -0.052757447981461605,
          -0.010911113661366118,
          0.037583788282128765,
          0.05784245284936464,
          -0.005075534165470687,
          0.09789631126549822,
          0.058818091542580844,
          0.017251557775427126,
          -0.0429149407283452
        ],
        [
          -0.18682873821245166,
          -0.0003187207269277724,
          -0.281848158435165,
          -0.027523026833785085,
          0.08423050421544431,
          -0.2602277237214979,
          0.09668883721644907,
          0.27580498656422237,
          0.17827542012155195,
          -0.10927014212887015
        ],
        [
          -0.34480884648893756,
          -0.10707848981220766,
          -0.371832376510039,
          0.0677364553954463,
          0.14153366742541457,
          -0.3753037242038893,
          0.07508858807103798,
          0.3462027839731545,
          0.18123295480012885,
          -0.19310249555326486
        ],
        [
          -0.34442756297418325,
          -0.09962866223028816,
          -0.45371824923309934,
          0.1515101421162328,
          0.18220115935762954,
          -0.46204920286280476,
          0.21761534193924204,
          0.34873124642964765,
          0.23274349468250907,
          -0.3146077656215654
        ],
        [
          0.005794289571318325,
          0.030233013840964558,
          -0.02047995901533212,
          0.017032687348634102,
          -0.018139305093410444,
          0.0012241133561387441,
          -0.0012804846521097038,
          -0.02066209556109519,
          0.016574236495172225,
          0.001504971535522287
        ],
        [
          -0.2218491859627075,
          -0.028215843499714253,
          -0.2406107496667657,
          0.09914173249747968,
          0.030970178792705447,
          -0.20578479495816185,
          0.027585372281525564,
          0.2146510463484243,
          0.10888101512256544,
          -0.1445754939172686
        ],
        [
          -0.050318301059079334,
          -0.028086991081624595,
          -0.03157317909782049,
          -0.009848030243357606,
          -0.0008933686034422687,
          -0.03899467707359398,
          0.03713808145071407,
          -0.03554075473956559,
          0.029965009914325123,
          -0.04090127309968371
        ],
        [
          -0.14384709584853664,
          0.011913894482338061,
          -0.11424881096158847,
          -0.008957229336879403,
          0.001789702386477913,
          -0.155548505505802,
          0.09669784039804032,
          0.06938453408957336,
          -0.00043640800641292466,
          -0.12920898951357557
        ],
        [
          0.05546592566327404,
          0.052077363524815484,
          0.07531833681705795,
          -0.07112006149438563,
          0.02280000698437906,
          -0.022186902989482126,
          0.03405616177250825,
          -0.01789018893450172,
          -0.03840986467339095,
          0.07686670020444644
        ],
        [
          -0.23937674157391237,
          -0.14398594532622952,
          -0.21945081325977728,
          -0.01778416687567944,
          0.1811293989542071,
          -0.2355127838618963,
          0.05630130087637871,
          0.2825184295838956,
          0.09688860082863154,
          -0.2509924344504718
        ],
        [
          -0.021919424940991306,
          -0.023790627684490546,
          -0.10470352217871395,
          0.049653228900378155,
          0.015436788194205062,
          0.005782941402412611,
          -0.04045236197696993,
          0.03134061973352881,
          0.06574332792576687,
          -0.017154216333989215
        ],
        [
          -0.14910469578521085,
          -0.0157262834431296,
          -0.25967130046152764,
          0.10475053006359547,
          0.059553842767634924,
          -0.2108771680174589,
          0.1052691143944287,
          0.17959838924746044,
          0.16885803016061657,
          -0.21147193965373967
        ],
        [
          -0.40481756208646497,
          -0.1787205148660832,
          -0.5090647638156364,
          0.0898829722211626,
          0.2431731201663502,
          -0.6614701073251736,
          0.26935067239117216,
          0.42852703094719635,
          0.25143854009963995,
          -0.4629306364842194
        ],
        [
          -0.216017906994705,
          -0.026865602040989277,
          -0.29881227267841914,
          0.08265929882090056,
          0.1191065401970165,
          -0.30008794443485826,
          0.19035972919588948,
          0.21714272485905872,
          0.11468255107650101,
          -0.2784548662003295
        ],
        [
          0.04775124079653942,
          -0.026699290431918606,
          0.04839036677920901,
          0.01748356109671045,
          0.04484249275993549,
          -0.061111072855870675,
          -0.0725285702788004,
          -0.05563042672052177,
          -0.0061554233035017785,
          0.042847547005799805
        ],
        [
          -0.3062494645946385,
          -0.10519633207136847,
          -0.3695221514309612,
          0.023424307329665304,
          0.16219922895097416,
          -0.2866430589978645,
          0.1596757615407028,
          0.3102458360001682,
          0.2370082864197974,
          -0.28629850212350005
        ],
        [
          -0.09047062002749819,
          0.05066234292816416,
          0.01025593529552384,
          0.07739181571493295,
          0.001291488532218017,
          -0.12488484925214725,
          -0.04882172490008677,
          0.12595412750246882,
          -0.022566709704149257,
          -0.10467272077730612
        ],
        [
          -0.09687573287313243,
          -0.010489290108324922,
          -0.25223304502165655,
          0.07134649033194723,
          0.16952868081106273,
          -0.13241841336459173,
          0.11951859455270408,
          0.1960570334838746,
          0.009637353476676836,
          -0.15098442637569298
        ],
        [
          -0.23877849595682124,
          -0.1377400163097406,
          -0.33584231349086124,
          0.0866858602081602,
          0.0759795177230496,
          -0.3100147173967698,
          0.1471577167637673,
          0.3052740262847113,
          0.12252190194420062,
          -0.2388008813580452
        ],
        [
          0.015992379574088382,
          0.06333924101012516,
          0.13657739819998602,
          -0.06709183107695259,
          -0.04102439213299966,
          0.08728777285395559,
          0.0004099761290396388,
          0.00320398202308505,
          0.01397313748219237,
          0.05093571574103905
        ],
        [
          -0.23596573986654024,
          -0.06489482157361849,
          -0.35641011039004594,
          0.1060338439471802,
          0.10853794924356917,
          -0.3474858849830986,
          0.15498175856640317,
          0.3928715895866203,
          0.21897771219418877,
          -0.26834728863746804
        ],
        [
          0.002600410298057975,
          -0.08556434183916158,
          -0.16045139733534486,
          -0.01996100993460335,
          0.012517741781797294,
          -0.14503175719815337,
          -0.01672321024774314,
          0.05782142289178419,
          0.0866477405952152,
          -0.1642293526412173
        ],
        [
          -0.46494215499360314,
          -0.0985738620342876,
          -0.5488464560659734,
          0.08898447178711397,
          0.20282739996735827,
          -0.5483367996625638,
          0.16210319223851233,
          0.4408586589902082,
          0.2871577727169443,
          -0.3573353414618693
        ],
        [
          -0.10700504355998398,
          0.020492415726735547,
          -0.2955076171829515,
          0.019498615512618826,
          0.06666934767393878,
          -0.17133406047073596,
          0.15343492985862084,
          0.22147384886712065,
          0.06538319075772295,
          -0.23201298546343713
        ],
        [
          -0.3227139898900393,
          -0.10591184136052299,
          -0.39194339100209985,
          0.14329243939868747,
          0.26488063233191483,
          -0.540313046212999,
          0.16792089764622384,
          0.4486951493269822,
          0.24852388851965293,
          -0.42501655455143156
        ],
        [
          0.03652363921983611,
          -0.008343783478918024,
          0.08801720314059805,
          0.029343869486296834,
          -0.014932203084897934,
          -0.014581751758592158,
          -0.009410074265050694,
          -0.10747865810205805,
          -0.0876503555639765,
          -0.05807992686701123
        ],
        [
          -0.18278804539954585,
          -0.12937636970051317,
          -0.2291656704300255,
          -0.00966231236143471,
          0.10829326798847713,
          -0.2699526672385118,
          0.15857248153424527,
          0.14709479875172402,
          0.08273082318471649,
          -0.24480030250843518
        ],
        [
          -0.1413995777127975,
          0.0150233728537505,
          -0.1855636943081353,
          0.10024343953893426,
          0.008897433704399611,
          -0.2036415229119514,
          0.01340793395271979,
          0.215385474100221,
          0.11758092879073624,
          -0.1452793673107179
        ],
        [
          0.05524165001996669,
          0.03164834290866113,
          0.09305894025299186,
          0.0339797708212194,
          0.02415033534554785,
          0.04609243818279659,
          0.008745948187824377,
          -0.03433796828132646,
          -0.024350179774478897,
          -0.0440472716668488
        ],
        [
          -0.02302939810565148,
          -0.0861280803076462,
          0.04952096857483742,
          0.03866954965109308,
          0.0021067735762871328,
          -0.024312958414807437,
          -0.06406315362873108,
          0.030091495610164443,
          -0.0335838461604583,
          0.07690031180331379
        ],
        [
          0.04968147717802871,
          -0.008342860615835218,
          0.025605706151416024,
          0.008834483809178874,
          -0.025611242557436402,
          -0.05603768121814978,
          0.010998451015615626,
          0.07871507836736226,
          0.06281825038308055,
          -0.050641676332425674
        ],
        [
          -0.2473893944942051,
          -0.10121863577845962,
          -0.33583734940055215,
          0.06457513377319483,
          0.17365394060618392,
          -0.2528620286707752,
          0.13450100085027264,
          0.23947295300084506,
          0.08984259655404676,
          -0.20480998766956876
        ],
        [
          -0.01469957359653344,
          0.024447573429564676,
          -0.07472121174162218,
          -0.037096286675325336,
          -0.03501542618896867,
          0.023695452708371294,
          0.07754358713686522,
          -0.017814462130858615,
          -0.01048222014638993,
          0.031211589354559952
        ],
        [
          -0.15973537012651912,
          0.0007337831167642888,
          -0.13940560596147628,
          0.007888583620780388,
          0.06558260928533444,
          -0.14596264241242177,
          0.013505782282926539,
          0.2053575592123838,
          0.11738505124742393,
          -0.07648412965462499
        ],
        [
          -0.07617271490275528,
          0.06719599448116667,
          0.01431584495244899,
          -0.0555051834829719,
          0.02126792939157204,
          -0.007957699215892768,
          0.05160490264101531,
          0.017273825277599537,
          0.04111936578477182,
          0.0005789415540743926
        ],
        [
          -0.13749524527536064,
          -0.10270027907864113,
          -0.16286452602480372,
          0.03597696907266,
          0.08501840865431415,
          -0.2008072115141011,
          0.1410570556731188,
          0.23127057697380327,
          0.13075273295405018,
          -0.12482407609247119
        ],
        [
          0.119533524319105,
          -0.010161595710346813,
          0.06245133800357763,
          -0.08476553308932866,
          -0.026756896891730702,
          0.19467005543099652,
          -0.029929398948500826,
          -0.0396957494472727,
          -0.004366901955212166,
          0.0905844284058034
        ],
        [
          -0.30232541696673304,
          -0.05550957776968382,
          -0.3374611243141229,
          0.10489900371461311,
          0.103606714183324,
          -0.4136890598829854,
          0.13481465589649344,
          0.36460071944443545,
          0.2573197703089241,
          -0.32526626627315997
        ],
        [
          0.18295580611231274,
          0.08294073504896618,
          0.07573977484971653,
          0.018742756048469,
          -0.010460107686897603,
          0.16350226620139735,
          -0.0012863750816628898,
          -0.06224778893609287,
          -0.10520363469474782,
          0.17610983029043423
        ],
        [
          -0.28098194489630013,
          -0.06817892772900244,
          -0.38222210832532894,
          0.0720185535200203,
          0.24919263770109884,
          -0.41723346864480876,
          0.2656539384028932,
          0.4201197571854172,
          0.20422405780479785,
          -0.2957342343605506
        ],
        [
          0.06709120499009713,
          0.0671693283434674,
          0.0509698524592955,
          0.01846749008402594,
          -0.12969012739831515,
          0.08330053678269625,
          -0.02325645322758366,
          -0.1545640967474041,
          -0.016560675226396128,
          0.022565347014707453
        ],
        [
          0.19195067967150956,
          -0.00678997499048355,
          0.15011447727729635,
          -0.02236765756061709,
          -0.015234268504843626,
          0.23975494771552344,
          -0.022555342377552735,
          -0.11542970293815888,
          -0.05348082571312418,
          0.21798277729469148
        ],
        [
          -0.2853293485785724,
          -0.008449834999106383,
          -0.3144749389940124,
          0.04802468736523609,
          0.15322836587675515,
          -0.4146430059316623,
          0.20102378922599623,
          0.3297986437294019,
          0.112436143729433,
          -0.32143426691925564
        ],
        [
          -0.022248117692494913,
          -0.023162397437431044,
          -0.0633983922219858,
          0.07180077702801364,
          -0.0035776020952214857,
          0.0607580352951665,
          -0.04728452739084195,
          -0.00640530973493046,
          0.04306816971151113,
          0.04006961789064592
        ],
        [
          0.04042780872245077,
          0.012489225916187624,
          0.15555365475934096,
          0.029365707878925645,
          -0.12127869080945594,
          0.1877321147189179,
          0.0009644056201372818,
          -0.18568485745691649,
          -0.0014121990263598935,
          0.06476814003165568
        ],
        [
          -0.0027172913402613895,
          -0.09711935354491628,
