{
  "layers": [
    {
      "activation": 1,
      "biases": [
        0.1731551498973515,
        0.16880749392952382,
        -0.026882564071100984,
        -0.061005453528869394,
        -0.11166905425051633,
        -0.34561906262185704,
        0.2676578034087946,
        -0.032737922059828506,
        1.021560137621519,
        0.15237834207689993
      ],
      "cols": 10,
      "rows": 42,
      "weights": [
        [
          -0.15416665405858276,
          0.16710789827133896,
          -0.20841756276280177,
          -0.03330582309381215,
          -0.04607365890580775,
          0.03895714240073107,
          0.19048448224425618,
          -0.13731804847260143,
          -0.7690221649032432,
          0.43446366642104844
        ],
        [
          0.38064384269848744,
          0.2907289552667786,
          0.4098562511731949,
          0.10992060853361489,
          -0.10394209843029312,
          -0.12200940808254138,
          0.19167873789148487,
          -0.12014095524984093,
          0.35933144053675525,
          0.34837382063464706
        ],
        [
          0.46388399197463515,
          0.0368451506015825,
          0.31596757075441284,
          -0.0441387938725215,
          0.1098187664210141,
          -0.547433825510777,
          0.021059438981238507,
          0.20364505381375003,
          -0.7034617368052949,
          -0.0010214393657330503
        ],
        [
          0.45239785004275695,
          0.025056607723343546,
          0.1290036524309455,
          0.2415328636835296,
          -0.032496286230883846,
          -0.7915125553715032,
          -0.3536869880473423,
          0.5416941840106269,
          0.023563105519585466,
          0.4239897668159646
        ],
        [
          0.09985347599980546,
          -0.17770200222911164,
          0.23612954844216055,
          -0.3018396831267802,
          -0.15997876946557124,
          -0.1922396531623014,
          -0.3608675445928707,
          0.47209871777429724,
          -0.7310659207845397,
          0.4513187570643935
        ],
        [
          0.7080008155440859,
          -0.32868597855179194,
          0.031222504660534868,
          0.07056032533783474,
          0.0029431131762029297,
          -0.6646966650879068,
          -0.4705485560755119,
          -0.07851533489031784,
          -0.37399061799659516,
          0.32802414068681257
        ],
        [
          0.30643469860100536,
          -0.2982268688905373,
          0.04813872122281597,
          0.25486005363317776,
          0.09571675440009877,
          -0.38384437130238624,
          -0.6548470460909532,
          0.5472688392108288,
          -0.8518237026389586,
          0.4112900048798892
        ],
        [
          0.5350282763318449,
          -0.1331403119231255,
          -0.16116741277626576,
          0.3528289134692727,
          0.18947417040884074,
          -0.7034964763355871,
          -0.41681118074024764,
          0.10442457813049412,
          0.02907686426367505,
          -0.1462804210712092
        ],
        [
          0.3056922160835968,
          0.21496823229865308,
          -0.04373626604830047,
          -0.37702252270270714,
          -0.13003495578255345,
          0.28454990208349945,
          0.4511852108138168,
          -0.3093301015610203,
          0.09113968360072087,
          0.16386400432486112
        ],
        [
          0.1038578761710108,
          0.3333119666623224,
          0.24130369116219336,
          -0.09424451559235086,
          -0.651785563268968,
          0.3332677818767302,
          0.13103256201899935,
          -0.27553988452247535,
          0.24758161309515822,
          -0.7039907765437426
        ],
        [
          0.46459879701354595,
          -0.10458663462022312,
          0.35610090536018435,
          -0.24528217234113156,
          -0.39161676704893533,
          -0.293200846424296,
          -0.0907764451799515,
          -0.18598189211972643,
          -0.3510534574189381,
          -0.456622593795462
        ],
        [
          0.3938612003585304,
          -0.19762543778446384,
          0.2679456512585818,
          -0.17046607965760127,
          0.4842008957643441,
          -0.30725051414352605,
          -0.06809900366262814,
          0.11213058634642743,
          -0.1920118642376051,
          0.38024702407322447
        ],
        [
          -0.02856728437413602,
          0.08913543613963362,
          -0.047926922275647585,
          -0.21868222430315762,
          0.5363789346997239,
          0.24332305678770566,
          -0.18698283754219114,
          0.19082275934005175,
          -0.9037459178969747,
          0.3277248522604314
        ],
        [
          -0.4692370290627226,
          -0.1882900950411734,
          -0.13712753837616137,
          0.23527942120121853,
          -0.15972874138546617,
          0.4987913761204989,
          0.033795961610230914,
          -0.3223505424833428,
          -0.009397225166135097,
          -0.18476271774983055
        ],
        [
          0.24347513787378258,
          -0.20866553018739797,
          0.18051235313315564,
          -0.1873304720513658,
          -0.2559883927111549,
          -0.026738196050305117,
          0.12909833596737844,
          -0.003497763831452048,
          -0.38056581852463356,
          0.2204879354419949
        ],
        [
          -0.3506686788780659,
          0.3762554006731649,
          -0.25944847053938985,
          0.17733695307705166,
          0.16572695091751416,
          0.10511458504292957,
          -0.17157394578216542,
          -0.13383644464719616,
          -1.142095933432358,
          0.10602313831465289
        ],
        [
          0.40897136332010714,
          -0.017111817310022325,
          0.22312452042587477,
          0.08265627422404535,
          -0.6029073191931267,
          -0.27605890384143467,
          0.10207679082519387,
          0.03881853739926688,
          0.5063226617128609,
          -0.5618008553768472
        ],
        [
          -0.5278089603589822,
          -0.02814233646657794,
          -0.3817195345746445,
          -0.2627398183637203,
          0.1504190473697285,
          0.4237488096111201,
          0.45773239547805633,
          -0.15735591045120798,
          -0.768970019538293,
          -0.2894190716142425
        ],
        [
          0.29928920246998536,
          0.07850668244171995,
          -0.03916664161635511,
          0.2137541035389767,
          0.09211093397983178,
          -0.06742847109872942,
          0.42053537358495696,
          0.07999348518717793,
          -0.28911326336460935,
          -0.5243760562202162
        ],
        [
          -0.003172949404028176,
          0.17770840554967665,
          -0.14377665599791303,
          -0.24066116229065002,
          0.05629937887357265,
          -0.09966857811373395,
          -0.18174235733346797,
          0.40632797503366125,
          -0.14617387393949213,
          -0.24990958767666493
        ],
        [
          -0.24932285554828534,
          0.11499753688346079,
          -0.11869258699148724,
          -0.008494853181331391,
          0.36047298116763304,
          -0.1002944744040693,
          -0.39207132377627507,
          -0.22933986794288352,
          -0.4594162998099086,
          0.34182542086313905
        ],
        [
          0.09373470039643934,
          -0.31367338078334517,
          0.048374589040703984,
          0.06912353353687312,
          0.029710004399529973,
          0.37180650164486495,
          0.21879896055945858,
          0.19386475921011517,
          -0.07246433780774975,
          -0.3723980665685878
        ],
        [
          -0.039352347245046305,
          0.3205059007840367,
          -0.2293249098215042,
          0.23056847582105,
          -0.11214165269489382,
          -0.052732023637684186,
          -0.16911752409212435,
          -0.2536682315963616,
          0.10924794955615671,
          0.09196044758125534
        ],
        [
          -0.3422505969574073,
          0.21877649117104966,
          -0.023838558569431945,
          -0.09700270308397337,
          0.3995078168034662,
          0.35179963900318684,
          -0.6177329848359104,
          0.3575738907936281,
          -0.9840979880464921,
          0.30051628852873413
        ],
        [
          0.710602484930265,
          -0.2875635840502448,
          0.1944609369405951,
          0.22424439213284597,
          -0.8121104614453053,
          -0.49407107793435845,
          0.2060090099699086,
          0.08503337698022898,
          1.0480517565061167,
          -0.6044973079168368
        ],
        [
          -0.8116312273241734,
          -0.16055926397798018,
          0.03463934926553514,
          -0.42668508750443174,
          -0.11824534841623663,
          0.5196881970393189,
          0.09137986222579356,
          -0.4158468950179233,
          0.0669889595180139,
          -0.35333319276606284
        ],
        [
          -0.5671162203637872,
          0.35915509380944255,
          -0.20845246286576843,
          0.21209138674263942,
          -0.06454477705015842,
          0.11103554472816414,
          0.35501456889133726,
          -0.27050450761068184,
          0.2756664104210011,
          -0.3558842030519548
        ],
        [
          0.20963555770596468,
          -0.2218849284462023,
          0.03126897899717994,
          0.199509603133624,
          0.3168454342103954,
          0.01049170452612882,
          0.28259444688051266,
          -0.18216311208789154,
          0.264997450910127,
          -0.2700962662191744
        ],
        [
          -0.24546321872965615,
          0.5066962363298398,
          0.2237460335786724,
          -0.09010188183387939,
          0.18303472719120864,
          0.5869548421866698,
          0.029751562994096103,
          -0.2251862912998353,
          -0.5884971252237877,
          0.3149424113229969
        ],
        [
          0.3278603966808623,
          0.021782031945359246,
          -0.18702326094649246,
          0.07008698268301414,
          -0.21644572185451294,
          -0.10310070725114523,
          -0.43528086075501005,
          -0.10605189200556506,
          0.2596266408382235,
          -0.6731869432467145
        ],
        [
          0.19183406896641542,
          -0.07047238999920599,
          -0.25930349428429456,
          0.29508346080545456,
          -0.1865149234754053,
          -0.35760569449437574,
          0.0744205457555459,
          -0.1501820908208512,
          0.5399923778990028,
          0.11737999681194886
        ],
        [
          0.0181457071221443,
          -0.3682015187340463,
          0.3469198490892775,
          -0.0855408953070414,
          0.3996292647754779,
          -0.3211232428266824,
          -0.4851890663737015,
          0.14448159431611923,
          -0.8647952179237138,
          0.2648731870615442
        ],
        [
          0.5856770082724055,
          -0.3854124503557436,
          0.13968256200457524,
          0.28612186697980063,
          -0.5533354291250127,
          -0.008090933253538737,
          0.2717265931179781,
          0.22275005209430104,
          1.1943480804379996,
          -0.041065561236856195
        ],
        [
          -0.7909937363540405,
          -0.21511381624097364,
          -0.2268873007334689,
          -0.10439071621376256,
          -0.27044246820205164,
          0.6296212139592667,
          0.29924319679736366,
          0.2645237434595271,
          -0.22327144863050552,
          0.04165763650390886
        ],
        [
          -0.9725530195078541,
          0.3894182534609968,
          -0.10660909549246751,
          0.11487838237611843,
          0.35995973933340664,
          0.5609557746281637,
          0.46961481444293296,
          -0.4874706407059456,
          -0.30022636518141055,
          0.5058179150851624
        ],
        [
          -0.15410084642331245,
          -0.09393005756880543,
          -0.022513155880855635,
          -0.06848527077079856,
          -0.15126297864540186,
          -0.2998086070200419,
          0.12364019677935897,
          -0.048357314908983415,
          0.9316967747391832,
          -0.08081003971805945
        ],
        [
          -0.40952501984258366,
          0.5455887413749723,
          0.04688192608177792,
          -0.07292801810676958,
          0.1431005470708743,
          0.6841486047927955,
          -0.1100307469957945,
          0.18404930496689564,
          0.1876671156246317,
          0.6255029995376764
        ],
        [
          0.11320575824444326,
          0.03756005102005709,
          0.05455297093760711,
          0.28208377615529034,
          -0.5447781798087405,
          0.046053848931998674,
          -0.12221493444345577,
          -0.06661441913994469,
          0.8737643883798194,
          -0.20248127327978882
        ],
        [
          -0.24552148065164547,
          -0.08376410353882344,
          -0.06438976686421645,
          -0.27316372794689325,
          0.10382803416463476,
          0.13011829715689402,
          0.21982553915501546,
          0.1633342563158657,
          0.40287017262458197,
          0.328050685374683
        ],
        [
          -0.1420743311771442,
          0.08676809318834666,
          0.16160625231131479,
          0.03709207934676106,
          0.2539591184626074,
          0.03599784180575838,
          -0.3154747616235868,
          0.149284238204856,
          0.48574896677679086,
          0.24697821487449104
        ],
        [
          0.3829925618715238,
          0.07990616056960088,
          0.16664947192315518,
          -0.13053867263721886,
          -0.5366800008926835,
          -0.36648335353530576,
          0.07466086719070858,
          0.0734552982562019,
          0.6299434311405255,
          -0.026988079130206358
        ],
        [
          -0.22051076162595604,
          0.07644586464457154,
          -0.25900813275097095,
          -0.32459678669342423,
          -0.5165748444218269,
          0.5239974199155203,
          0.13182636090562241,
          -0.4481801259041469,
          0.21555069283861142,
          -0.24117748037859316
        ]
      ]
    },
    {
      "activation": 0,
      "biases": [
        -0.14170911824668814,
        0.32750231958695103
      ],
      "cols": 2,
      "rows": 10,
      "weights": [
        [
          1.8362510712814513,
          -0.8268636969391903
        ],
        [
          -0.97868432142154,
          0.29742401215297926
        ],
        [
          0.32083642174492194,
          -0.4909581598597439
        ],
        [
          0.281068279413101,
          0.014054295100868707
        ],
        [
          -1.149900315768888,
          -1.2377562981903474
        ],
        [
          -1.3255722644210892,
          1.4064706575152162
        ],
        [
          0.08606508276554153,
          1.5858398328356849
        ],
        [
          0.3554374224749349,
          -1.0602594120192372
        ],
        [
          1.3697872918005214,
          2.1981206044007124
        ],
        [
          -1.4089963295161139,
          -1.3830368349950293
        ]
      ]
    }
  ]
}
