{
  "layers": [
    {
      "activation": 3,
      "biases": [
        0.2462443348721123,
        -0.23769410789869652,
        0.007362641770539909,
        0.29547994123114574,
        0.08576064427424825,
        -0.10591282261619019,
        0.299355428139902,
        -0.3612443760663873,
        0.1358766382550937,
        -0.25982007089099246
      ],
      "cols": 10,
      "rows": 42,
      "weights": [
        [
          -0.15106386198053903,
          0.004377905932372467,
          -0.13833421438692262,
          -0.20808797632789752,
          0.046063960677129756,
          0.3412459723315269,
          0.30386157742204534,
          0.19600887316647256,
          0.0036666687782470043,
          -0.15103045796818995
        ],
        [
          -0.1883189460288746,
          -0.4011005445374917,
          0.11074046623145181,
          -0.31626702311093985,
          -0.39660405294236195,
          0.05194530494629792,
          -0.09812589283769324,
          0.18097242326932272,
          -0.5597126228803583,
          0.23633202246685908
        ],
        [
          0.3125142151730636,
          -0.1527214465755999,
          0.07929775698269935,
          -0.23080768865793838,
          0.03800999399578865,
          0.277350376139907,
          0.38097089532815226,
          0.046544575044557335,
          -0.14072226978810348,
          -0.3924306485435674
        ],
        [
          0.09472390457295937,
          0.14989571085114503,
          0.09257348071791086,
          0.19287414935027264,
          -0.2622455802720713,
          0.012116866770083282,
          -0.23193358205363626,
          0.45573561114149536,
          0.04725649374010774,
          0.02556839913527213
        ],
        [
          0.2821116395501729,
          -0.3961878464200502,
          0.2816894331653103,
          0.1674896002108723,
          -0.32667177854213253,
          0.10500216311799951,
          -0.333334290293737,
          -0.33934011708373485,
          -0.09222215759372976,
          0.04436842170818646
        ],
        [
          -0.134888880429981,
          0.18398678085934886,
          0.1332908984012893,
          -0.28520254391223754,
          -0.140473781900966,
          -0.4669972404968927,
          -0.4065506597638691,
          -0.00424500306386459,
          0.2677987368624523,
          0.05213267856167728
        ],
        [
          -0.05328270493859536,
          0.010759625789216324,
          0.1103778315613977,
          -0.10463591766335659,
          -0.08163898740792681,
          -0.5246255141917011,
          0.10756159117525826,
          -0.2491296965232742,
          0.28519418529098145,
          0.08564561411437249
        ],
        [
          0.2985596668003605,
          0.15470587244005835,
          -0.21352724615131236,
          -0.14814069276835304,
          -0.0331574878724592,
          -0.6781065672765936,
          -0.1537109183512519,
          0.0686528909603005,
          0.3209274331951655,
          -0.014193951637087763
        ],
        [
          0.43100903838175303,
          0.582736561736762,
          0.23488088563364068,
          0.2822001928903036,
          0.5027318134596183,
          -0.24536189721086524,
          -0.059155317166294887,
          0.24052685993036066,
          -0.04417315120045247,
          0.20334050673235535
        ],
        [
          -0.058479571279273175,
          0.27052675864661174,
          0.13017569594068834,
          -0.2013192909386362,
          -0.31809655275936577,
          -0.591789478247077,
          -0.013358804376172071,
          0.0009348171658909989,
          -0.2145866160346207,
          0.3150936088783954
        ],
        [
          -0.13450099056330758,
          -0.3740367812368596,
          0.15633701116979376,
          -0.3325992741417701,
          -0.5242686532004586,
          0.41588959627887895,
          0.23097508837760905,
          -0.4959124485197836,
          -0.35212544657296013,
          -0.48604301863144006
        ],
        [
          -0.23241102762735505,
          -0.1127995229163484,
          -0.2842727220028366,
          -0.21938329921990316,
          -0.08565909220718959,
          -0.2659223463276843,
          0.2774606146722753,
          -0.02593761688449725,
          -0.14661031356632273,
          -0.055963191838574476
        ],
        [
          0.21112244641082503,
          -0.3977924935616456,
          -0.06835313639320743,
          -0.021547228603731504,
          -0.47819535592136,
          0.5691976755247585,
          0.1915405209309875,
          -0.27798742793964676,
          -0.23303649870731258,
          -0.10840081079356156
        ],
        [
          -0.16839904247510473,
          -0.26613987496389807,
          0.01085083045440259,
          -0.08988304686852779,
          0.11086520195534741,
          -0.1917534701212254,
          0.5631027176304712,
          0.21693163342201802,
          0.198332905432106,
          -0.12989689875170032
        ],
        [
          -0.02027815190107533,
          0.07367506970366282,
          -0.2690404097142829,
          0.2538479117265238,
          -0.2409634799089331,
          0.30377318670778486,
          -0.39101872197364657,
          0.13837008171326343,
          -0.3126613774957092,
          -0.08330082675444742
        ],
        [
          0.056656022816288266,
          0.07947512753881372,
          -0.19774619250322806,
          -0.08815096134118647,
          -0.023252468249701043,
          0.2500417471263385,
          0.16589417992432567,
          0.24775123239235447,
          -0.10692894837149566,
          0.006650828977192864
        ],
        [
          -0.21033806386036186,
          0.320578397249258,
          0.16021447511244463,
          0.0992852275256227,
          0.5197991834418915,
          -0.31275511415635887,
          -0.17325439924956051,
          -0.3054956267668305,
          -0.010200012327933782,
          0.19113232173959835
        ],
        [
          0.03171383030353718,
          0.19038407604897556,
          0.1996368293299218,
          -0.14512386017863516,
          -0.46513265358479206,
          0.2250156359308804,
          -0.2512999288671201,
          0.42421837535944823,
          0.011073645510415437,
          0.30258691288474987
        ],
        [
          0.1831566769070928,
          -0.5242208157822298,
          -0.32642577829007063,
          0.08513800923502095,
          -0.45151483918857005,
          -0.002378861753946854,
          -0.2910920727135516,
          -0.10440513747398816,
          0.019232100136212942,
          0.0023620693721204244
        ],
        [
          -0.04497087003397512,
          -0.4227348874347236,
          -0.2729706373697166,
          -0.0018517003899340872,
          -0.042944091997754494,
          -0.0978683778164017,
          -0.08015166240288897,
          -0.35861844288211525,
          0.25199160224963635,
          -0.1861007276111081
        ],
        [
          0.018670678432006545,
          0.24490372186541184,
          -0.3685937543151152,
          0.012590144098587584,
          0.13346136262366334,
          0.23485132112254387,
          0.0039523128206137926,
          -0.27650363992352095,
          -0.23068731011237742,
          0.0993354945792813
        ],
        [
          -0.13857305828500582,
          0.019217327249758,
          -0.231377428095345,
          -0.341284664797654,
          -0.07574396981281972,
          -0.25506613260905364,
          0.17085056640391033,
          -0.44846406574426184,
          0.005234864625389297,
          -0.28628916181142094
        ],
        [
          -0.05192092712684074,
          0.5044338776007379,
          -0.18223658193758308,
          -0.18831744589748176,
          0.13451466348094454,
          -0.3175404675596987,
          -0.48905808901882447,
          0.13959983192916922,
          -0.1762597002092275,
          0.18327617827608325
        ],
        [
          -0.18382708683234783,
          0.21172202382359923,
          -0.0654822405592858,
          -0.2788746230880548,
          -0.16919803253024646,
          -0.01216361048929111,
          -0.06487132349562967,
          0.0983223221062019,
          -0.24417708922464995,
          -0.18193724965320862
        ],
        [
          0.3557786705886393,
          0.25601585972701535,
          0.287078391800716,
          -0.04946535385095671,
          0.5099692934760852,
          -0.5919729205033635,
          -0.013296554351515525,
          0.24063695239714833,
          0.2666129367797243,
          0.01599101684735114
        ],
        [
          -0.20037565888124678,
          0.5442680669199104,
          0.2858766123771483,
          0.21067619560873607,
          0.09290599106569636,
          0.46967316934193337,
          0.36039767951845614,
          0.606851115875898,
          0.03855473963746266,
          0.34712853536980187
        ],
        [
          0.07025445303214828,
          -0.2611810961585191,
          0.10146927161293767,
          0.050522473477084134,
          -0.12652570344941477,
          0.5558650434491417,
          -0.0718917260266962,
          -0.19758970121073866,
          0.23679949249431137,
          0.19382958653838875
        ],
        [
          -0.4192190543929706,
          -0.3430287260691369,
          -0.21197489846791745,
          0.203287126118862,
          0.04256024851551872,
          -0.06362199790259546,
          0.24916228981456662,
          0.08566057256148864,
          0.2782773458565895,
          0.011856667038044992
        ],
        [
          -0.1932028839146066,
          -0.28389068867616396,
          -0.2578667607229305,
          0.1726129797804007,
          0.15606723167259945,
          0.2289811843497703,
          -0.18418199194510282,
          0.3323913003508317,
          0.26079141888278334,
          0.018607760596346844
        ],
        [
          0.2553357366663341,
          -0.12297409462122617,
          0.020084120997903524,
          -0.25891074798026725,
          -0.2737818550356603,
          0.07898506793465108,
          -0.10503954572082419,
          -0.33176254550507744,
          0.28925758134681334,
          -0.05174044684220828
        ],
        [
          0.3311292765384586,
          0.42057477727364,
          0.0964243149236509,
          0.1552292324423965,
          0.30344305826473017,
          -0.02232288334062639,
          -0.08105474671709131,
          -0.217217483178794,
          -0.2679336820156294,
          0.3952174196847314
        ],
        [
          -0.19939799875752917,
          -0.31601427533092225,
          -0.2399059925371883,
          -0.17343094301349568,
          -0.5580421877427756,
          0.3736381492524231,
          -0.10976588314644317,
          0.1672837475521829,
          0.06718572188646994,
          0.23756674631946803
        ],
        [
          -0.224118841884838,
          0.48798947722780556,
          0.1390408203437971,
          0.20525021034439175,
          0.38425269476819307,
          -0.12416396093922676,
          -0.04300885635195839,
          0.19880439407091904,
          -0.07298237108135001,
          0.1706546261820858
        ],
        [
          0.18516226499491487,
          0.5789298723571404,
          -0.15638881175329125,
          0.42195874559068264,
          0.37163378417982523,
          0.21018029389984041,
          0.4712729827420611,
          0.5132723263596721,
          0.39482959056431044,
          0.17532334695680835
        ],
        [
          -0.1789386554454311,
          0.3545410762452235,
          -0.11537724607256691,
          -0.10739591775834444,
          0.07120751026345012,
          0.5617327740503422,
          -0.18586884156433098,
          -0.09897205572060469,
          0.23742098755230592,
          0.040455609581354614
        ],
        [
          -0.2829380625342514,
          -0.31721756822854447,
          0.04855037312354472,
          0.08239669557824485,
          0.2669968936826575,
          -0.12825146720099984,
          -0.17649378708085753,
          0.0968790741181759,
          0.013838732677268635,
          -0.3873922991089751
        ],
        [
          0.11105259400304528,
          0.35664706562877574,
          -0.06987235363520655,
          0.05860402876674798,
          -0.08777535271767789,
          0.47813097766791185,
          0.2667211159168575,
          0.10535292735920768,
          0.046544872577372234,
          -0.15588533895168075
        ],
        [
          -0.3063304851309103,
          -0.21020807947689313,
          -0.32995902742836813,
          -0.1940076843556905,
          0.028995689463654273,
          -0.05934574753447969,
          -0.28529041714713077,
          -0.31949309041686186,
          -0.06764062600489479,
          -0.0483252396160516
        ],
        [
          0.12869857450880157,
          0.44268919575840765,
          -0.21361173020218385,
          0.2848350254303115,
          -0.2116926717637897,
          0.1900544580338642,
          -0.23378511677919808,
          0.3409153834412733,
          -0.35975431090151355,
          0.16900976919386618
        ],
        [
          -0.12667549558339872,
          0.14147821008758307,
          0.2456360218769961,
          0.07833487580539827,
          0.1092543639158963,
          0.17495671008776997,
          -0.07734354474652064,
          0.15496601564133514,
          -0.2545710586721257,
          0.1753462583535762
        ],
        [
          -0.13412322777325333,
          -0.027302142653443138,
          0.03381858453075335,
          -0.1800441033547341,
          0.28501785439539784,
          -0.19405390952105303,
          0.1026677424978899,
          -0.3351180361700615,
          -0.10407838100547741,
          0.32745817909483244
        ],
        [
          -0.12991426762651176,
          0.4949881956105305,
          0.27440675567031075,
          0.12988652773337675,
          -0.012721184381880109,
          0.0036347092438975158,
          0.2674752081181065,
          0.20367560811802768,
          0.2612795912301291,
          0.10115688802497734
        ]
      ]
    },
    {
      "activation": 3,
      "biases": [
        -0.13635993630026919,
        0.05839697381486826,
        -0.1463311386957202,
        -0.09153712539653454,
        -0.0019686208929748754
      ],
      "cols": 5,
      "rows": 10,
      "weights": [
        [
          -0.20522756575846546,
          0.47112702686626806,
          -0.8000610371887784,
          0.10882268545765203,
          -0.17149621486047692
        ],
        [
          -0.5586008426383026,
          0.922639688687841,
          0.24162187975233,
          -0.8464333072120923,
          -0.3089367015713105
        ],
        [
          0.6357863925467558,
          0.44642691776446125,
          -0.6163476713416434,
          -0.30577358060929644,
          0.5433721399130458
        ],
        [
          -0.5178331236032652,
          0.4490639007101045,
          -0.5747793483109301,
          -0.014314208556613028,
          -0.6059671892284748
        ],
        [
          0.013348064976036432,
          0.8665200363621486,
          -0.21190875658282612,
          -0.5217313287264823,
          -0.4632550048438682
        ],
        [
          0.3012966511962193,
          -0.6504505437519258,
          -0.344279033615585,
          1.213028535809247,
          -0.4931174348262642
        ],
        [
          -0.48177227984238513,
          -0.38838418656144447,
          -0.39328035354173263,
          0.05242620022438887,
          -0.909122777623077
        ],
        [
          0.6378206509814109,
          1.0379623867497532,
          0.22654768609262751,
          0.4080043161840907,
          -0.5025749672448839
        ],
        [
          -0.3550582884709855,
          -0.1525778900393558,
          0.35414477541414824,
          -0.264545101676189,
          -0.6484520937150203
        ],
        [
          0.1486828668907429,
          0.7949268909961844,
          0.6035075602596195,
          -0.2488751462389796,
          -0.14553993924911565
        ]
      ]
    },
    {
      "activation": 0,
      "biases": [
        0.013213911293976408,
        -0.2932337850977072
      ],
      "cols": 2,
      "rows": 5,
      "weights": [
        [
          -0.44467311684565025,
          -0.8105727533616843
        ],
        [
          0.23276350490472714,
          1.4085411252833753
        ],
        [
          -0.004238420230862982,
          0.8275694660942755
        ],
        [
          0.41463631658658834,
          -1.3943595810112939
        ],
        [
          -1.2617711061899823,
          0.17725732105836672
        ]
      ]
    }
  ]
}
