{
  "layers": [
    {
      "activation": 0,
      "biases": [
        0.008648293584200687,
        0.033975590090785615,
        -0.05743076715527513
      ],
      "cols": 3,
      "rows": 42,
      "weights": [
        [
          -0.15389096707504488,
          -0.0021173025382147364,
          0.12074268433154252
        ],
        [
          0.044570429425168416,
          -0.023963576598265368,
          0.3159965957460565
        ],
        [
          0.3021789892739407,
          0.22840840638685936,
          0.19635472703153303
        ],
        [
          -0.2725362518860053,
          0.4143009245442101,
          0.06231317089118809
        ],
        [
          -0.26103370277539656,
          0.03758397778913242,
          0.04445548422599871
        ],
        [
          -0.43640885273764213,
          0.48931041574744905,
          0.2776929035338442
        ],
        [
          0.13212170577119048,
          0.16095594401612498,
          -0.21077994037038986
        ],
        [
          -0.13049309422336627,
          0.49371462168574015,
          0.09706349474354732
        ],
        [
          0.14089214772041841,
          -0.4230562968329572,
          0.1677529488260571
        ],
        [
          -0.022954903576858143,
          0.27792225544151217,
          0.2857643103675144
        ],
        [
          0.1664347093889189,
          -0.18894446806903256,
          0.0095524713071739
        ],
        [
          -0.2800750965211371,
          0.022160252262614005,
          0.4441982182012918
        ],
        [
          -0.1548287270710492,
          -0.20156085670263996,
          -0.3342077981600001
        ],
        [
          0.2906740943577574,
          0.28904865309556627,
          -0.29557618463970964
        ],
        [
          -0.19754564934249694,
          -0.06051597678106791,
          0.32315392367249596
        ],
        [
          0.3361179376132196,
          0.12267750435508022,
          -0.18441210896259083
        ],
        [
          0.1277966326102061,
          -0.3656311340533156,
          -0.1188475004381883
        ],
        [
          -0.03361583334497236,
          -0.18126521802791984,
          -0.2866286391917933
        ],
        [
          -0.1756331610289452,
          -0.2867802836777354,
          -0.20876238918247594
        ],
        [
          0.31006136120989974,
          -0.10426484775787387,
          0.2584461945668063
        ],
        [
          0.328683134114739,
          -0.23039962449210105,
          -0.02893278613323149
        ],
        [
          -0.280503046291229,
          -0.24227441440776576,
          0.2902171809017354
        ],
        [
          -0.34403497423409446,
          -0.32786211149207195,
          0.19979833861255442
        ],
        [
          -0.23735966538065315,
          -0.15043076776698,
          -0.1812338303915135
        ],
        [
          -0.04658913134737149,
          0.23542338565667337,
          0.2763146124417468
        ],
        [
          0.2644375010686771,
          -0.04324550025775468,
          0.0031050106255020257
        ],
        [
          -0.0646381376477663,
          0.16794545612468892,
          0.20125664612067784
        ],
        [
          0.009545352501370655,
          0.04536321300269165,
          0.29772758847553094
        ],
        [
          -0.2579268348138991,
          -0.15900657907066715,
          0.31157414813057926
        ],
        [
          0.31105956845721877,
          0.1351791967781279,
          0.3758038129417693
        ],
        [
          -0.27118899282885184,
          -0.013959530803335172,
          0.1390218197201025
        ],
        [
          -0.1589606851657586,
          -0.07263627559162789,
          -0.24573403426766183
        ],
        [
          -0.03457738186046374,
          0.19952120135868884,
          0.01757098634060646
        ],
        [
          0.23234286621735267,
          0.05233015954246127,
          -0.3116019963010098
        ],
        [
          -0.2732040857722342,
          -0.05867240460797842,
          0.31347477071160096
        ],
        [
          -0.33390992207364945,
          -0.0778192308829593,
          0.1284100705639701
        ],
        [
          -0.18009234691732,
          -0.19255124339635102,
          -0.10121989484297352
        ],
        [
          0.20436582039138065,
          0.08698920303294094,
          0.16231333694496208
        ],
        [
          -0.13087781518285116,
          -0.2664241835327709,
          0.08720244094452469
        ],
        [
          0.2910105165952437,
          -0.06474483097925893,
          -0.18492127329387123
        ],
        [
          -0.16072133856808601,
          0.11994143208546335,
          -0.37725672539197697
        ],
        [
          0.37603037640211573,
          -0.0959067748993434,
          -0.2931062429646291
        ]
      ]
    },
    {
      "activation": 0,
      "biases": [
        0.03658175921036816,
        0.015201603960352894,
        -0.011088964502869482,
        -0.017221615140690826,
        -0.009080606203549103
      ],
      "cols": 5,
      "rows": 3,
      "weights": [
        [
          -0.6810281911248071,
          -0.0824725622141363,
          -0.4065761830848731,
          0.02119505841915879,
          0.4430002163855871
        ],
        [
          -0.260151829960447,
          0.698631571070907,
          0.5780085878919657,
          -0.38369277571419697,
          -0.8847543861368776
        ],
        [
          -0.7038143455509357,
          0.5943860570537676,
          0.28898990694401283,
          0.46563802511964253,
          0.005312846994114675
        ]
      ]
    },
    {
      "activation": 0,
      "biases": [
        -0.02447411477075144,
        0.03438064390369606
      ],
      "cols": 2,
      "rows": 5,
      "weights": [
        [
          -0.6221503320440119,
          0.7918839171325873
        ],
        [
          0.09134693986813472,
          0.6312722615167002
        ],
        [
          0.7618280429199173,
          0.3585003593275897
        ],
        [
          0.2976888340693375,
          0.0812492226973549
        ],
        [
          -0.9509107347758627,
          -0.7347535898694733
        ]
      ]
    }
  ]
}
