{
  "layers": [
    {
      "activation": 0,
      "biases": [
        -0.010642474372022852,
        0.03211277792803652,
        0.045830957117121644,
        -0.012359675926324285,
        0.027104310390013313
      ],
      "cols": 5,
      "rows": 956,
      "weights": [
        [
          -0.07906709512177561,
          -0.03583445155064972,
          -0.046185121813301235,
          0.025483115795755303,
          -0.05295121162898403
        ],
        [
          0.06950106644827253,
          -0.07633829251532381,
          -0.0400856779311083,
          -0.043281071678152316,
          0.060039554697597176
        ],
        [
          -0.080379889045346,
          0.04294301117594861,
          0.06366192655480717,
          0.041935898311282804,
          0.06309836535747834
        ],
        [
          -0.006901647243750709,
          -0.04506139185382481,
          -0.07527332366866465,
          -0.04479946464480867,
          -0.07918685831740548
        ],
        [
          -0.006696733390813006,
          0.018466867818521457,
          0.06941045252017122,
          -0.027687662597604586,
          -0.004786800254326002
        ],
        [
          0.0371133074341007,
          0.03351566750706133,
          -0.06211567012307559,
          -0.019661208029699843,
          -0.014219742576529276
        ],
        [
          -0.075752796623498,
          -0.033096868153624615,
          0.025548889807306487,
          0.016151057979533565,
          0.014243041826521686
        ],
        [
          0.05107672249851575,
          0.005300152373721515,
          0.02966423518230927,
          0.04659499193591821,
          -0.0659988306898183
        ],
        [
          0.035663842057450275,
          0.0212405462376821,
          -0.043236844241609555,
          -0.004412875461497999,
          0.054821822959466825
        ],
        [
          0.08454616570151606,
          0.054010113658605204,
          0.03816758759931143,
          0.017434866198590686,
          -0.010699681462515305
        ],
        [
          0.012190869225340883,
          -0.012736331596776396,
          0.060811715694363576,
          0.0019806687221264156,
          -0.05188316064724818
        ],
        [
          -0.0016065718311602175,
          0.030390770684121455,
          -0.06364542416002146,
          0.0856761862834043,
          -0.04525998397284602
        ],
        [
          0.06139784591318514,
          0.013225750697643283,
          -0.044578433867575616,
          0.045226560118324315,
          -0.0664859024564851
        ],
        [
          0.006252857995070707,
          -0.06827973771826272,
          0.01988340531700658,
          0.04810995562317614,
          0.03299174229458429
        ],
        [
          0.03073758107921905,
          -0.07254883878135228,
          0.08418584104168268,
          -0.04536410911364772,
          0.043360159458725754
        ],
        [
          0.039982691871452584,
          0.008500223087657265,
          0.018768291909667462,
          -0.06567949609015576,
          -0.02919652437143757
        ],
        [
          0.010607159603464976,
          0.033139519755751475,
          0.06764228182636375,
          0.036719268509474136,
          -0.0035134986692536246
        ],
        [
          -0.05361237489235174,
          -0.050647762956162905,
          -0.08386512058634422,
          0.04152078728204438,
          -0.08114726330104208
        ],
        [
          -0.02826436707944181,
          0.02757734188532838,
          -0.046549152022688736,
          0.04186237740690749,
          -0.010341898845031141
        ],
        [
          0.005900074398271237,
          -0.01072948474764539,
          -0.025308026101723304,
          -0.03670059847442256,
          0.03410686279885878
        ],
        [
          -0.07287150293458476,
          -0.06411066806525598,
          0.039999075259220127,
          0.03197148306647858,
          0.04544268127117046
        ],
        [
          0.03222909590178331,
          -0.0686427311287857,
          0.026297742345870394,
          0.0676266526417167,
          -0.02825985299613891
        ],
        [
          -0.04929368524904566,
          0.0720823695552275,
          -0.01736776869746554,
          -0.04815129097605239,
          -0.04928047820571009
        ],
        [
          -0.053144123991702596,
          -0.003433024770325074,
          0.018306834908965997,
          0.045095854937046036,
          0.02403830782960856
        ],
        [
          -0.059124604752313126,
          -0.03144751992368382,
          0.04008573813421697,
          -0.058945948311854804,
          0.06736190847396757
        ],
        [
          -0.029999544549215038,
          -0.03342661333226302,
          0.01135221372630721,
          0.023517157493922913,
          -0.06269904666779635
        ],
        [
          -0.04811329502784388,
          -0.019323280642352673,
          0.009336151821703161,
          0.07424776560914342,
          0.08608114937754939
        ],
        [
          -0.023486282375419065,
          0.01035415822407858,
          -0.07539052123848934,
          0.025091846061626944,
          -0.07421790591882402
        ],
        [
          -0.00016873778919409107,
          0.08021515783775414,
          -0.013897332853180152,
          0.0129524859011705,
          0.024943295132663607
        ],
        [
          -0.05348961909824006,
          -0.016140714391802247,
          0.005283825678684481,
          0.011577223388778162,
          0.04311649818997169
        ],
        [
          0.046431304127580994,
          0.024581766902469836,
          -0.03584488194157009,
          -0.07387982955799202,
          0.006796207898653672
        ],
        [
          0.04115005590868661,
          0.0490079372189149,
          -0.07194349126667772,
          -0.03878775639437197,
          0.01738243259001544
        ],
        [
          -0.04768977225345075,
          0.06919384319462989,
          0.09253768664844976,
          -0.06280741021976761,
          -0.02848362375089056
        ],
        [
          -0.050085983225129874,
          0.038056353315468305,
          0.06492382030338074,
          -0.01837682734302251,
          -0.058792837742728594
        ],
        [
          0.041029154884502234,
          -0.012106623385523945,
          0.02491275670242649,
          -0.05453640007669437,
          -0.06926640754371717
        ],
        [
          0.0096236623180666,
          0.010506674148189918,
          -0.026934195420999285,
          -0.06062995958074981,
          0.03970410400243608
        ],
        [
          0.009185401939253213,
          0.012704644441150811,
          0.06952378054333026,
          -0.012277568877957603,
          -0.048906172551698324
        ],
        [
          0.053346334172346375,
          0.045147517589937756,
          -0.002093257957448365,
          0.005089132745269944,
          -0.028126841495885947
        ],
        [
          0.0651579535932023,
          0.07962182693148498,
          -0.03767195928960685,
          -0.06981349706131156,
          0.06832993621520449
        ],
        [
          -0.035154756310349124,
          -0.04116461241171616,
          -0.033540844898760344,
          -0.0023954429573459285,
          -0.07701206413544055
        ],
        [
          -0.04081388465490898,
          -0.03452096289936042,
          0.04182103971094799,
          -0.024041596694023563,
          0.07245937513681991
        ],
        [
          -0.0019259315927155542,
          -0.05157139002267781,
          0.0460219809094486,
          -0.05508191049694276,
          0.008609660404744894
        ],
        [
          -0.04274397802296892,
          0.00998878937534461,
          -0.05464700238504933,
          0.021210983176662864,
          -0.059154824739285426
        ],
        [
          -0.05223683925510136,
          0.029479018080656682,
          0.06452596289207642,
          -0.018120275441900407,
          0.06907344819683582
        ],
        [
          -0.05286204429214692,
          0.010382746104776642,
          0.08711443781712584,
          -0.054376471214736204,
          -0.05752914123728009
        ],
        [
          0.010601854420220456,
          -0.05841723792131507,
          0.020983934639009518,
          0.0835872048663987,
          0.07464079591179135
        ],
        [
          0.03375086774894786,
          -0.0748493026941927,
          -0.058868479637065846,
          0.03935854331196476,
          -0.06124162985665086
        ],
        [
          0.081197270445774,
          -0.056527287033460584,
          -0.04239740720632231,
          0.06685517235141464,
          0.04941034140376816
        ],
        [
          -0.06864422864660491,
          -0.05766054401595007,
          0.043619451170923265,
          -0.02858406451615188,
          -0.04956841942526254
        ],
        [
          0.046153146547142025,
          -0.06274184069379195,
          0.052931085277898,
          -0.039317813641299236,
          -0.0702763496911603
        ],
        [
          0.05559069260560981,
          0.02151831502122418,
          0.055502528345789,
          -0.04850137598276141,
          -0.049797630660267656
        ],
        [
          0.02890094276729707,
          0.019478081133003866,
          0.029575628775909496,
          -0.04702927270371468,
          -0.0475075005751646
        ],
        [
          0.045792220591352066,
          -0.0026617277179949925,
          -0.04949993822492534,
          -0.010256889839155717,
          0.017204225403241208
        ],
        [
          0.06529418867393888,
          -0.08355458797694533,
          -0.026040583234014418,
          0.005539064524733478,
          -0.018733441176209883
        ],
        [
          0.04161335270163444,
          -0.0716055395092389,
          0.016805808453407654,
          0.0680586913964477,
          -0.06714243706351669
        ],
        [
          0.03366868092047353,
          0.05853106017418548,
          -0.047135822574068405,
          -0.01669288790548094,
          -0.025008962353416122
        ],
        [
          0.07642143227153242,
          0.06265492219360404,
          -0.01609635939998374,
          0.018801736609363132,
          0.07022626890305099
        ],
        [
          -0.05445938054354934,
          -0.06340974385631952,
          0.06499097894977598,
          -0.049669777040472866,
          0.06810786763398415
        ],
        [
          0.048688878924808464,
          0.06772720979777072,
          0.023710387244253908,
          -0.05941744512860649,
          0.016315323952101182
        ],
        [
          -0.04187041285951657,
          0.009535826906556943,
          -0.04134885342357582,
          0.016685786584717966,
          0.0012095891129921999
        ],
        [
          0.03424497441358666,
          -0.023835896950875523,
          0.0035001079101897505,
          -0.016922394038782984,
          -0.008151558524279148
        ],
        [
          -0.0204168070447529,
          -0.0914057070934236,
          0.02091084455596782,
          0.023709190253301142,
          -0.02380026358996107
        ],
        [
          0.04250204939764865,
          -0.042952645792567974,
          0.01376231835082035,
          -0.06389268757942285,
          -0.009098169791425397
        ],
        [
          0.04431190512209576,
          0.05218452363431626,
          -0.04542418912073895,
          0.04300181687163759,
          0.007388048240464774
        ],
        [
          0.05785618751598065,
          -0.05298550647329505,
          0.08317621243003732,
          0.006909119204219739,
          0.004983363887050014
        ],
        [
          -0.0057163783129042505,
          0.037725035945041716,
          -0.07827108269920495,
          0.029915166864388294,
          0.03841712843577497
        ],
        [
          0.07636850706010984,
          0.07988015735172482,
          0.014865322946607711,
          -0.029618251688727473,
          -0.01845279853714084
        ],
        [
          -0.0005569079448524524,
          -0.0027835519993815293,
          0.01649178264909178,
          -0.06797665006664831,
          0.021820430770704977
        ],
        [
          -0.04593422093868423,
          -0.020692451663379942,
          0.07751116018026918,
          0.07396377279268497,
          0.003015808506262104
        ],
        [
          0.055068854766204774,
          -0.0768363960302245,
          0.07671272486689044,
          0.06665845187321998,
          -0.05211039649149842
        ],
        [
          -0.04808762369796587,
          0.02338715799887526,
          0.09261465104759546,
          -0.06399983033976561,
          0.06678673914828763
        ],
        [
          0.023295708305239082,
          0.03744916233072351,
          -0.018886282311513552,
          0.02107505412706651,
          -0.014635863907791933
        ],
        [
          0.01615923664146876,
          -0.025833863469591302,
          -0.01584729134349733,
          0.06421139444536353,
          -0.05033892454124614
        ],
        [
          -0.06874402249778949,
          -0.029877413724930225,
          0.03249325452548456,
          0.026790117447517255,
          -0.04819499803157384
        ],
        [
          0.005145473637813309,
          0.04540540116305815,
          0.027025627314031492,
          -0.0802653693832867,
          0.07992251188373611
        ],
        [
          0.023995524227247367,
          -0.08980107499768905,
          0.017295179784123267,
          0.017540346737743562,
          0.05125854486160387
        ],
        [
          0.025394691778540243,
          -0.019693890924288922,
          0.06922480487836642,
          0.04032920529088892,
          0.05616614526133681
        ],
        [
          -0.029785186659745836,
          0.016482411517823432,
          -0.004994319471494777,
          0.0746715547066056,
          0.014330497674764716
        ],
        [
          0.023592041925554783,
          -0.02866816219446014,
          -0.02047665949645781,
          0.051532997190234006,
          0.05272461769694323
        ],
        [
          0.03508413899982596,
          0.047642576195077536,
          -0.054802461499548406,
          0.022130961350559045,
          0.022706470872357006
        ],
        [
          -0.05503901238534403,
          0.06800267853160624,
          0.004358937645406712,
          0.0549076943671661,
          -0.023749980932330658
        ],
        [
          0.0724544053146111,
          -0.03580884498669478,
          -0.027173877794603864,
          0.06482899469619367,
          0.023055947773591854
        ],
        [
          0.006010942254478864,
          0.059119430709154965,
          0.08192747315153324,
          0.010000232087421011,
          -0.023191759915988774
        ],
        [
          -0.017302928424357857,
          0.002546609221551193,
          0.024899438515673028,
          0.04799876267522577,
          0.04669694091657009
        ],
        [
          0.02042221747168388,
          -0.046116492357569885,
          -0.045064152974343796,
          0.017301659500349426,
          0.027961846389462575
        ],
        [
          0.03751307869074647,
          0.010518771112300844,
          0.018135305992334802,
          -0.06544117780999319,
          0.05312777562699999
        ],
        [
          -0.011959147809803906,
          -0.0639554301881529,
          -0.01166783798237023,
          -0.059914024555563467,
          0.07260476318584755
        ],
        [
          0.03942554816185354,
          0.03324995841738829,
          0.00241955428206781,
          -0.003369114097494592,
          0.07131044338340362
        ],
        [
          -0.03566636141545656,
          -0.06038266770819669,
          -0.003459377276912117,
          0.041577534737946016,
          0.03475415798447817
        ],
        [
          0.01570107997882866,
          -0.039382045287326896,
          -0.006340588114843847,
          0.06488855707756831,
          0.056840107533978314
        ],
        [
          -0.00445317807205734,
          0.05643121217444056,
          -0.016871655892406343,
          0.03255890665370595,
          -0.06484564410076721
        ],
        [
          0.046190139958405416,
          -0.009203571360872973,
          0.04867185289280657,
          -0.02356960958923834,
          -0.0045910919381790824
        ],
        [
          -0.04617069465253043,
          -0.012451860267629795,
          0.01632427676796396,
          -0.021354899911856108,
          -0.028464113087803732
        ],
        [
          0.059560288558729677,
          -0.059363778105729265,
          -0.0549770279402153,
          0.06376194093712986,
          -0.014492537557815066
        ],
        [
          -0.04445924362584973,
          0.028505584307066414,
          0.0534204101798621,
          0.06244667150277681,
          0.060231481627818904
        ],
        [
          0.06422910911236122,
          -0.0039614129861659485,
          -0.058831818174947904,
          0.02758587978955721,
          -0.03955794860328957
        ],
        [
          -0.07061740234861026,
          -0.01708181275065792,
          0.016236787989921665,
          0.06402130989093051,
          0.05395962369291093
        ],
        [
          -0.023415524083975257,
          0.03506672753219539,
          0.01052238393240066,
          -0.05628903924480368,
          0.05266461185557994
        ],
        [
          -0.07447620629231694,
          0.04648891603273716,
          -0.04710103161400259,
          0.003261414742144249,
          0.05737563489376353
        ],
        [
          -0.03194401760719444,
          0.00881734852642026,
          -0.054155370645720895,
          -0.025119446674311676,
          -0.06290075891259662
        ],
        [
          0.07632458348194643,
          -0.05838528131675399,
          -0.05350440148941175,
          -0.01721918789428955,
          -0.010391714845446454
        ],
        [
          0.04008215273521645,
          0.058862587071512616,
          -0.007653496535906387,
          -0.05029502231735623,
          -0.041161512769485493
        ],
        [
          0.06124212798829008,
          0.07324739284235572,
          0.02691687281723998,
          0.015917752492216136,
          -0.05713167381936112
        ],
        [
          -0.004657985393073863,
          -0.03395991784304455,
          -0.052703202707507564,
          0.04761760494585514,
          0.043279715871747025
        ],
        [
          0.03636937726289271,
          0.06323252397481913,
          0.025454660841998468,
          0.040084843838701464,
          0.08139494027100916
        ],
        [
          0.03345030340403709,
          -0.05414171140421256,
          0.06361190507187033,
          0.05081747005267873,
          -0.05700059012583081
        ],
        [
          0.00833197775222977,
          0.03314949943930667,
          0.04760820925631663,
          -0.017338872060514328,
          -0.017478048813562574
        ],
        [
          0.02664314909046343,
          -0.019596190742248172,
          0.031070009138391818,
          0.042942620770971114,
          -0.04484782512177034
        ],
        [
          -0.01768794412548938,
          0.041282351653495086,
          0.00691742192927889,
          -0.011925280434170482,
          0.0233870998138715
        ],
        [
          0.04211894474416079,
          0.015235665313329351,
          0.07802685348658414,
          0.004534481287100779,
          -0.008334400061745437
        ],
        [
          -0.06283825137389537,
          0.013884232750178313,
          0.07483230767561569,
          -0.033944941041069585,
          0.05918922101357849
        ],
        [
          0.012367769934554237,
          0.052806509904718794,
          0.028066962317082354,
          0.05506997413383037,
          -0.06720666582591622
        ],
        [
          -0.031715004894396645,
          0.0075215374105902936,
          0.0734076997702595,
          -0.05349918380335183,
          -0.02454081104836865
        ],
        [
          -0.0026003119454630587,
          -0.06584699846086747,
          -0.06671815197163894,
          -0.01805717975711229,
          -0.03120409927157641
        ],
        [
          -0.03225603159279848,
          0.05745808470258791,
          -0.03368948695347449,
          0.06586082731108929,
          -0.013219874299595166
        ],
        [
          0.027412327487121507,
          0.059734988823824685,
          0.05460304339943562,
          0.07279744445554852,
          0.06122915837561474
        ],
        [
          0.02473989048170478,
          -0.008971628283972997,
          -0.03650347403647319,
          -0.06378735081675602,
          0.0054955628262385895
        ],
        [
          0.0371389208150666,
          -0.04830026168906564,
          0.05018043494134461,
          0.0387020519010491,
          0.06845155078141903
        ],
        [
          -0.08123376375184427,
          -0.0381955608868244,
          0.08480487029973895,
          -0.03333575975775783,
          -0.010397079451280336
        ],
        [
          0.06622851856559772,
          0.017628848464382278,
          -0.0502704214352311,
          0.052230069180113727,
          0.01837446799186744
        ],
        [
          0.04636822752223218,
          0.013777586568258718,
          -0.02786342540462019,
          -0.026358976092612407,
          0.015250905544146742
        ],
        [
          0.007819277177990178,
          0.047797031553250734,
          -0.0037547015246369663,
          -0.047795347340201084,
          0.014070176154021001
        ],
        [
          0.05470566258439915,
          0.01142384536207367,
          0.059954006156881616,
          0.05280925004682182,
          -0.0032066447340194084
        ],
        [
          0.07874629239486325,
          -0.08503371919147477,
          0.043890053404085215,
          0.07151047154695263,
          0.0678306653860599
        ],
        [
          -0.0724317357086881,
          0.05016055409211666,
          0.0840696447369597,
          -0.05427659317433122,
          0.005581747663323384
        ],
        [
          -0.002880709241409862,
          -0.07828158212172423,
          0.06993544674049562,
          -0.047494346626319295,
          -0.0007700754198974633
        ],
        [
          -0.01209829836629959,
          0.03083013109070008,
          0.06994351535143604,
          0.02377457282492026,
          -0.04477395871429023
        ],
        [
          0.06544725280897473,
          0.0490768933031364,
          0.06084331903188632,
          0.07294241100421145,
          -0.08333033500221504
        ],
        [
          0.010135848192289337,
          0.06884310925387176,
          0.011742950910726243,
          0.02146821880412194,
          0.012028221855507035
        ],
        [
          0.04932860427147465,
          0.06096666561547009,
          -0.05832571972236534,
          0.022108538913092553,
          0.003932620530278819
        ],
        [
          -0.07315534403785841,
          0.03370406355657279,
          0.09032951027565315,
          0.02085762307524852,
          0.0045488119272782705
        ],
        [
          -0.023332261765851972,
          -0.06030941861883209,
          0.011875815938729698,
          0.04122885741354115,
          0.008594678109226404
        ],
        [
          -0.02736100794799438,
          -0.04758591995319837,
          0.017898170624460814,
          0.015513978805556144,
          0.02811140282785401
        ],
        [
          -0.008349448495074177,
          0.006388754066822007,
          -0.026625488823940682,
          0.07132314284643959,
          -0.04917770804414482
        ],
        [
          0.070776627744641,
          0.06875812374315267,
          0.03026049099715669,
          0.011125867393125703,
          -0.019415821213106085
        ],
        [
          0.038893072105669,
          -0.06937054373500438,
          -0.0174423165869846,
          0.06135349270390442,
          0.06211515395380045
        ],
        [
          0.03129171429301737,
          -0.011010651780921617,
          0.09251792534074156,
          0.06653816605074953,
          -0.043616296235278726
        ],
        [
          -0.05109866702836681,
          0.0255348024349707,
          -0.007413671817905755,
          0.018118454774822317,
          0.010350636690190365
        ],
        [
          0.022604317776735498,
          -0.04846881933015886,
          0.07812652137284318,
          -0.07278762229446226,
          0.07395152301366187
        ],
        [
          0.08692492701400005,
          0.018568214433130708,
          -0.027177324907531556,
          -0.029849965040178048,
          -0.057320034274619305
        ],
        [
          0.03783276589895225,
          0.058177614144935955,
          0.03278183898364987,
          -0.02187674748740454,
          -0.05403473847802343
        ],
        [
          0.014943010216394577,
          0.06456810436883934,
          -0.07409428075575691,
          0.025321516549069792,
          -0.03920904662368593
        ],
        [
          0.07626798917384812,
          -0.018129207390702905,
          0.042859430885194956,
          -0.06520030669164435,
          -0.00363708869316047
        ],
        [
          -0.061229886510287275,
          0.06198990006353414,
          -0.054651474157197004,
          0.04296451211043959,
          0.03467774609871042
        ],
        [
          -0.051358954992054943,
          -0.030278914530589115,
          -0.018784262065100043,
          -0.06366729512364237,
          0.006127327490800394
        ],
        [
          0.07552100670956825,
          0.04518872277792149,
          -0.01577599885889595,
          0.02477137109427833,
          0.03473277157125369
        ],
        [
          0.0025778141593358517,
          -0.040537441246905496,
          -0.058692442669696816,
          0.06627552912475299,
          0.02421069232217682
        ],
        [
          -0.05562642225044444,
          0.04176639417529376,
          0.06793526453286355,
          -0.028878177361097625,
          -0.07810790787499963
        ],
        [
          -0.009647010370230287,
          0.028527039370665887,
          -0.025652010399915947,
          0.07017369320922173,
          0.02104084241598365
        ],
        [
          -0.04403135431482406,
          -0.02060666343615665,
          0.03693757857381188,
          0.06363688684030085,
          0.06744767323949556
        ],
        [
          0.05669781649955041,
          0.06115340295454887,
          0.051610529511695584,
          -0.06143488998668781,
          -0.04688230480604001
        ],
        [
          -0.030511389512855872,
          0.0348592224051511,
          -0.0742494073091206,
          -0.041982388883007545,
          0.003847793647739861
        ],
        [
          0.07091623852582403,
          -4.928097486167478e-05,
          -0.033445400878905684,
          -0.008645726595233891,
          -0.031163881673489276
        ],
        [
          0.011253778154989838,
          -0.0056561118893470146,
          -0.0793374258325609,
          -0.0563060452285262,
          -0.020604783973755942
        ],
        [
          0.07612647579237494,
          0.023887401835515958,
          0.046046231701703993,
          0.0010150330080853744,
          0.084784196697566
        ],
        [
          -0.046550625736380004,
          -0.07304369500479489,
          -0.03791348820373599,
          -0.004488431731073783,
          0.010979658922946153
        ],
        [
          -0.03591244142435964,
          0.02989908097055615,
          -0.016506058568868078,
          0.01691786323651787,
          0.06865154262715771
        ],
        [
          0.06470520885312177,
          -0.07534107171246085,
          -0.07922013117251542,
          0.06910709979948629,
          0.06255658122679596
        ],
        [
          -0.00011925517879805577,
          0.004573949860330684,
          -0.02685657590891021,
          -0.05792689355519697,
          -0.0027324208222825157
        ],
        [
          0.07273942221768596,
          -0.09567072947774628,
          0.054569887892426415,
          0.08176089267756034,
          -0.03379873111855891
        ],
        [
          -0.05000719087222841,
          -0.007864823306158151,
          0.014805513185561415,
          -0.020145314418134094,
          0.03028592547969491
        ],
        [
          0.0019854146738023577,
          0.013250066545279805,
          0.06538345239118307,
          0.014718145464289817,
          -0.01335554657892177
        ],
        [
          -0.055405693233803864,
          -0.05392293764047644,
          -0.024897686696297085,
          -0.06358030929814901,
          -0.008149380977696572
        ],
        [
          0.031090996568288166,
          0.034557291416817466,
          0.04866630271348063,
          -0.007764627581268479,
          0.016809464721285344
        ],
        [
          0.02727430032652894,
          -0.0068380027853725675,
          0.03582877993371062,
          -0.03631903943936021,
          0.058159151975628105
        ],
        [
          -0.07513697807764903,
          -0.05830043366833517,
          -0.0817704683940783,
          0.03181050976158979,
          -0.0007709553587490912
        ],
        [
          -0.0631849213764861,
          0.0427248610745053,
          0.017146718041235326,
          0.07026195335669284,
          0.040452279018723725
        ],
        [
          -0.020132653450305824,
          0.054543753052713015,
          -0.03327537245634387,
          0.046843510349783325,
          0.021093898046770043
        ],
        [
          0.06922151439635393,
          0.05727079572278107,
          -0.04132623417127197,
          0.0391849777648619,
          0.0393537325720167
        ],
        [
          0.07329702856370073,
          -0.051575298238540256,
          -0.06372349426084302,
          0.01780525347677453,
          0.06483415470947645
        ],
        [
          0.06294892238067581,
          0.05827324273959017,
          -0.03274487559771087,
          0.06942056488236385,
          -0.026778648607727534
        ],
        [
          -0.004688171240259232,
          -0.08445618730415916,
          -0.01393314915566791,
          -0.042507618748838565,
          0.033524970623317975
        ],
        [
          0.032562189793446404,
          0.015676691065705146,
          -0.007577622689170455,
          -0.07554813844454936,
          0.003505329852065904
        ],
        [
          0.06110992686051916,
          -0.05758909647430983,
          -0.031330291543260995,
          -0.06620262461703316,
          -0.06394735400262078
        ],
        [
          -0.047661226444237224,
          0.04657639433079107,
          0.07544854327350112,
          -0.006652258183734226,
          0.033188315265961915
        ],
        [
          -0.0004130971480214756,
          0.0026725141697411985,
          0.03019205247092298,
          0.05220313819266542,
          0.05524233170032309
        ],
        [
          0.05392166734765495,
          0.08266297408682906,
          0.03646842468529617,
          0.009334814645644755,
          0.0654417099054753
        ],
        [
          0.013173436830628556,
          0.027819756392672743,
          -0.06617504739173463,
          -0.02507161005266093,
          0.07858221025951226
        ],
        [
          -0.031215450097658477,
          -0.026344628283240565,
          0.01949226181387761,
          0.0585136690066862,
          0.07604306067484602
        ],
        [
          -0.06412766601576676,
          -0.06964022652721304,
          0.02065529870515651,
          0.016530041848855422,
          -0.07032863499328106
        ],
        [
          -0.07528542403779678,
          0.07578276223422457,
          -0.03245446172918552,
          0.04916027491284814,
          -0.04809333479363532
        ],
        [
          0.052435993592879364,
          -0.05652781998963504,
          0.06336223285004103,
          -0.008976268964928787,
          0.06618318955375932
        ],
        [
          -0.06560984769761351,
          -0.036284868348276565,
          0.061580328084442526,
          -0.03643612922813171,
          -0.0126222929386822
        ],
        [
          0.0025994447468888956,
          -0.052710801202281964,
          0.04112494655878947,
          -0.045000629522996764,
          0.06881018419719626
        ],
        [
          0.05851666674540398,
          0.020670234838730005,
          0.026056570180459912,
          -0.008856798007094852,
          -0.04562398752694547
        ],
        [
          0.011593126105963449,
          0.05904479444046591,
          -0.07509219703950386,
          0.011140744295351368,
          -0.0364736322196757
        ],
        [
          -0.04237085779787468,
          0.04163300252539039,
          0.08641140324425313,
          -0.05912984588857565,
          -0.013758533316519871
        ],
        [
          -0.016369200213347382,
          0.07817378412757332,
          -0.048746153639653705,
          0.0017669797393247083,
          -0.05898233757333716
        ],
        [
          -0.0760048268741897,
          -0.047179464639847006,
          0.020214230734797518,
          0.016966472582062762,
          0.009084048327028466
        ],
        [
          -0.021342683634846787,
          -0.09187027485036096,
          0.05009331398226709,
          0.006913468453701293,
          -0.017606295571426067
        ],
        [
          -0.042043495045723425,
          0.03908590102408355,
          0.003812735685308699,
          0.0064060715723549015,
          0.08163278804659511
        ],
        [
          0.012452284899100791,
          -0.010244269932395758,
          -0.0414261661369861,
          -0.018274089908174255,
          -0.009083758853167067
        ],
        [
          -0.07601186025114322,
          0.016985091108129464,
          0.07104681011326698,
          0.038049696299429545,
          -0.016184330682994606
        ],
        [
          -0.05863959552128046,
          -0.06113405273151396,
          -0.07910034607873334,
          -0.007651138014664859,
          -0.002251424599520662
        ],
        [
          0.0721055533927673,
          0.06282766310823164,
          -0.03158114017984998,
          0.025574274419969425,
          -0.046212481159869166
        ],
        [
          -0.04769517274091171,
          -0.07733771868261831,
          -0.08942411835345768,
          0.016625456280413852,
          -0.056907370184351644
        ],
        [
          -0.06708465747175235,
          -0.007280243006181072,
          0.054897186504741166,
          -0.021971703058552058,
          -0.026684998859830885
        ],
        [
          0.057239932151262836,
          0.03206508083002354,
          -0.03607261461089125,
          0.02754241591483848,
          -0.02431498759501579
        ],
        [
          -0.042989004901609035,
          0.015091181173990102,
          -0.053120777230318494,
          -0.04513013598184386,
          -0.06570499924843964
        ],
        [
          0.00804644722992373,
          -0.08326903325362112,
          -0.05862072684566333,
          -0.05418796673059191,
          0.036346985793483284
        ],
        [
          0.023199353799657207,
          0.04239998089487763,
          -0.05734053814809913,
          3.5092731133403944e-05,
          -0.025308928260486353
        ],
        [
          -0.049118217742565674,
          -0.01568507790270317,
          -0.01455584950913474,
          -0.03710742528762531,
          -0.014577461862163198
        ],
        [
          -0.011572393463916959,
          0.039074627408228084,
          -0.0607338306748507,
          0.03907966157187091,
          0.06801725697668866
        ],
        [
          -0.017935269396898393,
          -0.0694188535280118,
          0.02301176493361257,
          -0.014294732609377836,
          -0.06228630223773417
        ],
        [
          0.03649956861937657,
          -0.004588571603539136,
          0.0013716236123677257,
          -0.0009417229207779929,
          0.07677716798503141
        ],
        [
          0.08173113520992174,
          0.0371941207555217,
          -0.0649839953134587,
          -0.014381064009735663,
          -0.04969208028096528
        ],
        [
          -0.06116660704220003,
          0.07637689096881824,
          -0.004891719513540551,
          -0.04812673634857694,
          -0.04786161873181764
        ],
        [
          -0.04306785494060573,
          -0.06449296465496203,
          -0.012272948124772405,
          -0.0664169555521698,
          -0.001468459573528791
        ],
        [
          -0.04969924222681399,
          -0.023096187350487938,
          0.044101837946727354,
          -0.05697460916676774,
          0.039498770716180596
        ],
        [
          0.07989011933809939,
          -0.03946637705964126,
          0.05306211163540813,
          0.041765128919271595,
          -0.006480347747942289
        ],
        [
          0.0667729503750786,
          -0.052750846297906495,
          0.052408315520216193,
          0.060249446429138646,
          0.03347027687807342
        ],
        [
          0.06279040530231424,
          -0.07543570631038622,
          0.01793317104893082,
          0.006622184011286318,
          0.04583286599740497
        ],
        [
          -0.03233313613928332,
          0.016268159410607993,
          0.07116561541580024,
          -0.010282112765801077,
          -0.06673106392231665
        ],
        [
          0.04524418098444983,
          0.03532705211267451,
          0.06909701160667996,
          -0.018184453427163523,
          0.05435669910355148
        ],
        [
          0.028036339858066764,
          0.012599852131713779,
          -0.018597803578465428,
          0.04390181494154499,
          0.06294014880665867
        ],
        [
          0.048445139967930276,
          -0.04212769587063914,
          -0.029501106387808344,
          -0.07013754396477345,
          0.0244613856581007
        ],
        [
          0.04054616901491632,
          0.023614897383483425,
          0.002812525587796337,
          -0.016091939190809836,
          -0.04005460221729718
        ],
        [
          0.006113503668311479,
          -0.01636255408843639,
          3.113186546834895e-06,
          0.06342602509745565,
          0.0467435169630717
        ],
        [
          0.07423720712498183,
          -0.06558788256948633,
          0.0180440911345838,
          0.05304678226240946,
          -0.06412262101388318
        ],
        [
          -0.007971299161020991,
          -0.0686074233707127,
          -0.06569171672436239,
          0.04103725058476459,
          0.0020653430594303477
        ],
        [
          0.02680669051800874,
          0.029826712886721566,
          0.03281281138217135,
          -0.031064577428228768,
          0.06799877873223441
        ],
        [
          0.042344626900709365,
          -0.044209028791749594,
          -0.040172162075775786,
          -0.025546570086749733,
          -0.016413994111235633
        ],
        [
          -0.023666739982450998,
          0.05800142547771921,
          0.011614728750446017,
          -0.04366788068542509,
          -0.0243891138870384
        ],
        [
          -0.05378858568103758,
          0.06213038683958079,
          -0.045433133654205156,
          -0.027523047568360638,
          -0.056294917607033146
        ],
        [
          0.05580804348384857,
          0.0681222211455842,
          -0.014674923251041678,
          0.013293607371761652,
          -3.3445458712866014e-05
        ],
        [
          0.06687036442705645,
          -0.06611349881995816,
          0.0013631637429167571,
          0.05484438587792539,
          0.05662900593739927
        ],
        [
          0.0731334770858406,
          0.07059612775661722,
          -0.013125805196030257,
          -0.002652138652169072,
          0.02989803272609661
        ],
        [
          0.06972012139496611,
          0.024458181183854254,
          -0.002294653779302857,
          -0.03167513762884811,
          0.03777248952137556
        ],
        [
          -0.018226950202387494,
          0.07861441239461774,
          0.007266619457139403,
          0.0488125216135832,
          -0.05030609188747962
        ],
        [
          -0.02228467397541668,
          -0.013225655479967537,
          -0.05342478521817967,
          0.0744767193045922,
          -0.046962121362783306
        ],
        [
          0.07524618314813132,
          0.058835266263749124,
          -0.021064877474752785,
          0.05742284026402098,
          0.029543595624637972
        ],
        [
          0.031410302046965786,
          0.04639381307075531,
          -0.05774025991628799,
          0.005599746229875862,
          0.030399841494983093
        ],
        [
          -0.0015165292613920247,
          -0.003266599559269033,
          0.023465085840892477,
          -0.05013314292333575,
          -0.0012816820963456575
        ],
        [
          0.023567240869363605,
          -0.04660249560532748,
          0.06666748004192541,
          0.016564628858898596,
          -0.009741072501388363
        ],
        [
          0.07986014910447181,
          0.063465509841784,
          -0.016605996946190374,
          -0.0681051819034985,
          -0.03438082925798084
        ],
        [
          -0.051301208731967765,
          0.046393541963539314,
          -0.02729400672115219,
          -0.028715347042007518,
          -0.028338132602715747
        ],
        [
          -0.014143952967882126,
          -0.03132083568424016,
          0.06303908108203393,
          0.055275085239628756,
          0.05080094806724401
        ],
        [
          -0.017860262915791826,
          0.056061569998112515,
          0.07095881626051943,
          -0.023158934990962138,
          0.04876307800951944
        ],
        [
          0.03948355997516881,
          -0.033726228144316805,
          -0.005066039509113282,
          0.030175309046707007,
          -0.0242557806525048
        ],
        [
          0.08635651745297132,
          0.03945230944833212,
          -0.07330879203809579,
          -0.05590963900773919,
          0.04930403140127937
        ],
        [
          0.014024473283108446,
          -0.066718739053543,
          0.03974507495050414,
          0.02769073692458591,
          -0.0014331304880496947
        ],
        [
          0.053914862172799484,
          0.0412925868095025,
          -0.07237121668068702,
          -0.021903080497155333,
          0.05336907098146089
        ],
        [
          -0.00778017768233471,
          -0.0592871542752729,
          0.06136866976074428,
          -0.0193489629180392,
          0.023679357047063216
        ],
        [
          -0.04962564444173934,
          -0.04866783323174494,
          -0.029758865799909374,
          -0.017630413374077374,
          -0.06599288909003077
        ],
        [
          -0.06683612162663741,
          0.05146245325017544,
          0.018564648781426555,
          -0.006213870285196509,
          0.08537047776853937
        ],
        [
          0.06555985254047693,
          0.053784051618091036,
          -0.026413800837892975,
          -0.06311763239078629,
          0.026898634466989528
        ],
        [
          -0.05496054730821391,
          -0.03169732061395996,
          -0.024940249494778542,
          -0.056832800579677455,
          -0.07119541236233434
        ],
        [
          -0.060539064865337264,
          0.021925987299266644,
          0.009963745228360818,
          -0.0030129755897408835,
          0.07249995115687471
        ],
        [
          -0.0024211421613060512,
          0.07510130632866385,
          0.05357863063301991,
          -0.005167885671040184,
          0.031081397960046424
        ],
        [
          0.07064791911402236,
          -0.012876482244883868,
          -0.0441472949364864,
          0.002279549261513901,
          0.0328334112857931
        ],
        [
          -0.04325880603833242,
          0.01305898788865999,
          -0.02174075681695233,
          0.0011121575425952707,
          0.0459517657592543
        ],
        [
          -0.0004924578942890975,
          0.010541962364252835,
          -0.02566406442169439,
          -0.04953323008432869,
          0.07462703607500834
        ],
        [
          -0.04668667973905702,
          -0.013334866530829508,
          0.06066061423449016,
          0.002990445517606379,
          0.043664176962645365
        ],
        [
          -0.0066638294205264206,
          -0.010215034262727565,
          -0.043940525107545356,
          -0.0013001870705084627,
          -0.07691613172762825
        ],
        [
          0.005091053586986522,
          -0.045166584937084364,
          0.05264017555802335,
          -0.00277710541100861,
          0.038154794452993746
        ],
        [
          0.08124843422980717,
          0.02429288414659658,
          0.02977655378709643,
          -0.020681932224504457,
          0.06799161482011946
        ],
        [
          0.053248763213831055,
          0.0729131754620062,
          -0.054273792895607166,
          0.04760632697365678,
          -0.059875853245058404
        ],
        [
          -0.042849649164977216,
          -0.09492988960230743,
          -0.016955236503395314,
          -0.035389047474087734,
          -0.01702329842345403
        ],
        [
          0.042387248900067426,
          0.042215864525414565,
          0.003568966061732888,
          -0.05048338711760917,
          -0.060279221472028084
        ],
        [
          0.017511504267054764,
          -0.035640226678796925,
          0.03748150873368402,
          0.049192771957432116,
          -0.07606413548633043
        ],
        [
          0.004858054462744988,
          0.044840522532068244,
          -0.018750664434444297,
          0.03267379983658511,
          0.07703337317268902
        ],
        [
          -0.024228581818607615,
          0.005548093240560436,
          -0.04152642288421411,
          -0.028081895169273653,
          -0.022957857913881573
        ],
        [
          -0.00853960439239223,
          -0.0493237695643239,
          0.0362039135142068,
          0.059942445267124285,
          0.025127716863874258
        ],
        [
          -0.04640634849989638,
          -0.08129093736760579,
          -0.07695367510183403,
          -0.06479463382116939,
          0.0023807706425129434
        ],
        [
          0.04762203176940453,
          -0.008454357464434325,
          -0.045678671931603125,
          0.053025042564842084,
          -0.037095117353541394
        ],
        [
          -0.028726098726138804,
          0.0007028735782706984,
          0.05758468984540148,
          0.005533177878160351,
          0.007399097950254988
        ],
        [
          0.032410128467107564,
          -0.05044203274840101,
          0.07874577106335406,
          -0.009465933238893533,
          -0.023427751484362488
        ],
        [
          0.04658531035627789,
          -0.006981179651656686,
          -0.04420619514935094,
          0.06985498570564025,
          0.029278776895110485
        ],
        [
          -0.0020114802619745895,
          -0.05156018027333718,
          0.0309126884954554,
          0.0678805661870679,
          0.020478895648027136
        ],
        [
          0.07907090076526904,
          -0.07901456911850317,
          0.05173394412709052,
          0.00517865225595586,
          0.0404353288629574
        ],
        [
          -0.015885558473082297,
          -0.028548776628572647,
          -0.030676684049598182,
          -0.053255540712954824,
          0.0051759088013233825
        ],
        [
          0.007130623309712773,
          0.01387737630748317,
          -0.0555218096467394,
          -0.03249115242980758,
          -0.02255732126594366
        ],
        [
          -0.03941180504388471,
          0.07567519571549679,
          0.029714602264168742,
          -0.020688818030870793,
          0.023798793052368608
        ],
        [
          -0.0762807535831832,
          0.07518697297703333,
          -0.007355341066142735,
          -0.0425847796704244,
          -0.013017962377316951
        ],
        [
          0.022178426279867578,
          -0.06037774089682639,
          -0.06262069221327671,
          0.008411790771375301,
          0.028553799235697515
        ],
        [
          -0.0034188157272075407,
          -0.013812973805506525,
          -0.0001855798580124097,
          -0.05706213037910978,
          -0.038671581093295576
        ],
        [
          -0.06906495826287186,
          -0.021890558996809743,
          -0.04374796226983746,
          0.059029874910075636,
          -0.017531584322921994
        ],
        [
          -0.05478229973110184,
          -0.03668980731847487,
          -0.003154246997118096,
          0.026783238054603784,
          -0.042235050192456706
        ],
        [
          -0.05107086142330284,
          0.01462175815620771,
          0.03583130926402168,
          0.01626452918085057,
          -0.04584461068320468
        ],
        [
          -0.058966859522846894,
          0.03842829153520576,
          -0.0583483870012992,
          -0.03091008684818881,
          -0.05943319325158141
        ],
        [
          0.05133798416828564,
          0.0442929878101198,
          -0.041472107214670886,
          -0.02837265964806567,
          -0.06730162101999908
        ],
        [
          -0.029684925293747083,
          0.04862080412060954,
          0.016780481098158717,
          0.05651418478635559,
          0.08755230775315316
        ],
        [
          0.025132337381798982,
          0.07860899395258003,
          -0.005132925608917555,
          0.007986561535028297,
          -0.03229245014145146
        ],
        [
          -0.00045883350756450655,
          0.013960468620354473,
          0.0349054172570594,
          0.04346480105633376,
          0.06484424455437783
        ],
        [
          0.020119794244359862,
          0.009257296726036963,
          0.021965293410226575,
          0.06596702718226118,
          -0.0661813074086011
        ],
        [
          -0.06722413502243568,
          -0.07749904116750003,
          0.016087253446550636,
          0.008571284172381987,
          0.020331226780585604
        ],
        [
          0.03636138441625023,
          0.008253399418181233,
          -0.06359773043706919,
          0.05687874938007658,
          0.04280129216693996
        ],
        [
          -0.06614009741407269,
          -0.047249242486848496,
          -0.007846372482822514,
          -0.05567625591563336,
          -0.05050469325276778
        ],
        [
          -0.049747857077770484,
          -0.050708525646765874,
          0.07686804912403017,
          -0.06316353734122497,
          0.052971979202876336
        ],
        [
          0.050234334043743514,
          0.04413476308873984,
          0.020103326828134403,
          -0.023738684184100856,
          -0.021868523501811832
        ],
        [
          -0.04418397082302006,
          0.011123636752424199,
          -0.010958595056483257,
          -0.07890995109384964,
          0.058129388253852714
        ],
        [
          -0.04197972256118403,
          -0.055684954939586515,
          -0.0512048739669992,
          0.05372776273461569,
          -0.015516715145538073
        ],
        [
          0.052344900877040204,
          -0.06904379558765993,
          -0.004778055678397194,
          0.012093764774297322,
          0.011850592440580088
        ],
        [
          0.07061807566415781,
          0.05643479191538647,
          -0.03697608406012934,
          -0.03516111459341516,
          0.06290231706341133
        ],
        [
          0.030934071965924025,
          0.0210042871549515,
          0.05650204378913005,
          0.065673838277061,
          0.06976575053029159
        ],
        [
          -0.024506363404312306,
          0.02630895244247724,
          0.045419663608085116,
          -0.005238307915083932,
          -0.008090863670084788
        ],
        [
          -0.03864810846944526,
          0.0547466863619473,
          0.02169635872307531,
          0.011679129995898378,
          -0.0216750521166911
        ],
        [
          0.02823352862048291,
          -0.05192296906458555,
          -0.03385897905148138,
          0.07556150958466837,
          -0.0006448760657171236
        ],
        [
          0.0404985174673918,
          -0.02812927407978996,
          0.07403401446799239,
          0.05075962403299075,
          0.01120223303483086
        ],
        [
          0.05243822469584079,
          0.003217289706626909,
          0.07758257689486794,
          0.03900222005891702,
          0.07584684606239528
        ],
        [
          0.03308425404863524,
          0.07025561847277009,
          -0.007953260110423513,
          0.07081129681449738,
          0.00968577815827463
        ],
        [
          0.02338323139639053,
          0.07816792757491312,
          0.017901412299419436,
          -0.04613054026593746,
          -0.03626133305531666
        ],
        [
          -0.02638154267749072,
          0.06206458931864531,
          0.014316641247506296,
          0.057548749724834314,
          0.02945277328065211
        ],
        [
          -0.03131813934300658,
          -0.047755879761637754,
          -0.06508166985817311,
          -0.042547175062591605,
          -0.007194885391261894
        ],
        [
          0.0329392713868139,
          0.0819318534243616,
          0.053387503751289395,
          0.007761612995494623,
          -0.04177774851673193
        ],
        [
          0.06433535322248748,
          -0.05007880509569519,
          -0.05606686908037182,
          -0.06708643923985268,
          -0.037697801864061894
        ],
        [
          0.014815466515028386,
          0.02673328236865284,
          0.05849080566562632,
          0.07233281188641029,
          -0.06085367940601358
        ],
        [
          -0.012962324321822141,
          -0.08399606694360741,
          0.045944359571287785,
          -0.04535980558335054,
          -0.03519124701356099
        ],
        [
          -0.04982075003295244,
          0.021847900330307486,
          -0.018378633699740767,
          -0.04759439594254341,
          0.07851169038619235
        ],
        [
          -0.023518576155242697,
          0.05288880442853756,
          0.04621306213525715,
          0.04573479814408341,
          -0.04822312775884063
        ],
        [
          0.06447000736721605,
          0.023625802047921723,
          0.07899563818100593,
          0.032071769968040176,
          0.04720927786124759
        ],
        [
          0.03924516702369719,
          0.002680026868722469,
          0.06833947762579849,
          0.0826893493277901,
          -0.05576177244381495
        ],
        [
          0.05711960329835835,
          0.0328108888264334,
          -0.05371761249635137,
          -0.009160809689666928,
          -0.042343827520576735
        ],
        [
          0.08333930056730804,
          -0.0357122150098173,
          0.053907428624560896,
          0.06424045190389137,
          -0.0002481664721843024
        ],
        [
          0.0011521162834496643,
          0.059006549087376174,
          -0.00805248567732715,
          0.006736686445034238,
          -0.04226956034288244
        ],
        [
          -0.05118819262148995,
          -0.038479560715477784,
          0.06629050423996025,
          0.030849830414037792,
          0.020921619853040127
        ],
        [
          -0.06818493033195523,
          -0.024766130969195006,
          -0.0453178209735017,
          0.06840061807078246,
          -0.06983386270497005
        ],
        [
          0.04260280914673617,
          -0.04087857940197833,
          -0.018448289727450325,
          -0.039395470124503125,
          -0.0245794224724623
        ],
        [
          -0.003086857746196455,
          0.03114716412769045,
          -0.005923762905878898,
          0.052310391600284244,
          0.0007354624758429912
        ],
        [
          0.02943494607166111,
          0.0010151030741306442,
          -0.03415536701269321,
          0.04022202273210146,
          -0.014092031911261769
        ],
        [
          -0.02233868883180979,
          0.03767212688246914,
          0.015019977531691783,
          -0.0407871396403084,
          0.047123948129433525
        ],
        [
          0.025221306275231947,
          -0.07591797180304985,
          0.0670181686663271,
          -0.05109142004805275,
          0.014297980743940468
        ],
        [
          0.01795493417794352,
          0.05998181734503913,
          -0.060223220798079784,
          0.03219252161657538,
          0.04167658061162259
        ],
        [
          -0.06520334113216537,
          -0.0035787901341685024,
          0.052531791106937904,
          -0.04255977354672822,
          -0.03130284411867109
        ],
        [
          0.0019034954361669407,
          -0.05686742192850756,
          -0.058200950638087265,
          0.05105722132401753,
          -0.03503010571750092
        ],
        [
          -0.004376860675940628,
          0.049093345719831115,
          0.006899248368359574,
          0.054241823460959356,
          0.07015445107435138
        ],
        [
          -0.057038287644345174,
          0.040333814538873386,
          -0.056048439115083656,
          0.0284891605621024,
          -0.006868886831202694
        ],
        [
          -0.01238507813534732,
          0.01760424534143768,
          -0.0061337777085160965,
          0.042783369344374524,
          0.05341185595750306
        ],
        [
          -0.0132215023693191,
          0.0727682837266432,
          0.07629927477001522,
          -0.010553220206596225,
          -0.004009079106593088
        ],
        [
          -0.031725506091952696,
          -0.06597949150437471,
          -0.0418290275392577,
          -0.0014825848243891395,
          -0.0765928018282544
        ],
        [
          -0.0714304492040235,
          0.08361625693297685,
          0.06295150752121742,
          0.06982177082810827,
          -0.04779928508059294
        ],
        [
          0.07476792413981047,
          -0.012317153589241852,
          -0.05806193623685135,
          0.04387143374542307,
          0.06511122993620144
        ],
        [
          -0.0122255447906385,
          0.050291413128440744,
          0.0664695555611797,
          0.006438090025856128,
          -0.005648692375117161
        ],
        [
          0.03466124972573508,
          -0.08620540066305804,
          0.06627456307623351,
          -0.04124711432189332,
          0.05915815661048261
        ],
        [
          -0.02483024540670952,
          -0.03434931309433678,
          -0.04640578137178073,
          -0.07307377124630574,
          -0.02483453580178514
        ],
        [
          0.002581568819311347,
          0.06024841607394679,
          0.04352634665459291,
          0.08126127109552048,
          0.03683831653662162
        ],
        [
          -0.07198429721058434,
          -0.02309332547273486,
          -0.016976274958697118,
          -0.0249869628994695,
          -0.03773051452497405
        ],
        [
          -0.06114403744597313,
          -0.08238708865330638,
          -0.012556140238039557,
          -0.061763158574241375,
          -0.08127187676845896
        ],
        [
          -0.05421657065482229,
          -0.011248732846247037,
          0.022512387310470252,
          -0.000789157065908822,
          0.06896108405199929
        ],
        [
          -0.05434535231649958,
          0.07212755972313539,
          0.060976876814614514,
          0.022480502296384118,
          -0.06141252688187696
        ],
        [
          -0.06246941593764306,
          0.0034327602384987164,
          -0.031126106904302054,
          -0.016796162730623693,
          -0.0659988272041475
        ],
        [
          0.06632926491887875,
          -0.009285612908638661,
          -0.06859602193546059,
          0.001488762769944875,
          0.06415764711961308
        ],
        [
          -0.016058943227632544,
          0.056374701524776666,
          -0.009904523422169229,
          -0.03866895804068806,
          -0.023963839844399867
        ],
        [
          -0.04321292308603376,
          0.006689700848723362,
          -0.06522745222665856,
          -0.052135135206520564,
          -0.04132078912540882
        ],
        [
          -0.05157179840339741,
          -0.015284767354262738,
          0.0037883333777672633,
          -0.015616183360176106,
          0.05583556696427228
        ],
        [
          -0.07159225628468358,
          0.03351350742877761,
          -0.051079785659516604,
          -0.0304188622868688,
          0.043141563430350395
        ],
        [
          -0.016014438782372367,
          0.03968520402546128,
          -0.06485538146261016,
          -0.07603797227034748,
          -0.04159724836462455
        ],
        [
          -0.05652472623753706,
          0.023263760070821593,
          -0.01616202072135383,
          -0.05742810392718146,
          0.027962609950666333
        ],
        [
          0.049294314391129676,
          -0.0035803390498177095,
          -0.04221568955649475,
          0.06904157315484463,
          -0.05019254693652208
        ],
        [
          0.04661484469636199,
          -0.0023839144465888622,
          -0.04341598332218868,
          -0.03751362994191142,
          0.029702383248840992
        ],
        [
          0.026144797731292038,
          -0.029541350293515078,
          -0.06192589241903354,
          -0.022060374652926592,
          0.020893965243103
        ],
        [
          -0.07730766462812037,
          -0.06720752047204019,
          -0.019174172719876384,
          0.08029571709215998,
          0.006004488560197566
        ],
        [
          0.020441930798224112,
          0.004019864748697887,
          0.03190787879676891,
          0.05984034910430839,
          -0.04299545498520971
        ],
        [
          0.01857495958641079,
          0.016104695754215158,
          -0.005795928916727553,
          0.05050986754530818,
          -0.0014439198884992174
        ],
        [
          0.02822869158005163,
          -0.010254403437599948,
          -0.034860570603824664,
          0.019646782726664726,
          0.026640409722528204
        ],
        [
          -0.0392130980313523,
          -0.06094570947178185,
          -0.005192779932464958,
          0.0056707704586077155,
          -0.057623590486649647
        ],
        [
          0.06469473436700328,
          -0.0680211592795501,
          0.044697509151706595,
          0.004663224787552397,
          0.009268964007821812
        ],
        [
          0.0018388893073279038,
          -0.04381060746968928,
          0.0403516745359335,
          0.022652495436352355,
          -0.05407058832759685
        ],
        [
          0.03767772217178729,
          0.027107308891612236,
          -0.0640569647861724,
          -0.0819014633059193,
          0.0034703438961072703
        ],
        [
          -0.06724247359567809,
          -0.03838007852613387,
          -0.06893097066179146,
          0.06457327874738392,
          -0.06624188599176402
        ],
        [
          0.05097227565819647,
          0.004949529315654743,
          -0.03986851201487789,
          0.002483340771335219,
          -0.050388767558276364
        ],
        [
          0.02838666993280591,
          -0.0524405714900881,
          -0.04757210317964789,
          -0.022799346129035544,
          -0.05930777305488416
        ],
        [
          0.022185474124581155,
          0.017731771771625302,
          -0.04776418407003468,
          -0.008656605715387867,
          0.02015833858305539
        ],
        [
          -0.07537406467071157,
          -0.07180764824519849,
          -0.0012387442057757289,
          0.05837597827284403,
          -0.035917338023160356
        ],
        [
          -0.06227000049589713,
          0.04561543814474227,
          -0.008945012340363366,
          -0.02404532548674542,
          0.07235180909533262
        ],
        [
          -0.03678796266051706,
          -0.023418665884326277,
          -0.030278930640570627,
          -0.025970022658543306,
          0.02398696122929586
        ],
        [
          0.0452398951069214,
          -0.0734747679550297,
          0.031595648949928314,
          0.013665737211189978,
          0.008886717792022299
        ],
        [
          0.04273540549028923,
          -0.034512866477794425,
          -0.07290251589082973,
          0.0063379995957035095,
          0.06569042229818657
        ],
        [
          0.01044235028115197,
          0.032759286366277035,
          0.02461077562603518,
          0.038397007233373276,
          0.056141047776089914
        ],
        [
          0.0033938273328181414,
          0.062338462750003376,
          -0.06444034386111078,
          0.054956396348005615,
          -0.004978516679931434
        ],
        [
          -0.039867363148045405,
          0.06346589292874821,
          -0.03489095837766982,
          -0.0074902139977721105,
          0.08067388730408398
        ],
        [
          -0.029159180147717786,
          -0.011819330447735631,
          -0.03867353282433075,
          0.05681156453613495,
          -0.03795225747874941
        ],
        [
          0.03410834641850693,
          -0.04158957901882479,
          -0.056455309936186596,
          0.028212226836488843,
          0.023920013944815244
        ],
        [
          0.06622327320416338,
          -0.08604119259020843,
          -0.052853066279260785,
          -0.015771101070499737,
          0.01631746448831445
        ],
        [
          0.07015405560549341,
          0.006619818834081516,
          0.08780121852367041,
          -0.03352631530905884,
          -0.05487683107178532
        ],
        [
          0.029527009301424406,
          0.051675889577368066,
          0.054059939365299674,
          -0.0506938456665687,
          -0.06604616701349537
        ],
        [
          0.010619131126009524,
          -0.023551050731461066,
          0.04045886336478094,
          0.07184715579101834,
          0.020141245621998007
        ],
        [
          0.04456167134498888,
          -0.06040289813302177,
          -0.04125883976106006,
          0.0018968322839921037,
          -0.06893506126662106
        ],
        [
          -0.023080924597140635,
          0.05694860935147269,
          -0.013688757102624849,
          0.03744500976707998,
          0.026831562611558696
        ],
        [
          0.05768265955134239,
          -0.02787157871006268,
          -0.018048118035163145,
          -0.0018500961371256948,
          0.06822967788477398
        ],
        [
          -0.0667480350475237,
          0.05319287533531057,
          0.0008542810158129162,
          0.07096710627624736,
          -0.0043393059332735755
        ],
        [
          -0.04130937132136206,
          -0.042257478063816654,
          0.019953407049653333,
          -0.04694410705465406,
          -0.06130393842122169
        ],
        [
          0.029562533491161516,
          -0.03549602293576409,
          -0.03708493925119729,
          0.024551033706678025,
          -0.031097294761254612
        ],
        [
          -0.03517517352690287,
          -0.0408297894145798,
          0.008845657024205795,
          -0.014535927096638875,
          -0.0643275591849279
        ],
        [
          0.04656290222309035,
          -0.04225537488302366,
          0.08056003900282957,
          -0.03039323964227473,
          -0.0027893826636949536
        ],
        [
          0.05867495280568337,
          -0.049988677747994176,
          -0.0059412210061632435,
          0.006598435038567323,
          0.05743828744706872
        ],
        [
          -0.01548977967880101,
          0.021066327858813252,
          -0.044953594572153595,
          -0.07011918365098002,
          -0.007465674941539402
        ],
        [
          0.018112335520141416,
          -0.047099982395221035,
          0.031942518486082705,
          -0.009442674647582958,
          0.016485943666737155
        ],
        [
          0.0694688090416751,
          -0.011607633135525914,
          -0.007597157800678109,
          0.035302920840972724,
          -0.011794576681123497
        ],
        [
          -0.005805378038750054,
          -0.054593570687522824,
          0.01232815335688193,
          -0.040520733973829125,
          0.008592343730723767
        ],
        [
          0.05752100538822627,
          0.08050187383107821,
          0.09081273171550858,
          -0.025878378833153647,
          -0.020479432723654354
        ],
        [
          0.07010595399085488,
          0.0436840656672009,
          -0.002303823671042209,
          -0.005702895811032724,
          -0.06026841923362041
        ],
        [
          0.02468467251284652,
          -0.02231998195079961,
          0.02583456116790006,
          -0.010908106774849595,
          -0.06013886655768111
        ],
        [
          -0.045823889166114344,
          -0.016855187940205175,
          -0.08563925308741985,
          -0.04170415171342942,
          -0.0676974679141731
        ],
        [
          0.043987966016290056,
          0.011955157330068801,
          -0.03773529805637636,
          -0.06919104480120346,
          -0.06036467533374832
        ],
        [
          0.059344006303903435,
          -0.03363796692610936,
          -0.04663907921024146,
          -0.005411133051032437,
          -0.04918044850611169
        ],
        [
          0.06577147612843605,
          0.04370064467939355,
          0.08869779994539224,
          0.03716559881169784,
          -0.02459622380110658
        ],
        [
          0.012553200187999929,
          -0.04291345999910003,
          -0.04620380965076878,
          -0.0521549916034125,
          -0.05321472300059378
        ],
        [
          -0.0312785599598786,
          0.0339338897121495,
          -0.02075464875319239,
          -0.0347116834280592,
          -0.06712595813736064
        ],
        [
          -0.023209097763280544,
          0.06981925123493223,
          0.05390431411416529,
          0.07647470177856763,
          0.06077729139028597
        ],
        [
          0.031085362085990335,
          0.06103464609783742,
          0.007586620633995197,
          0.0001230924061683674,
          0.06719724503584895
        ],
        [
          -0.029345053590854542,
          0.01531075105562182,
          0.030967415461858744,
          0.013705342535769017,
          0.0594106153904502
        ],
        [
          -0.025260950375461153,
          -0.04047029305677545,
          -0.062254905625585916,
          -0.06370361508223223,
          -0.046694413285775185
        ],
        [
          0.05723867319959893,
          -0.06639054935066366,
          -0.027167681808774394,
          0.0471091807947919,
          0.008197754987183012
        ],
        [
          -0.001635451162463391,
          0.03765900334604736,
          -0.05511848034068834,
          0.0014031580611969096,
          0.08160983728226756
        ],
        [
          -0.08455714458172413,
          -0.02899444587944586,
          0.005768465763108564,
          0.02088397692091256,
          0.06348660526394652
        ],
        [
          0.04562797665036987,
          0.05116712902357582,
          0.03313697376472938,
          -0.01122671017781383,
          0.07762426855534647
        ],
        [
          0.05874808503576923,
          -0.02651333731239259,
          -0.05097385812578871,
          0.06701756218414015,
          0.016664418598874516
        ],
        [
          0.036148866415672665,
          0.004710044881928354,
          0.08023333456044644,
          0.05127645017620871,
          -0.03605383223219636
        ],
        [
          0.03969348216367195,
          -0.07662751529700071,
          0.04041928421101346,
          -0.06852924248520732,
          -0.024628870343494747
        ],
        [
          -0.06122292344522243,
          -0.03052255272864377,
          0.0021326017526244693,
          -0.03659268791905839,
          -0.03413060917562288
        ],
        [
          0.02584774267619832,
          -0.04148224472289022,
          0.023773281505927505,
          0.003848359704242319,
          0.041571774312264886
        ],
        [
          0.039534800991047545,
          0.046745994814596105,
          0.047960093913224054,
          0.010840411393089857,
          0.02018045702781068
        ],
        [
          -0.01777033848442154,
          -0.036027869490584404,
          -0.004186028332511319,
          -0.03219720129740738,
          0.038757362285959114
        ],
        [
          -0.05482634128458428,
          0.07269392833671569,
          0.014434352780810785,
          -0.026625667225757887,
          0.02710684310480513
        ],
        [
          -0.07444958276425437,
          -0.017903367396130004,
          -0.006604568109462994,
          -0.057014280248516715,
          0.007710857087717952
        ],
        [
          -0.0629923669329595,
          -0.05151961888897118,
          0.07752741422308287,
          -0.07568956680647941,
          -0.018748104831182697
        ],
        [
          -0.01844932236991968,
          -0.0002855972907869621,
          0.007044362689024831,
          -0.032307788448024864,
          -0.05277720045704997
        ],
        [
          -0.0260393837731186,
          -0.04234267083804214,
          0.06140943403712414,
          -0.06920674305154627,
          0.033787518063324036
        ],
        [
          0.0043563654780408925,
          -0.039520498944521316,
          0.07039077323194985,
          -0.04226395309834543,
          0.021210493705446417
        ],
        [
          0.025647443001968747,
          0.053398443219942,
          0.01990713585764072,
          0.02980868729678914,
          -0.06462618041079307
        ],
        [
          -0.0506667554235468,
          0.011454705636744047,
          -0.014618626120567167,
          0.0689986628555066,
          0.05565386798692921
        ],
        [
          -0.019104719756336087,
          -0.06394534448725595,
          0.06566363855599314,
          -0.04326125702697883,
          -0.034290428452990435
        ],
        [
          -0.0528753121731037,
          -0.07816986229055185,
          -0.0684578835961102,
          0.02987547466855566,
          -0.021337737347587565
        ],
        [
          0.07118803384667909,
          0.08567227019127645,
          -0.026862402847946075,
          -0.03401570825160932,
          0.02782588250224799
        ],
        [
          -0.006269502682204955,
          -0.005840202100986484,
          0.06867448593234293,
          0.03644647163211811,
          0.08656668347440703
        ],
        [
          0.07285747690633351,
          -0.029468253232000592,
          0.06783163053669615,
          0.023701200417717637,
          -0.0250826346551982
        ],
        [
          0.03746114636758163,
          -0.018797071762529538,
          0.009974741333757751,
          -0.033381857124352404,
          -0.05403005787250744
        ],
        [
          0.06592923674393812,
          0.07861506720758389,
          -0.061806164752507234,
          -0.036102697771392925,
          0.057515798564693674
        ],
        [
          -0.08416221890981714,
          -0.06366960195078719,
          -0.03892034539566734,
          0.028173081500458375,
          0.042319110394285875
        ],
        [
          0.006670816399568748,
          -0.06799232562030466,
          0.033390658434871295,
          0.05345383437022631,
          0.03886065964966726
        ],
        [
          0.002172397973900746,
          -0.06368269014114565,
          0.002505615349357601,
          -0.06141842214067879,
          -0.062216105622440496
        ],
        [
          0.006929943058728172,
          0.057109429656342636,
          -0.04306555659136942,
          -0.008470829073562182,
          0.038824866290178256
        ],
        [
          -0.025309312941813728,
          -0.030086358473613,
          -0.04742849471439075,
          0.01241407090899887,
          0.07272837192478897
        ],
        [
          0.06999456254533375,
          0.010652035765718878,
          0.02400454157691047,
          0.012258676963851627,
          -0.06565989666677295
        ],
        [
          0.01681808366604738,
          -0.018717523419972418,
          -0.04805711513577373,
          0.02100572346435946,
          -0.03199656864623799
        ],
        [
          -0.055747854744617006,
          0.012745425033725406,
          0.09201280937699204,
          -0.024528416989297096,
          -0.026423766170006434
        ],
        [
          0.05260669872996212,
          0.05204225850842359,
          -0.03205989709277263,
          0.07196010278649213,
          -0.04666745115476109
        ],
        [
          0.014548206006500584,
          0.02545272743248379,
          0.09297232565228444,
          -0.037380560813577525,
          0.0851541060715935
        ],
        [
          -0.07044136724525943,
          0.04872076134578057,
          -0.011885383508002811,
          -0.020960851187765223,
          0.03994897178537275
        ],
        [
          -0.012609593450426107,
          -0.04772850530393108,
          0.09034188222288426,
          -0.06255908062848606,
          0.07278789492580769
        ],
        [
          0.03072972000922627,
          -0.004559199562521837,
          0.03332845716811212,
          0.0050370472520287896,
          0.039042116078077026
        ],
        [
          -0.030005803005634806,
          0.08207325519336109,
          -0.020607105765716126,
          -0.052730789890131635,
          -0.05690282325264029
        ],
        [
          -0.019371829926476604,
          0.01757503337018502,
          0.026933044099976582,
          -0.06428240733340791,
          -0.03493532678451114
        ],
        [
          -0.06521546187869105,
          0.07710967569822176,
          -0.03083602181330222,
          0.043500081611261975,
          0.05625116330024457
        ],
        [
          -0.05869466202493924,
          0.04231160043857477,
          0.03124547952311371,
          0.031023751607008224,
          -0.08263555330027868
        ],
        [
          0.034233676649574156,
          0.03815192244445563,
          -0.014901938795838893,
          -0.048150524408054514,
          0.05231521911659646
        ],
        [
          0.05821508511448358,
          -0.06553916788198494,
          0.03311440445954797,
          0.03852029965548374,
          0.025917187562137393
        ],
        [
          -0.06863831349476043,
          -0.003350415752589854,
          -0.01940641064746213,
          0.005306413355541159,
          0.08539815317954126
        ],
        [
          0.07546776157567853,
          -0.0829139631914764,
          -0.016712029643894757,
          0.04126435323260733,
          0.02866265926400485
        ],
        [
          0.01693672314005934,
          -0.02856985881511909,
          0.026037511385312368,
          -0.03795801735701804,
          0.002018449133239421
        ],
        [
          -0.04802225858046574,
          0.050992631972136014,
          -0.004962447394177399,
          0.0022175425280747483,
          -0.02365107356844512
        ],
        [
          -0.005276500372489408,
          0.041694815752551025,
          0.07529053731905565,
          -0.059254888215487314,
          -0.04285148111230286
        ],
        [
          0.07252621728709069,
          0.04759687134307235,
          0.026120147563481654,
          0.06170243745514862,
          -0.07805330634135445
        ],
        [
          -0.04959678993838184,
          -0.02746196703667961,
          0.0037791188871858995,
          -0.06828921866553249,
          -0.06131361513297141
        ],
        [
          0.054996594983383405,
          0.047253835083728574,
          0.07013968216399653,
          -0.04038310690115059,
          0.0281938775572438
        ],
        [
          0.05159706821452805,
          0.045347056511190295,
          0.0711236139753725,
          -0.02119317257900816,
          -0.018622424095125947
        ],
        [
          0.018939839801720988,
          0.01574192497934973,
          -0.03966222764792216,
          -0.015336584653058895,
          -0.0380111512806806
        ],
        [
          -0.06682102618071793,
          0.0719793868871896,
          0.012235738768550298,
          -0.06052587612839981,
          -0.035562089691321436
        ],
        [
          0.0013375651384691621,
          0.013639913188284163,
          -0.07130433975080987,
          0.0533273573509314,
          0.03893930778614504
        ],
        [
          0.013358925328073487,
          -0.03898970255083795,
          0.07295480468128268,
          0.030055697350237335,
          0.023474990725632083
        ],
        [
          -0.036254671940786985,
          -0.043339431679759816,
          0.03502776452514444,
          0.04311345793182616,
          0.04259432662141575
        ],
        [
          -0.0763902100288545,
          -0.04046718582275797,
          0.0291249583248847,
          0.06851496902292993,
          0.06252945844865312
        ],
        [
          -0.05986677460377965,
          -0.034890480468579614,
          0.06514571803468566,
          -0.048288116177396555,
          0.04641296977828969
        ],
        [
          -0.033323937875917996,
          -0.00404128484517725,
          -0.034925059686898186,
          -0.05440639619260032,
          -0.03735871446686786
        ],
        [
          -0.06606301655823907,
          0.015159408176570776,
          -0.0705152370636189,
          -0.02130325593282192,
          0.034807114533179875
        ],
        [
          0.06100297044797727,
          -0.04240471916735148,
          -0.018076740402067623,
          -0.0006187694667814796,
          -0.010591112047410001
        ],
        [
          -0.05819854365631848,
          0.009576661097051294,
          0.0028389598485636536,
          -0.04630595942198626,
          -0.06914278144923774
        ],
        [
          0.04446251609109464,
          0.023121927240956738,
          -0.050483477357754145,
          0.03945923205565783,
          0.011572463822833882
        ],
        [
          -0.044591223114261475,
          0.0754955409295119,
          -0.002883726948484776,
          0.02132832940413452,
          -0.0072931356198620715
        ],
        [
          0.0014918031570743799,
          -0.05655320099789133,
          0.04413888005168241,
          0.03692705175438542,
          -0.032357564748496416
        ],
        [
          -0.011922863830415355,
          -0.047236176064596055,
          0.05946727074785696,
          -0.01742548964070711,
          0.0426596264085714
        ],
        [
          0.006512458229784588,
          -0.046629918292726086,
          -0.045586659576299114,
          -0.04047170527256235,
          -0.05195268414098617
        ],
        [
          -0.052207867882285465,
          -0.04134963518473609,
          -0.052214828963342785,
          -0.029501257868651935,
          0.04767188810520682
        ],
        [
          0.024395027574474724,
          0.02267819101049081,
          0.01069840537473111,
          -0.024880399718678895,
          0.043650719384073916
        ],
        [
          -0.06837358104361217,
          -0.012677777709516565,
          -0.08639592137522759,
          0.06417153354364842,
          0.04239853021225308
        ],
        [
          0.01618408830208992,
          0.04998363954967784,
          0.049581598785140533,
          0.035614585309502435,
          -0.015274682000783078
        ],
        [
          0.006863006207127776,
          -0.02696405800831727,
          -0.056638583688502046,
          0.032972268492624,
          -0.005273608595344965
        ],
        [
          -0.03333540378925793,
          0.06482044749909652,
          0.01705808353647753,
          -0.018542705544777202,
          0.010465910273104034
        ],
        [
          0.08463647546743834,
          0.022186164611551814,
          0.037060663346097845,
          0.0861129489131765,
          -0.06902981058241499
        ],
        [
          -0.07294301774482363,
          0.08338998119097761,
          -0.02717282919655069,
          -0.07792550540282064,
          0.08278666450848073
        ],
        [
          0.06286611705378424,
          -0.008698097419503933,
          -0.03297374529089765,
          -0.016747914567249198,
          0.012278018222893476
        ],
        [
          -0.04791015194053246,
          -0.05780525563515114,
          -0.020814384873271752,
          -0.022656258577327667,
          0.03813964562299144
        ],
        [
          0.04735555830151109,
          0.019079854174297892,
          -0.01396217111604659,
          0.08063864609024174,
          0.0053749105407455994
        ],
        [
          0.0026850806321856075,
          -0.004150358312963791,
          -0.04628608194640918,
          0.00891046563159979,
          -0.023508103733654688
        ],
        [
          -0.051281445735425916,
          -0.09717547322349734,
          0.04852295850675988,
          0.044359940259854264,
          -0.06165625643159323
        ],
        [
          -0.025979469835487597,
          -0.022294750520443656,
          0.033501686007186816,
          -0.029060699940701887,
          -0.042985227897242524
        ],
        [
          -0.03316280275287698,
          -0.032376816769284215,
          0.00701071758909559,
          0.07193999684284369,
          -0.0803640610614052
        ],
        [
          0.05342108824423326,
          -0.07470553419106127,
          -0.05806510150331488,
          -0.0465323209290616,
          -0.03952773850760119
        ],
        [
          0.009638095436409054,
          -0.02162346616719113,
          -0.018932589523462048,
          0.005502779873406799,
          0.01648702772408204
        ],
        [
          0.04324146590503988,
          -0.04559233092516324,
          -0.025701413177782004,
          0.058180346513624664,
          -0.04529313590905547
        ],
        [
          0.07205102213667465,
          -0.002686267673389808,
          0.005338223329425799,
          -0.05841740313917368,
          -0.027483650329884424
        ],
        [
          0.0005415275432390728,
          -0.01941550200630738,
          0.056653889351587314,
          0.048675907732099656,
          -0.043606154613094514
        ],
        [
          0.005639531341493068,
          -0.07829577002375981,
          0.06255173718252818,
          -0.014812093370599959,
          -0.04099856128979679
        ],
        [
          0.014370543898825383,
          -0.00413510268681447,
          0.02606669968228701,
          0.037431424515950516,
          0.0469915268672077
        ],
        [
          -0.05941383521862596,
          0.036556242713970455,
          0.044924103165157755,
          0.030265257834462222,
          -0.07775038096692509
        ],
        [
          0.030437609130853846,
          0.08155187553643276,
          -0.045519704714013356,
          -0.026332376586344155,
          0.06698201606417148
        ],
        [
          -0.05548374774679237,
          -0.03807097028872703,
          0.05021672326269097,
          -0.04228737544010705,
          0.04036535388210239
        ],
        [
          -0.029568856786568582,
          0.03550343248493872,
          0.06305296035462579,
          0.0006068362016921985,
          -0.0374922476208199
        ],
        [
          -0.053266990566749016,
          -0.01915029002501579,
          -0.08801735749171558,
          0.0018052933288931255,
          -0.01301024841132237
        ],
        [
          -0.012558630055138402,
          0.03340621203343602,
          0.07425713962945847,
          -0.040464918698246664,
          -0.012048560647898235
        ],
        [
          0.027478511819100954,
          -0.004626120887662938,
          -0.05388326727697328,
          0.06609049360825037,
          -0.08048272332589246
        ],
        [
          -0.06510375819183008,
          0.062123553237665684,
          -0.04232283639653473,
          0.02042173630821269,
          0.0025212356671542972
        ],
        [
          -0.03180372051212815,
          -0.08307522648797909,
          -0.017833944071001313,
          0.05519694342829951,
          -0.0800171402070973
        ],
        [
          0.04449240170330541,
          -0.06859857464164003,
          0.07414347950660392,
          -0.02799014960616271,
          -0.04390865297776745
        ],
        [
          0.07620083943284799,
          -0.08988749601492377,
          -0.023531275565224708,
          0.034700570796449996,
          -0.01300008026446156
        ],
        [
          0.02957150455360326,
          0.0024153577260647196,
          -0.059236841795075226,
          -0.06541419009576376,
          0.0636705276691277
        ],
        [
          0.05180430403053691,
          -0.007241679672960438,
          0.013901750744499454,
          -0.03790830131327943,
          0.010048627362660979
        ],
        [
          0.02438242543582239,
          0.011475249525802183,
          -0.04903006959564554,
          0.03416468322809458,
          -0.00577401476047511
        ],
        [
          -0.05085694228244412,
          -0.035325945126600256,
          -0.06038950368689887,
          0.04756982919076719,
          0.005207654022590233
        ],
        [
          0.007244796687359761,
          0.04235522623978626,
          0.05544687270175258,
          0.07257254538039876,
          0.012663019725995404
        ],
        [
          0.039216314769911664,
          0.04015479979038271,
          0.03355422400647658,
          0.060727561058482274,
          0.04483920749542565
        ],
        [
          -0.0770415688796581,
          0.007661974087573106,
          0.0762681753347123,
          -0.023348932123178758,
          0.0019315373306107734
        ],
        [
          0.014480471690810598,
          0.029606568873026273,
          -0.010710152734662809,
          0.051523916535187814,
          -0.07042103678229474
        ],
        [
          -0.055111970107296064,
          -0.06330535609702038,
          0.028026152625247637,
          0.0456905946107095,
          0.04270113936050542
        ],
        [
          -0.04999799983725622,
          -0.021193608003627993,
          0.009736912074721354,
          0.021365941351611465,
          -0.06070191011222861
        ],
        [
          -0.058424628844167506,
          -0.03363650494880441,
          0.06926329620106368,
          -0.03220563312709927,
          -0.04866799012944653
        ],
        [
          0.09284077348884773,
          0.046648069783388736,
          -0.000750327647479035,
          0.009452992125628997,
          -0.06135668129964523
        ],
        [
          0.007414016816447874,
          -0.05076556054245028,
          -0.004803277418863422,
          0.03744913208471328,
          0.08434254540088143
        ],
        [
          0.041199359653384685,
          -0.008389836683397775,
          -0.048897714516293975,
          0.05864064386406812,
          -0.05184427339172655
        ],
        [
          0.046318981459139916,
          -0.05502349114713368,
          -0.06612747963472432,
          0.04903150136967947,
          -0.04022983666525952
        ],
        [
          -0.005731780378540459,
          -0.09048485948797189,
          0.02849040821595192,
          -0.06648582924506466,
          -0.014214456203621259
        ],
        [
          -0.04130810981228525,
          0.05384955210930493,
          0.015157417063079125,
          0.06690091539837768,
          -0.03409554655882926
        ],
        [
          -0.00410868177561543,
          0.04326284841613898,
          -0.007129670057666183,
          0.06172324322464273,
          0.021266075128558968
        ],
        [
          -0.020332761280669295,
          0.07273910163166294,
          -0.04278561797370965,
          0.03796548993990346,
          0.026343525732193118
        ],
        [
          0.04040292665220847,
          -0.00823307649275925,
          0.021744841524878458,
          -0.005206024735589766,
          0.009834507419193405
        ],
        [
          0.04527028961066121,
          0.06053959691745681,
          0.05459573878668153,
          -0.07668981482300345,
          0.0829328205662908
        ],
        [
          -0.03912193035087417,
          0.02881193891696182,
          0.04662605656738154,
          0.06500651717552502,
          0.06534126188277263
        ],
        [
          -0.056687469851744214,
          0.05175673096408985,
          0.06437707220106959,
          0.015355637230313756,
          -0.0010480957754829218
        ],
        [
          -0.03935506726062451,
          0.01981859829390176,
          -0.06951654138375742,
          0.06347766941191707,
          -0.01758249664750799
        ],
        [
          -0.06323582330977039,
          -0.05329062492900602,
          0.010840133189438194,
          -0.016801188711707875,
          0.013827067490193268
        ],
        [
          0.047111302423950924,
          -0.05426257235228415,
          -0.05160779719826445,
          0.04818847988513369,
          -0.004545487454364509
        ],
        [
          0.04129340600003052,
          -0.03268772443781446,
          -0.027826804481710543,
          0.0649778254918152,
          0.07723567665701135
        ],
        [
          -0.005097716557427202,
          0.024270782751303704,
          -0.047992241383770576,
          -0.03843186960548214,
          -0.015839645207095333
        ],
        [
          0.05212801427571835,
          0.03860195964121021,
          -0.05473945940697826,
          -0.024314465423715622,
          -0.019772945852255062
        ],
        [
          -0.026802132688975876,
          -0.0829788533393573,
          -0.047367308698550485,
          -0.021338281248133025,
          -0.03615055647778145
        ],
        [
          -0.05798928563746994,
          0.04682456430631455,
          0.06839682214421265,
          -0.04195746419191287,
          0.0801625861580459
        ],
        [
          0.08065335395404732,
          0.057938708642037706,
          0.00016006923542015303,
          -0.022126075946842905,
          -0.0634689810846087
        ],
        [
          0.05002996622608914,
          0.052621149617569585,
          0.018075688301793475,
          0.04301734201496762,
          -0.02038556409096579
        ],
        [
          0.07707087067866364,
          0.017661819930238572,
          -0.06241145076913016,
          -0.05290673706008613,
          0.008264986075923709
        ],
        [
          -0.006915144614656332,
          0.02488934301644199,
          -0.004291204680636178,
          -0.041798089642823937,
          0.015961561667391225
        ],
        [
          -0.03618803267421573,
          -0.08726417266269812,
          0.04854022522897482,
          -0.026946370233896864,
          0.016446787654237748
        ],
        [
          -0.0386444873943033,
          0.07955507054114584,
          0.023596384353875836,
          -0.0815542564192551,
          0.07909421429489621
        ],
        [
          0.008373809265400182,
          -0.06317042049253836,
          -0.06255101903379,
          0.05858170854769845,
          -0.02173204732025768
        ],
        [
          -0.04765580906904674,
          0.08594708762961031,
          -0.043192753848336506,
          -0.03568535992480601,
          0.08684792752554547
        ],
        [
          0.04273706119030864,
          -0.09180273376319528,
          -0.06484767910864339,
          0.06711338964035009,
          0.012167019150490455
        ],
        [
          0.015471860533282032,
          0.08249000231602674,
          0.09236220954861621,
          -0.06123046817054303,
          0.05455445095366256
        ],
        [
          0.0022142943433018794,
          -0.08214025666575825,
          -0.03754062263031673,
          -0.0034889499320486165,
          -0.0132575773187288
        ],
        [
          -0.06953223460238812,
          0.06807378475074066,
          0.03765723175182162,
          0.07437877037759001,
          0.07296903154589074
        ],
        [
          0.006279795094492531,
          0.004793088572815951,
          0.047049921565291815,
          -0.0008596841767200933,
          0.03573290591557743
        ],
        [
          -0.07273908627913643,
          -0.015918736820925213,
          0.023660192965474263,
          0.005801881211639139,
          -0.051955370629759856
        ],
        [
          0.028702737246974076,
          -0.06524921211817279,
          0.007530843098961751,
          0.006480801927006924,
          -0.024456498236917593
        ],
        [
          0.05604975139659253,
          0.06571857333616846,
          -0.04695009031655783,
          0.030677565166091287,
          -0.044440787666626506
        ],
        [
          -0.019284678463025746,
          -0.08000204006091499,
          -0.09269354330055472,
          -0.020100216000128616,
          0.007203299144138524
        ],
        [
          -0.027128120241368556,
          0.01554026229588328,
          0.07466651595254663,
          0.068968443837974,
          -0.05681987812449793
        ],
        [
          0.02029256392135722,
          0.05740196286241342,
          -0.08282951736888312,
          -0.05328601620170385,
