{
  "layers": [
    {
      "activation": 2,
      "biases": [
        -0.0030600413313031185,
        0.043259893204371666,
        -0.007182154219802772,
        0.0,
        0.0,
        0.026651900654003594,
        0.0,
        0.0,
        -0.004664546570673679,
        0.0,
        0.0,
        -0.004154208600956815,
        0.0,
        -0.004405011357856395,
        0.06855062925779322,
        0.0,
        0.003726520271981604,
        0.0171072182695767,
        0.033162131324729734,
        -0.017105406864718956,
        0.0,
        0.0,
        -0.033689097886857096,
        0.0,
        -0.0002958893235674938,
        -0.0008278871999597341,
        0.0,
        -0.010584288384293773,
        0.0,
        0.013848895372158913,
        -0.08109561692010676,
        0.04940873070124368,
        0.0,
        0.012157296999437748,
        0.03493591681943908,
        0.0,
        0.009174861674473936,
        0.04371042528841972,
        0.0,
        0.04531993535395787,
        0.028855791790721348,
        0.0,
        0.0,
        -0.001277643884916515,
        0.0,
        0.020229869196481804,
        0.0054268356591887475,
        -0.0037492102097677147,
        -0.03380571969047051,
        0.0,
        0.0,
        0.0,
        0.0,
        0.0,
        -0.021720197500210023,
        -0.1077400751707708,
        -0.06446167064674166,
        0.0,
        0.0,
        0.0
      ],
      "cols": 60,
      "rows": 956,
      "weights": [
        [
          0.06347520493580502,
          -0.010071885086807366,
          0.0324833700863685,
          0.06261182204667351,
          -0.0018060821592259424,
          0.06147918889468433,
          0.04237355729468342,
          0.0027264975052905703,
          0.05769171761858554,
          0.02972331810820326,
          -0.0033690528409440444,
          0.06292578234878475,
          0.01751773973410382,
          0.05244360991767666,
          -0.06798473332703786,
          0.0314737735789764,
          0.04874425786977101,
          0.05959777039266796,
          -0.04286767248651714,
          -0.004088515259363906,
          0.047322004442010866,
          -0.0041681865421269535,
          -0.04396752530545663,
          -0.025394358968484573,
          0.03508737668775318,
          0.05601828895696385,
          -0.01649037621194027,
          0.03707814324731175,
          0.07004392546878714,
          0.04266201801268388,
          0.07567164507724236,
          0.06716928032804956,
          -0.05281462957248905,
          0.034015476788463485,
          0.027730289155526947,
          0.0362375691650364,
          0.042233488690431926,
          0.04767799266346794,
          -0.025061057527663112,
          0.04839329777483838,
          -0.0783966378254045,
          -0.05565309210751335,
          0.06613088083314034,
          0.009580023305765904,
          -0.07231588329536807,
          -0.01794983406209818,
          0.018809181106220697,
          0.011077612533086804,
          0.06317524524600497,
          -0.05358327653458183,
          0.050086745011570705,
          0.006254364368747775,
          0.05225122833883673,
          -0.028725980845993114,
          -0.05188614999210761,
          -0.03828053819297422,
          0.03196370476076104,
          -0.0644763734977642,
          0.017373025183398373,
          -0.006314283124976258
        ],
        [
          0.06721879681312208,
          0.06653688253137975,
          0.010515625314655459,
          -0.030415627878201956,
          0.07671901285598652,
          0.07776414708317314,
          -0.04865786636976691,
          0.02323612109527305,
          0.01753011937809033,
          0.0521758554762248,
          -0.06403773627351882,
          -0.037706932694362774,
          -0.05830894267319407,
          -0.01886896369506967,
          -0.018791157698085332,
          -0.03729297496484859,
          0.0773936749306219,
          -0.07237276156614264,
          0.05605993385576701,
          -0.03324460180582,
          -0.028915488837521874,
          0.03005186481923797,
          0.051130850700182966,
          0.007068177577977681,
          0.036635282572373,
          -0.02651486766054877,
          -0.0422884540369843,
          -0.07549303060980112,
          -0.07280863762519539,
          -0.037107204036658265,
          -0.013494507640680716,
          -0.03319458058953586,
          -0.06884155496843138,
          0.06512088998439494,
          0.028051988818259013,
          -0.04709627018320279,
          -0.061743530000940454,
          0.07202233305045294,
          0.07585788201590021,
          0.009443517423253356,
          0.011636621940107431,
          0.02415659555786968,
          -0.05803711505398541,
          0.06275564924773744,
          0.004288102924339712,
          0.05026352662361657,
          0.005520413860746054,
          -0.03070562587775084,
          0.07911836915645333,
          0.07655470239160495,
          0.022293189936896957,
          -0.010042671976746187,
          -0.024868970738457286,
          -0.04264597972926437,
          -0.013221642135888027,
          0.06661757000971578,
          -0.06499380594555686,
          0.04660918760510486,
          -0.03141190240265935,
          -0.07484392871401714
        ],
        [
          -0.00907817935299837,
          0.02359381561165811,
          -0.05638859600161123,
          -0.007032313453134125,
          0.07198094720371001,
          0.01408111251112288,
          0.016503826582795148,
          -0.008633326482034291,
          0.060294286811016576,
          -0.062103425668558344,
          0.04144153356588045,
          0.04616562843310351,
          -0.04127365850344425,
          0.05401421758802402,
          0.03309059094364552,
          -0.016223581800031712,
          -0.060066145023332136,
          -0.0222490810255396,
          -0.057507310081662044,
          -0.02450221370161514,
          -0.00011902000811454408,
          0.04105281638815349,
          -0.04518402689324545,
          -0.011108437197311203,
          -0.06934260057475103,
          0.05302172050971594,
          -0.057958240216763775,
          -0.03548440458587338,
          0.022077498689413125,
          0.023635101365893814,
          0.0055663985803624085,
          -0.026306140426679753,
          -0.006644938206369785,
          -0.07965649387516423,
          -0.010969062090441923,
          -0.019535220214202124,
          0.0481460350534646,
          0.008625692519368814,
          0.04625256998856098,
          -0.0488505844413791,
          -0.07628966514082201,
          -0.061379276850907445,
          0.07018811720318956,
          -0.01630298212118611,
          -0.012647755325945594,
          -0.002748898930578026,
          0.023679553344449263,
          -0.008827976714593936,
          0.06870977811335138,
          -0.076775877806762,
          -0.025927750331633637,
          -0.03045576399553397,
          0.07667277485332058,
          -0.07280097129885282,
          0.017721777430379053,
          -0.08551762091283104,
          -0.058337309449799035,
          -0.02104490857875152,
          0.0012992442102686976,
          -0.06484622720562684
        ],
        [
          0.0029142474674934784,
          -0.00752638294041163,
          -0.06923570248634241,
          -0.0009018400514014267,
          0.05314327190057796,
          -0.0758089260489705,
          -0.03904047475216069,
          -0.012563038902211962,
          -0.05327690135046582,
          -0.03186717405997807,
          -0.03632577725734994,
          0.01577184296498502,
          -0.06239650997520248,
          0.048695105016277274,
          0.052502134446351455,
          -0.015419793423434622,
          -0.07368247631790101,
          -0.06108063157660374,
          -0.0036656676672920403,
          0.04441687694512114,
          -0.0023387500247696066,
          0.03937481924908078,
          -0.017924223692883542,
          0.03950291117570536,
          0.07590528941753007,
          0.040978783653003295,
          0.01258560352502565,
          0.041434808052794043,
          0.037621194173158776,
          -0.013942986266485257,
          -0.060450709108353304,
          -0.05270512167540882,
          0.054538385626981635,
          -0.05420181590811915,
          0.03641083836884324,
          -0.03666119415392571,
          -0.008948218515085472,
          0.038833739285226244,
          -0.020625610762551864,
          -0.060084504160669634,
          0.015241537594618585,
          -0.0029758098131753155,
          0.04520200437269924,
          0.08262377178029011,
          -0.011114690023039797,
          0.02328636856111504,
          0.019025881177561883,
          -0.05049918151361764,
          0.02728569769284227,
          0.04815241622791879,
          -0.043350422201267134,
          -0.06682141395811418,
          0.063332115765055,
          -0.0027692103447797723,
          0.019393379275600416,
          0.08449756689145922,
          -0.05858351037332532,
          -0.05037531799681228,
          0.011756307939400034,
          -0.021735845499698214
        ],
        [
          0.04013092304931706,
          0.04089095335298556,
          -0.03685821989815822,
          0.05854518757942826,
          0.05932555171012942,
          0.007386462797587294,
          -0.030773235303023862,
          0.02946234080598595,
          -0.037449149146028066,
          0.034281293333092204,
          -0.05216523446839634,
          -0.011058781153222046,
          -0.03950612787368483,
          -0.05672047814895759,
          -0.0001637358644580787,
          -0.03127826483003105,
          -0.04389120526499692,
          0.03323783801833722,
          0.007210677467057741,
          0.03290390434801921,
          0.038460237330587906,
          -0.03660107228302671,
          -0.029794504856360093,
          -0.0354852437335013,
          0.026941381854004656,
          0.06691707472481491,
          0.04239196307662741,
          -0.07506597325624578,
          -0.0004037955792256901,
          -0.018327936698540964,
          -0.021448385502154048,
          0.025212075023211173,
          -0.008280397279041864,
          -0.024892567611424287,
          0.058700005190581314,
          -0.0028147478952680488,
          0.04190994960530768,
          0.0019763492202634256,
          -0.07319109131331569,
          0.01710107086274555,
          -0.05508891551545358,
          -0.06367237112790959,
          -0.0025964910904926405,
          -0.054020815901018975,
          -0.06558833084484864,
          0.04711651423649457,
          -0.05592007693980801,
          -0.04270244001429217,
          -0.04139537697364271,
          -0.058398287577849504,
          0.07581755988904437,
          -0.020653925863711398,
          -0.06631691705245225,
          0.02736246497751663,
          -0.03138695096657655,
          -0.05585573842422649,
          0.003701344829017118,
          0.045889635062032634,
          -0.06305991591208972,
          0.017841698043221492
        ],
        [
          -0.01640975097440686,
          -0.052612652744016164,
          -0.06547810651759417,
          0.01578074486864572,
          0.06731494030977049,
          0.03996673448648842,
          -0.023248723365759557,
          -0.03061929843018607,
          -0.07240809385406322,
          -0.03556782072564743,
          -0.06677860750552102,
          -0.012437464822910228,
          -0.01857779920735509,
          -0.002220790800731713,
          0.002384200751058802,
          -0.058073910729410795,
          -0.06460366387987443,
          0.017654848441935538,
          0.029569563214733755,
          -0.0646865494986915,
          -0.03851378903592426,
          -0.06820905481094287,
          0.0425969969008752,
          -0.06522663951258198,
          0.025831579650311,
          -0.06682826335187643,
          -0.04670120098421048,
          -0.06364604108047855,
          -0.024027441609188863,
          0.01297320472484979,
          -0.08437975603807812,
          -0.02872874102598678,
          -0.07497350327753888,
          0.042214267184500893,
          -0.009206376775914392,
          0.030486133288826264,
          0.07994015366303002,
          -0.08992043494880177,
          0.04935390914120984,
          0.06657230000013219,
          0.06990041950430226,
          0.03434730087740843,
          0.010056510183541685,
          -0.001660229816639732,
          -0.04500458414150591,
          -0.025653019923231934,
          0.07547959857568587,
          -0.006696267209742544,
          0.05360017561371576,
          -0.0059469123114578885,
          -0.016662792583462926,
          0.0656956269925924,
          0.00521949454998204,
          0.026538503406435703,
          -0.047283991854254734,
          0.0628714426881507,
          -0.07463766429404661,
          0.027313314018471497,
          0.030340169632995986,
          0.00714540309258418
        ],
        [
          -0.06445011374148016,
          -0.04376361561060456,
          -0.03226079365866108,
          -0.04999703044966611,
          0.015839900978669542,
          0.03023304034360129,
          -0.04947837771109605,
          -0.04884085143170291,
          -0.04196340881486102,
          -0.06984624365051818,
          -0.06967915649837357,
          0.06356348015168552,
          0.07046945707318815,
          -0.013539145155821384,
          0.025444557486677528,
          0.06654182382295154,
          -0.041574986804951856,
          -0.008965717012607415,
          -0.042290677502334534,
          -0.07275383456688683,
          0.06063821268930171,
          0.018853953426696206,
          0.04386362315607954,
          0.039850058194996416,
          -0.07432585163855082,
          0.026049666767949516,
          0.011522604686193871,
          0.04849336146559924,
          -0.07335014577407253,
          0.00712823391967637,
          -0.03820256871704883,
          0.0482273199805884,
          0.06281392178795002,
          -0.0035089207181961063,
          0.018542646029908343,
          -0.037540497172614026,
          -0.04199473170581504,
          -0.002896713160937063,
          0.0010931866672731021,
          -0.005511799838202637,
          -0.03466865620922558,
          -0.0020416145180113966,
          -0.04435480613977854,
          -0.05288382459763364,
          -0.06064411246194025,
          0.0758452964722498,
          0.025276597285451546,
          -0.014866891833404018,
          0.03944231262572664,
          -0.048228900853494634,
          -0.019891948620566282,
          0.003995068788021168,
          -0.03560360225911334,
          0.010735406870473847,
          -0.07285022779314712,
          -0.042660577192517486,
          -0.01941783816979634,
          -0.031068385897071817,
          -0.03163716673513674,
          0.057263539805701376
        ],
        [
          0.05452586537391772,
          0.07747662679600724,
          0.04533784402997866,
          -0.05140710674208782,
          0.022071775479104425,
          0.044267415353249406,
          0.058688741485097944,
          0.014967008095803444,
          0.06150838225126283,
          0.013964528053156991,
          0.05569448842326616,
          0.06746731016800277,
          0.00914686735825742,
          -0.06354203177290435,
          0.05447015696680835,
          -0.06757779960753943,
          -0.007769629949962191,
          0.060508862178484335,
          0.07565523261382204,
          -0.006806908665972756,
          -0.0028224285355408735,
          -0.039985168814188586,
          0.03243771437494563,
          -0.04138221370449438,
          -0.00875490009694585,
          -0.018201614396915172,
          0.005150560164774291,
          0.04668509051227029,
          -0.011065262948279815,
          -0.06560922077744624,
          -0.07323356520184729,
          -0.07184666278749804,
          -0.015007705462341276,
          -0.04266629986312278,
          0.011909387614266324,
          -0.026573619127435187,
          0.06786716171698154,
          -0.01997570188692344,
          -0.07017038796915968,
          0.06305273250604462,
          0.006343678736752889,
          -0.03950694441183697,
          -0.052145804453172025,
          0.002397002458061306,
          0.057359605673174816,
          0.07155889232811133,
          0.04690219799301061,
          -0.03437518242830462,
          -0.034926268691945594,
          0.0024784325132893646,
          -0.0381039408470696,
          -0.01944349647747547,
          -0.05644785311770836,
          -0.007542723514959388,
          -0.025323781238518257,
          0.05986240213436507,
          0.07813286154043142,
          -0.06561576957562752,
          0.057648005102011894,
          -0.0076215658595593086
        ],
        [
          0.04697838156394606,
          -0.03277147954619869,
          0.018397637612583784,
          0.07211230692904512,
          -0.058568801484900256,
          -0.0656452585239393,
          -0.030623256518183765,
          -0.04764659886218965,
          0.07622410802014377,
          0.01008347047120135,
          0.05681265980532818,
          0.05238487367772502,
          0.036743816664370085,
          -0.013977910250943013,
          0.01295423923700038,
          0.023428901752248616,
          -0.008632585737986528,
          -0.06778796512263296,
          0.07960682564468531,
          -0.0534849924138986,
          0.05509226809700578,
          0.07599787504513715,
          0.010394543711426138,
          -0.04254790354185446,
          -0.024106493629316564,
          0.043763383364328626,
          0.03537343254273313,
          -0.03680192139958322,
          -0.0033407647215430605,
          0.06528856329146838,
          -0.03582917978942796,
          0.07666942640784855,
          -0.021575417044774958,
          -0.003649516140002,
          -0.0229613246864397,
          0.013853293785348258,
          0.04551935819944562,
          -0.018865164998749975,
          -0.054616079779665115,
          -0.023053205788106608,
          0.03201779369211076,
          -0.03230135593028824,
          -0.04760765337757732,
          -0.05319554113566243,
          0.07001091003077586,
          -0.019554700506014107,
          -0.05270377388740091,
          -0.01249605228894066,
          0.062409477688869675,
          0.0037635091174422907,
          0.03269720845911447,
          -0.03200690972474876,
          0.03804335821075529,
          0.027536979771216562,
          -0.0379126349436042,
          -0.024705888415934407,
          0.0680268361288892,
          -0.04508336472149673,
          -0.0010888774585659385,
          -0.06800905893113714
        ],
        [
          -0.05557468483245748,
          0.07508900860978875,
          -0.020373872484715942,
          -0.044513662495740465,
          0.04842431348439821,
          0.056731677098146485,
          0.03833021946464577,
          -0.04722997553229091,
          -0.06370484607423375,
          -0.05231721906428488,
          -0.05452359432713926,
          0.060521094257885044,
          0.008199378071926793,
          0.03921567252530974,
          0.059748255175225896,
          0.0038434019613845733,
          -0.06740735158604838,
          0.07643604593766834,
          0.0005825347324312299,
          -0.018910295495714907,
          -0.07455173187104962,
          -0.059999081603616576,
          -0.026219225032618382,
          0.03861895176393122,
          -0.00827143876693018,
          -0.046313358527712546,
          0.030351826754666897,
          0.05695234497907748,
          -0.049683281121894136,
          0.02207688943145895,
          -0.08591724482621613,
          -0.01948231014652409,
          -0.05234106578583268,
          0.057898049546805254,
          0.06065153371067257,
          -0.01509499810724453,
          -0.013311061228161131,
          0.03422750342346062,
          -0.06796797988364872,
          0.06289016776597517,
          0.006347559089781248,
          -0.03936457491232731,
          -0.007451839147103643,
          0.034897254096979254,
          -0.012920480786430318,
          0.01358764589540376,
          -0.03835429073516186,
          -0.03282582796852053,
          0.0017729322691921218,
          -0.06890048305754602,
          -0.07010683154226255,
          -0.008836186364577683,
          0.024953014121189717,
          0.039410179523578906,
          0.03137478896126539,
          0.046302462176103384,
          -0.04086088800127064,
          -0.0014574175054782386,
          -0.011099397163080832,
          -0.0010977238968894302
        ],
        [
          0.005381669895308774,
          -0.04362434601477147,
          -0.006763308420160556,
          0.04445922661893147,
          0.05423388173833939,
          -0.014144657418181172,
          -0.07199887969554969,
          0.03869881576530403,
          0.00854301756741301,
          -0.008374560753613034,
          -0.050511538017169864,
          0.04691278883747202,
          -0.05715906371692936,
          -0.036105367072807884,
          0.036328736711302725,
          0.04430129809192951,
          -0.08099739723908432,
          0.030035856436780067,
          0.05279761632595634,
          -0.027012092436421345,
          -0.0721228754047495,
          -0.013927325504263732,
          0.061448204654051146,
          0.01619054231461758,
          -0.013510078978503285,
          -0.05765411117774318,
          0.010589421314330251,
          -0.05285561502284851,
          -0.003840454580003099,
          0.04715916208528634,
          -0.028995655604462895,
          0.005244151910707506,
          0.0519175578133233,
          0.05792011460261193,
          -0.03840619392195959,
          0.04824365880187949,
          -0.054669657961827725,
          0.044103785601653046,
          0.0745392037467219,
          -0.04436810603068402,
          0.024368744849162557,
          0.05508298422497328,
          0.018083991586969002,
          -0.003523568570048622,
          0.01602817181720522,
          -0.0002869260961971415,
          0.030353053489040854,
          0.044507042784005545,
          -0.04185818622758804,
          -0.07488139671474721,
          -0.06228580403455994,
          -0.040746655590513076,
          -0.04740754413144387,
          -0.05707956228741026,
          0.003184815838949886,
          0.019478288604891335,
          0.018466396066298286,
          -0.05736573067550612,
          0.03774411061201638,
          -0.006086830192560896
        ],
        [
          0.0025824236486717347,
          0.003712043387664239,
          0.022125603143409535,
          -0.03719507290640039,
          -0.054153609861523615,
          -0.02422133553684185,
          -0.04714535050300204,
          -0.024787089474891826,
          -0.055528868035624644,
          0.03306219421400194,
          0.06185959101550854,
          0.0010335706408647178,
          0.07290997524161685,
          -0.038408862671740956,
          -0.062376833460136255,
          0.07500397949589027,
          0.015085404265489643,
          0.05558589444471135,
          -0.03984770933137628,
          0.005334213082272915,
          0.020583947205720952,
          0.00040114528346692555,
          -0.040904402349629096,
          0.07490378556249722,
          0.05793315590603819,
          -0.04741115141512455,
          -0.002007471643282562,
          0.05519953906095003,
          0.00523534078648518,
          0.051956928632952745,
          -0.05041109994329708,
          -0.012453834177392185,
          0.05383277427943319,
          -0.022324059224452,
          -0.02759169560735597,
          -0.06183090575611227,
          0.024649500779874167,
          0.006747870379219669,
          0.01525734570236847,
          -0.008328797103562848,
          0.01916775598131508,
          0.07680354262606946,
          -0.07038271572930915,
          0.033880610430704595,
          -0.04124801459638166,
          0.0332262915645908,
          0.04415235096905068,
          0.0606234126471714,
          -0.037851634993001364,
          0.07390236389185476,
          -0.023207253977392733,
          0.03434606286557955,
          -0.025498168600663316,
          0.025838598307188564,
          -0.029846290942980663,
          0.035651979071457826,
          -0.023665843362317248,
          -0.019259168339462434,
          0.0674222659442106,
          0.05928576542525316
        ],
        [
          0.0684351594875601,
          0.07603298892117587,
          0.031325630942369544,
          -0.06142490007026838,
          0.020031140642265407,
          0.004996892862953215,
          -0.07595487571233361,
          0.06959926873587655,
          -0.032758564385012026,
          0.07011717178234882,
          -0.07020078703542694,
          0.06833149553561735,
          -0.009537394103048845,
          0.0740501643121,
          -0.05467077826657092,
          -0.011684087576790318,
          -0.04093964495263272,
          0.07532664744958656,
          0.04901552776128846,
          -0.031126186290177944,
          -0.012269684849551933,
          -0.020516079208318154,
          -0.05535110760689366,
          -0.0050023115046856845,
          -0.03076290451340407,
          -0.07488862104797862,
          0.07324838353490966,
          -0.005578515842280274,
          -0.0766652170981391,
          0.04886371589544489,
          0.028036011808563455,
          0.06263071797667243,
          -0.0330018132609651,
          0.043661706871870376,
          -0.018448238329155254,
          -0.06246468178577521,
          0.05617775952994455,
          0.040823048596426215,
          0.06752322259537799,
          0.022787202753628416,
          -0.04960469538438084,
          -0.04427376574804667,
          0.06546299635375086,
          0.020650514503354058,
          0.06121132427853885,
          0.03773184551165873,
          0.03451963657770677,
          0.03698433978538877,
          0.011964435839406554,
          0.0705158161001345,
          0.03271900907590011,
          -0.022848879325908462,
          -0.047019095840896995,
          -0.07177574978478421,
          -0.021755084200432335,
          -0.015868184717604546,
          -0.0708642682072034,
          -0.007897011610921809,
          -0.02467403146922766,
          0.013405473888557387
        ],
        [
          0.02224691759109718,
          0.06645031472531547,
          -0.07338815894853203,
          -0.001291978244555739,
          0.0720844114407514,
          -0.07313748130782799,
          0.01421558866448466,
          -0.015116209848938949,
          0.023438827745007787,
          -0.07131509258277184,
          0.04924543696095527,
          -0.06035706847765824,
          0.008543386189449382,
          0.04547115019595172,
          0.062483843850521595,
          0.04731030330500439,
          -0.06705807925828583,
          -0.017524154386537604,
          -0.010093524705149334,
          0.01736812043165401,
          0.04163491590891484,
          -0.0766301297902912,
          0.027741281477190925,
          -0.0028726964105648053,
          0.04945425287970213,
          -0.05791914081283926,
          -0.008611476052771322,
          -0.07471627559146142,
          0.06369107557000862,
          0.031106006819998578,
          0.004413340380652397,
          -0.015306621727852547,
          0.022537570666386487,
          -0.027048373635199546,
          -0.023801926092199055,
          0.04428749881902434,
          0.032134263984896785,
          -0.07159320607970754,
          -0.018536809908209443,
          -0.039162650641811715,
          0.0287232000488032,
          -0.07335184347777196,
          -0.06346168138237034,
          0.015410539958456152,
          -0.05329926826170269,
          0.07256049659886102,
          0.03781932857714768,
          -0.0460417324307883,
          0.023322958061461646,
          0.019829753877855537,
          -0.01109317697311324,
          0.06183019750284261,
          0.04797670393081263,
          0.014327318766837866,
          -0.04601382308436306,
          -0.015339121560944281,
          0.043015428448873384,
          0.06710852999996345,
          -0.02826535642288106,
          -0.010565865666554453
        ],
        [
          0.06388743754393328,
          0.0134458873151401,
          0.030196930835820777,
          -0.043331878075187104,
          -0.05226916662781818,
          0.06496386991475799,
          -0.0737911994044561,
          -0.00087277210907945,
          0.061663026274436865,
          0.0718601193104178,
          0.022337123611498717,
          -0.07252867693946051,
          0.03788310016317186,
          0.0318890406973115,
          0.049744666224405064,
          -0.07188184263198,
          0.049182327381623134,
          -0.04161221185607513,
          0.0615407844352866,
          -0.058911428366195846,
          -0.013736511223458729,
          0.038624835075549965,
          -0.04261432768975942,
          -0.021286628062325636,
          0.03329415549029572,
          0.06452801965750644,
          0.0472878139734639,
          -0.042672422738106,
          -0.027371054266082856,
          -0.04031481952670144,
          0.06207470120243292,
          0.08009255039874312,
          -0.06837653838738625,
          -0.03439003855797562,
          0.0041925403586087085,
          -0.003225744347608809,
          0.0034014422835310456,
          0.0612030201322749,
          -0.009096671553872388,
          0.000554765813866018,
          -0.0643785144933205,
          -0.03959856902459652,
          0.040432769063719495,
          -0.05643887789717618,
          -0.06834724328299091,
          0.013528282451676865,
          0.040333394494837624,
          0.04296882675035387,
          -0.06502473854225177,
          0.06865949122261707,
          -0.011407812476308095,
          0.050561069082633255,
          0.06229825243029607,
          -0.040279239636906786,
          0.06458765265187787,
          -0.008403568501057855,
          -0.02819892226563732,
          -0.07201574672998988,
          0.014335905836744921,
          -0.06317672380963582
        ],
        [
          -0.06917057715126809,
          -0.06943921554560684,
          -0.04144628880417164,
          -0.07359528070454788,
          0.03076945957449778,
          -0.062465800308717484,
          -0.046510146873503834,
          -0.06768852930930622,
          -0.022817239675492436,
          0.020419395694753657,
          -0.05600776066774229,
          0.00623847240415863,
          -0.055694841762634825,
          0.0497943432184197,
          0.029250620847185965,
          0.07556070643013725,
          0.048610146059601615,
          -0.058544209112920756,
          0.05911113625362733,
          0.08031818481223009,
          -0.020171010571702022,
          -0.03862329518293174,
          0.06470567482274328,
          0.03680103015934759,
          0.06659581205074457,
          -0.044160337072613874,
          0.011223929787804987,
          0.010121594849201682,
          -0.017204020465585425,
          0.06964590221832405,
          -0.060184460935220535,
          0.056830982902249694,
          -0.02953871013285348,
          0.03744711431129332,
          0.05290775260266635,
          0.03912827310822032,
          -0.051930219288281745,
          0.0610170081558022,
          0.038423788266983956,
          0.06562072242113781,
          -0.0007802295326847604,
          -0.035289663844322534,
          0.06947603688956548,
          0.04437887533027347,
          0.0017401418188123362,
          -0.059698968718527624,
          0.007338186329349423,
          -0.0070514495187894485,
          0.05086258440719787,
          0.020592679776729163,
          -0.07386841497088106,
          0.002135746859784231,
          -0.07496187063268872,
          0.05177854557458835,
          0.021743053476253976,
          -0.07271602217400423,
          -0.012945904979509681,
          -0.02324028659212033,
          -0.049651011582789124,
          0.06518036193189884
        ],
        [
          -0.047477741691743354,
          -0.07313046947280999,
          0.0008851976055626481,
          0.0187076691388279,
          -0.040209945972049306,
          -0.04970614417619415,
          -0.0050187300121209266,
          0.006730674640774306,
          -0.04946576821614756,
          -0.01138312395252124,
          0.057333682859180966,
          -0.027571759282856413,
          -0.06275123457446842,
          0.06686213948624435,
          -0.012128636225176822,
          -0.030148511975419588,
          -0.05856964871225497,
          0.022339561606202155,
          0.05376390355092798,
          0.04347028701216147,
          0.036236178495141214,
          0.06450427041745095,
          -0.0075260098374954785,
          0.047618652917291726,
          -0.019202831793125485,
          0.06726406640102268,
          0.057245186770590435,
          0.021800829072884963,
          -0.04832426691291727,
          0.06635751013720165,
          -0.04333938245456866,
          0.011725548675283932,
          -0.023362731243836306,
          0.057492979504570246,
          0.0684108354244878,
          -0.03054635313857794,
          0.07410841801338777,
          0.05294826809141804,
          -0.03633457753324832,
          -0.023782032475717318,
          -0.027469190594325,
          -0.005703215429986906,
          0.06545133143098796,
          0.04695745898313107,
          0.044578932801078226,
          0.011076825519475674,
          -0.005933788559428287,
          -0.019934729502499738,
          0.0038730269983795113,
          -0.019196019788008285,
          0.038979731084130866,
          -0.06905200202128295,
          -0.049065527962633845,
          0.022873915964479435,
          -0.01928708488949455,
          -0.06798682662235184,
          0.05108304059347946,
          -0.061376179030118855,
          -0.0762649343363253,
          -0.04916407736857841
        ],
        [
          0.0007029737824076757,
          -0.00827211931153981,
          0.06938843343183719,
          -0.03947070103941097,
          -0.013160076154322322,
          -0.0663066270900959,
          0.028570760872446112,
          0.003181964547757428,
          -0.018196271215590542,
          0.03368229256759735,
          -0.05828451301683612,
          0.052534576927742875,
          -0.007270888667215931,
          -0.07818016098014165,
          0.0434275467935475,
          0.025239644276676028,
          -0.03864067194855239,
          0.011465436235555506,
          0.008477780236515811,
          -0.021369346219684216,
          -0.07046925911153254,
          -0.03882962605042581,
          0.001193258688020678,
          0.03862644725351604,
          -0.013024261297934282,
          -0.023855469617296073,
          -0.008691715222256438,
          -0.0248153952342169,
          -0.06339236946725176,
          0.01376498564877521,
          0.07283036600950618,
          0.06767085102737151,
          0.03242174180941377,
          0.07156578510226573,
          -0.04341468271928828,
          -0.052406582362340706,
          0.043259652554732374,
          0.012404494893938288,
          -0.04637681561898326,
          -0.04537569682159977,
          0.02823687300388425,
          0.051523533316531596,
          0.047875273488553374,
          0.05776524899246772,
          -0.023323795922114466,
          0.05826111876893857,
          -0.03900320994695973,
          -0.0009105623845548964,
          0.016886899709273494,
          -0.02242189843606783,
          -0.06797765803289044,
          -0.008651470390624038,
          -0.07249970629478196,
          0.051571275212281144,
          0.006774820191212268,
          0.06538296754862515,
          -0.0073588941408297285,
          0.049089264180639976,
          0.028678594937689345,
          -0.03817835739600032
        ],
        [
          -0.01579826889919737,
          -0.03408513720053283,
          0.0283432256896069,
          -0.03793761906077642,
          -0.014790123630947645,
          -0.0013604720146434012,
          0.046673034175368514,
          -0.006462089842467843,
          -0.06903701302406623,
          0.0408736012576018,
          0.061926264157582206,
          -0.017169036821591897,
          -0.014574410411580852,
          0.04353858396590052,
          0.05825670667739256,
          0.005451147046398714,
          0.029018805930066515,
          0.06459356269181812,
          -0.020884767476716838,
          -0.005888766560460016,
          -0.005819725812492396,
          -0.022016190336834218,
          -0.05495855987585195,
          -0.011527420107044963,
          0.01424185160811766,
          -0.004783803982953712,
          -0.07173466057440529,
          0.02237057487405273,
          -0.02419912052702412,
          0.059635711768012224,
          -0.010104060832133673,
          0.0242403537934801,
          0.0646595190188585,
          -0.07113542058755543,
          -0.03272179453070898,
          0.026643047557946144,
          -0.010471564040681565,
          0.0493526356059502,
          -0.06954017338848671,
          0.01986456660305618,
          0.04487267160614543,
          0.040333259264623604,
          0.04819802398823504,
          0.0372055324428713,
          0.07202907049413154,
          -0.02927193412381643,
          0.04547305903380193,
          -0.00449442012013861,
          -0.07543082516917425,
          0.014449186996581957,
          0.0655732053147345,
          -0.010118398822853638,
          -0.01133193075347514,
          0.07425802175937417,
          0.002724405704615928,
          0.0631346369210398,
          0.007796318824189338,
          0.010350354703022346,
          0.014704298235466508,
          0.011535517568967202
        ],
        [
          0.03978381444513089,
          0.015090866603152099,
          -0.06656157126392967,
          0.061563664964288306,
          -0.05334931777772039,
          0.009602558206860437,
          -0.023838193272355163,
          0.05377772025554558,
          -0.07891212931569928,
          -0.05249541833520545,
          -0.025487879318168816,
          -0.04580797277606619,
          0.037165675027985734,
          -0.06848513563182308,
          -0.0632179756696538,
          0.015413508176653958,
          0.01777324106156919,
          -0.034827793948551095,
          -0.0067325303914166044,
          -0.03541355502511292,
          -0.06233059497044544,
          0.0706203523789833,
          -0.020821582421847413,
          0.0676113174645031,
          -0.02183351807196926,
          0.07276338916694662,
          -0.06355960176264927,
          -0.02810338048865468,
          -0.03855925623344527,
          0.044173654960837534,
          -0.04742179378685482,
          0.02521463435635896,
          -0.042375532044503186,
          0.014856265981303149,
          0.059393754505265725,
          -0.07652690917634299,
          -0.030015921212543543,
          0.04995606443511843,
          -0.06753087768528528,
          0.0500783066868372,
          -0.012993694247963102,
          -0.06603859777958847,
          -0.06034193931056353,
          0.07342212024684037,
          -0.06021652122611299,
          -0.02567670328121459,
          0.06441967687631141,
          0.061479389703561906,
          -0.04321748333938622,
          0.009929571315569832,
          -0.05551554461326271,
          -0.07363961953494587,
          -0.028081546306004408,
          0.053966016429737834,
          0.02538588082679778,
          0.0678503964656295,
          -0.0074298771280631665,
          -0.02393895518250126,
          -0.005866201211691827,
          0.06848272506239493
        ],
        [
          0.01597996509011374,
          -0.0542843886077589,
          0.037345545900833645,
          0.028093713933998326,
          0.012638476249079742,
          0.004933289111212054,
          0.033453533918462945,
          -0.03612685749882175,
          0.014170381434417434,
          0.07052341035583816,
          -0.027781780829268413,
          -0.02460822145587568,
          0.028418725175826512,
          -0.047443777783775294,
          -0.01859094657840655,
          -0.07435787781244327,
          -0.0740683776439692,
          -0.03411206906048611,
          0.021474114496646563,
          0.05559017134366532,
          -0.007535234037225288,
          -0.06756487799326864,
          0.033488765653129124,
          -0.07487290325794412,
          0.06730642041839151,
          0.01375012846000887,
          -0.06836850354890894,
          0.0261942623878085,
          0.0649443033214671,
          0.008454546580167314,
          0.0008239372831508509,
          0.03439711266432145,
          0.015468246148961268,
          -0.06866694496774307,
          -0.0039202367911250055,
          -0.07088217677959387,
          0.06024917633842711,
          -0.0020685277017175336,
          0.043572369709822825,
          0.007399761937476963,
          0.02217895599156603,
          0.07209183736463509,
          0.06406011703389822,
          0.1016581669014926,
          0.020236680164124606,
          0.03917856428343673,
          0.010448195805634317,
          -0.060638004994621617,
          -0.010975390013105478,
          -0.026091177912796287,
          0.030497493324874468,
          0.04197822600762789,
          0.02973942271114772,
          0.054673824679303804,
          -0.07405798257316354,
          0.07396509303621518,
          0.05481599100436142,
          0.030589324702356733,
          -0.07496934994753233,
          -0.03011771347892821
        ],
        [
          0.029629724617395093,
          0.034967221760519154,
          -0.03286517368856622,
          0.02106724510908639,
          0.008855901012305378,
          -0.0707380879830215,
          0.038493382094959165,
          0.06349137376990024,
          -0.07315442887703151,
          -0.006228246384314711,
          -0.004025853614709137,
          0.023837724291979463,
          -0.049476424933159235,
          0.00792281137850638,
          -0.07102218202041717,
          -0.04160548575258742,
          0.01400459618032311,
          0.04811895771969534,
          -0.01339697627982499,
          -0.06833762893018269,
          -0.00028202382537161194,
          -0.06678683894583055,
          -0.00874070561196868,
          0.06295723650784492,
          0.00397493594589725,
          -0.024161999044426764,
          -0.048191835718331945,
          -0.03929400445025317,
          -0.020540090182215778,
          -0.06899173813458256,
          -0.03731404506885614,
          -0.034111987602279195,
          -0.07654471248496199,
          0.03227298236279486,
          0.00450673875211284,
          -0.02946745860861395,
          0.06455760066141243,
          -0.03706498508878274,
          -0.03421752455903955,
          -0.06553585084705217,
          0.02626045778260634,
          0.07253833608566224,
          0.027322594383591064,
          0.06275485814804564,
          -0.008389929763681032,
          0.021557745342137304,
          -0.024140356599026788,
          -0.07181833863804488,
          -0.025866485913786767,
          -0.023573973077666,
          -0.00030702718405470125,
          0.06957405052510011,
          0.015456605416740507,
          -0.03737608300380766,
          0.04343176667994885,
          -0.033020670258335,
          -0.021206935108842778,
          0.006156375424742844,
          -0.02107571666557617,
          -0.07190864868704103
        ],
        [
          -0.035184767237757035,
          -0.07341407376433724,
          0.033824034759660435,
          -0.03529858428566552,
          0.0647014282027328,
          0.025471472936537436,
          0.05746629813090953,
          -0.0024767794690523726,
          0.04059755037978044,
          -0.012076331277517395,
          -0.03687311804653267,
          0.06359666149539454,
          -0.062185575604594936,
          -0.02426951192361296,
          0.018918347353695984,
          0.04728518099756076,
          -0.06499926450909536,
          0.04820179844061041,
          0.04709059832851415,
          -0.044216409389297925,
          0.024559899059957584,
          -0.054330317907188855,
          -0.011201409128636132,
          -0.06543170216585431,
          0.03670269668240407,
          -0.026794320255474492,
          0.010653535698229214,
          -0.04557139488474667,
          -0.019098600466858368,
          -0.007325411835163169,
          0.07012322584243288,
          0.020102953652964058,
          -0.06271307299224721,
          -0.05581471802878039,
          -0.016934627559154897,
          -0.05539561033863712,
          0.012147075366034583,
          -0.011902510616874345,
          0.031467015113661075,
          0.02857360203841693,
          -0.046212120122257935,
          0.04580420258393736,
          -0.02878794520599619,
          -0.014212146111877797,
          -0.07155010212525424,
          0.06750496611733012,
          0.009417424976036929,
          -0.0020141073412659094,
          0.02475212879228007,
          0.01705732572576671,
          0.06541241729388292,
          0.022125289252525576,
          0.035198812827924315,
          -0.029768489723064236,
          0.043935210823018336,
          0.018244132717433744,
          -0.03119243645546305,
          0.03369836074158927,
          0.046611790235475827,
          -0.06757934923363022
        ],
        [
          -0.07713328349430018,
          0.06071502454349448,
          0.051240337107793174,
          -0.0019344172079561375,
          0.047213497836754006,
          -0.01700870121936873,
          0.018855176695176896,
          0.024019205373712674,
          0.06229579724256295,
          0.06374062774851916,
          -0.029642525848452585,
          -0.029603003439842734,
          -0.02930924616480513,
          -0.07061750795444963,
          -0.0051620114626380244,
          -0.03302849621622583,
          0.08178948905813883,
          -0.058844807357528214,
          -0.06442926794773679,
          0.0041385319792642174,
          -0.04562217569649349,
          -0.02970252125577766,
          0.01337514015267905,
          -0.025355526134503457,
          -0.00828149684816233,
          0.03772354087285342,
          -0.00029961256817591077,
          0.047929354483704695,
          -0.07573658247860568,
          -0.06231502701526648,
          0.04769069401883249,
          -0.052416777985848165,
          0.01933220023034869,
          -0.0696291383784132,
          0.030408675542248624,
          0.048202320600683565,
          -0.0444670611195,
          0.03674675523414457,
          0.002812154354242796,
          0.056611767342437724,
          -0.04820640661747259,
          -0.025298442466873485,
          -0.008218387186031576,
          -0.059429759825503616,
          -0.035578864352267064,
          -0.006606537485671239,
          -0.012336645256125049,
          0.0013535994436972775,
          0.06183891510042128,
          0.041940268756761274,
          0.008623994658335417,
          0.07236390903635483,
          0.015716741560845637,
          -0.04290190707688315,
          -0.056535687351891545,
          0.04251807738373544,
          -0.009639795506574105,
          0.00354208979291347,
          0.022697500066130947,
          -0.002615663955959689
        ],
        [
          0.03733696788672732,
          -0.0036481646504806253,
          0.014385106793622477,
          0.07151703107762389,
          -0.008250132906858436,
          -0.027281767487776696,
          -0.019425695459085304,
          -0.06507626387402521,
          -0.057365606916565816,
          0.03697913059257965,
          0.07614240716480133,
          -0.031263187377876776,
          -0.00912821709438444,
          0.05669812656745982,
          -0.04761497332926174,
          0.03516110921990202,
          -0.06348152904628057,
          -0.0767159152840344,
          0.031001773405188206,
          0.06833832243276534,
          0.01073122226452965,
          -0.010032468506263634,
          -0.01597100578535501,
          0.04495299480443964,
          -0.06431519235768358,
          -0.03205346158823884,
          0.03633521049524476,
          -0.06378280564071896,
          -0.0056017730355958735,
          -0.030827254755187015,
          -0.02981977012126751,
          0.002290190853880002,
          0.005786754747664956,
          -0.005042136953280331,
          -0.03550705824218614,
          0.011871226111872168,
          0.048062491405817365,
          0.01938454468539089,
          -0.07407577730019024,
          0.0019252267186144574,
          -0.046755713366110736,
          -0.07150439445370473,
          0.045062194704909055,
          -0.06285550680629969,
          0.051932835500516195,
          -0.06996746174489755,
          0.051992362093529185,
          0.05378758094842307,
          -0.06055703052895658,
          0.04640515870387648,
          0.00941773386861825,
          0.03440724647225617,
          -0.049838033530908946,
          -0.07072153826774392,
          -0.03749108859102921,
          -0.017197380173856327,
          0.01795312417395639,
          0.05207132642591081,
          0.00674773326717114,
          -0.004792527974071686
        ],
        [
          -0.027277171256365824,
          0.05587044224800801,
          0.052600011957412755,
          -0.05916226555059782,
          -0.02740416761137716,
          0.04270815292711673,
          -0.04021450538825756,
          -0.04559573443194533,
          0.00763316850163235,
          -0.03294048322278185,
          0.06373241548887618,
          0.0425767552176483,
          -0.030678143498505162,
          0.02280440513353643,
          0.08470232058194786,
          -0.003189174975420956,
          0.04689124166855907,
          -0.004776112878684723,
          -0.07900824751628661,
          -0.021810438559202772,
          0.07582126025472759,
          -0.0126606914688556,
          0.06866278582370632,
          -0.03794459624294623,
          -0.07781841962430325,
          0.06014647388330032,
          0.05701500789329484,
          -0.07912533118982483,
          0.06582464123731381,
          0.04140237608594016,
          -0.03918375954740386,
          0.02067957588984993,
          -0.030730123963715997,
          -0.043659722757965015,
          0.006178487307786799,
          0.02403393834428923,
          0.05063924065673436,
          0.041633908392668915,
          -0.06487650839667833,
          0.011165233102710932,
          -0.045176624703012466,
          -0.03584330798740771,
          -0.0469577395366517,
          0.020981944549990958,
          0.0032155511831560533,
          0.036954569077258,
          -0.05009459288288949,
          -0.0029280271370278606,
          -0.02282002940572006,
          -0.06887622230556523,
          -0.021642419908232353,
          -0.07039859302704096,
          0.008044956958828042,
          0.057574860202646176,
          0.039716536395401965,
          -0.04843701774510882,
          -0.024322950275194623,
          0.025412696186702593,
          -0.01750301334793521,
          -0.012017982473160695
        ],
        [
          -0.03285736197144418,
          -0.05428605360404686,
          -0.013640590946485506,
          0.0642263930871842,
          0.04103860866724813,
          0.05226592111916387,
          0.06390447150720434,
          -0.005954412095221776,
          -0.006150847793103023,
          -0.022551068702629164,
          0.052650338646622295,
          0.023839176474717713,
          0.038012676444365234,
          -0.02897497321628674,
          -0.04365874941188627,
          0.038971087975186815,
          0.02267763593879852,
          -0.016563331318274213,
          -0.014114364587155237,
          0.07171346856442488,
          0.04552925345438549,
          -0.07483778803793219,
          0.0004297662997196799,
          -0.0557018357636727,
          0.01045914024783035,
          -0.06457236443195083,
          -0.03494170908994647,
          0.03384667250336443,
          0.02061229759071859,
          -0.008359199617782836,
          -0.04254970343261732,
          -0.018490527568631187,
          -0.06714972298633679,
          -0.04929774050963342,
          0.07999501989146593,
          0.02884611673232652,
          0.024372612394408275,
          0.04014667911259422,
          -0.06958785588142564,
          0.04052952211873757,
          -0.05841052694859744,
          0.0645736800251436,
          0.0033295182665315334,
          -0.041617614613714445,
          -0.05675013219216906,
          0.08026214270706779,
          -0.07953349253086535,
          -0.0460519278079817,
          -0.03490563340049616,
          0.025479750079321396,
          0.05109905507425903,
          -0.047692090751240375,
          -0.0397055617170186,
          -0.0008779541096846962,
          0.05164085407128905,
          0.03117451001907876,
          0.007778362203755332,
          -0.006263862735025324,
          -0.00157399673798832,
          -0.03145360854343281
        ],
        [
          -0.036371607752221674,
          -0.010618506027965876,
          0.03821719217190409,
          0.05542041623665218,
          -0.04571969013371004,
          0.0103880102605757,
          0.024197377090317485,
          -0.02058311069963609,
          -0.012119514578031818,
          -0.004790300869661292,
          0.07410776965003561,
          -0.04086134537879438,
          -0.029631465975522096,
          -0.018967567225077288,
          0.0026331451256602747,
          -0.05954773418185048,
          -0.04550770490325816,
          -0.045094007295615024,
          -0.06026875143836541,
          0.04774065253150868,
          -0.03552878663780674,
          0.038360115754112356,
          0.0034056989691618874,
          -0.02660475414442716,
          0.041369815105868235,
          -0.07052155769061934,
          0.0019754181729549477,
          -0.05115987683076744,
          0.003131268185230937,
          0.046879462516365766,
          0.0677032419881102,
          0.0076707800221072955,
          -0.005536151752687937,
          -0.04674450573092595,
          0.059925536259380824,
          0.0637392949784719,
          -0.05051594750243216,
          -0.05431513711685112,
          0.053237398731487647,
          -0.019149324299738427,
          -0.04103999366978754,
          0.051875059324939875,
          0.01435876761675098,
          0.014475005833034876,
          0.02956259757753289,
          -0.02799752105799653,
          0.0012967070148076285,
          0.025296756066378566,
          0.07218104611109574,
          0.04484831939418866,
          -0.02391838842650471,
          -0.04333887543999859,
          0.010820025100645836,
          -0.001087757608231418,
          0.07542603483986926,
          -0.06141290973268057,
          0.052941353262387,
          0.004098285823486822,
          -0.01868236511603954,
          0.06881741559857926
        ],
        [
          0.04813577249612738,
          -0.0569979075318567,
          0.0642858590062434,
          0.061321095591104526,
          0.0624472905752086,
          -0.03539295029489141,
          0.009257315505015828,
          0.026328842617773743,
          -0.06119590944371067,
          0.025412961352260805,
          -0.012206691246392941,
          0.057670494236377365,
          -0.045363620239707865,
          -0.023703144385386465,
          0.03905537048251495,
          0.04083065431378307,
          -0.037581784898051855,
          0.06144027037182792,
          0.04502032892478602,
          -0.06081386004194188,
          -0.02857895280630811,
          -0.030615910251321998,
          0.05868620998036526,
          -0.04834896917807717,
          -0.05261860972074082,
          0.021306033487093607,
          0.0028075641630844754,
          -0.054480330545665985,
          0.06365208041605827,
          -0.0032895438029871124,
          -0.04895844368104605,
          0.053180620606034984,
          -0.06083570391758915,
          0.07224383220233498,
          -0.03745064837596047,
          0.014579264408474017,
          0.0760034767528124,
          0.0566294705352325,
          -0.04932601580000564,
          0.019198426564821947,
          -0.03338066732380792,
          -0.04566069648679477,
          0.027197613231861966,
          -0.06525761783872476,
          -0.036244953650091984,
          0.009137973186718879,
          0.014570702977557045,
          0.02983848377576645,
          0.01802489640621955,
          0.04711165415132792,
          0.06886548098915286,
          -0.03750533521761978,
          0.031383968123614596,
          0.007721927409075799,
          -0.07011391066858207,
          0.05708591387195405,
          -0.006965171065209169,
          0.024684003984445344,
          0.0036714444228966455,
          0.06201851672246261
        ],
        [
          0.025549182458130044,
          -0.02387841917198375,
          -0.009250694648815328,
          -0.05270868845295411,
          -0.029192263064752536,
          -0.0786013624211583,
          0.04870994875016125,
          0.021943616921134446,
          -0.05344567421370022,
          -0.0018072251981274944,
          0.024505813087173985,
          0.015914878774052565,
          0.05282242000060704,
          -0.05173410760581621,
          0.05393377850458874,
          -0.005831423728864569,
          -0.037827016630192924,
          0.019415076150777665,
          -0.010422475509420728,
          -0.014932774107948398,
          -0.03066021072038687,
          0.008104270736793743,
          0.07330717674326657,
          -0.01747937238913502,
          0.01678943876966264,
          0.022054592904596694,
          0.002471535775407666,
          0.020359309036344465,
          -0.06798398321553654,
          0.077178304870924,
          -0.03145777117086757,
          0.0007354479437116224,
          0.06486978392694741,
          -0.02288889472953229,
          0.04802529486949691,
          0.04441545075541091,
          0.011049861451576801,
          0.03477541624559864,
          0.006626231330902606,
          -0.08008865638338272,
          0.025144076052705706,
          -0.021909076834840682,
          0.02237901991283578,
          -0.0366464365490974,
          0.0766798857275991,
          0.023009361429443882,
          0.0011939643992985205,
          0.056930248844791365,
          -0.00845563222796805,
          -0.02929573925392569,
          -0.05231439914845244,
          -0.050385265033234074,
          -0.009706704494842665,
          0.06414440704564917,
          0.0757234899992476,
          0.03393117475729345,
          0.015023954518769424,
          0.04217876381283357,
          0.07440941032320637,
          -0.011945580108927621
        ],
        [
          0.03043582357649844,
          -0.013010977514220139,
          -0.07281412691714005,
          0.02106962644609542,
          -0.041023780866883575,
          0.07088158887950817,
          -0.06332319453644585,
          -0.060804503056517946,
          0.010582819225081273,
          0.057507958037688225,
          -0.03247718502906539,
          -0.05132873313333798,
          0.04608062447377447,
          -0.009967920091603598,
          -0.050755423814739443,
          0.04845183630951742,
          -0.06654711594018267,
          -0.0011540404488454903,
          -0.01018902041706312,
          0.052934436103891265,
          0.03201956653130959,
          0.035013169311289304,
          0.03153180457121996,
          -0.06532436980386697,
          0.012385546895600553,
          0.056184208261839536,
          0.04154469141324443,
          -0.0551136362402896,
          -0.040734139418317133,
          -0.002741319498746738,
          -0.012354536478586494,
          0.03890170232148937,
          -0.04343030688626917,
          -0.015063146190430123,
          0.030017803368926628,
          -0.0044627317284942365,
          0.044506167798977314,
          0.04870468942194489,
          -0.06155552985672948,
          0.0689148951073185,
          -0.04951423312267374,
          0.02654110990156784,
          0.033364752410102866,
          -0.05473802683271385,
          0.029149923890412977,
          -0.07012336900251498,
          0.04569772196297987,
          -0.015548710820694261,
          0.013301951876766305,
          0.0641877781827914,
          0.0390197646421525,
          0.03240444979438394,
          -0.07055256296505769,
          0.06073291901967828,
          0.029580213624289985,
          -0.032274382210851556,
          -0.04341194847101589,
          0.058730513398380986,
          -0.014455541093367202,
          -0.044144319866758035
        ],
        [
          0.05223299250128545,
          0.04261190071357945,
          -0.05791813427816175,
          0.004724546825050122,
          -0.01245878088616758,
          -0.0064085304891886834,
          0.06256135041285223,
          -0.025515967543533604,
          -0.05565628040665073,
          -0.049440049443156865,
          -0.07432577646201889,
          0.028428338510685793,
          0.009684583818576235,
          -0.04252809942089394,
          -0.06559695029462939,
          0.0557260358961588,
          0.07401764116071712,
          -0.0361223042336042,
          0.06462780159135376,
          0.02691172602701593,
          0.067864478358819,
          -0.03050072505248071,
          0.05614478501775394,
          -0.06575638869617437,
          -0.03828015771775215,
          -0.06666737915499052,
          0.006806948780005562,
          -0.06087033399851678,
          -0.06268394278432857,
          -0.046463127353610405,
          0.025189313638984936,
          0.02486455719771527,
          -0.03724709395160353,
          -0.05744010160347111,
          -0.07452974379911045,
          -0.0021400945013941713,
          -0.018041334144279483,
          -0.014697402977641895,
          -0.04506161706625309,
          -0.06534814543569864,
          0.00034846585400513604,
          0.05454277055637992,
          -0.0704055260507359,
          -0.07481090624668857,
          -0.0557920987638155,
          0.014924019070492574,
          -0.02710665219528083,
          -0.05600360887678176,
          0.06751343801458921,
          0.02119834160124388,
          -0.009912271857296241,
          -0.07227272171416498,
          -0.022655689147387935,
          0.05196030736804365,
          -0.023975577712187925,
          0.03743666808469015,
          0.0028287285197267954,
          0.056658666535605126,
          0.03697177988839949,
          -0.04948009888964112
        ],
        [
          0.04529911896988064,
          0.06500645628106967,
          -0.06440721880572842,
          -0.05467859801719992,
          -0.0626090540188383,
          0.06982009493835006,
          0.043475557728734175,
          -0.03877661691461626,
          0.005836924840729775,
          -0.06560133862897963,
          0.03683794320900117,
          -0.0005582170413740502,
          0.006159668702249226,
          -0.03284437093673301,
          -0.06944779600650229,
          -0.027747586782238876,
          -0.06334711170080523,
          -3.4857179880386826e-05,
          -0.039988845587945014,
          0.032357326571540265,
          0.03024653892290937,
          -0.054008618694115725,
          0.053464341796361656,
          0.050645570224855656,
          0.03292579496256294,
          -0.005888189147797245,
          0.055564175618790845,
          0.0477718517311926,
          0.04783963709834038,
          0.007779399188496977,
          0.015301390332671675,
          0.02056451658560524,
          -0.013574671558150349,
          -0.031199682802600482,
          0.005555928332768266,
          -0.00401881051689044,
          0.0005385312646649905,
          0.06025033759787405,
          0.056666112427421575,
          0.031274319489039096,
          -0.05544005573575935,
          0.06541711111789637,
          -0.01052076411838213,
          -0.06835362775566857,
          -0.006708438808938872,
          0.061781075423775846,
          0.04571391200478295,
          -0.05567155246382036,
          -0.021219202606997452,
          0.016314977175198017,
          0.009453861369778715,
          -0.038768481162930565,
          -0.07250490132106376,
          0.0038512610963678325,
          0.005186635143027746,
          -0.022090796751394703,
          0.043575317383452654,
          -0.029879328711688618,
          -0.002789112504993974,
          0.02976089367811929
        ],
        [
          0.060641782628644385,
          -0.00694582527006437,
          -0.01895457618076129,
          -0.04284940701600359,
          -0.07675678416889897,
          -0.08198868008256135,
          0.029304723893245916,
          -0.05325958002724876,
          -0.07386096792353335,
          0.04376289971597272,
          0.053237654950839444,
          -0.06752497783659177,
          -0.06464618008195075,
          0.005373895682022031,
          -0.014991803691215035,
          -0.04410512868353265,
          -0.06524949368126273,
          -0.03054270288595609,
          0.037736206801019315,
          -0.010842952928626987,
          -0.06834195242494596,
          -0.0022168027105607885,
          -0.01642217756851027,
          0.03909454132956878,
          -0.0059921888410423094,
          0.032015929307243667,
          0.018370537218697088,
          -0.029732964589036095,
          0.0640358371728205,
          -0.04062264296186248,
          -0.005552387209147468,
          0.026900391506044705,
          -0.06663556145809725,
          0.06605683777543937,
          -0.0316798184017094,
          -0.07219442888134804,
          -0.050036588154044305,
          -0.017333280095225705,
          -0.05843088082648753,
          -0.03993415325638535,
          0.03033894913949985,
          -0.06618156102092564,
          -0.07362828304531296,
          -0.05172851358779939,
          0.06314634936332864,
          -0.04893118836867504,
          0.024091081022516427,
          -0.06293916363908195,
          -0.05355100553740116,
          0.014555305107864663,
          -0.029226131398298823,
          -0.07021665731933291,
          0.05504991840192747,
          0.02269512388213683,
          0.0020464896942768273,
          -0.03651333715821985,
          0.09727819136953213,
          -0.0614369184039696,
          0.00025617000452164766,
          0.06892983556080173
        ],
        [
          0.05351221422566687,
          0.06018037685054124,
          -0.06149636347685921,
          0.04317370556724373,
          0.061669876044548114,
          -0.0572030728793659,
          -0.06687760100115216,
          -0.016085710309969456,
          0.04965681282989274,
          -0.059567484542834184,
          -0.04501973715436618,
          -0.05101995671048038,
          -0.04082626709415595,
          -0.0388649617132192,
          -0.03692025924690634,
          -0.005572505914934217,
          0.04920679810427289,
          0.058423636432289164,
          0.06383592445907799,
          0.0602001601160002,
          -0.0630310628934307,
          -0.06369643499177954,
          -0.06927570299267222,
          0.01730226655934762,
          0.05088429114959729,
          0.025187517491794167,
          -0.01894461535607557,
          0.041497552528746956,
          -0.07335971900220538,
          -0.06099083725815108,
          -0.028923190633659963,
          -0.029623282226844263,
          0.02907592444941027,
          0.0003636535582127395,
          0.04715113531726915,
          0.04754191300276956,
          0.06396631558206373,
          -0.019222550507797264,
          0.06103698132357177,
          0.07462924332971138,
          -0.016368162324093743,
          -0.025271521685661352,
          -0.07487870447917276,
          -0.08456054947139285,
          0.039094942477464534,
          -0.013373846799996652,
          -0.07373128885720268,
          0.0014534817646097951,
          -0.024603194441523247,
          -0.050879202838815946,
          0.004529760714874359,
          -0.06379176877328943,
          -0.01784977768430054,
          -0.03318879112217969,
          -0.07932388287208837,
          -0.048310649273219854,
          -0.039405838571215906,
          -0.04958945688747032,
          0.001998901535382892,
          -0.0465697045608413
        ],
        [
          0.0502457970682542,
          0.030100286335618207,
          -0.05488605192145808,
          0.02799908955087253,
          -0.03115253062243055,
          0.04346105436560902,
          -0.042821622961657,
          -0.0036334980506170173,
          0.0005105670265077146,
          0.016275649007659976,
          -0.007931487857086573,
          0.001794325006859208,
          -0.07412723187160303,
          -0.07165449744926605,
          0.03537679111030034,
          -0.05706148529644451,
          -0.0475478404274369,
          0.01000946882527514,
          0.02392049323418618,
          0.07502362857446018,
          0.054188886614238624,
          -0.06270474743784615,
          0.03524247900509911,
          0.008905150164912137,
          0.07187408029756616,
          -0.018875710141734676,
          0.053176680470684044,
          0.03451241321464786,
          -0.01826785230358915,
          -0.0014775137528399247,
          -0.05313359326219225,
          0.04900882865005065,
          -0.06994345670793295,
          0.05245082748440732,
          -0.05816346683440725,
          -0.021584049131992696,
          0.05212475299125067,
          0.029127816768964948,
          -0.06328285079555529,
          -0.008135619353093834,
          0.00770997746075823,
          0.07356386363155998,
          -0.034543888681987,
          -0.0881657499707995,
          0.024044359243372546,
          -0.03730100265665331,
          0.07075352905080086,
          0.020192418446244108,
          0.021307665766615868,
          0.030303168552671247,
          0.05283367747734487,
          0.025661601334840863,
          0.010754725165472418,
          -0.04610622529590696,
          -0.058659451918585945,
          0.03906053719928579,
          0.026159423590131636,
          0.03611689464550701,
          -0.06359153113120146,
          0.06985781002187119
        ],
        [
          0.004355181730024437,
          0.07042203624672405,
          -0.01063219408163225,
          -0.03233820335057154,
          0.057110390055889027,
          0.050815113281511386,
          0.049056339349807285,
          -0.05142335491375288,
          0.08331453834537751,
          -0.03165458320979027,
          -0.051249771670634776,
          0.05891920928408657,
          -0.007505554890080864,
          -0.0393078535422039,
          -0.01735784404151641,
          0.022269273721217706,
          -0.06042057002017974,
          -0.01886996101090529,
          0.04566539235627665,
          -0.020529494469623974,
          -0.041913381255437004,
          0.0055651371752019315,
          0.015416201108372392,
          -0.02973599917687589,
          0.05952818780653644,
          0.026948613127962266,
          0.006044765988821791,
          0.02203548771859566,
          0.05412876896594906,
          -0.05476876263090718,
          0.04672164227571354,
          0.07630917668961451,
          0.07074588669254761,
          0.06845937324451669,
          -0.0271071478123462,
          -0.043725899780762405,
          -0.06669971679904457,
          -0.029101303292405418,
          -0.027854675807411657,
          0.06500598493971188,
          0.02085438897756731,
          0.06804420864772101,
          -0.0744218436893157,
          0.020742759973863094,
          0.050295511752148116,
          -0.05624884685580395,
          0.06516249446773395,
          0.05461591531288134,
          -0.0017613177930423814,
          -0.03873570025866673,
          -0.07210427574062003,
          0.02732925343866067,
          0.009750548778949899,
          0.021126366221550688,
          0.012830896449762182,
          -0.041595615139707894,
          -0.045575261103256805,
          0.07645226231627425,
          0.009773222688621193,
          0.026736819403385185
        ],
        [
          -0.019926448069214023,
          0.018728081848537165,
          -0.0023693401718009838,
          -0.04388054411960369,
          0.0311997388948597,
          -0.00014747613723222378,
          0.07176134639245209,
          -0.04727605837195275,
          0.010080708166834419,
          0.07231862734737009,
          -0.05006095288376019,
          0.06360898831891226,
          0.03745143461023314,
          -0.001849567163293654,
          0.0454927768072628,
          0.033196380368007754,
          -0.07002951893800952,
          0.05989200349641671,
          -0.017779309614327277,
          -0.03012220656723386,
          -0.055590891567660845,
          -0.06678492338411245,
          0.011077649392112397,
          0.04208273509000918,
          -0.059052309723890334,
          -0.0673256754514721,
          0.0022144416993327494,
          -0.020302442900147794,
          0.023551895056911774,
          0.04933491503700555,
          -0.01615880362154301,
          -0.023569343435453548,
          0.04425980372575435,
          0.07639893452386874,
          0.06365080574943781,
          0.0666467721282831,
          0.01269061764094901,
          0.06920241280770942,
          0.0003854957203656781,
          0.04650236847174256,
          0.05613074870414213,
          -0.0229196129721509,
          -0.04081738723280527,
          -0.02042214320391039,
          -0.003941286270559244,
          -0.04467611325035118,
          -0.01978275145104074,
          0.024695399281263172,
          0.0031867239977738785,
          0.019648033022240805,
          0.025799190482628586,
          -0.0705638625247505,
          0.03897016658749547,
          0.036182017660502316,
          0.004403524458037863,
          -0.006407075848510153,
          0.03212439545023768,
          0.045849646592891334,
          -0.041033401187847,
          -0.03745006161804184
        ],
        [
          0.0174076194726662,
          0.06637357439297084,
          0.058057796234601645,
          -0.07334613680005274,
          -0.03215423470691718,
          -0.05702448259514513,
          0.050984178054336415,
          0.03265780893663404,
          0.06274067579743438,
          0.04183117907355494,
          -0.04988886544635508,
          0.03799471422273775,
          0.06664569192753543,
          0.019590870626191182,
          0.06949477281326794,
          0.019964024054632025,
          0.050940482568479786,
          0.00857357979146614,
          0.06200689384920823,
          -0.03361272135868804,
          -0.006301522256142379,
          -0.022135472110948535,
          0.039186098762644436,
          -0.01827767237544948,
          0.04842208475645789,
          -0.04944192563113321,
          0.02401491928200291,
          0.04247225914388035,
          0.07296134707851269,
          -0.02088000807506266,
          -0.009265519788713882,
          0.04717050540840497,
          -0.007613209315499231,
          -0.04633149638625269,
          0.028066453099753138,
          0.005647153490699465,
          0.04526042254200449,
          0.07091150627053969,
          0.02385102549613143,
          -0.017534487401183078,
          -0.0363701045355769,
          -0.05112760377876053,
          0.07511659784918626,
          0.07224605273006424,
          0.0011983322185637449,
          0.05549170466530023,
          -0.00019086015495384842,
          -0.005312488561581514,
          0.005749845524348356,
          -0.06532446749644105,
          0.03437022220336439,
          -0.058872733031040736,
          -0.07503349711033162,
          -0.0585824716461544,
          0.043674571845505016,
          -0.014776474454227138,
          0.05659918757053897,
          -0.02999426334518056,
          -0.02045285944506093,
          -0.04356981216833221
        ],
        [
          0.02079259497866331,
          0.036639142930941664,
          0.02992444957455094,
          0.056313563402417055,
          -0.025812667692102723,
          0.04629587125233796,
          0.0433740640904728,
          0.03617867349697382,
          0.04348878422570761,
          0.05727072353788495,
          0.07588088929700745,
          0.035998537146660015,
          -0.012507780475400113,
          0.026054430869603757,
          -0.020388331805403295,
          0.019918514201598812,
          -0.00820644313676184,
          0.030090737749400336,
          0.06143190315569364,
          -0.060877904029650654,
          -0.014066662096658564,
          0.06388210119599404,
          0.00923972175926663,
          0.042777477083039014,
          -0.04031888046420184,
          0.002605043252885227,
          0.016582048633226914,
          -0.025979086287717612,
          -0.06829886663600364,
          -0.06834787714397064,
          -0.051791448505259026,
          0.011911523067420438,
          0.07243937708660304,
          0.07558540219340086,
          0.0508298358796372,
          -0.07158861167912027,
          -0.03885709906239156,
          -0.019896005167929283,
          0.028522995215572316,
          -0.07394581714445243,
          -0.013119601087653232,
          0.005184279490306489,
          0.03675670578601917,
          0.04344644803288658,
          0.006369677963543565,
          -0.04161263139657297,
          0.021457705611128433,
          -0.035312595161436665,
          0.07876260890482202,
          -0.06739830778871567,
          0.07580779907685535,
          0.012170461329061388,
          -0.02333449071825346,
          -0.027635430840460194,
          -0.041083808985474674,
          -0.06043937431705068,
          0.005082369283419163,
          0.004887222853304061,
          0.0637364960325473,
          -0.0764925314815881
        ],
        [
          -0.02302681707678256,
          0.05080559740471913,
          -0.018303234915212116,
          0.010369234991754716,
          0.04650762991200551,
          0.018620848700993686,
          0.014142360243335832,
          0.038906827803908056,
          0.04450900374366799,
          -0.04057923492379323,
          -0.02814802406292993,
          0.04123575808340706,
          0.03602278499131363,
          0.06014175405875694,
          0.035749130346177056,
          0.02350769364024434,
          -0.030926064187956685,
          0.06863387112327872,
          -0.06340494973016897,
          -0.035612204872111496,
          -0.03600912499294998,
          -0.04439113167416427,
          0.056796005118998585,
          -0.022542841914346964,
          0.008314292706625892,
          -0.07604441081999208,
          0.04608027986590328,
          -0.025516559399815557,
          0.046333168366126165,
          -0.0483821042052995,
          -0.03494472130431306,
          0.001400570202030105,
          0.07324152000534619,
          -0.03762247039968837,
          -0.03396711877598377,
          -0.0680303126842169,
          -0.00279311508632624,
          -0.024100914037953683,
          0.012348918465435727,
          -0.06668435275953659,
          0.06583856394921893,
          -0.012684486731824074,
          0.07113218975436524,
          0.03198622922179348,
          -0.06999761060031566,
          -0.009341928901777381,
          0.05421617865478411,
          0.006840195459269952,
          -0.0732216739464425,
          -0.033745216748194536,
          -0.027018107170677586,
          -0.018643410184233232,
          0.045976287659543966,
          -0.0034360856920853545,
          -0.028883126253501288,
          -0.007173749633017535,
          0.025040044240191735,
          0.0666082589959345,
          -0.032462619746181934,
          0.04581977134490225
        ],
        [
          0.012709949885176012,
          -0.06809166984105158,
          0.06514342806155633,
          -0.014007254204601345,
          -0.03728384189007148,
          0.0694934620648069,
          -0.07498402666436292,
          -0.06370584174890338,
          0.07696916082035647,
          -0.07201325317176756,
          -0.01168964682102778,
          -0.07204382129999104,
          0.03169786302405738,
          -0.04038099834029229,
          0.006536548270472153,
          -0.05515323935652686,
          0.05963042201004626,
          -0.07061350147673869,
          0.029126376156247972,
          -0.07824068702576985,
          0.04419107360033154,
          -0.047890437380000636,
          -0.0014314445591392584,
          -0.020217326084300366,
          0.018022079380861485,
          -0.008735976065536282,
          0.0038927593273041586,
          -0.029804159834598793,
          -0.049260581886444915,
          -0.012458582391728524,
          -0.02861811526705698,
          -0.013846007122719666,
          0.02972783844738187,
          0.06500644404609643,
          -0.016076966256275926,
          -0.05092024016119764,
          0.06439615700578805,
          -0.08614303394672597,
          0.06048721926151456,
          -0.009645092746312268,
          -0.01876004211987212,
          -0.013680805128477747,
          -0.07201483886896264,
          0.07675654273810165,
          -0.07094530321602574,
          0.020860357616456722,
          -0.039901912749915454,
          -0.016576553109458193,
          0.05373155070921146,
          -0.022577713439696084,
          0.07438088881517235,
          0.04360835979725275,
          -0.05326303834437114,
          0.03889838158307486,
          -0.052961065810670706,
          0.026742542630608088,
          0.05470921831059065,
          -0.026864438397753716,
          0.01677827708658612,
          -0.0710235886771686
        ],
        [
          -0.051034203133673954,
          0.014504057886312784,
          0.008574786114491575,
          0.04029138157139588,
          -0.01641864989463375,
          0.05810493459602555,
          0.03964201530987266,
          -0.06710945854461992,
          0.02517420924473681,
          0.018668946450540205,
          -0.04612391459407139,
          0.059717284206857055,
          0.04030658754579813,
          0.06063335160357438,
          0.003604548864602913,
          -0.02802429165847739,
          -0.006617892668036308,
          -0.06999348183735644,
          -0.05452519446631961,
          -0.033850644978954125,
          0.06679681969155814,
          0.00433176420484846,
          -0.02178041401727335,
          0.026284637622623765,
          -0.06388526248869901,
          -0.06016127411946529,
          -0.04831738813901804,
          0.058524831719897336,
          0.03051142543105251,
          0.04599435811368182,
          0.04084187723860333,
          0.04392597506352731,
          -0.025545459822318373,
          0.046247995881696154,
          0.06631538609669659,
          -0.04463248522211109,
          -0.04670417896993425,
          -0.03641518611090808,
          0.07224018049666348,
          0.021393598212915987,
          0.05332060819311663,
          -0.006086607467805928,
          -0.007981866307221825,
          -0.055989166201440094,
          -0.014570884604277247,
          0.028204130124889096,
          0.038475980546770004,
          0.0026408566863390433,
          0.018292129383415668,
          0.00847557086730997,
          -0.03273255900014,
          -0.04411074861883446,
          -0.07420964618593166,
          -0.05196681941904941,
          0.0023123888566620996,
          -0.01951154318818201,
          0.028802726890189423,
          0.04428280549599844,
          -0.03719053374440346,
          0.052937272829987496
        ],
        [
          0.04688356334551945,
          0.03311841455560325,
          -0.061746785915127965,
          -0.0014037084900482477,
          -0.06634148605492136,
          0.06610030686355646,
          -0.002981898887541646,
          0.05640969668850205,
          0.07470211854976053,
          -0.0755042995967,
          0.031211643719093903,
          0.01033472067639177,
          -0.05322620845865241,
          0.03216124568579492,
          -0.07383641155177288,
          0.06985034845630111,
          -0.036829066058719495,
          -0.031223827180826186,
          0.03608470955049196,
          -0.0606242094476078,
          0.06838205547709908,
          -0.04730589318308884,
          0.018407175677406754,
          0.04746354280315952,
          0.011062530231578587,
          -0.040680154848384144,
          0.05221918345686728,
          -0.003945877046083771,
          -0.07353943039671945,
          0.02371893397945836,
          0.05638382756784334,
          -0.07404480625813703,
          -0.07336937882961636,
          0.010539245345361764,
          0.012629241040840117,
          0.04543619086419124,
          -0.021842365776256555,
          0.014757334771335114,
          -0.04706779376404913,
          0.07093815591126222,
          0.04952350527749072,
          0.06302910038202132,
          0.024207552147648442,
          -0.02030983423183545,
          -0.057270737493966974,
          -0.04567010213028193,
          0.05432635236272165,
          0.03858847142291068,
          -0.07759083913422578,
          -0.02602642791882376,
          -0.0629457438532328,
          0.05366789734126127,
          -0.009391032949375022,
          0.040395353523543856,
          0.07830433755237264,
          0.03835899376034783,
          -0.060794641708465935,
          0.07158823142956271,
          0.014864795611964006,
          -0.02161839848516564
        ],
        [
          -0.03505657196356383,
          -0.07362388035929936,
          0.03441500344634716,
          -0.07684624358499655,
          0.05337223767228332,
          0.07171588690871807,
          -0.012316788129302574,
          -0.06455984038695509,
          -0.035308942671518365,
          0.05601022631380061,
          0.014235490323711303,
          -0.07399994246594095,
          -0.06998838040552169,
          0.06624764098983543,
          0.03646023351250231,
          0.05502494274069943,
          -0.06710080377418125,
          -0.043213791625269546,
          -0.01345689287726173,
          0.024603686903337224,
          -0.03143021893724813,
          -0.007691894206866201,
          0.050224597156983825,
          0.04449990888427286,
          -0.06752767946485784,
          0.06655366699765299,
          0.05133132149514488,
          -0.03944641588206447,
          0.03521585756980877,
          0.04699232507096635,
          0.035657429490007636,
          -0.03897706153712441,
          -0.026925915726279427,
          0.013444716809973875,
          0.036235967479755486,
          -0.062685181297145,
          0.012651556774903967,
          0.01171229844611586,
          -0.002016011119371464,
          0.010675115229160342,
          -0.06875387540140789,
          0.06652184000176517,
          0.02657484819305765,
          -0.061516112949811325,
          0.04034467505343019,
          0.06837207427701793,
          -0.05548568828361854,
          -0.06419839688367046,
          0.04659795675774475,
          -0.011183415496435289,
          -0.048800563515140394,
          -0.037584707392348565,
          0.009320802008363592,
          0.05541167665181812,
          0.0356980627192475,
          0.01939612583666012,
          -0.06179969208063846,
          0.06163945837017152,
          -0.07489060014249159,
          -0.00625685506418404
        ],
        [
          -0.04549882220970919,
          -0.03690618569258981,
          0.06041011659821767,
          -0.05862262744514053,
          0.06518687992318566,
          0.06116674231015699,
          0.01844337250775112,
          0.027033083835916943,
          -0.012763442539659406,
          -0.01589356955724652,
          -0.04669332452937159,
          0.036215514238263975,
          -0.06950807518712701,
          -0.06359325328665895,
          -0.0025796479459136118,
          0.02346825167696067,
          0.06628942343608635,
          0.05728382653755786,
          0.007253639536133521,
          -0.04768490833869143,
          0.0008425591239056761,
          -0.020460345129603503,
          -0.04526264033187081,
          0.03177313719212011,
          0.060422823809870616,
          -0.04036905709463881,
          0.03741695056297638,
          -0.044844775132277644,
          -0.005201593334079992,
          0.06534794725504872,
          -0.06145477635137818,
          -0.03842933206292958,
          -0.06679871979423156,
          -0.03767941311420018,
          0.050545574153799046,
          0.027023952192532858,
          -0.01233677376566271,
          -0.041352937998859564,
          -0.0702745910912815,
          -0.03629762138802652,
          0.04917766583350419,
          0.05763808533362726,
          0.006803612131290453,
          0.03208345904030234,
          -0.027868091180707034,
          -0.019375521934892594,
          0.07118635630942842,
          -0.012736774288531708,
          -0.05684755195756943,
          0.008899884785663083,
          -0.07638725760591261,
          -0.0011415028379049956,
          0.039865019401191075,
          0.06812954915881433,
          0.06875157546611821,
          -0.034943842383765064,
          0.0368268349937937,
          0.07239623962437243,
          0.07291500966560105,
          -0.031818446220711664
        ],
        [
          -0.031082294021825902,
          -0.030826053171303765,
          -0.03410691030234185,
          0.06593933496735935,
          0.060383802188873424,
          -0.03948766824351545,
          -0.02435915921362618,
          0.023637267989057128,
          0.0083989411698869,
          -0.0019116403811262226,
          -0.009792474710122621,
          0.06213124422611882,
          0.010859624946580373,
          -0.039769838741256204,
          0.0031462910983738697,
          0.05041896310257984,
          -0.0025001739533626797,
          -0.00833636937862033,
          -0.011715156249898287,
          -0.05976045897044226,
          0.02098285511453252,
          -0.06207540407453895,
          0.041929907236847315,
          0.07588228318753694,
          0.06302796217103927,
          0.06846110575928258,
          -0.05184372269624007,
          0.027572680071955628,
          0.0290800261776982,
          0.026822586343518126,
          -0.04179592006708671,
          0.062461690873202795,
          0.05337757476432304,
          -0.0037281412113859937,
          -0.03818323746061933,
          0.023856393506260506,
          0.02699110442191055,
          -0.07454744921040955,
          0.03837791720192044,
          0.04408492401657145,
          -0.014378934408443293,
          -0.014115768825659155,
          -0.0005148793360576496,
          0.011982420965830702,
          -0.0713920273814546,
          0.05971774057403944,
          -0.06158942040277808,
          -0.008509882156614721,
          0.06476272470466084,
          0.03546342765767098,
          -0.029178070659752562,
          0.026593787526752368,
          0.05637612293564067,
          0.02814645411105813,
          0.053791280331894,
          -0.057711340041612554,
          0.05557286284005307,
          -0.03699118421011899,
          0.07507616979924642,
          -0.06891784735792371
        ],
        [
          -0.06959554081543455,
          0.015062637564788246,
          0.013479239064744467,
          -0.04976070789036021,
          0.02475065522620571,
          0.06838191350126994,
          0.038174343769953184,
          -0.02912234108992595,
          0.004029872009350109,
          -0.00675680801268241,
          0.024853987560379667,
          -0.017468848678897385,
          -0.07153470062256453,
          -0.02392193643165066,
          -0.037369086955085055,
          0.07287503407899698,
          0.00214181226679382,
          -0.026919540125567566,
          0.023462360283815913,
          0.07842456991133608,
          -0.07038931989045619,
          -0.02199221099672249,
          0.07669253082658142,
          -0.004720905933747173,
          0.03380508782933214,
          -0.07438991117799497,
          -0.042443208449949345,
          -0.06716226702980437,
          -0.0010057093726693852,
          0.01913967795110017,
          0.06888321483559244,
          -0.014637702549653988,
          0.0011927299609658228,
          -0.0307126384499531,
          -0.03040046436867388,
          -0.03495151441845862,
          0.01217800129521803,
          -0.019283224747383067,
          -0.03881628868805039,
          -0.07946100740604757,
          -0.03242587954052987,
          0.06082201593549182,
          -0.046676272201104076,
          0.027827748574240484,
          0.008374204837736925,
          0.044798738808520686,
          0.04696996441384178,
          0.043719278183616254,
          0.06347842382862215,
          0.005953164779338228,
          0.04381331409407295,
          0.017727681791495548,
          -0.014055281233841824,
          -0.01469653428811952,
          0.03779398608446113,
          0.04012328991322219,
          0.0370555923783575,
          -0.015950010887255714,
          -0.027938906058503736,
          -0.05933388141557025
        ],
        [
          0.02905250594092775,
          -0.04668603621151886,
          0.04125545190050006,
          -0.07559490520076378,
          -0.06717106290927675,
          -0.05912472652745034,
          0.07470212533044958,
          0.05829225892863097,
          0.03451254989391396,
          0.018678421413541757,
          -0.021105737056818185,
          -0.054768289420717445,
          0.06957953548003949,
          -0.012757043903437267,
          0.06591571036873357,
          0.017985109239006404,
          0.04514143400529022,
          0.06866405417348438,
          -0.03409264418756501,
          0.052205120750583756,
          -0.04553314004430151,
          0.012557154016060902,
          0.06456082453910474,
          -0.03782359772760523,
          -0.02975229311423684,
          0.03903394856603714,
          -0.046106509069574524,
          0.057143586641473905,
          0.0034547196380778186,
          -0.05664229922361338,
          0.03899636765410813,
          0.034861641648023765,
          0.06590719038886556,
          0.03288109210618836,
          0.024233299125150633,
          -0.009128082257161321,
          0.07047760967152428,
          -0.021770682667238923,
          0.048450203233213154,
          -0.04425317997445805,
          -0.024092672244441542,
          0.012465612710375516,
          -0.03058330526526116,
          0.058969941163781445,
          -0.039044072343824586,
          0.05652168546549154,
          0.014798973556972362,
          0.015283666068528448,
          0.05605173722731532,
          -0.0003805273551696753,
          0.019273688819744145,
          -0.0647898691826918,
          0.0015743804944588127,
          -0.01733979160108982,
          0.05254262546320002,
          -0.05314640319356202,
          -0.0035390521009018325,
          -0.028353138604199475,
          -0.032020431522115686,
          -0.05361764378016761
        ],
        [
          -0.021766834307594535,
          0.0666037275753765,
          0.021535511231842757,
          0.07014839754965868,
          -0.056806924857596676,
          -0.03405311377237533,
          -0.013023402310805583,
          0.06825927537842726,
          -0.03018893093762882,
          -0.0699532523029725,
          0.0031430422517121337,
          0.008359713036521641,
          -0.03938372895497606,
          -0.05332028732233213,
          -0.039633182328104324,
          -0.04165712332759869,
          -0.07898209198876992,
          -0.07816775111590972,
          0.011471459829133172,
          -0.07209102311907166,
          -0.029793130080475738,
          0.0253250335267019,
          0.00903731891112741,
          -0.020110314783768936,
          -0.07044510257844219,
          -0.045548354128060964,
          0.016356982190835482,
          0.044923680104667164,
          -0.033106963034865176,
          -0.015366526741081833,
          -0.00881813542922244,
          -0.025981233963659672,
          0.024763984859058768,
          -0.070979570731407,
          -0.013230261718598021,
          -0.02841193428945914,
          0.04453306085553457,
          0.05235038699792639,
          0.02827892245029251,
          -0.022695816777424906,
          0.009732247724209123,
          0.023736867608065478,
          -0.058682352032904936,
          -0.03529985422369519,
          0.062456697475471744,
          -0.01183978375585106,
          0.020820119367587438,
          0.002515016782235179,
          -0.06568305963364084,
          0.05965228835311211,
          -0.05544658804146304,
          0.0033055107279771822,
          0.025132160115458206,
          -0.024809903231661833,
          -0.0019448489365066198,
          -0.06645478022357247,
          -0.03877414809834557,
          0.07592734315374183,
          0.07129227703676054,
          -0.039971626547901394
        ],
        [
          0.05014642653107698,
          -0.0668927695407743,
          0.0007675864935473588,
          -0.0075875890264215816,
          -0.0027837950230387366,
          -0.01867615438371939,
          -0.02313267374866939,
          0.05672984491566099,
          -0.01811975039135588,
          0.05980597673612044,
          -0.04585049598151343,
          0.021227183054649476,
          0.040550301174567524,
          -0.03525229682677219,
          0.02420252603004328,
          -0.05211426284899079,
          -0.03566384917599418,
          0.06495237098296197,
          0.0038331806809211834,
          -0.006883034567998264,
          0.0040515735287414475,
          0.0573363693691833,
          -0.03771360245938107,
          -0.01951230482852722,
          -0.0508217095301585,
          0.020173290381249816,
          -0.047939676441286556,
          0.03464537096656331,
          -0.054073464662990706,
          0.039406291134107485,
          0.04383152530001105,
          -0.0669438774385372,
          0.003165420578723395,
          -0.061244281790987516,
          0.04771146581589388,
          0.00991619623598816,
          -0.07442018082096268,
          -0.04247829537242525,
          0.05997366099386617,
          -0.03874933630013729,
          -0.003146430811445221,
          -0.04579275902610604,
          -0.015683876347532513,
          -0.024260770969696584,
          -0.024785146215718652,
          0.05171167266039085,
          -0.05569662831991426,
          0.014651648088043171,
          0.01900084362273536,
          0.025770087471177452,
          -0.040106651426651256,
          0.07194803475442701,
          0.043300719941197746,
          -0.006442229550499672,
          0.001728326445621266,
          -0.05789719526511666,
