{
  "layers": [
    {
      "activation": 2,
      "biases": [
        0.0,
        0.0,
        0.0,
        -0.00681745180411954,
        0.0035771922140284294,
        -0.00344487676938062,
        -0.008634967706312271,
        0.00247778622131557,
        -0.0018675926738071652,
        0.00406196454415384,
        0.0,
        0.0,
        0.0,
        0.0,
        0.0,
        -0.007189120900184604,
        0.0,
        0.0,
        -2.806663743541727e-06,
        0.004217196244558085,
        0.0,
        -0.0017850370856058173,
        -0.003281602452632821,
        0.0,
        0.0,
        0.0,
        -0.006765301143134785,
        0.0,
        0.0068688628848016,
        0.0,
        0.0,
        0.0,
        0.0,
        0.006490837273718937,
        -0.000901618401054271,
        -0.009844827045300469,
        -0.006948518309936356,
        0.0,
        -0.00670806616715734,
        0.0,
        0.0,
        0.0,
        -0.010946606886696136,
        0.0,
        -0.0004506818065073743,
        0.0,
        -0.001913430390863626,
        -0.004161179207429496,
        0.0020008278713923317,
        0.0,
        0.014611168023672409,
        -0.0019045736196416463,
        -0.0028172877259098257,
        -0.007386589597471495,
        0.0,
        0.0,
        -0.0013978973745608985,
        0.00028412216231360184,
        -0.0038958778280730926,
        -0.003801848513805
      ],
      "cols": 60,
      "rows": 956,
      "weights": [
        [
          -0.06400780992479867,
          0.04792066188788827,
          -0.02270247465788662,
          0.025929889800552428,
          -0.060835084254317065,
          0.05083561531241366,
          -0.012002048294260905,
          0.06905578169561466,
          -0.026907909959845676,
          -0.029652996515054895,
          -0.02509682367365398,
          -0.04429578608366192,
          0.059590742603999707,
          0.05541163922089047,
          -0.025104277867549967,
          -0.01911277738214027,
          0.07643802317629195,
          0.07527515482929664,
          -0.06287787349940153,
          -0.024566291375005277,
          -0.03698917882848844,
          -0.0033284768767238137,
          -0.04549749907014386,
          0.023697511027375853,
          0.07129329819254586,
          0.0018298218125753429,
          0.05161675587741572,
          -0.01360903823117892,
          0.04807731931342509,
          0.016202088002341374,
          -0.04430562132828834,
          0.015429313690025488,
          -0.0700513108842482,
          0.0693574765872025,
          0.04531536572977011,
          0.00910699285590871,
          -0.05861944209411761,
          -0.07359399588616704,
          0.06544035342007885,
          -0.05526643663673254,
          -0.03539858476629101,
          0.01644958838136315,
          0.0012387234425658515,
          -0.031040431721663982,
          0.04001595588500734,
          0.0035106251976770694,
          -0.06187821316499486,
          -0.05096854155270437,
          -0.03833703325731315,
          -0.01632457996159688,
          -0.05074847912410324,
          -0.07799664284094311,
          -0.04658077988182631,
          -0.025646041261055106,
          0.06747334413082699,
          0.057153739793705506,
          0.00481652020659639,
          0.026773641439673503,
          -0.03734134887172948,
          -0.06924632328644725
        ],
        [
          -0.07036494698883174,
          0.042567572241866,
          0.06333895896883751,
          -0.03129592302238492,
          -0.06259979829194717,
          -0.050829684585573125,
          0.059148017617072106,
          -0.023059313881537737,
          0.04372058956225979,
          -0.008255805693399511,
          -0.06417976603189356,
          0.017636343457341355,
          0.06723327325417149,
          0.06750044755778935,
          -0.03576774696818241,
          -0.06040766298825935,
          -0.03977292321599885,
          -0.06487993522315412,
          -0.005650530180388973,
          -0.024096716611799227,
          0.017754438177218557,
          -0.07545939167909442,
          -0.014130881957780615,
          0.06121446869117046,
          0.022925531782316686,
          0.014884029240065048,
          0.04009630492141915,
          -0.029457611554995076,
          0.01977229244957398,
          -0.03843715261111793,
          0.006030042894857131,
          0.03759072954909089,
          -0.05131804002866716,
          0.0467554796936992,
          0.0050052192060623,
          -0.052540979185760735,
          -0.04924782931423457,
          0.040301611665788724,
          -0.05110621906784115,
          0.06749954628117003,
          0.007998719528719308,
          -0.028453990978384858,
          -0.06933412295314693,
          -0.056873911116894965,
          0.01031256235538278,
          -0.015670158091472673,
          -0.013517631526716475,
          0.031917743298958585,
          0.05959742741406263,
          -0.022254680239891633,
          -0.019705329009569183,
          -0.02637153755795094,
          0.07317417991330201,
          0.01913138778709969,
          0.06532377162472108,
          -0.008694496991464712,
          -0.038766591100944214,
          -0.038925157905193464,
          -0.027740200540988195,
          0.05322266011069411
        ],
        [
          0.056712905810581915,
          -0.01543642241721445,
          0.048696808920023545,
          -0.008375091861689624,
          -0.022325237991548872,
          -0.006030010586489751,
          -0.05064592799614266,
          0.017223242478463362,
          0.048875270158572674,
          0.0005960036484803117,
          -0.04023277733495355,
          -0.06296669257645854,
          0.026513600388403776,
          0.05976710096034851,
          -0.04872417271737746,
          -0.0056781902825200035,
          -0.04546209714559564,
          0.026512127413409557,
          0.06530129170472049,
          -0.008003654983392389,
          -0.07617926195675873,
          -0.0513368276151377,
          0.07227618171760651,
          -0.0004511251622138642,
          -0.003089609638275616,
          -0.05902032439545144,
          -0.006340052614311441,
          -0.043590836039691855,
          -0.039412055991685714,
          -0.034585298452834264,
          0.06215271318249822,
          -0.05133876466731456,
          0.032110000654488755,
          -0.009320127489266855,
          0.07286234226521418,
          -0.04748398904863263,
          -0.04733275109235533,
          0.01683883209701501,
          -0.0033043405871368697,
          0.04461934481941616,
          -0.04834477018663307,
          0.07154270482923109,
          -0.017452313146449707,
          -0.052759263934339495,
          0.06195155137866783,
          0.06429312391439684,
          -0.025617022590728244,
          -0.06453633685230883,
          0.06095302540555395,
          0.058381604405843605,
          0.013581077137100777,
          -0.0005689864712999415,
          -0.056030827546246866,
          -0.0638639709675745,
          0.0557027917910753,
          0.03520680021572278,
          -0.04592660589526281,
          -0.049754941402035686,
          0.03419194556418954,
          -0.0775262327033203
        ],
        [
          -0.04044776941851344,
          -0.003372451540546861,
          0.023224992086059385,
          0.04794855457617206,
          -0.014778959221125525,
          0.029939249439348673,
          -0.01102448901403304,
          -0.006032861130527407,
          0.06634654356147034,
          -0.019609865168022756,
          0.064197175134873,
          0.06019821285046447,
          0.05327435042875295,
          -0.04260494906286027,
          -0.02204436659287016,
          -0.07406095490599315,
          -0.06533237851942154,
          0.02851805970084629,
          0.04183330871221631,
          -0.02773513241186975,
          -0.06837228042254943,
          0.020176469777282272,
          -0.00744691485406757,
          -0.05102246352362408,
          0.02172449476770468,
          -0.00928310634457261,
          0.0362655252595099,
          0.031243230197446528,
          -0.05556486545283275,
          -0.001922582951398158,
          -0.06192551439391478,
          -0.008819689345234924,
          0.050844227895320636,
          0.05923138544430731,
          0.03105192170608185,
          -0.03994197878512709,
          -0.032696829805861874,
          0.05838959129265451,
          -0.06655889191151412,
          0.04110237278927346,
          0.053093076811889434,
          0.06494716596438138,
          0.029811826002366336,
          -0.06047920983026348,
          -0.07387748965738132,
          -0.052591817788823776,
          -0.07699523064363886,
          -0.05201649075475192,
          -0.015517048739145053,
          0.03294215215548143,
          -0.03474792865648334,
          -0.012055329804655813,
          -0.03405054345485432,
          -0.05852368979020032,
          0.04267270669986069,
          -0.003733887583867186,
          0.0532064601028158,
          -0.036938797609081225,
          0.01572793271518883,
          0.02023280460223992
        ],
        [
          -0.014197688164279134,
          0.032534975375432686,
          -0.0419839284627377,
          -0.06765131999541164,
          -0.04872944744801525,
          -0.07341429339123691,
          -0.05542904572264291,
          0.04658206974223512,
          0.030761354384290604,
          0.022236803530645333,
          0.02543825936319846,
          -0.020556237941659998,
          -0.04305746335622181,
          0.0020228154608332833,
          0.05814598480365317,
          -0.03294121257066141,
          -0.04666421514822148,
          -0.0706022775351071,
          0.03592774509102989,
          0.04337998195706969,
          0.04202490487934609,
          0.018192273608164274,
          0.034740340700553304,
          -0.0720593229141832,
          -0.05491879478487213,
          -0.02109262156036192,
          -0.05415381529436776,
          -0.0696691914979693,
          0.039404540635410365,
          -0.03697393069956156,
          0.03808915727674955,
          -0.07087056324384061,
          -0.0033484203840075705,
          -0.06941786709735571,
          0.07558667848993568,
          0.015245273357124191,
          0.030364025853145377,
          0.013483102912858156,
          0.03680540917978132,
          -0.04989868236915075,
          -0.015830024509923952,
          0.0275723492781997,
          -0.05859470463319973,
          0.06237433054025229,
          0.0628826547021667,
          -0.012715647871738789,
          -0.006972237079259401,
          -0.07334625319560517,
          0.05451500005655681,
          0.05060082058465898,
          0.026488985013492564,
          0.056241568792827275,
          0.0060261274007188115,
          0.04817667037850458,
          0.060917198490328416,
          -0.04802902564012106,
          -0.03161460760436697,
          0.03919280480220778,
          0.01628179177097787,
          0.0651335167995565
        ],
        [
          0.06725559461174027,
          -0.03025446325784501,
          -0.011720557681871767,
          -0.07053367762040959,
          -0.006034196242680747,
          -0.039630886063671274,
          -0.08272475783836476,
          -0.07698039052872661,
          0.05145234051888768,
          0.06896442765694258,
          -0.037707522989567435,
          0.0168953183011956,
          -0.0723467752618241,
          0.030940502166562984,
          0.06894455085367437,
          -0.05628971901643616,
          0.018364926659019613,
          0.06395946727339577,
          0.03371574856638004,
          0.05853872728800001,
          -0.0680620877486008,
          0.07007845116032209,
          0.04212002608635275,
          0.012848065038672451,
          0.06991922730345942,
          0.06988053531855214,
          0.006398551934859916,
          0.06948159434456165,
          0.0313678746118479,
          -0.03335957069577621,
          0.026224636919144482,
          0.012026580922642307,
          -0.024657344289321283,
          0.057525210091350414,
          0.03678327410960178,
          -0.010392476782886061,
          -0.07448200627245874,
          0.06458789876777526,
          0.029174549791827244,
          0.06458252374382034,
          -0.00977262114570168,
          0.019086859894974,
          -0.03067009275358005,
          -0.025874323586908526,
          0.054641775072409096,
          -0.0763221160543776,
          -0.06692198128822734,
          0.07136577316160657,
          0.0630806707125434,
          0.05546061791178482,
          -0.006074237083898076,
          0.04460297420799909,
          0.00844500445590483,
          0.009495940398578663,
          0.07525225311342514,
          -0.019501285535589042,
          0.02298465449198042,
          0.06258075110863694,
          -0.024891095403226742,
          -0.022481721235727142
        ],
        [
          -0.0594153105736482,
          -0.06484234483832027,
          0.04913587069544067,
          0.009094938592860992,
          0.003758627491918324,
          -0.017709949901499697,
          0.03168777740498565,
          -0.020036658584820028,
          0.04122508400418389,
          -0.024162599923633107,
          -0.06727271893907703,
          -0.06810936615928828,
          -0.05382920968137857,
          0.0679990931434667,
          0.047055566876383896,
          0.04314257201892281,
          0.04045336401815867,
          0.02634328422829968,
          -0.011244271251724737,
          -0.06543076244548408,
          0.029814876232756703,
          0.07266732962092447,
          -0.018040153831328756,
          -0.0035623973952025193,
          -0.01688552005807893,
          -0.05240308690056926,
          -0.035704591899359255,
          0.005160821678244078,
          0.04554732051521504,
          0.0037999428651408497,
          -0.038800345331530386,
          0.0222730931072311,
          -0.05519323548362086,
          0.03209249811750352,
          -0.013427560425700483,
          -0.00639492437494103,
          0.011570431600315307,
          -0.01653984501180699,
          0.06852131131850639,
          0.046816783251477395,
          0.05114353303605921,
          0.03210744669148069,
          0.06812475915497758,
          -0.06757505884774137,
          0.02684481153831565,
          -0.010206605125925895,
          -0.057379305691974906,
          -0.03762351858316352,
          0.028593106155943418,
          -0.031482629822342116,
          -0.0006172715473776711,
          -0.05173185928522491,
          0.019653703110255865,
          -0.06333465452382728,
          0.011294893745185438,
          0.07259498167545635,
          0.019027081820383193,
          0.008057663821634102,
          0.010930525156890532,
          -0.0440799231147133
        ],
        [
          -0.038945600734091014,
          0.043515101821910325,
          0.02519276959039177,
          -0.048533910019199954,
          0.03529413595218844,
          0.04992394711795569,
          0.042568376813413536,
          -0.07081867768547377,
          -0.013088273160110655,
          0.0772564876538457,
          -0.07469860310162854,
          0.003679907176319313,
          -0.06078264310849134,
          -0.012702613606836801,
          -0.04978663399655804,
          0.02465869177670258,
          -0.045468531471960026,
          -0.042725546716584115,
          0.05197987589868508,
          0.012779504453327942,
          0.05404669611042696,
          -0.06951822256782957,
          -0.03169654467910673,
          0.06770276952283327,
          -0.07460087352604006,
          -0.06830338232315492,
          0.056731425545445927,
          0.054144033555895754,
          0.0829440706013545,
          -0.07133710898205627,
          0.009020884517688161,
          -0.05630585477841055,
          0.06823407964052138,
          -0.0053004401748129116,
          0.05413261767358866,
          0.02644131477508091,
          -0.010162720614646325,
          0.048457361844449105,
          0.0025434611413038717,
          -0.06696196508749225,
          -0.04485056381845467,
          0.00791977161888365,
          -0.017127436936568766,
          0.06949285167816018,
          -0.07314128699527928,
          -0.019176396534725353,
          -0.07590278602222583,
          0.06921045083916338,
          0.015996181285926968,
          0.042140748590549365,
          0.07307145351973497,
          0.04185155937806174,
          0.05491604040421754,
          0.05923994676632778,
          0.02037917147518085,
          0.0756786950122215,
          -0.06590807164329288,
          0.003071323242061088,
          -0.04845007771431724,
          0.04246256785223449
        ],
        [
          0.026827827658307383,
          -0.07455098146325533,
          -0.013898425965331355,
          -0.04497704276992934,
          -0.04154403444456792,
          -0.016530835510429207,
          -0.08049966471772604,
          0.06368555022894194,
          0.035033952643281234,
          0.06374731973296384,
          0.07222150210591753,
          0.06294825122439783,
          0.03449486719244116,
          -0.010949881720163505,
          -0.05025100444679086,
          -0.06372048099936858,
          -0.019779445852257205,
          -0.026831424319565818,
          -0.06460214896679516,
          0.028204358159155014,
          0.027405315159166745,
          0.026643146302791437,
          0.008894964121716923,
          -0.07478471763850109,
          0.02412126441221966,
          -0.029561985585444275,
          -0.022242336910300132,
          -0.027285453456167622,
          0.04034968368532706,
          0.009219808284116813,
          0.07107539744678587,
          -0.03450504718807807,
          -0.05934561032160146,
          -0.05253697888317143,
          -0.006579449259072684,
          0.0439587034811006,
          0.01377825017536724,
          -0.00510095438059491,
          0.013110413522440877,
          0.07621773665620454,
          0.06886096308334237,
          0.008029612067732542,
          -0.026831781517252528,
          0.04066817159515741,
          -0.055569076958624106,
          -3.192256943529792e-06,
          0.05170821308610144,
          -0.05753462210948253,
          0.05774494445680727,
          0.034587295961803155,
          -0.0630210726267727,
          0.00518485467897737,
          0.061106333834681,
          -0.027971724413078016,
          -0.07265295881861364,
          -0.045144939241608964,
          0.06360289074389655,
          -0.04617753630790096,
          0.002455381420293093,
          -0.0317127576407934
        ],
        [
          -0.0448208798761436,
          -0.05951077160599816,
          0.02503172849925304,
          0.059779510552303204,
          0.03069589799776625,
          -0.05178728351301946,
          -0.03943776785659499,
          -0.025771385897907936,
          -0.06491402301857198,
          0.049863926883143415,
          -0.05360619528403035,
          -0.06275270518766415,
          0.018990948260099193,
          -0.062158990127199325,
          -0.016497711958063283,
          -0.0037807807086459575,
          0.008394215640681862,
          -0.015628205894237905,
          -0.015641864303822358,
          -0.03527061248135972,
          -0.02175177296775561,
          0.058439658311638755,
          -0.020928905633041738,
          0.008146383751035081,
          -0.040411218296586685,
          0.04653070468329396,
          -0.022040013859600503,
          0.03823688891767689,
          0.009500295606769392,
          0.03310471059479822,
          0.04933943875968406,
          -0.03639147905611563,
          0.0566439443004763,
          -0.015289173590899093,
          -0.018978383283882568,
          -0.04621050021900927,
          0.009336645452255151,
          0.02987770279234948,
          0.02456802004102445,
          -0.05345672535941128,
          0.025447813768513013,
          0.009782165388125742,
          -0.020804684556969995,
          0.029825330053879655,
          0.014180153488731478,
          -0.053652262449938544,
          0.018948493408676256,
          0.012223713918822411,
          0.03410290749146909,
          0.03549471619156506,
          0.027607848345312117,
          -0.010559120799653878,
          -0.010032635283937028,
          0.016441143487094266,
          0.025762051058167805,
          0.0395222140832289,
          -0.0285330802268858,
          -0.027764492173176922,
          0.05580823022046071,
          0.01046863725197305
        ],
        [
          -0.04701964198890637,
          0.04728204316933708,
          0.045987760990350235,
          -0.05112839102735633,
          -0.04854211934526105,
          0.035406093796756244,
          -0.011735958526071807,
          0.014216282694608527,
          0.0639530545924662,
          -0.06422576814273925,
          -0.001251407842579384,
          -0.03198748464783039,
          -0.04293284191356033,
          -0.04357109519747177,
          -0.011885683253012445,
          0.042111033806824356,
          -0.01011181899538807,
          0.0009104234712562482,
          -0.00520417562864141,
          -0.05570782504692514,
          0.05753805414962135,
          0.010470137072617028,
          0.04795550343271748,
          -0.02566667970259098,
          -0.014661605435479681,
          0.04314452740765869,
          -0.06568899348198225,
          0.050035832007709585,
          -0.06367852054711078,
          0.01621670445752552,
          0.06527879611070478,
          0.07314188066518136,
          0.030073377225037667,
          0.017310001407141673,
          -0.06331774685542005,
          -0.02014876509982183,
          -0.006350408072971569,
          0.03411009207110999,
          -0.019581968649992686,
          0.051775121253050345,
          -0.03082128874146569,
          -0.04442810648842696,
          0.0291001758773894,
          0.07604941185007932,
          -0.06379761655003913,
          -0.007028985893764732,
          -0.06830463764694816,
          -0.03235249677549348,
          -0.05719000171165849,
          0.07073558631675714,
          0.020170245936081455,
          -0.06433656692477352,
          0.06236239741216367,
          -0.024538163944502825,
          0.0249465387854151,
          -0.0184505887325564,
          -0.02224503261383035,
          0.04392116678426811,
          0.030183105641933904,
          0.020048683981453357
        ],
        [
          0.0387975943372722,
          0.06792868070181947,
          -0.01412542335691593,
          0.02186599827086024,
          -0.02086146887487179,
          -0.029209810426523156,
          -0.08197301348155779,
          -0.008589990819352555,
          0.0005282211104591949,
          0.04470110203491229,
          0.023756244447038836,
          0.010251769655391393,
          0.02413528519319571,
          0.05563825364327074,
          0.040374202258204824,
          0.06379462474771426,
          0.03694754067888376,
          -0.06797830595294402,
          -0.009071885774700096,
          -0.0041446749233349164,
          -0.004698663803782416,
          -0.05297705638970511,
          -0.008940028046078432,
          0.041013275658750965,
          -0.04506918877751657,
          -0.0013142709742639952,
          0.0413283334080457,
          -0.0649283865888574,
          -0.025173365749440815,
          0.053526953795484916,
          0.06827260708680022,
          0.04573066290637485,
          -0.05847214695704454,
          -0.03262782187961749,
          -0.017257603510251372,
          -0.06986757414067854,
          0.052288615261716076,
          0.007251030737046261,
          -0.04653951081637567,
          -0.03467865612470101,
          -0.06240958388969131,
          -0.054547517198796074,
          0.05783118673740814,
          0.037706719691800804,
          0.04547009692365095,
          0.055024450269928575,
          0.03117229544143905,
          0.07357607606363828,
          -0.005795250820981474,
          0.024836043688965415,
          0.03167426284383282,
          -0.010425247108860712,
          0.010325904936145219,
          0.0014652650768306576,
          -0.002543856621807859,
          0.05677072478480975,
          0.07872643909191569,
          0.06085594515826757,
          0.02758335368024165,
          -0.03514014089703394
        ],
        [
          -0.055256845015199285,
          0.03343272661686824,
          0.0522529649764265,
          -0.04168868042227126,
          0.04539001117011774,
          -0.0478821521752432,
          -0.024506045178222028,
          -0.06557471920416885,
          -0.036738694102428596,
          0.07314332833459308,
          -0.027515538147802044,
          0.009783363893507084,
          0.041541391694469416,
          0.033842647663627975,
          0.0073116718457657045,
          -0.018201699606301205,
          0.05090646078465555,
          0.054683612974238946,
          -0.04531159742837832,
          -0.07156047671744582,
          0.028610568842926735,
          -0.06806356482857111,
          -0.03642818292217529,
          -0.010407596324872807,
          -0.07059163877800509,
          0.04307818133889163,
          0.05989542078827726,
          -0.019336696593694105,
          -0.01170206582561138,
          0.05269161272141061,
          -0.026593444207134897,
          -0.03172255627144122,
          -0.017744251454034417,
          -0.04498325407528159,
          0.05553606844239842,
          -0.04358523768523769,
          0.04701444028832165,
          -0.011788510203032782,
          0.04028821598904659,
          -0.0340384152800022,
          0.048149903059612004,
          0.00850072566737531,
          -0.048410636578277585,
          0.05377169337520625,
          0.0680202373370244,
          0.015191295430970397,
          0.0643892410382925,
          0.0026789847362418654,
          -0.04828486629564964,
          -0.015299072168922906,
          0.05067143179936875,
          -0.030814001210738604,
          -0.006301726129196094,
          -0.043606791532464446,
          -0.027483909872773035,
          0.009147795187217382,
          0.005630072906779413,
          -0.018185581578978375,
          -0.06805246325734828,
          0.0044111761382111024
        ],
        [
          0.07501127351690655,
          -0.0038256240599917777,
          0.004318697232615816,
          -0.0030144503165208353,
          0.017529256421615354,
          0.03093276713880131,
          0.01124620160203756,
          -0.034651288609943494,
          -0.07117306847776056,
          -0.009166901303730145,
          0.01356987345715489,
          -0.024284826544326826,
          -0.04865142467172842,
          -0.030542105479770924,
          -0.06845598707007232,
          -0.05364938098760256,
          -0.033262840447229394,
          -0.02655886590264732,
          -0.06194461668251667,
          0.05636598031514044,
          -0.052747685324576105,
          0.056690171238498545,
          -0.07830948300328752,
          -0.01595304801697997,
          -0.064624253860427,
          -0.040530057627116416,
          -0.0023899888470585596,
          0.07233752237945064,
          0.048727589740883925,
          -0.0006721347504887593,
          -0.01195750898056467,
          0.0057579712947070415,
          -0.06000179323456654,
          0.02722924362826971,
          0.009009344735253956,
          -0.03539081201168516,
          -0.07339038859335142,
          -0.01707956134289319,
          -0.05027427564885744,
          -0.03213644957698961,
          0.05305754856341963,
          -0.06433367084152754,
          0.055394914029537896,
          0.016274020511813397,
          0.045595088601592546,
          0.03327890232309201,
          0.06285168399616942,
          0.0672913167999037,
          0.016800638158586265,
          -0.0003466666080064272,
          -0.027978374793897674,
          0.009612571229921263,
          -0.016691039624514542,
          0.067690836512858,
          -0.06963233162456665,
          0.05233783799455726,
          -0.012165343961874736,
          0.004515855438146808,
          0.016177722171465226,
          0.03833357030066489
        ],
        [
          -0.04278813222959117,
          -0.05289742113044991,
          0.04046681624982448,
          -0.04898140200705744,
          -0.0026456248553854847,
          -0.06253377372177754,
          0.0442584261128338,
          0.05364148724615426,
          0.03654737009454118,
          0.02911159805162723,
          -0.014006121972717148,
          0.05792626969566206,
          -0.028925210357972297,
          0.01898381920712925,
          0.018419182824434107,
          -0.00470081579662132,
          -0.061095984417681014,
          -0.04557856895205905,
          -0.02912696629539225,
          0.0014725561962148092,
          -0.019572171410479875,
          -0.031326614636243956,
          0.0011933437633353454,
          0.07429647799384995,
          0.02029842630826075,
          -0.013963707292395424,
          -0.07027216913375213,
          0.05201067150424862,
          0.019104900686016262,
          0.07683578317946568,
          0.06275644627647897,
          -0.05340965020653361,
          -0.05950170688023807,
          -0.0012760632859509069,
          0.040016835995648835,
          0.0297272863031659,
          0.003048345974407254,
          0.04542968181911084,
          -0.051203737002676296,
          -0.034287300746486365,
          0.0018253269521925964,
          -0.01410176300274023,
          -0.004499284554433744,
          -0.05902471290333229,
          -0.07047313186337191,
          0.023658620293546782,
          -0.017015897088708418,
          0.011621520501763533,
          0.0301398122343634,
          0.013971242431567076,
          0.061425563509599525,
          0.0026041921499595083,
          -0.011622685810151029,
          -0.026341286568558823,
          0.07420686312846966,
          0.04752761009422791,
          -0.021602616417981665,
          0.061387557105214534,
          -0.007603855656730211,
          -0.031463561039645024
        ],
        [
          -0.0028435503141835596,
          0.07662728911925987,
          0.0269284702618447,
          -0.04294515433470729,
          -0.06196720241882442,
          -0.0723718639131159,
          0.05115049072767055,
          -0.059045801688736736,
          -0.02351280122422902,
          -0.06707831529724566,
          0.05932080284905408,
          0.06486447181271601,
          -0.009813958344922482,
          -0.009056179305955302,
          0.03016880089802963,
          0.019365391602485,
          -0.006214216657132232,
          -0.024843503393724556,
          0.016812460517178267,
          0.029809329800061863,
          -0.04292132649979907,
          0.01587146479315625,
          0.023801404033348388,
          -0.06817333010378013,
          -0.046485076382487785,
          0.0037110556484057397,
          0.022352230207095793,
          -0.07184663694792877,
          -0.051306306849551966,
          0.036509247561522025,
          -0.0588306915148811,
          0.07449393630009778,
          0.04593823314552115,
          0.037771977248889414,
          -0.05861153820877677,
          0.0019064679186610073,
          -0.05646562962129808,
          -0.018388046089770495,
          0.0435704128488349,
          -0.06539877618990722,
          -0.060661089212655936,
          -0.011171430013204031,
          -0.060834091381373315,
          0.07065389757555378,
          -0.007893467232906404,
          0.022356528720484357,
          -0.011459029002570622,
          0.02673095337745033,
          -0.029676875892649633,
          -0.03076262746401124,
          0.07201848710107664,
          -0.004460445073216034,
          -0.029757331064213643,
          0.006342542318640815,
          -0.03738381381440608,
          0.04541627875579549,
          -0.024651578038049345,
          0.0684356630382258,
          -0.04182027179999691,
          0.0007809229621245266
        ],
        [
          0.007487846196540917,
          0.06732666277453307,
          -0.043961856833858906,
          0.04291417838378881,
          0.006472849339540999,
          -0.0010980369706704237,
          0.019464024087348018,
          -0.06881066011654734,
          -0.06027791552256428,
          -0.055229725970222944,
          -0.01249916778355789,
          0.020983645100344017,
          -0.02883215077370339,
          -0.04949628035839112,
          0.008366966283200416,
          -0.0693777202217174,
          0.07002663760479708,
          0.04361847015561889,
          -0.0012822493830911366,
          0.07348573041160338,
          0.06398018840513027,
          -0.022946880004960053,
          0.03439854469513106,
          0.004500483216613272,
          -0.04474295512604351,
          -0.028318001913292142,
          0.06560268503716649,
          0.052484014784809234,
          -0.04690721183231092,
          0.061857519217241544,
          -0.049711055943755716,
          0.022920649658550552,
          0.07562802384221227,
          -0.04850657295471545,
          -0.02338480542554126,
          0.0008924902153434002,
          -0.07854083518966269,
          0.03206233097251741,
          0.014608637477767304,
          0.06694738398771584,
          -0.074273987731904,
          0.05664524557987695,
          -0.04011899762417159,
          0.03514527314628939,
          -0.0610157207475403,
          -0.03725540569306187,
          -0.011401420887468275,
          0.04017513106689092,
          -0.05839094974974915,
          0.0013425710457967558,
          0.030504567647617952,
          -0.032309311193355505,
          -0.06818707764896173,
          0.03864127947077074,
          -0.00600556757706162,
          0.06373598051634871,
          -0.018784284774777987,
          0.06693879669824598,
          0.03921276094120488,
          0.016159690861292483
        ],
        [
          -0.02769213518893806,
          0.05916471036988759,
          -0.05671702242535732,
          0.06442274001803354,
          0.028715967353967607,
          -0.07172624769926453,
          -0.048479793873569994,
          0.05494713602776329,
          0.027219111789202735,
          0.0432327190317404,
          0.027081640909995246,
          -0.05711202835677785,
          0.017291915726952968,
          0.06518826014391176,
          -0.0070078025652218975,
          0.02962189067095471,
          -0.05597645595910699,
          -0.0278806114323731,
          -0.04329185787260386,
          -0.016993600887906905,
          0.06721403354265008,
          -0.045117221759140305,
          0.006998249174574286,
          0.0218507318236755,
          0.03310438595485975,
          0.05169108373902933,
          -0.009882706467913723,
          0.04520642988208983,
          0.0032157637724867833,
          0.04867315536496471,
          -0.00956791798678803,
          0.06855119209777945,
          0.025392641654700676,
          0.06522420056553009,
          -0.01749000323141224,
          -0.015939798035777622,
          0.0709028660302049,
          0.01813316237080755,
          -0.07370462926442141,
          -0.013892968850986351,
          -0.014916804991313986,
          0.05194398011191386,
          0.04929037154949338,
          0.0380432475640743,
          0.021699507455241605,
          0.0004245456250993202,
          0.022544375544871025,
          0.008866027034846525,
          -0.0309814621571778,
          -0.028522846708545786,
          0.03758354628738682,
          -0.05686522331603402,
          0.010674496919651394,
          0.05018887460156642,
          0.041814641259510905,
          -0.04112690049605375,
          0.007796204026559389,
          0.00029786819041956864,
          0.03933444249204723,
          -0.004557177987236351
        ],
        [
          -0.03429813531815443,
          -0.023136315284099207,
          -0.02874017511180402,
          -0.051196559560137175,
          0.07352493908705812,
          -0.012775018309740017,
          0.07027849144107101,
          0.040824270987220086,
          -0.03769263055576296,
          -0.04121652018102198,
          0.0712627326552696,
          -0.05873466193322089,
          -0.01136663401857396,
          -0.07011348394135458,
          -0.050031314531317025,
          -0.02882564270501432,
          -0.031306702601572985,
          0.025569414614039686,
          0.02908188483368654,
          -0.05589975645771432,
          0.01054108059530795,
          -0.06909074823729525,
          0.03235358367363524,
          0.06871687856027767,
          0.010760481011542113,
          -0.06384525141391223,
          -0.016017208217745698,
          0.07178304523719352,
          -0.001878774537915091,
          -0.06693099604052173,
          -0.04338756019433488,
          0.04474515911345652,
          -0.035931070343932704,
          -0.06770474344888645,
          -0.054308920670940126,
          0.013884067098703556,
          -0.04007263289260334,
          -0.012442631122773112,
          0.0361842503531019,
          -0.036945206577844614,
          -0.03075775922475746,
          0.03682837907021404,
          -0.013352492606799365,
          0.02309337535410631,
          -0.07436140766817109,
          0.0653841508600863,
          0.06395031632291841,
          -0.020722884370885025,
          0.004286908141993041,
          -0.009852960870546934,
          -0.06667321802999067,
          -0.05545146688347429,
          -0.000821661225207337,
          0.053296620224800285,
          -0.06698566122649362,
          -0.05494917374006735,
          0.010665756217436114,
          -0.05203259120836495,
          0.030113611974733532,
          -0.07877088706715399
        ],
        [
          0.059893889532052554,
          -0.004571619728423092,
          0.026180306533965362,
          -0.05760976596895626,
          -0.005614536793431945,
          0.05071417637930483,
          -0.048259431241550924,
          -0.049642158939241426,
          0.032218203724317246,
          0.01805664044847599,
          -0.029705485599166494,
          0.02731156428363554,
          0.0034393006723931825,
          -0.02039801970070942,
          -0.012841043554888456,
          0.0190155051105309,
          -0.07494356941400533,
          0.014893595669081022,
          -0.0036492463699173737,
          0.05985380580677312,
          -0.04599665688330282,
          -0.06321127777759394,
          0.039061704473391475,
          0.06293372859702658,
          -0.04720560220124856,
          0.048946795628732866,
          0.0009100115038717478,
          -0.045407305997037385,
          0.019515942455902283,
          -0.018064114404563125,
          0.06641793389369641,
          0.0039380304955501455,
          -0.027196343228398936,
          0.01824970913945298,
          -0.0009189737232283692,
          -0.030716210676785625,
          -0.0673859817082094,
          0.0551253634783176,
          0.04629210557250278,
          -0.011677224619784045,
          -0.07053158768949129,
          0.04618783022904859,
          0.06840519340286536,
          0.05135349570551052,
          0.05084914831008959,
          -0.005365990540878993,
          -0.013288096165080697,
          0.05454065058033779,
          0.027147202460233347,
          -0.06956897544955397,
          -0.05758364697019668,
          0.03272030468126109,
          0.07301543987581899,
          0.05296482836447197,
          -0.014653959792766362,
          0.02042409495806062,
          0.04100456865514643,
          -0.03609905732407905,
          -0.01416993270633696,
          0.0552997007107314
        ],
        [
          -0.06339460666298298,
          0.01211516117714281,
          -0.015387849669382503,
          0.010960178790430009,
          0.054957808136533205,
          0.02422424453591003,
          -0.004903519698309087,
          0.05351172954925719,
          0.037452676908770056,
          0.04340483837543593,
          -0.059854187842504174,
          -0.060476179284947154,
          0.015135792450659914,
          0.06326014410698369,
          -0.03212218052089305,
          -0.0002689695505001905,
          -0.04886625729810514,
          -0.05193200779749846,
          0.04855707868630565,
          0.03396007603054455,
          0.018306806376559643,
          0.04364607541086043,
          -0.042819643976624314,
          0.0005548083308186978,
          -0.012742577026600137,
          0.07499589677731622,
          -0.0038614760618979962,
          -0.06662547994230057,
          0.06801351619966459,
          -0.056625447195657194,
          0.0019293416314224178,
          -0.055918142796436664,
          -0.0010340717097988077,
          -0.031083732603678037,
          -0.024777413374629083,
          0.05217189733918006,
          0.055384140665870864,
          0.02059837421603802,
          0.01079192375773061,
          0.008961365835810652,
          0.02248645554983,
          -0.032844157772183004,
          -0.07477248370926544,
          -0.050985063442493136,
          0.04275409983156463,
          0.0325599772311531,
          -0.034787108665878475,
          -0.029796743765193753,
          0.022169116692343564,
          0.0631715054516477,
          -0.06432179524118747,
          0.012172048261021133,
          0.01681499090895899,
          -0.03969019427110678,
          -0.07026352756829879,
          0.06759739444767078,
          0.03502822962646052,
          -0.06472210605482413,
          -0.013723042644744615,
          -0.06376113425923087
        ],
        [
          -0.06179966918178504,
          -0.025905128238389915,
          0.044516441903150246,
          0.017924622661248717,
          0.00734910526034001,
          0.06418879796053058,
          0.005551823662396956,
          -0.042638882849662205,
          0.0484564003259188,
          -0.03738991339285952,
          -0.037812376465110965,
          -0.040385950201763283,
          0.022608247486325762,
          -0.04638732726838448,
          0.05183806919477179,
          0.014632155282601995,
          0.04905457909423259,
          0.010695653436067539,
          0.07221128111093099,
          0.02743020370911079,
          -0.014206288045153764,
          0.043373387835371806,
          0.040894550279801524,
          -0.05071039221789743,
          -0.06783645418829215,
          0.006164317222673395,
          -0.06321811850910931,
          0.04482130457045466,
          -0.005386094319867442,
          -0.02658184827751588,
          -0.0031275900061396317,
          0.026594687157269717,
          -0.012147112875426224,
          -0.0015226879019798344,
          -0.013463474101942905,
          0.041946302175465154,
          0.06392902593131425,
          0.07651042167576384,
          -0.03938529255265859,
          -0.007087153626903543,
          -0.005300367110881516,
          0.05944422077645863,
          0.03087427358094982,
          -0.05825478284053029,
          -0.07346520835263506,
          -0.07113224178550175,
          0.012578311089063371,
          0.01783520398281875,
          0.055457882669712064,
          0.0008093512351019522,
          -0.04172575612446352,
          -0.02315351393971688,
          0.06316970329436489,
          0.011634456614178359,
          0.07062789209861264,
          -0.0014877354117608704,
          0.030559431902747583,
          -0.060456382439243395,
          0.03090683788582809,
          0.021070747198518015
        ],
        [
          0.0014444553112151497,
          0.02946978719878994,
          0.0022542737172162263,
          0.05843137852804621,
          -0.023527057793954437,
          -0.01961596038443391,
          0.03016573292177114,
          -0.062488132130811995,
          0.03087311052364781,
          -0.03321476498949436,
          0.01479078808359068,
          -0.05106470335928758,
          0.04362618321694379,
          0.06117984687233486,
          -0.05257519072742453,
          0.0576267096545351,
          0.04217673094845693,
          -0.06090007208747178,
          0.06372105173572083,
          0.01843947244468513,
          0.07641205262534063,
          0.02499073627610613,
          -0.0015672962389231568,
          -0.052695187267646784,
          -0.0203282724989714,
          0.013481502687023845,
          -0.0737173497777114,
          0.05415747927472329,
          0.06934213580165845,
          0.029240624252695118,
          -0.00183292442853056,
          0.03284777189643636,
          -0.05002309719022881,
          -0.005992415205860355,
          0.05949273383672951,
          -0.014099220759177588,
          -0.06071271958540512,
          -0.05252858958034769,
          -0.07931083297145193,
          -0.00043270535261821146,
          0.059630374083720135,
          0.06375541174825711,
          -0.05169580000666246,
          -0.053177286164643324,
          -0.07269700181787403,
          0.071140351557404,
          0.02078242751203744,
          -0.07422242110590342,
          0.02975213360474062,
          -0.07605816438902026,
          -0.02068846276430159,
          0.023244634955190704,
          -0.02173655848146936,
          0.05293789762276481,
          0.05915518981701812,
          0.047859841926610115,
          -0.07685703527086915,
          0.02750199298358787,
          0.04410158604595077,
          -0.0045502900851665746
        ],
        [
          -0.006795212430730612,
          -0.05916243044707452,
          -0.07500163551823924,
          0.022582399245302955,
          0.0014526597755529888,
          -0.047870501823134244,
          -0.019062599583172263,
          0.02169237207599441,
          -0.018922073261552125,
          -0.06072967754683028,
          0.0645167733492614,
          -0.013510961542781445,
          -0.051941845618632305,
          0.03243858916219984,
          -0.04065393868173479,
          -0.0758968379998329,
          0.024564161819961024,
          0.05889654382462356,
          0.0672910965299513,
          -0.06692081275965758,
          -0.015176005433797483,
          0.05552731458080013,
          -0.008005903124909031,
          -0.059405263840702084,
          0.005944116729306903,
          0.037692903170609665,
          -0.03519825507316319,
          0.045002087004801024,
          -0.023560010119404257,
          -0.06833766862346503,
          -0.0670296955995948,
          0.0012983655496591993,
          -0.02842684775869636,
          0.005202598021192803,
          -0.009448434838918392,
          0.03978584738332422,
          -0.0023994475700021274,
          -0.02590173912912037,
          -0.034342756024023924,
          -0.04883003539657454,
          -0.03515372645251808,
          -0.021935497558898908,
          0.038147113825161186,
          -0.016224664362577877,
          0.011959396699772293,
          0.06516058480386555,
          0.023766278423385762,
          0.06809902765459025,
          0.020273518114473595,
          -0.031115985798633103,
          0.03318960609383142,
          0.0516685812670762,
          0.053002090228316937,
          -0.04439509555775357,
          -0.029453591487679318,
          -0.057465581718699615,
          0.055233389580426694,
          -0.00503068331101951,
          -0.006431852905514853,
          0.056549712893443425
        ],
        [
          -0.012006009228339809,
          0.06145497800351007,
          0.051079319957611044,
          -0.07549224396742482,
          0.0730304463609187,
          0.05854816092406109,
          -0.05259885235562839,
          -0.06424829957006528,
          0.05302932418873236,
          0.008697680795392803,
          0.017612493014171688,
          -0.07172392426786853,
          -0.0009539504870990955,
          0.040423665547208394,
          0.05569258996669472,
          0.054163715698093584,
          0.02602203168142056,
          -0.0730664212032913,
          0.01765716449956949,
          -0.038160135861117175,
          0.07000542428857032,
          0.07238134945886295,
          -0.017100465057829965,
          -0.02378481598225913,
          0.00124355164195182,
          -0.024747922410638945,
          0.01677234497013161,
          0.018674735862776376,
          0.04278929302891645,
          0.008966788596723013,
          0.01373361086333818,
          -0.0030113409244311804,
          0.0666548305131757,
          0.003704663286630504,
          0.07047786967715405,
          -0.06694668016331239,
          -0.0625091273486445,
          -0.06726410918159052,
          0.06553139171249504,
          0.04305745462472434,
          -0.026423309476096946,
          0.043571968275648465,
          -0.02016866584425086,
          -0.0336144221368264,
          -0.03599562881238324,
          -0.07416895647734653,
          0.020242733574201824,
          0.07478972561014575,
          0.04325177296598296,
          0.056540620125242594,
          0.044567521385650094,
          -0.0011121000788464923,
          0.06081075688138775,
          0.020375954430458813,
          0.023974435336165376,
          -0.006814436683207324,
          -0.03300297577581293,
          -0.038387429482755746,
          -0.04949087659957544,
          -0.05015442819024426
        ],
        [
          0.016086061287539626,
          0.045727834616893205,
          -0.04821718218192357,
          -0.06232027435332408,
          0.032009997787974996,
          0.06545043407934835,
          -0.0137442765519365,
          -0.033576868510201106,
          0.04420336635382194,
          -0.025194015443094207,
          -0.0027371233082856697,
          -0.036809153672622906,
          -0.048801625823475234,
          0.07016789076088513,
          0.02490530020917385,
          0.03482093262058817,
          -0.06270414653905351,
          -0.007040733908892845,
          0.0175597941593253,
          -0.005643016024404827,
          0.04857530583864059,
          -0.032386563119715196,
          -0.0632178637591016,
          0.008397713321112478,
          -0.0021007525209134114,
          -0.04059316173381708,
          -0.07512193066996793,
          0.02179835185667089,
          0.01162263584570042,
          -0.0696414668464333,
          -0.028575341974258716,
          -0.04606513451099571,
          -0.012610227492986993,
          0.026844923157051177,
          0.03650004210353955,
          -0.03131433012616239,
          -0.00439086236201863,
          0.0700055909742883,
          0.004226862504103382,
          0.07220002498395595,
          -0.07270154602351515,
          -0.04096442872758474,
          0.0641188926455346,
          0.023962137594545314,
          -0.035943318842127675,
          0.05970227574667243,
          0.0352077311259052,
          -0.054336170630495735,
          -0.04491439831328831,
          -0.01585482131859328,
          -0.037208998059320694,
          -0.011886688456856526,
          0.04837651029212963,
          0.05523205334393951,
          -0.04905300556387823,
          -0.027718708857341203,
          -0.049722194221545245,
          0.00849976216728186,
          -0.07163144095261603,
          -0.012406216726652689
        ],
        [
          0.009532378072465047,
          0.0744370382841434,
          0.045739489734613885,
          -0.06158338757463234,
          0.04801630968194569,
          0.01632793899823954,
          -0.07087448864209178,
          0.001583639159812563,
          -0.00957322544182287,
          -0.02867562722346257,
          -0.04812933616047614,
          -0.030455884661966134,
          0.05945318208407252,
          0.012645500309371182,
          0.0728326718592297,
          -0.027746612053127086,
          0.015664443183243535,
          0.011270215885276626,
          -0.007990165362098194,
          0.008325389246735015,
          -0.020846770360815958,
          -0.03915624584088582,
          0.06529545157197665,
          0.04867369600211093,
          0.0424232319288674,
          0.0013081625045221524,
          0.011309172350150104,
          -0.04315994751845774,
          -0.022591497675904352,
          0.0743658450891697,
          0.030027043533747872,
          -0.05673409114307498,
          0.0048369750177824945,
          0.022129000071803708,
          0.039223412812333054,
          0.002855485250418344,
          0.07059603692359741,
          0.05137679270056637,
          -0.02551092427259112,
          0.046511783528290676,
          -0.022369822353802808,
          0.06290468906785616,
          -0.05622711861602021,
          0.05164816277499403,
          -0.051648026821121476,
          -0.056259724201791275,
          -0.057069742664636366,
          0.007242924194501545,
          0.019741931540528335,
          0.034551383169596696,
          0.07911056723890193,
          -0.06006960466007645,
          0.028253275504527043,
          0.011504846721881474,
          -0.015730406282806274,
          -0.01983781254902674,
          -0.018093791494400435,
          -0.05582781255416796,
          0.04407418063347351,
          -0.039486391328317785
        ],
        [
          0.06084684366225052,
          -0.011196369245479525,
          -0.037064709931599486,
          0.015525876150805758,
          -0.05282933772648049,
          -0.031125209226090876,
          0.019997272609054255,
          0.03162916885136662,
          -0.00808541919960281,
          0.02719455098150464,
          -0.014778986534363374,
          -0.06884945468340695,
          0.06067345294149452,
          -0.026785373543107782,
          0.07447656097799377,
          -0.06368315063821879,
          -0.006648930647800122,
          0.06670234760865039,
          0.02768070477936367,
          -0.03473281476816153,
          0.05214593750115387,
          -0.009607258463269546,
          0.022739479516606938,
          -0.05784450752399643,
          0.01775043099244005,
          0.007951423583467256,
          -0.06179871701642037,
          0.049537780521708034,
          0.02024512246540681,
          0.021816849820325813,
          -0.06872921709659899,
          -0.008224802045450806,
          -0.009433833246978163,
          0.009450530867208939,
          0.0413528855507208,
          -0.06067739578466802,
          -0.003132719616189383,
          0.03317822071409473,
          -0.05467256678409671,
          0.03252598701449057,
          -0.03247603361651463,
          -0.026428590815378267,
          0.0069405308616304635,
          -0.016744614587357078,
          0.04861830045475544,
          -0.027661725315653463,
          -0.003735111231265134,
          -0.07643037589307694,
          -0.03278901813661127,
          0.046687041071832205,
          -0.04267825893133406,
          0.04960305429347776,
          0.03847229678415813,
          -0.03343352184342588,
          -0.026130292588064378,
          -0.050406921723450876,
          0.06408574870054394,
          0.013060708274875384,
          0.06669041934429785,
          0.014206129128584166
        ],
        [
          -0.03133875127673397,
          -0.055119119527225764,
          -0.022139564821460404,
          -0.07981590601652108,
          -0.04203318380504319,
          0.057023664712826445,
          0.013247892074430766,
          -0.04175393743273355,
          0.07196508460231586,
          -0.05256418405519343,
          -0.019862791359319423,
          0.014279208072674967,
          -0.02531813342504659,
          -0.010126085331837878,
          0.0382829228036972,
          -0.0027145860391923032,
          -0.012562577492669777,
          0.01753631678222347,
          -0.054528110477317614,
          0.049574910377061014,
          0.049843790808371674,
          0.053605273050539866,
          0.0714725510869762,
          -0.07393955549059136,
          0.010166639344364068,
          -0.07477444266993687,
          -0.06419405277021194,
          0.01752636122901317,
          -0.07403801428930745,
          -0.03965398411737515,
          0.037081803197707555,
          -0.0627523475541164,
          0.05844947956021152,
          -0.032881518310285004,
          -0.039520762136849866,
          -0.024004207291760365,
          0.06046867987779911,
          0.022144032485375626,
          -0.03952718741402346,
          -0.02762718973824773,
          -0.05497398572150276,
          -0.007770359450973217,
          -0.019263970662938626,
          -0.011822465207426852,
          0.019087880646747327,
          0.015716637355433282,
          0.032839306060919955,
          0.0689233267011291,
          0.05340601578897443,
          0.057881059719467956,
          0.003381946386541061,
          -0.034201163681905934,
          0.038052577037908555,
          0.05920052854748512,
          -0.06619569681433139,
          -0.024190230932200865,
          -0.05124619184668054,
          -0.023297958943265855,
          0.0006724879639663453,
          0.053186844112435135
        ],
        [
          0.0011929706497032855,
          -0.06935094408918029,
          -0.004904084376881086,
          0.04235648152022233,
          0.012313347746984888,
          -0.004775246760671505,
          0.014703792269589377,
          -0.0697498281135023,
          -0.05525971146405851,
          0.05644575430159881,
          -0.009141818691912608,
          0.07329225880867593,
          0.058633639151695664,
          -0.04913212015943185,
          0.05525407498341383,
          -0.014283248027587889,
          0.037217250981527186,
          -0.053473806673387574,
          -0.018947800031113987,
          -0.05696117929172767,
          -0.06497705051642516,
          -0.047067185216733136,
          -0.06533556149207108,
          0.07287826330166543,
          -0.037749870680695505,
          0.027143124536650277,
          0.00848379287217223,
          -0.06710213360551424,
          -0.009972222335381009,
          -0.04448319293336665,
          0.002036776552720125,
          -0.025976737610886147,
          -0.055837375371355,
          0.039198921037834025,
          0.010276200604664824,
          0.059271086261528313,
          -0.07977935725791786,
          -0.07370254407339133,
          -0.0017048548998009558,
          -0.018622536680711038,
          0.06449309059378483,
          0.04402620002593321,
          0.016444356832720466,
          0.027017303300353738,
          0.019977768896737778,
          -0.05158941389628633,
          -0.02576934532005802,
          0.06644326474236639,
          0.056552192597570036,
          0.0734936812863418,
          -0.049127468991340774,
          0.049289859958429,
          -0.02568704585633172,
          0.07143476587595667,
          0.04453751029083303,
          -0.04284649191253487,
          -0.04783506810732016,
          -0.014873410002047852,
          0.05050745897229955,
          0.014212237813231273
        ],
        [
          0.06995244599928052,
          0.0389528382866524,
          -0.04261057400803765,
          0.043275966546818596,
          -0.07310359964743585,
          0.03795520971108607,
          0.052518193132663094,
          0.07696216732010422,
          -0.026028997035927426,
          0.03008504633225738,
          0.048109118592808496,
          -0.03967302923101456,
          -0.034560238768835565,
          0.03784248910963356,
          0.03212745813855249,
          -0.07323289399573077,
          -0.026912158894177515,
          0.07207878900051179,
          -0.03775013019226442,
          -0.0014352000601171528,
          -0.06875804785709644,
          0.026314643086427218,
          -0.012762149023202772,
          0.0722586546276245,
          -0.010537084360686086,
          0.028755454731377496,
          -0.0358582519042251,
          0.025825292363890088,
          0.07903310497953787,
          -0.05821746205857303,
          -0.041804738238424684,
          0.055488310643256315,
          0.0008008976425946517,
          -0.0032131716834338446,
          -0.009513708773399215,
          0.06418580111287797,
          -0.06643566142509835,
          0.06026809946988329,
          -0.025310121907621136,
          -0.06665463412605242,
          -0.0730342665334767,
          0.062270460503287814,
          -0.04993596421028198,
          0.0658031185254843,
          0.02379984150416638,
          -0.07172557208752096,
          -0.04631161090036744,
          -0.07532459201880388,
          -0.07498373934505796,
          -0.03564787631897686,
          0.06588301970266967,
          0.06388277942911293,
          0.0662812672762432,
          -0.07522947115400576,
          0.048961353754651174,
          -0.06152680630756974,
          -0.06407453335350026,
          0.07459930843914281,
          -0.07123479069901913,
          0.023138970851446995
        ],
        [
          -0.07335752288745404,
          -0.05888093763273102,
          0.061179017737924085,
          -0.032340975955483416,
          -0.007898308700339295,
          -0.03205216887212302,
          -0.0800225284872684,
          -0.023538368423707115,
          -0.06970529791784866,
          0.023415758631878246,
          -0.017628361508836392,
          -0.057185106123810614,
          -0.041828441605960845,
          0.03022846078682922,
          0.03686285080749078,
          -0.07013566405235086,
          0.010717701469137851,
          0.006929136138824964,
          0.06933756077879852,
          -0.07988922276607618,
          0.013607179137915724,
          0.05914836665757381,
          0.037047130205737244,
          -0.04396238644927882,
          -0.04053328370072021,
          -0.0767650521097307,
          -0.04613169991427218,
          0.011980572944835762,
          0.02785755378520814,
          -0.04070552730310455,
          -0.0739635751244168,
          -0.027134859601743905,
          -0.06444303778556318,
          0.06548767275710043,
          0.044644476693313555,
          0.045324721467513714,
          0.01797960290196794,
          -0.07552907235796649,
          -0.04288994016277419,
          0.01591090587389054,
          0.07229883404459557,
          0.07271783563400834,
          0.014101535831414927,
          -0.03373060838038097,
          -0.022718236257487427,
          -0.06450405857128298,
          0.06878716848752152,
          -0.0799627080507097,
          0.06154872867359437,
          -0.03208869787619783,
          -0.0003487426244769418,
          0.03869904475543801,
          -0.03918667533057662,
          0.024649010553803766,
          0.012285007339346558,
          -0.023388893959301455,
          -0.07230828108135802,
          -0.04191738469380941,
          0.010024654232165994,
          0.06438932163153263
        ],
        [
          0.018642248322513377,
          0.027970376594021185,
          0.018503327120374922,
          0.01929433568629903,
          -0.026413758487462375,
          -0.004338976329939516,
          0.013763586931585832,
          -0.05434770293837015,
          0.06967593769708325,
          0.026901644993206613,
          0.04342464522586064,
          -0.05739544546433691,
          -0.011262105683956464,
          -0.06479187377705618,
          0.010775695144884608,
          -0.023468393199774285,
          0.002271907978318773,
          -0.04255806693333226,
          0.02347250429183943,
          0.06256688577509516,
          -0.0017881689196224753,
          -0.07759614125112631,
          -0.004811763212607124,
          -0.0656182687878523,
          -0.06818432635129057,
          0.07640525035939871,
          0.02619865799813894,
          0.017490289480611074,
          0.04907878792090062,
          -0.04288409002689107,
          -0.023430410655207817,
          -0.04354134963369091,
          -0.007896120926610883,
          0.01712635248199391,
          0.048741642108475244,
          0.04576525810278817,
          0.0008648331827426076,
          -0.05295626054476653,
          -0.019004232079045086,
          -0.01410619752990689,
          0.016554451089391693,
          -0.011240005834458573,
          -0.05108099260536324,
          0.0692504685292092,
          -0.059051187801130264,
          0.042390124595423795,
          -0.037927943871412365,
          -0.05935626011646328,
          -0.05190750078268499,
          -0.00019774490691661995,
          -0.04059604726087753,
          -0.012312895953079588,
          0.025996137322096727,
          0.042497013490024174,
          0.06219551419579788,
          0.05378895060738554,
          -0.027461190663671305,
          -0.06332041709094184,
          0.016091180578132046,
          -0.04445541360856273
        ],
        [
          -0.06313576972275864,
          -0.053832901530273286,
          0.06113007991330066,
          -0.07579060002271147,
          0.06049264566342705,
          -0.01506548864909283,
          -0.026177993581671197,
          0.01893879211990997,
          0.04198940318666245,
          -0.021713175499763638,
          -0.057908432534597966,
          -0.057591656597840504,
          0.06960580597939955,
          -0.030385706754066353,
          0.054803681012542876,
          -0.05656879036182954,
          0.06768273495876409,
          0.02149748707009031,
          0.019979743554483707,
          -0.03692349246903638,
          0.07039751912442262,
          0.0708372999273919,
          -0.03939241183891495,
          0.06660703129013544,
          -0.02661879281781606,
          0.024192966753692965,
          0.00027038588090267323,
          -0.05858138550512566,
          0.07302454385905754,
          0.07503496507545025,
          -0.02920353399658482,
          -0.059206679385990425,
          -0.07161639465992209,
          -0.007658436413815636,
          -0.06763262982661791,
          0.03181633963357459,
          -0.025921200938288525,
          0.009881187941035319,
          0.06396937127584482,
          0.06799212777028936,
          0.043332328248294034,
          -0.020045991130209443,
          0.020354175950312837,
          -0.037004360111360976,
          -0.016830347105215953,
          0.07609410130019924,
          0.04223149680762231,
          -0.034377984791782314,
          0.06643129456654832,
          0.05778377867088444,
          -0.030361903680360378,
          -0.05987978214824135,
          -0.07565640759974691,
          0.016086107210721685,
          0.04265249263910594,
          -0.001072989997943629,
          -0.031192565427156944,
          -0.023101042717845292,
          -0.07167573063395367,
          -0.06696664654743653
        ],
        [
          -0.014977579291154588,
          0.030863108391706178,
          -0.035521411957793396,
          -0.0066212512802670594,
          0.04167811575401812,
          -0.07725817614699537,
          -0.05709123822233978,
          0.05288963757560014,
          0.004535712119929002,
          0.07651875875012741,
          -0.07246461755554102,
          0.02597025182594243,
          -0.05893941383106711,
          0.03476805227322679,
          -0.006605872484743204,
          0.0731672519756563,
          0.04957833167144816,
          -0.02787077175042831,
          0.019796923856187334,
          -0.05450907734761016,
          0.02964300944458668,
          0.04253251893488349,
          -0.06413165182063081,
          -0.04749848976292116,
          0.023092358921917976,
          -0.06486721214309617,
          0.02326194324193849,
          -0.009380658570565073,
          -0.023680263516349723,
          0.04800658046705544,
          -0.07675967629850962,
          -0.06745831486189391,
          -0.07389490339982946,
          0.06694878928549652,
          -0.02709935429428448,
          -0.0728750066222976,
          0.07126242228902142,
          -0.0707972743463364,
          0.04040343751423931,
          0.02392501527523121,
          -0.07253331576089936,
          -0.014287250569104976,
          0.05498539666466308,
          0.0699919286856958,
          0.053970297144323026,
          0.0203290284891985,
          0.022109943524821155,
          0.015834394616387935,
          -0.0538486063629008,
          -0.02456234352139909,
          0.03230843437961119,
          0.01788922981687204,
          0.07401634953455728,
          -0.0007104221453369862,
          0.028568791132501936,
          -0.05146815823118806,
          0.07413797482241756,
          -0.02338403008507227,
          0.003540858669140481,
          0.0713498304366197
        ],
        [
          0.023671174469227597,
          -0.003200833886333158,
          -0.05832736169552357,
          0.0011197139469827145,
          0.022371216729637915,
          0.03220066013185242,
          0.041260904499395595,
          0.03513678597757172,
          0.02014204889906453,
          0.05242069016732654,
          -0.03637411382533246,
          -0.010800242318610065,
          -0.03267115359911389,
          -0.0004270751828562712,
          -0.057357310362886695,
          -0.08057281275699066,
          -0.06940374445631686,
          0.03725029318658807,
          -0.0035072566776677104,
          0.06977966156105632,
          -0.06801460693893935,
          0.004945613535510152,
          0.030181836824399386,
          -0.01707483810375303,
          0.03427031991630054,
          -0.06704037779947518,
          0.04404875173236281,
          0.029988330793641705,
          -0.050656058390365626,
          -0.050345426430942676,
          0.013061853678545067,
          0.03357849546010758,
          0.054872673369168214,
          0.05827602096039159,
          0.0043993895754113775,
          0.01880320753738996,
          -0.07863150096392982,
          0.014235834287455652,
          0.01919745618242717,
          0.04251196555713072,
          0.03857239570573474,
          -0.05476784043411462,
          0.06573003026613286,
          -0.02455063579998468,
          0.03288861328930853,
          0.006761811017589662,
          -0.046021715529841425,
          0.05810018724668715,
          -0.04958273678774635,
          0.004538112249058845,
          0.051077068910388636,
          -0.012150757224145523,
          -0.024994152587514806,
          -0.05348634104589421,
          0.013567614933667555,
          -0.031812135137286875,
          0.07363105005335976,
          0.018710060459453993,
          0.05111086442126386,
          0.022532930482499807
        ],
        [
          -0.07403475235935823,
          -0.0032855718525318426,
          -0.04345285504806306,
          -0.06749319394642996,
          0.070635792336282,
          0.016314590299018956,
          -0.06448643960822616,
          0.06896002268022373,
          0.05129997558469496,
          -0.02212179644209264,
          0.057610002690695265,
          -0.006284062195571189,
          0.046926895951279975,
          0.045796227792397524,
          -0.031433630018400625,
          -0.011982144133844224,
          0.07370500306347205,
          0.0673442139432704,
          0.06507011671960097,
          -0.006329570466188933,
          0.05935156484502327,
          0.05879373103407462,
          -0.005279984197280274,
          -0.028881493825692706,
          -0.06630338086958541,
          -0.012107466652357624,
          0.06299716416696359,
          0.04909903930675925,
          0.013186612283451615,
          -0.06650144086189205,
          0.054606187851874856,
          -0.013003169713511144,
          -0.07660858167123548,
          0.023069716599973453,
          0.002971705517695467,
          0.03663056936438959,
          -0.05476906699608167,
          -0.04091232587827011,
          0.026828534349457537,
          -0.027850037521447633,
          0.0021961515739453235,
          -0.005800149365761434,
          0.00984844163331198,
          0.04761513018748313,
          0.021110917188773014,
          0.06540708206265414,
          -0.010154139916954718,
          -0.05763320386064904,
          0.06421112276002688,
          0.03950325664241239,
          0.03588533039869605,
          -0.07201345355742268,
          0.012717989463434188,
          -0.0654386107641787,
          -0.051965126224238004,
          0.03715253176250474,
          -0.006628319338125802,
          0.02914183032643877,
          -0.07454150152327622,
          -0.06163226892039922
        ],
        [
          0.009851048672602442,
          -0.044224666891707724,
          0.04486991839926647,
          -0.05268188812962872,
          0.0326656335441993,
          -0.06671375738697921,
          0.034652486119621385,
          0.00782063322703015,
          -0.051258673752401736,
          -0.049837337386520957,
          -0.025016780962861782,
          -0.028004735823806023,
          -0.060633689988324586,
          -0.0056361080032689,
          -0.05648748180621238,
          -0.026213923171838675,
          -0.018939853183045075,
          0.04675789159131529,
          0.019861067884297794,
          -0.027033970772752526,
          0.04343373084995891,
          0.024462311868802156,
          -0.005873047284416326,
          -0.04354347968965409,
          -0.07466719175421274,
          0.0015323504294433897,
          -0.006789742897684674,
          0.02094624351625038,
          -0.04972432841494388,
          -0.022179053233447796,
          0.05540900538615151,
          0.009527277231844416,
          -0.0602998955757447,
          -0.039993902825282555,
          0.03792985978815232,
          -0.016199848026659625,
          -0.005963178511102164,
          0.0164293422574046,
          0.0646835203541327,
          -0.07535348795582728,
          0.024002093642634573,
          -0.04069856651038489,
          0.040320824152219194,
          -0.020580072639506366,
          -0.008560243358843356,
          0.07264941926993698,
          -0.05107029287113961,
          -0.07207885607305091,
          0.010963288707460977,
          -0.02967898478866842,
          -0.07478225661353625,
          -0.02214628997259831,
          0.011684557256297762,
          0.03557943981651124,
          0.06885287871866635,
          -0.03878548188947946,
          0.014633999052007553,
          0.06475536369366691,
          -0.01844207240931199,
          0.011904600337550673
        ],
        [
          0.03743066459642679,
          -0.016620644356953145,
          -0.050957835126489194,
          -0.03939393904695852,
          -0.00597537395217623,
          -0.03898637015456237,
          0.02359369682358659,
          -0.01676308499636658,
          -0.06341038174259253,
          0.06513784439100397,
          0.051540827263942025,
          -0.06255870584266557,
          -0.0748591920157101,
          -0.050159192822532374,
          -0.013217385982050522,
          0.013487294803289394,
          -0.02048013327936313,
          0.01910849368290236,
          0.03511677721861602,
          0.03800062929114344,
          -0.05890100418843435,
          0.06953515087797851,
          0.05932906014935038,
          0.05868812591452677,
          -0.014626605371036756,
          -0.06648851910448197,
          -0.04726560578304332,
          -0.07094182872416216,
          -0.014093420159612988,
          -0.05380720115475579,
          0.023233587100197718,
          -0.024882984648746817,
          0.002215888766113179,
          -0.059664311563391574,
          -0.022881843516034627,
          -0.052992779077527585,
          0.04503108689228892,
          -0.06134128460248131,
          0.03976715245252393,
          -0.022107675388773652,
          -0.0452838163568422,
          0.07410595321228461,
          -0.07823273381665402,
          -0.0763051366555848,
          -0.003044938784676041,
          0.06844341020681204,
          0.03527139521046717,
          -0.009447173823389983,
          0.03231156363689875,
          -0.07553903342203995,
          -0.03662310060900027,
          -0.07422227359977825,
          0.007468974695596092,
          0.01215170571452927,
          0.04326855253198519,
          -0.04855855667941616,
          0.03211874578218655,
          0.03543934580972091,
          0.04332217828024114,
          0.013879853359375966
        ],
        [
          0.024953381631349348,
          0.07371467083511432,
          -0.06171244338293613,
          -0.07816084157610652,
          0.06969302560211749,
          0.06761381216446773,
          -0.0633645794800637,
          0.07023023530457335,
          0.014423956731459653,
          0.004850170454288627,
          0.023603321644590884,
          0.0009717333983674739,
          -0.01398722701220625,
          -0.010366301781164211,
          -0.05582846301738261,
          -0.06578155106938244,
          0.0664291305362306,
          -0.0653774472171239,
          7.30711589852698e-05,
          -0.060730536119338756,
          -0.001898913364737429,
          -0.01149138176116153,
          0.02746642975156704,
          -0.04096915110788909,
          -0.07160172917952677,
          0.04130226768430115,
          0.019778573121803034,
          0.04382490014708008,
          0.059058485296704655,
          0.0017253520935022935,
          -0.051222181713182616,
          -0.005164359509249103,
          0.04833577066082536,
          -0.045402079142962,
          -0.02900154599722092,
          -0.05126447055398371,
          0.043221267045750696,
          0.020781285990651037,
          -0.02345217619632656,
          0.06997764316857943,
          0.01083437646184144,
          -0.04273556052749061,
          0.0077972039112721245,
          -0.03222316136260259,
          0.03442346509679715,
          -0.07610386776639069,
          -0.00921781165127604,
          -0.005636140609956553,
          0.07222667940191091,
          -0.06667720855390835,
          -0.051254784477112965,
          -0.007001110514519387,
          -0.03429386936643662,
          0.06706815336431414,
          -0.06854918864852949,
          -0.005039422301285918,
          -0.036869446124317196,
          0.04002799935799625,
          -0.05030670516874495,
          -0.0051574763737821366
        ],
        [
          -0.041230800878550376,
          -0.010148271064917381,
          -0.06949810217092178,
          0.004767992026313113,
          0.04226786420482717,
          -0.030249176688087066,
          0.033688166959463285,
          -0.017547673648504052,
          0.041200844456558555,
          0.03100862051224349,
          0.01512007096005907,
          0.04028970376405952,
          0.06949909240861771,
          0.06330572459926279,
          -0.0031038250171336688,
          -0.03381848132223968,
          0.036416656830039036,
          -0.03566053806384363,
          0.06337583752081774,
          -0.002993652710161056,
          0.05345150056015452,
          -0.07406815735491554,
          -0.016720045541574077,
          -0.016464356707347454,
          0.018893169730869203,
          -0.07154761085726076,
          -0.06256012513321776,
          0.06030582583705471,
          0.024225964887734715,
          -0.05029732461141655,
          -0.04744050560593803,
          0.04009029661620571,
          -0.05065345118858258,
          -0.0113386528503907,
          -0.04963522020583792,
          -0.06748789958724445,
          0.06639028070592792,
          0.07681550012556704,
          -0.03984387710020126,
          0.042741989772409755,
          -0.034802016009118315,
          -0.041438888351566935,
          0.06968381968363623,
          0.045294277191790966,
          0.00930282693595641,
          -0.030779369895688448,
          0.023426465559015335,
          -0.044075629761267734,
          0.029393537365615733,
          -0.05610819135354198,
          0.05312126641919277,
          -0.07784275796359887,
          0.0006297608737763357,
          0.07172817370721456,
          -0.011073187569494053,
          -0.011815231376487339,
          -0.07655795432440676,
          0.009503107171029602,
          0.012111161590706855,
          0.009157606804212754
        ],
        [
          0.04313296812170115,
          0.03907623159409688,
          0.024781452434443352,
          0.03510687693827639,
          -0.06326396208594476,
          -0.05902812301053632,
          0.0406040018478598,
          -0.0648931725574936,
          -0.008972330395561983,
          0.010360158454373906,
          0.06576646670505812,
          -0.02960261639220636,
          -0.008138527478837856,
          -0.048789272901653996,
          -0.0634987218260033,
          0.06819397951873579,
          0.0426316539184343,
          0.06249466789515422,
          0.05307048819304949,
          0.035945315318951135,
          0.01410633351224444,
          -0.030963349377008797,
          -0.006874595381399667,
          -0.06606260796621992,
          0.004344631927171783,
          0.006291876814231319,
          -0.04562816484968814,
          -0.05624064280233863,
          -0.03959908324674324,
          -0.02652743945403509,
          0.03529695307017219,
          0.0002438788473095061,
          -0.017855242814446497,
          -0.008690380492843866,
          -0.0088966294374067,
          0.00012293438337921263,
          -0.07180245082786554,
          0.0030012724343110517,
          -0.03974925125410398,
          -0.004199448165832155,
          0.044377189548235045,
          -0.07291076164894578,
          -0.07648558603117554,
          0.011286220648557478,
          -0.01245985496684093,
          0.027341833594124922,
          0.07193356147229797,
          0.06827465752982192,
          0.03779293207237335,
          0.06003636123302432,
          0.055831519728332245,
          -0.0266972071685688,
          0.07437162926302919,
          0.0468568238779388,
          0.017164782404238414,
          -0.005098355972833368,
          -0.01422683677240471,
          0.03984191040630765,
          -0.05958101977204831,
          0.04149550287672183
        ],
        [
          -0.04189653418892954,
          0.01695985423034096,
          -0.010646351679767045,
          -0.07775072809461178,
          -0.04125437752245981,
          0.053531498079308674,
          -0.058576229658610424,
          0.01728240509262644,
          -0.07575258838968921,
          0.015134519057972404,
          -0.03495913078918454,
          -0.02157264107270844,
          0.004012390647595627,
          -0.04032057261351815,
          0.032672656418652725,
          -0.0002650583380787711,
          -0.014278275448548367,
          -0.0013949261065627006,
          0.033427211898516634,
          0.01888418188266075,
          -0.06570667262316227,
          -0.010933124124085866,
          0.00887564754575791,
          -0.024058057603069324,
          0.015267260031459598,
          0.005650375771111734,
          0.018012446192100514,
          -0.01434995646226558,
          -0.027972454237560243,
          0.021521785252998752,
          -0.025481421588528425,
          -0.05088392185534668,
          0.07259693867600259,
          -0.07271307830802776,
          -0.053955733099090845,
          -0.0017418616558960986,
          0.009452661825494073,
          0.030538676935623496,
          0.016254165423281862,
          -0.03427827717327579,
          -0.03274021723911196,
          -0.0036797538741261465,
          -0.07687574609178922,
          0.028305092322722786,
          -0.0353878351816737,
          -0.012823845510810828,
          -0.034097837452673294,
          -0.058438540780919174,
          0.023029548255243705,
          0.02570743346601406,
          -0.030272380973465317,
          -0.002579130237923296,
          0.014312064791152355,
          -0.05442590183244521,
          0.0036287933480165465,
          0.073549142040558,
          -0.01604106380045596,
          -0.05598533152814844,
          0.004816494969029367,
          0.04075681570797371
        ],
        [
          0.07386309934973675,
          -0.05931659612808764,
          -0.03265324501153775,
          -0.03241957872363552,
          0.03264981259380312,
          0.017214306834279724,
          -0.05514256493060419,
          0.016616156685728828,
          -0.04065786831757495,
          -0.05444305235983562,
          0.01655823082581826,
          -0.0056853032639282,
          -0.0357043143567821,
          -0.028126168838500314,
          -0.021669007962135414,
          -0.05508626028096383,
          -0.057617645112774285,
          0.07075927565664164,
          0.05350628898593003,
          0.037863369186367235,
          -0.035944325902196636,
          -0.04195308792574367,
          0.06538824246913778,
          0.02686546857131511,
          -0.07323596011698186,
          -0.01743174479011866,
          0.024310720529838924,
          -0.032803195669504875,
          0.027217918779432537,
          0.07311947664466527,
          -0.07294137463690088,
          -0.049009342279419235,
          -0.04512465268079742,
          -0.06722221480154532,
          0.05374106524473569,
          -0.06306105717183982,
          -0.035128118097380596,
          -0.07660736069298363,
          0.049340803036968146,
          -0.06743423711351158,
          -0.03796311038134235,
          -0.06037170126379455,
          -0.05954126019201115,
          0.03872673930890109,
          -0.021330965490797504,
          -0.0504639654552154,
          -0.05994952880105667,
          -0.02628534365253005,
          -0.03361805042420813,
          0.029156602698706346,
          0.07051468363161102,
          -0.013278875621857126,
          -0.026673047161277164,
          -0.01765893125173659,
          -0.02764858169232422,
          -0.025686915448950076,
          -0.05825294068678815,
          0.054521842031069856,
          0.052571256865357255,
          -0.023016436434953297
        ],
        [
          0.025375280217109046,
          -0.07049312880693841,
          0.040527215596261726,
          0.052869287343135875,
          0.031997552022671044,
          -0.026629055939229093,
          -0.05043153674696095,
          -0.05264540972995428,
          0.02231241094831147,
          -0.0032928361399800097,
          -0.046836297504181335,
          0.04518399651801668,
          -0.05847486402728801,
          0.04824179842036255,
          0.06531760074624325,
          0.0453797470795451,
          0.050265248954497015,
          -0.03810118849298802,
          0.03743807982905216,
          0.026906366240207532,
          0.05740680077678813,
          -0.07147498525073116,
          0.03340201621083422,
          -0.026968678449815615,
          0.0637172052918645,
          -0.03332059250383322,
          0.06288775326707031,
          -0.020578998880027323,
          0.04820328976531094,
          -0.02342439816036842,
          -0.05710827481484368,
          -0.050354863748307645,
          0.07308912989581315,
          0.07380098632453297,
          -0.017926532569506083,
          -0.010732444276436822,
          -0.011708672134533691,
          -0.03977891409680355,
          -0.016538585308841676,
          -0.02283075509897284,
          -0.0594796480401504,
          0.024934936700806078,
          0.04935872811412671,
          -0.016560059859827895,
          -0.011782636463779902,
          -0.060756295457047124,
          0.033998729309224936,
          -0.02620787773116313,
          0.056319660991111055,
          0.05645863222289665,
          0.02166234075501585,
          0.054271177306333636,
          -0.04404642827538267,
          0.0012908517895186735,
          -0.07076779709717841,
          0.008300398348514223,
          -0.017427756134607356,
          -0.07332050406143517,
          0.06608283809472598,
          -0.04764594133615505
        ],
        [
          -0.020335440199553072,
          0.054086271121692474,
          -0.03380230528256079,
          0.06310989156605604,
          0.017508315961046822,
          -0.0038458108733443446,
          0.01798290484860528,
          -0.05441533698407704,
          0.061496523626639786,
          -0.0013473236278380286,
          0.046375231639459814,
          0.002134807007122848,
          -0.06341005103589385,
          0.06059631796249696,
          -0.04801116278555213,
          0.05156204490878613,
          -0.05148415877185949,
          -0.07473863236547111,
          0.06083319641763748,
          0.026837277309918774,
          -0.058948918781752575,
          -0.014751071444812955,
          0.06475307588258787,
          -0.017038534899098505,
          -0.04929278665501547,
          0.044127791356768684,
          -0.06959605889746918,
          -0.058258461091191246,
          0.016012134691401184,
          0.07184846676920457,
          0.004351117354267235,
          -0.07141977794120437,
          -0.07237823849723712,
          -0.058235624480689814,
          0.03237187943768351,
          0.010343803269826063,
          -0.0027817739272328382,
          0.007543825043463156,
          0.013497677306874673,
          0.0590547678627159,
          -0.04440280912161617,
          -0.0438454367722534,
          0.01922895105412039,
          0.01609572290419189,
          0.018525080019500983,
          0.016235877394562236,
          0.0071740674255671225,
          0.0454814560675687,
          -0.008328289387297107,
          -0.010573593184948908,
          -0.0413496302773303,
          -0.04874504119584423,
          -0.012569534086650524,
          -0.07455221432049111,
          0.04857599326514171,
          -0.04995248972128169,
          -0.015469987377259657,
          0.04911199456262464,
          -0.02555539781286756,
          -0.07067184331660323
        ],
        [
          0.039171228926675815,
          -0.0759307498691456,
          -0.05989677529196422,
          -0.0706073747555947,
          0.011994514736759646,
          -0.029062348778956783,
          0.0583027802164891,
          0.002485987744814437,
          -0.05379233097145707,
          0.0517686168370413,
          0.0429182295378463,
          0.06884655017224663,
          -0.013983932947433686,
          0.06152617742504342,
          -0.026669600542720044,
          -0.012111469004657878,
          0.006656089545314684,
          0.014228288198127343,
          -0.07500722982656036,
          -0.05568429891140007,
          -0.03872620389633941,
          -0.03340736503215101,
          -0.02661277993007115,
          -0.033512156691444965,
          -0.04967015231348273,
          -0.07461991262782876,
          0.047787271864409064,
          0.038697010850266896,
          -0.01236814688263016,
          -0.021730208602389042,
          -0.029426822648836972,
          0.00305451474404466,
          0.03214681622627722,
          -0.03138642818793892,
          0.0416139795146997,
          0.03615995533399523,
          0.0428138656354892,
          -0.009023590208357055,
          -0.017021835544376536,
          -0.026604162835967792,
          0.06323601504316136,
          0.05561908249547531,
          -0.02034076287037139,
          0.018220513273407,
          0.071498765009302,
          0.06837719482422833,
          0.034816674132890205,
          -0.061578811690875736,
          0.013506873334952691,
          -0.03935846959165013,
          0.06021404637599403,
          0.03578508622752412,
          -0.07369501641619428,
          0.00890002578581178,
          -0.009293193156523482,
          -0.07128436415296913,
          -0.061200790295336156,
          0.056982257534354194,
          -0.07035943450977253,
          0.006494655280843836
        ],
        [
          0.07663346414877747,
          -0.04138533249519081,
          0.014893639827555896,
          0.01372293028515956,
          0.04126711572304983,
          -0.07316754307426253,
          0.02034775102609818,
          0.023529580522919247,
          -0.05003356583158591,
          -0.052638085584158466,
          0.03766382792818324,
          -0.06309532714417959,
          -0.02883221683249158,
          0.01281926533940369,
          -0.062359794171507985,
          -0.03328199602250153,
          -0.020812487853697364,
          -0.014044793345564851,
          -0.0712381738727046,
          0.0694277239611392,
          0.0255587387838583,
          -0.0018780455393108554,
          -0.01784786801580764,
          0.05209626351109675,
          0.06312077251702936,
          0.011520392396701315,
          -0.0210640263304047,
          -0.055122296504048734,
          0.0014229884011472452,
          -0.04111362475514813,
          0.012794342138730097,
          0.0032142413869668805,
          0.05482491944971725,
          0.03065761656507523,
          0.06688415417682092,
          -0.06154933108034752,
          0.06522500673831676,
          0.037144715354603335,
          -0.053828852536687705,
          -0.038410847901464526,
          0.00915946469043797,
          0.019022478413136222,
          0.052924399920651524,
          0.07241208600401487,
          -0.04336154777216813,
          0.040571444137827005,
          -0.0077186227209017876,
          0.05341691296732862,
          -0.06515153346569645,
          0.004000452972891458,
          -0.07105703089354001,
          0.02368537621514048,
          0.01716762216516533,
          -0.024355061160059144,
          -0.03692701414503126,
          -0.026465784489634755,
          -0.0695707819786057,
          0.023742880886813193,
          -0.007899775413000987,
          -0.0715414907682228
        ],
        [
          0.0174157280031364,
          0.05872923709678864,
          -0.051189836310247185,
          -0.03542156007320439,
          -0.04871511862028448,
          0.04004564312469715,
          -0.07873831113648844,
          -0.03619735519958543,
          -0.05323455607305687,
          0.033413308980264345,
          -0.05233155425073927,
          0.04996221539277189,
          0.01618166567390122,
          -0.026514975384545315,
          -0.03720223867460147,
          0.039200989435634985,
          0.013553411149093031,
          0.02414966289202301,
          -0.051403010763424,
          0.06634250318724952,
          -0.010840426316038829,
          0.0015377493611043588,
          -0.05446412085714546,
          -0.01655368071366468,
          0.07030885434616388,
          -0.03203138933672336,
          -0.07058615046281673,
          0.030948262320718435,
          0.01315549490851986,
          0.014481547786992425,
          0.015684758515054933,
          0.07493077913004477,
          0.04295922935773069,
          -0.04788287106936951,
          -0.00882088648049124,
          -0.07068083526180861,
          0.003801705428815604,
          -0.01646119361503684,
          0.029317899835824945,
          -0.05356601092875332,
          -0.05892213312404217,
          0.02591047255896441,
          0.045396781370512174,
          0.07564426256668337,
          -0.05581342958663931,
          -0.05892648656279386,
          0.07167537728938073,
          -0.06373262528504138,
          0.03467155279361383,
          0.07104849863745669,
          -0.0367302453658517,
          0.0031841642804570545,
          0.04005081651739937,
          -0.04098220436606973,
          -0.013306318072957018,
          -0.018105819185513208,
          -0.005193374771664023,
          0.043883398237666536,
          -0.06083503905404569,
          0.040736133283238565
        ],
        [
          0.07151576543990958,
          0.03520786567312227,
          0.035104713909178645,
          0.019559332301661066,
          0.01484285878618247,
          0.05382133568852417,
          -0.023170344519038294,
          -0.06614763726230245,
          0.06653167873966183,
          0.031206971091154726,
          0.058083272254515,
          -0.07264558685824704,
          -0.07428591495743907,
          -0.07638391057959805,
          -0.028165310352387663,
          0.05764998898552121,
          0.016701178178692835,
          -0.024201935862398865,
          -0.060319435394389984,
          -0.027445319479957767,
          -0.066877883486566,
          -0.05584015809850936,
          -0.06427361673052577,
          -0.030384623404254026,
          0.0764006399855987,
          0.04081894279917715,
          0.007105321197015004,
          0.04472934816079149,
          -0.06959583145526109,
          -0.06096124774991708,
          0.02740153935907102,
          -0.01240538935371092,
          -0.04172547864275745,
          0.016106856651817963,
          -0.01249964715418333,
          0.010414673100656502,
          -0.05388908439409575,
          -0.01290051550178363,
          -0.060252828721240465,
          0.059348427804065754,
          -0.04962362237820897,
          0.06035220869669497,
          0.03709395545918377,
          -0.009072427907038256,
          0.03880342193626926,
          0.030902788395650194,
          0.006957130640215063,
          -0.02069898376651964,
          -0.0004334885824891632,
          0.05833511798491787,
          -0.01720332470049474,
          0.042257699707206636,
          -0.001311780417623343,
          0.0660770241379479,
          -0.013563556147170431,
          0.010915578744124622,
          -0.0407858406494667,
          -0.07425543704108892,
          0.006801648631306714,
          0.06924016180087926
        ],
        [
          0.07326081725886727,
          0.014173254929438607,
          -0.028857227061861203,
          0.0163218776066748,
          -0.04023447867998684,
          0.005476412177420279,
          -0.0019492992959640452,
          0.03708289371037555,
          0.05519102860676033,
          -0.03733228605820001,
          -0.06289732727038007,
          -0.004032066933990195,
          -0.06168302868565342,
          0.027075400608955635,
          0.0051689980099220816,
          0.06632444304038873,
          0.05026002415524025,
          0.06781805799668145,
          0.0319729268327435,
          -0.003905588095568081,
          -0.047569355312031006,
          0.022773471182628152,
          0.07419461733670486,
          0.052975912569049315,
          -0.053293585702955976,
          -0.0489721938371824,
          0.05113608925735921,
          0.045592660801698895,
          -0.0179348748734962,
          -0.0471148796523745,
          0.06848301069687343,
          0.06626915261226253,
          0.028595202266226888,
          -0.0339535544405457,
          0.06982160483843379,
          -0.06345158237195396,
          -0.04001313688518045,
          0.04419539912691921,
          -0.049272966838044004,
          -0.009290516523133027,
          0.07667611529522722,
          -0.04515720019642823,
          0.01994957217919155,
          -0.01519720701260141,
          -0.02510035785995815,
          0.04892236890673061,
          -0.05505380665650492,
          -0.011056547382826883,
          -0.07322356047876583,
          0.020118155024364242,
          -0.05269648062233623,
          0.04665928276354782,
          -0.05366431724416172,
          0.05485768176953775,
          -0.033513504992106556,
          -0.05328716053750694,
