{
  "layers": [
    {
      "activation": 3,
      "biases": [
        0.33493061495710186,
        -0.03327647887314986,
        0.03129084842174834,
        -0.04436441151156499,
        0.22879775782378703,
        0.13820758465592903,
        0.1503923404610451,
        0.2879256916136219,
        0.11635036419614396,
        0.0793679187349838
      ],
      "cols": 10,
      "rows": 42,
      "weights": [
        [
          0.23630191769844636,
          0.09543175208594243,
          -0.09789463708265235,
          -0.49214482223999134,
          -0.24046714517056805,
          -0.14963225040310205,
          0.2942402410983079,
          0.14626601847729978,
          0.3118227407645333,
          0.07397865541412725
        ],
        [
          -0.23034150702582631,
          -1.185936363692234,
          0.4962200105708486,
          -0.7771041120053463,
          0.1465862574093215,
          -0.02356544843130296,
          -0.2365752277332992,
          0.22621692926995565,
          -0.0005043674283959217,
          -0.18222980443526554
        ],
        [
          -0.4696015701589489,
          -0.2225936097027397,
          0.28965694918592677,
          -0.14295268712067022,
          -0.06783739941149972,
          0.43962733115166197,
          0.01837414271759278,
          -0.018036541747290635,
          -0.0981615760934043,
          0.4136732293609488
        ],
        [
          0.08742577318408463,
          0.5769978082805246,
          0.1833211734689745,
          0.19600043461480493,
          0.04317271462461307,
          -0.3658455121202639,
          -0.32748317837459046,
          -0.1190766449531091,
          0.37551029173257816,
          0.0796592972743375
        ],
        [
          -0.5427564747277946,
          0.6403669791990344,
          0.5735263800808049,
          -0.06614876726905082,
          -0.14868868400522367,
          0.3717876645857966,
          -0.06870822933902879,
          -0.35215227992234033,
          0.22329653210224376,
          0.14122191170551707
        ],
        [
          -0.24450305479482337,
          0.7328204714008166,
          0.5600291091530317,
          -0.042469218480700587,
          0.3246808415037806,
          -0.6955008649048695,
          -0.29393902041172215,
          -0.34982033444170413,
          -0.12290597006759874,
          -0.14260840007984854
        ],
        [
          0.024629093058936003,
          0.7089400039440554,
          0.28945402870108106,
          0.19985753052912766,
          0.24338855029030806,
          0.3081583105548071,
          0.11626770802407164,
          0.2392768038560041,
          -0.19731529799608466,
          0.1932559735467972
        ],
        [
          -0.6623549133990757,
          -0.1901075817179777,
          0.00035545073772129903,
          -1.0051330120788446,
          -0.41347307800786637,
          -0.06756119202442365,
          -0.44639510928283976,
          0.06780977774009361,
          0.4270333786372542,
          0.22816902592051602
        ],
        [
          -0.3550594461085704,
          -0.31975919347081677,
          -0.026730934433974136,
          -0.37210630618260637,
          0.384437828561863,
          0.5698834841000597,
          -0.000690174123657968,
          0.16801124643164217,
          -0.08351852914218029,
          -0.23404712774993106
        ],
        [
          -0.4575442017941225,
          0.3181574326798738,
          0.33489877334642265,
          -0.2989597986650549,
          -0.14682375768339792,
          0.07389125778274905,
          -0.28671612857315676,
          0.3816215259909738,
          0.08937559413636247,
          -0.332700446941514
        ],
        [
          -0.28552456815895744,
          1.1656974088132968,
          0.20422934797793232,
          0.3992003008249982,
          -0.06112723759946398,
          -0.6247919885005205,
          0.07821579441270991,
          -0.4263882677143359,
          0.12378206615975261,
          0.14645194686690613
        ],
        [
          0.11782600195921752,
          0.2851402767308085,
          0.051384128783300224,
          -0.3950172511570668,
          0.14836930114121125,
          -0.46266443630755233,
          0.24304958110199326,
          0.034735503347609276,
          -0.29828142163087834,
          0.24063990856373438
        ],
        [
          0.03236187746587719,
          0.26628342643804376,
          0.1536266757328563,
          0.2504400717550665,
          0.16480409576620317,
          0.1698136532709684,
          0.3900845959407566,
          -0.207891406533547,
          0.05929642073368312,
          0.18321600879148736
        ],
        [
          -0.04362928277567574,
          -0.29609939773799054,
          0.11600961166833591,
          0.3543314099202149,
          -0.14577837423355078,
          0.059627681917025596,
          -0.28671017236727525,
          -0.06052039560030142,
          0.005848223279347868,
          -0.31977740332435584
        ],
        [
          0.16981979238767783,
          0.06147648916613171,
          -0.4093739445335196,
          -0.04439325067992497,
          0.22105346098427925,
          -0.08902569805183108,
          0.1957642132606956,
          0.20389629373513715,
          -0.027307993836663987,
          -0.29030889387557834
        ],
        [
          0.33497206898487186,
          0.25343310565156585,
          -0.12901667783596849,
          0.2430359935174397,
          -0.15111959139508235,
          -0.29800445309297685,
          0.0601704960680059,
          -0.4181377308781878,
          0.20057372625524791,
          -0.15323376747433431
        ],
        [
          -0.4200336848020773,
          -0.4981821416605441,
          0.2758932708320564,
          0.22427655005352978,
          0.07832426684665089,
          0.3702542131390669,
          -0.2081441602231512,
          0.27276741716908776,
          0.13658164041121737,
          0.02086253098073433
        ],
        [
          0.024198620198142992,
          -0.26138925907851107,
          -0.43682709918949525,
          0.3121803720987058,
          -0.7674335781580537,
          0.4379506776503229,
          0.19485432611013176,
          -0.03213548709446258,
          -0.17736529611872634,
          -0.3182330522057202
        ],
        [
          0.16030485399881284,
          0.8154492243010503,
          -0.029404191461242672,
          0.4808761653667032,
          -0.05931860544429101,
          -0.5703675091473482,
          -0.1801133304338418,
          -0.07923892074910388,
          0.4682807603955245,
          -0.3392008438002978
        ],
        [
          -0.2673564519311125,
          -0.10026144201544104,
          -0.28930181977233377,
          0.11561695949610577,
          -0.37809520569308397,
          -0.055928975733007445,
          -0.27885027564002984,
          0.330083898487942,
          0.1862981229845805,
          -0.176036545449802
        ],
        [
          0.03145662124764888,
          0.2536265277341723,
          0.15734404498606375,
          0.07472019461257007,
          0.28390593780924095,
          -0.17000293770582084,
          -0.14135911000224463,
          -0.013060331678206989,
          -0.0008420365840889594,
          -0.30031447792486765
        ],
        [
          -0.48600967571313086,
          -0.34381739980175186,
          -0.35037410646944234,
          0.5553601173151639,
          0.1552112782569632,
          0.03572916363773005,
          0.1552726698323858,
          -0.13584660890170963,
          0.27645533365700764,
          0.03121630736291904
        ],
        [
          0.03894628599095095,
          0.14863189862513385,
          0.08310005561000061,
          0.3635567773571184,
          0.3710302992229561,
          0.06391204789223652,
          0.3142832850847239,
          -0.22324416251342907,
          0.22959839841678326,
          -0.19882208318181613
        ],
        [
          -0.26075672385567933,
          -0.15090490523227398,
          -0.26377234710950015,
          0.7868311525346011,
          0.36492777471722465,
          0.08388986929177474,
          -0.11449533005471207,
          -0.6840649237952027,
          0.2499117646427853,
          -0.14298763705673803
        ],
        [
          -0.5113023600855533,
          -0.20752872295933178,
          -0.1945010101987592,
          0.21880507013835857,
          -0.07236780411725953,
          0.3170489013811069,
          -0.02822629198028369,
          0.33692359437299996,
          0.08404268215582043,
          0.35998681075474553
        ],
        [
          -0.431186917739539,
          -0.5146248631583167,
          -0.31118737169695143,
          -0.04681130001619869,
          -0.07341460347251383,
          0.07401495284896932,
          0.13977783648085826,
          -0.42833197147835955,
          -0.2305838019069059,
          -0.29803166127784897
        ],
        [
          0.2940245379632827,
          0.2607730561521387,
          -0.1465835581169457,
          -0.294201022277862,
          -0.25888908716859305,
          -0.40099163680877964,
          -0.19916116517024215,
          -0.19477428645606498,
          0.23179648936187486,
          0.2199031091173108
        ],
        [
          0.3376978596306149,
          0.8393728043836157,
          -0.10492558688871315,
          -0.12024557332897902,
          0.3410882980671338,
          -0.142464422060838,
          -0.36600262061216704,
          0.14665613144930206,
          -0.3605944663830734,
          -0.034713649567638796
        ],
        [
          -0.2896657527590619,
          -0.13856984568396177,
          -0.2920321204790886,
          -0.28371838462758775,
          -0.043386499980244284,
          -0.11546370857121604,
          0.39630012731267406,
          0.43740237247060215,
          0.187055977107599,
          -0.31407889147663093
        ],
        [
          0.13360629300472723,
          -0.05403924849367199,
          0.06688418805956735,
          -0.005324401368293432,
          -0.08439779390540084,
          -0.09487252647424647,
          -0.11784256036977389,
          0.15467073550437674,
          -0.06471511039908723,
          0.23968026396682984
        ],
        [
          0.28052770005706856,
          -0.3317791470392949,
          -0.5161919941356177,
          0.1858046942204882,
          -0.010815702576016757,
          0.03420028197299393,
          -0.15459324351548642,
          0.5694811648438792,
          0.14727373440783764,
          -0.05079066131818278
        ],
        [
          -0.25079860127363895,
          -0.43892234827854343,
          -0.04070775380110375,
          0.734967807563183,
          -0.1549419714976517,
          -0.08620888477906369,
          0.4023667602338735,
          -0.12853668849361558,
          -0.14986241527062585,
          -0.05759888963431504
        ],
        [
          -0.3235113780681534,
          -0.6509844861272678,
          -0.169870625604845,
          -0.3926353849457955,
          0.06400967182886659,
          0.3849984801279799,
          -0.10566771470259657,
          0.46583141127109606,
          0.37555887674342253,
          -0.02885445059332733
        ],
        [
          -0.09030412348010347,
          0.11943521373664338,
          -0.03374295764695972,
          0.48409606059169896,
          -0.31624495176631734,
          -0.06751284021230579,
          0.2653659946991265,
          -0.13768740475764668,
          0.07155563247272373,
          -0.2649650148345139
        ],
        [
          -0.3476012989927132,
          -0.2812436200513412,
          -0.14446113513475692,
          -0.6076804352862977,
          -0.28144706013837617,
          -0.26137518747390914,
          -0.06509680335650865,
          0.42111731366336097,
          0.1801087201722311,
          0.17169055322449606
        ],
        [
          0.29836300061957316,
          0.807535584490088,
          0.28409653404665647,
          -0.33604829835742533,
          -0.35611329850482953,
          -0.49330606992238957,
          -0.23862114466429035,
          0.34577999486754946,
          -0.32502654065267783,
          0.07247330250059081
        ],
        [
          -0.09088948277898769,
          -0.47622108909783073,
          -0.142320957491183,
          -0.5682840309382349,
          0.2301260142589242,
          0.22885644751383266,
          0.015021424291378661,
          0.6517887998071925,
          0.2958644853074814,
          -0.045813610874935407
        ],
        [
          -0.005425322066891669,
          -0.12271183111715009,
          -0.1743320898673572,
          -0.33217577617762206,
          -0.175154146971145,
          -0.06983733429744654,
          0.28858603272740213,
          0.11277755015943246,
          -0.1295232998343348,
          0.10947926016653525
        ],
        [
          -0.008365735870229573,
          0.3625591007627876,
          -0.10972260705230764,
          0.02689274573990742,
          0.3187989395990783,
          -0.559368666562484,
          0.0074727717377451285,
          0.02857336116533161,
          -0.1508734569129534,
          0.165937080477
        ],
        [
          0.018896823076098985,
          -0.5800874907745196,
          -0.2760425014015644,
          0.2312056686771757,
          -0.10985031650245364,
          -0.22257217131318557,
          -0.201381450633025,
          -0.29293863126975045,
          -0.15620012041907713,
          0.32604076007806404
        ],
        [
          0.5926407998162978,
          0.264568750230731,
          0.10998013664772949,
          0.46758326583400567,
          0.26712046563728453,
          -0.23332602835927646,
          0.31201987882758914,
          -0.005232681722619523,
          0.34693395910632285,
          0.1375288671760748
        ],
        [
          -0.0036991292501792465,
          -0.036189212737315735,
          0.07078985047537607,
          0.017445610082258197,
          -0.6264217641026196,
          -0.5274743616043213,
          -0.15923291216884808,
          -0.4129105948810175,
          -0.08107027013835368,
          0.11828277382128326
        ]
      ]
    },
    {
      "activation": 3,
      "biases": [
        0.21183857390824698,
        0.0302493039292512,
        0.33813765243541455,
        0.13478083710540537,
        0.053641006981340125
      ],
      "cols": 5,
      "rows": 10,
      "weights": [
        [
          -0.7182499218897201,
          0.7978880307858908,
          -0.4215092980901126,
          0.34970628013004434,
          0.25466986627921107
        ],
        [
          -1.2918912232219435,
          0.815660258496622,
          0.4755942491557948,
          0.061413970098542915,
          0.9920558697980533
        ],
        [
          -0.6008324088803987,
          0.4841679975679378,
          0.6596314317387488,
          -0.6399693908385514,
          -0.3703004223636915
        ],
        [
          0.3758989232893555,
          1.4103428086691179,
          -0.9318356277018488,
          1.0586466660538316,
          0.3733788606455266
        ],
        [
          -0.34933581309245926,
          0.7673569977239955,
          0.45174427308326753,
          -0.24309943672990927,
          -0.21626467029906365
        ],
        [
          0.2644373819838657,
          -1.1834186611829125,
          0.48170058034769114,
          -0.03179243102913122,
          -0.46263583148403353
        ],
        [
          0.45527131258555353,
          0.01599486338596608,
          -0.6070120739142448,
          0.751451045807898,
          0.12970831761650994
        ],
        [
          -0.221832264749764,
          -1.0910207774418526,
          -0.13732710961989225,
          0.45775218924457484,
          -0.234686593934936
        ],
        [
          0.6764814017682859,
          0.6738674206841697,
          0.6319070417683496,
          -0.191804464666341,
          -0.17000063067095864
        ],
        [
          0.3127212154729739,
          0.12612984188296655,
          -0.31135842923531876,
          -0.6179700511459243,
          0.2950333116392395
        ]
      ]
    },
    {
      "activation": 0,
      "biases": [
        -0.376036096677345,
        0.48298093293581246
      ],
      "cols": 2,
      "rows": 5,
      "weights": [
        [
          0.33779907446129703,
          1.6784368155370284
        ],
        [
          0.0961907098955197,
          -2.053119512620919
        ],
        [
          0.7423032596120064,
          0.7978999042375883
        ],
        [
          -1.0458750275738966,
          -0.20846502854130927
        ],
        [
          -0.12733055221990222,
          -0.7970445188791291
        ]
      ]
    }
  ]
}
