{
  "layers": [
    {
      "activation": 0,
      "biases": [
        -0.10276080157609636,
        -0.11522376651266364,
        -0.045721632935566185,
        0.09292422996409012,
        -0.0824209482063293
      ],
      "cols": 5,
      "rows": 42,
      "weights": [
        [
          -0.31530833281224124,
          -0.26605956710597917,
          0.1965694474440039,
          -0.2537513721416171,
          -0.20268236689197155
        ],
        [
          0.18300722095613078,
          0.11788734084826955,
          -0.1673895752658721,
          -0.04923613206513358,
          -0.3161526567460169
        ],
        [
          -0.03437247087848641,
          0.07225856923465156,
          -0.23066979411029537,
          -0.18829755206780852,
          -0.020108539194629203
        ],
        [
          0.04191397450652586,
          -0.1801737895000023,
          -0.07681078175885057,
          0.3986563741285315,
          0.05074486501069389
        ],
        [
          -0.2957970624729542,
          0.08390061557097732,
          -0.18698013178544143,
          -0.03854565303502694,
          0.2550647812923234
        ],
        [
          -0.24705399033502226,
          0.2615134687011246,
          0.278732009033171,
          -0.3008396244093298,
          0.011137565026679092
        ],
        [
          -0.2140859242078432,
          -0.27919696812727873,
          -0.2307143688536979,
          0.07763673840830311,
          -0.33607908830885835
        ],
        [
          -0.25192520509390987,
          0.08060860190059964,
          -0.24188201546697238,
          0.3378342596741028,
          -0.0922323010901271
        ],
        [
          -0.29217248291821596,
          0.21238263195630072,
          -0.03519069805828882,
          -0.2935168029648022,
          -0.10824144588239205
        ],
        [
          0.09068087210113498,
          -0.20063098926947176,
          0.25637746668304484,
          0.40268334606783923,
          0.02481290443500671
        ],
        [
          -0.1464641346943439,
          0.29095494508802777,
          -0.17920525611273785,
          0.039646932030164776,
          -0.017992582497173847
        ],
        [
          0.20946823070253245,
          -0.14975337133505656,
          -0.21512441630418294,
          0.08246669707979966,
          0.08698095455099866
        ],
        [
          0.34990107245856567,
          0.048206500882012275,
          -0.08202143098156729,
          0.05490964042410463,
          -0.1095741137756899
        ],
        [
          -0.34911109960902115,
          -0.11484523418809019,
          -0.24355294993204385,
          -0.2510795445021157,
          -0.28830016373115563
        ],
        [
          0.14778586272052205,
          -0.34309273110415195,
          -0.01861838296078678,
          -0.2803728388560099,
          0.02419568042157325
        ],
        [
          0.1887556092454955,
          -0.197245132604271,
          0.06324839361021488,
          0.32482395938992153,
          0.18939589848772373
        ],
        [
          -0.004942465083502809,
          -0.3341668437721408,
          -0.043562955564743745,
          0.03747061673810501,
          0.19941566102945465
        ],
        [
          0.3242577679203623,
          0.22144177226504214,
          0.032532579696111015,
          0.011653180173761267,
          -0.02671407861874002
        ],
        [
          0.21545766033095962,
          -0.28165903790756963,
          -0.0674864096521628,
          -0.2829981317470059,
          0.15832416595982685
        ],
        [
          0.018749180238401705,
          -0.24412240602505608,
          0.11774869237847366,
          -0.17172611405135044,
          0.3050281524857005
        ],
        [
          0.1925712641155972,
          -0.19299109397481323,
          0.08265568162435663,
          0.08497241876005189,
          -0.23749144822319027
        ],
        [
          -0.09303749350068306,
          0.25389729975230596,
          -0.21501324077840717,
          0.2426273423611108,
          0.3330506864932595
        ],
        [
          0.12236296923158987,
          0.1199757671971974,
          -0.2032255941678122,
          0.04428637531824384,
          0.2572528147253887
        ],
        [
          -0.1232426264023025,
          0.32315357631853214,
          0.35672479559468095,
          0.15523535239949868,
          0.2381858307108138
        ],
        [
          0.022097938207397447,
          -0.07630644729342793,
          -0.014791257882022506,
          0.26546553959170494,
          -0.04061444125907655
        ],
        [
          0.09529470157930188,
          0.14296351060914758,
          -0.36498510276223894,
          -0.05413758795883598,
          0.0838696800812713
        ],
        [
          -0.27968660680409635,
          0.28157406597240603,
          -0.32927544880286364,
          0.34368201960580874,
          -0.07558668150530845
        ],
        [
          0.10632139161400697,
          0.0070971073840771165,
          -0.16614980329739934,
          -0.07788137803405237,
          0.09836356214131593
        ],
        [
          0.20501448922661186,
          0.3105863848804274,
          0.020854764489334758,
          -0.17646842265460994,
          -0.14851414230192192
        ],
        [
          0.09975180228223231,
          -0.14738214485499151,
          -0.3258159316482999,
          -0.29419477225618,
          -0.04030921527354123
        ],
        [
          0.07672571845584411,
          -0.08637856272766316,
          0.22406529551922044,
          0.09860754190259567,
          0.35698238636202095
        ],
        [
          -0.19731314023473162,
          0.30410756135591305,
          0.025596510131879458,
          -0.1439095792833039,
          0.29046453612205103
        ],
        [
          0.06104981729596691,
          -0.021784443415473604,
          0.3034546396216964,
          0.0319780193839305,
          0.34137640037848715
        ],
        [
          0.059101763205301354,
          -0.0851587482614654,
          -0.18761131094373493,
          0.16455599486552727,
          -0.2094784325915184
        ],
        [
          -0.21316245521421415,
          -0.04698956911035727,
          -0.22100939692596136,
          0.3743265367029047,
          0.3320391628997201
        ],
        [
          0.1919267307335457,
          0.02740676098745348,
          -0.015248876080515518,
          0.24310215275455052,
          -0.02765684592512405
        ],
        [
          -0.2971540429925574,
          -0.09385568761964952,
          0.22983533110751336,
          -0.11051630951565916,
          -0.15155595730771337
        ],
        [
          0.13800901346399697,
          0.31751176332355796,
          0.01525730965504021,
          -0.2124997316350899,
          -0.1193180609267651
        ],
        [
          0.37566199947394974,
          0.2807874787069633,
          -0.08534183118751078,
          0.08185977321346254,
          -0.025742866100878167
        ],
        [
          -0.08198593856140465,
          0.22994938396815118,
          0.22422021407314108,
          -0.05881712021692936,
          -0.09557218866046374
        ],
        [
          0.03955311617797734,
          0.09481876236996199,
          0.1936954066042751,
          -0.11402792576672836,
          0.22563081267316631
        ],
        [
          0.06881407203745782,
          0.13959235183579016,
          -0.12236142982093866,
          -0.2303493239380767,
          0.2954357109990423
        ]
      ]
    },
    {
      "activation": 0,
      "biases": [
        -0.058228289352424314,
        -0.11559980578304536,
        0.09782706578574711,
        -0.05772923149437654,
        -0.12329889136321841
      ],
      "cols": 5,
      "rows": 5,
      "weights": [
        [
          0.2715010535822371,
          0.37179036613991756,
          -0.03349045982920001,
          -0.3582940770072725,
          0.5062924179307603
        ],
        [
          -0.2818768899286422,
          0.1145233799256409,
          -0.10170526007267844,
          0.4724639631780121,
          0.3099922841761733
        ],
        [
          0.6283317891022736,
          -0.10519438942753997,
          0.23700969014277737,
          -0.19817282613000525,
          0.818176074838494
        ],
        [
          0.47848670591221026,
          -0.6900215200055326,
          0.1835693721593262,
          -0.7055081513396825,
          0.42319465381167404
        ],
        [
          0.2383443236457645,
          0.7618135930671545,
          0.1420549636554549,
          -0.09531108183262062,
          -0.06578269038931182
        ]
      ]
    },
    {
      "activation": 0,
      "biases": [
        0.1631997084171849,
        0.01734200409526686
      ],
      "cols": 2,
      "rows": 5,
      "weights": [
        [
          -0.5272634530228045,
          -0.2106041825916771
        ],
        [
          -0.537612622009459,
          0.023999093443048857
        ],
        [
          0.414852869769761,
          0.5686765083682466
        ],
        [
          -0.08964037651316661,
          -0.31615074153655554
        ],
        [
          -0.8950344675455869,
          0.11572506803048718
        ]
      ]
    }
  ]
}
