{
  "layers": [
    {
      "activation": 1,
      "biases": [
        -0.026223434742883415,
        -0.023455510367085916,
        -0.032036816294527475,
        -0.014168022976700875,
        -0.012188866010480947,
        0.010363379380830276,
        -0.008823047603356426,
        0.009007461845004805,
        0.004424738907712547,
        0.003754838951892071,
        -0.017596672081145827,
        0.05736925942220013,
        -0.01159904223749895,
        0.003274594558831828,
        -0.0025452057938072964,
        0.026616853803520017,
        0.003145688846421564,
        -0.005563833069378374
      ],
      "cols": 18,
      "rows": 42,
      "weights": [
        [
          -0.03113506651356557,
          0.20635181917742298,
          0.05943332428015079,
          -0.11837228117309309,
          -0.11160562213864829,
          -0.2931852341792853,
          -0.3243028011740791,
          0.16184992225430775,
          -0.12807310068094852,
          -0.21515372021692208,
          0.11772751283248337,
          0.12469587949712713,
          -0.27907580841225765,
          0.020640314072529392,
          -0.33648046696979683,
          0.09302118068049724,
          -0.15203731776031815,
          0.13446430552094843
        ],
        [
          0.11740828130811125,
          0.2301917279808466,
          -0.1410546870849602,
          -0.25114866093109434,
          -0.19453474146236954,
          -0.03800430822960688,
          -0.24536233798001542,
          0.16645658896372117,
          0.033126020155770125,
          0.17945821802568288,
          -0.00298630471474078,
          0.03791158973078539,
          -0.22771324562290582,
          -0.007887109290732015,
          0.0934239002844086,
          -0.18494955612557523,
          -0.14707615982251743,
          -0.26714538425105927
        ],
        [
          0.06629761573824887,
          0.1495759870155711,
          0.20421674165085482,
          0.1278132054051878,
          0.0009451255352663765,
          0.29615879082653046,
          0.05259328652902169,
          0.12962307600575046,
          -0.08030045100490993,
          0.11313035100313307,
          0.18353050316869707,
          0.28150761749238823,
          0.16082829343616983,
          -0.11516668471988378,
          -0.22513184363847294,
          0.0857392954046385,
          -0.16064808558622998,
          -0.16283441219487782
        ],
        [
          -0.0741582653445161,
          -0.17172341686918607,
          -0.1272247949595369,
          -0.16458448399217465,
          0.14946261693648374,
          0.10275255469606272,
          -0.029926872983892662,
          -0.08336694564497149,
          0.2958026734512093,
          -0.13979897940604386,
          -0.0809371156445946,
          -0.05215282597553864,
          0.17325460878033028,
          -0.23523035964121672,
          -0.25643231304611397,
          -0.18891657099161058,
          -0.0010329623827141502,
          0.31591129151615194
        ],
        [
          0.0867001611655241,
          0.24591609404071912,
          -0.312713158804279,
          0.10572216753055803,
          0.11338584712271726,
          0.2804390798807488,
          0.13972258874370963,
          -0.10948107722981942,
          0.10415886696743935,
          -0.09838220295483202,
          -0.20023781213846645,
          0.055940736218846744,
          -0.31863374331299443,
          0.004938279326216811,
          -0.31324021981804273,
          -0.01624054942870554,
          -0.25512061795504665,
          -0.12573240499984684
        ],
        [
          0.2985248970630155,
          0.008348070177712759,
          0.12955480009013218,
          -0.2732855971583953,
          0.04800628296339611,
          0.17441914805330144,
          0.10764556605513878,
          -0.08692586029589701,
          -0.25105018904602544,
          -0.11835291611635045,
          0.20303487394174174,
          -0.13293710014744803,
          0.28113461999927186,
          -0.14854097798710184,
          0.16298985507768857,
          -0.029425503649910176,
          -0.03173588632724591,
          -0.14172090412795788
        ],
        [
          -0.13448430135466652,
          -0.21961511413305768,
          0.2089441808133097,
          -0.2957009563425237,
          0.1737597826713742,
          0.05734643427265201,
          0.08010125719406248,
          -0.23676972399026106,
          0.04731336868241172,
          0.16149497437274732,
          0.2341228069787201,
          -0.08210215834720432,
          0.30565152161115616,
          0.05830577978081083,
          0.28412991324450987,
          0.08753283987039039,
          -0.17073927834706445,
          0.15100836386072175
        ],
        [
          -0.19010551085233604,
          -0.06133318265000536,
          -0.0997086445280337,
          -0.3876862507738171,
          -0.18759685266026999,
          -0.27807108026279204,
          0.04765631074495302,
          -0.37347051459436226,
          0.2421965632082462,
          -0.1250309340635274,
          -0.08156712518215191,
          -0.22286916554451722,
          0.1485212069178367,
          -0.2372636106742657,
          0.03749309436415096,
          -0.16791879596174308,
          -0.15452753324652713,
          0.2698265866586519
        ],
        [
          0.07147014689942094,
          0.26570452983267756,
          0.19114252402972645,
          -0.020548859749662692,
          0.17487391361732604,
          0.2027400450041788,
          -0.18437907861074584,
          -0.02492241114207465,
          -0.2890145034373259,
          0.3067006312828504,
          0.18251861530590577,
          0.07007372215069597,
          0.2444885045270623,
          0.027306835934164213,
          -0.22158125128498732,
          0.2908133442289055,
          -0.2838950248445792,
          0.26028431013395564
        ],
        [
          0.36585034652057224,
          -0.1283900926275582,
          0.19814940703073472,
          -0.16801672217259134,
          -0.15530852516528645,
          -0.002068522645384327,
          0.4156476082505431,
          -0.18208607973377605,
          0.09139072778606741,
          -0.4649133636940618,
          -0.22281627465210668,
          -0.44565782458225744,
          -0.0197998582164506,
          0.012161935432810954,
          -0.01975636344301577,
          -0.060882496444613764,
          0.025698124140422624,
          0.20579911376484905
        ],
        [
          0.24237470784153797,
          -0.20271290848323015,
          -0.07694592632634824,
          0.10604148522069456,
          0.09920307985683932,
          0.17745424413668584,
          -0.15091143346656893,
          0.10857051655782668,
          0.2058573024644671,
          0.149278241520895,
          -0.018562490754128556,
          -0.1852838205449017,
          0.14524535498368876,
          -0.06553576817331314,
          -0.16166207656679074,
          0.1460164226282449,
          0.06606620068909597,
          0.13225308140938835
        ],
        [
          0.18613213045135094,
          -0.038821073510210205,
          0.2370834455506118,
          0.1508763290115668,
          0.001827528481637797,
          0.19781846416326362,
          0.2837329219208975,
          -0.33356459577399394,
          0.22617383587894674,
          -0.3256780429487566,
          0.02464518155120067,
          -0.19275804960624743,
          -0.1819268373169706,
          -0.10061669125247855,
          -0.18239765806127065,
          -0.25470721457060236,
          0.003201878234722146,
          0.08047305879246303
        ],
        [
          0.09645881667266615,
          0.22608578099526075,
          -0.2626268707442784,
          0.2403393339729311,
          0.22888508402275348,
          0.29968579737213624,
          -0.2952213203336228,
          0.1625132161959946,
          -0.018613500882848466,
          -0.22297718825867646,
          -0.23238963247292624,
          -0.2614684979350993,
          -0.01902634191743485,
          0.16755050057443902,
          0.13132837138583175,
          0.16110371717093466,
          0.3005880231676343,
          0.2502379931445143
        ],
        [
          0.29277025286343034,
          -0.4308575147765344,
          -0.05205904881979886,
          -0.4133806250762212,
          0.10665093987618397,
          -0.2313852947239068,
          0.2956771038219629,
          -0.10055417162342553,
          0.16504933961774101,
          -0.07893540974684585,
          0.11098199188932996,
          -0.0650559732792568,
          0.14586514597556008,
          0.13173217260163148,
          0.36628364949081177,
          -0.19056280742719045,
          0.3488976986061492,
          -0.011936523055552133
        ],
        [
          0.006165731083972681,
          -0.29387391475040797,
          -0.2412247854628441,
          0.264468912666285,
          0.2657317206980922,
          -0.16009187445643827,
          0.11738300148843418,
          0.13938257713950944,
          0.0703333036523385,
          0.28039449351169027,
          -0.01797377849409363,
          0.21887506058734618,
          0.08272929799640082,
          0.03237167332470143,
          0.06092173383286584,
          0.07972411895683193,
          0.22486308899669613,
          0.019798199797589417
        ],
        [
          0.19657542174649723,
          -0.0712990477970951,
          0.2303730636471296,
          -0.2779610939056674,
          -0.23106352442548117,
          0.050645464261424564,
          0.30763218897938066,
          -0.09009568305463443,
          -0.21308643568971247,
          -0.19446833687079318,
          0.12739084731791625,
          0.22022198136729645,
          0.05839672842647555,
          -0.3075149770404668,
          0.43580129006364604,
          -0.22810164148156986,
          0.2360504983487904,
          -0.1048418526769344
        ],
        [
          -0.33997190034528124,
          -0.05064331052677656,
          0.024145407536425783,
          0.1867160020293024,
          0.19090001681460952,
          0.13284901568205915,
          -0.02021085476302186,
          0.25572101533380576,
          -0.18003518741066762,
          -0.011064046693090633,
          0.1809324787265658,
          0.020135071408171973,
          0.1320533903957906,
          -0.05758300455485135,
          0.18704230286450696,
          -0.09299193157839074,
          0.29482221598774594,
          -0.031857679079566985
        ],
        [
          0.165381207407447,
          -0.370996915740382,
          0.1672235690464507,
          -0.42014496222324105,
          0.07218326140025325,
          0.0757148207081585,
          0.04316835047222216,
          -0.3445554733682502,
          0.3470940449506766,
          -0.1001805883684026,
          0.31117449089596305,
          -0.30355070595358413,
          0.011096438801814351,
          0.036713815923301266,
          0.10793148110544577,
          -0.2323052562833566,
          0.3320555993652205,
          -0.17946292900109712
        ],
        [
          0.11925323940014547,
          0.34339483135981025,
          -0.1968629751728254,
          0.10268670133369734,
          -0.11809771378858425,
          -0.28354948447070516,
          0.15889097486424872,
          0.3508259066840523,
          -0.04113585429813484,
          0.07259737608867373,
          -0.016991935002281734,
          0.15091535859324268,
          -0.12753328498427557,
          -0.16510288883289395,
          0.13500527302820087,
          0.08530116222455601,
          0.10648012429119856,
          0.04517530452850297
        ],
        [
          -0.2294684738969108,
          -0.20134558933871424,
          -0.006733876457003415,
          -0.0508614180090123,
          0.10740627046208842,
          0.02122659055248216,
          0.37916623184294124,
          -0.09701899833137728,
          -0.23188954794424918,
          -0.1826009088504536,
          -0.2921291531874393,
          -0.3425637098792801,
          -0.28493680058319526,
          0.20577870258711492,
          0.42359071161320305,
          0.09674751448494127,
          0.060906988334753255,
          -0.202667856952793
        ],
        [
          0.18323658950941263,
          0.1995565598094128,
          0.01855900333497376,
          -0.17207217775659567,
          -0.14588236858904396,
          -0.0787774712768663,
          -0.07543787519670367,
          0.3233325861761298,
          0.18536452998433306,
          0.10394829905727346,
          0.0677107347658116,
          -0.0822283849287707,
          -0.03643401468432675,
          -0.2408412208596254,
          -0.10796258965769902,
          0.2128387717239883,
          -0.27327929879597,
          -0.28431781976739634
        ],
        [
          -0.1413900248340988,
          -0.18650895105261334,
          0.498853073355825,
          -0.1284323146637924,
          -0.2900694723867095,
          0.2788805042618678,
          0.005328648324953401,
          -0.2639459643911034,
          0.12803478561951695,
          0.08778456373775465,
          0.17778903587198397,
          -0.33213550635025113,
          -0.02993454883872522,
          -0.05167352851021249,
          -0.09285321293936562,
          -0.0463205167067446,
          0.31168251727190804,
          -0.31717709621171286
        ],
        [
          0.252811960153169,
          0.052478230230917355,
          0.2388355268468088,
          0.22272957241283242,
          0.1902341469068907,
          0.24931546329528884,
          0.10608819872519586,
          0.07871019771033523,
          -0.2190188078918611,
          -0.11911576228022479,
          -0.29819490438978313,
          0.10657146784675367,
          -0.14641082416691503,
          -0.25597017157101903,
          0.12358752886337834,
          0.1854863601066747,
          -0.13273065386084812,
          -0.11059698078308579
        ],
        [
          0.05335727158550873,
          -0.3662557959450617,
          0.5317189868401225,
          -0.23558872229786934,
          0.19380112251855325,
          -0.03118193019710987,
          0.10484705537339063,
          -0.2358170001406218,
          0.2888431648176567,
          -0.3031760394877991,
          0.20579308652052594,
          -0.31696487839426973,
          0.14766410244383776,
          -0.22834662021440974,
          -0.08282101306363258,
          -0.19659913537902746,
          0.07044736182129675,
          -0.05115992236019671
        ],
        [
          0.03943824894294509,
          0.06714089520507106,
          -0.08851355769891134,
          0.24504794398265128,
          0.3015710977455417,
          -0.27004171014615747,
          0.22814384104231095,
          -0.23374946832935103,
          -0.0034198711728766966,
          0.3582641735732176,
          0.12228973318509978,
          0.04222004671121992,
          -0.0532826774090354,
          -0.027376495164566098,
          0.1907596293910919,
          -0.20403792352204783,
          0.004061384025297991,
          0.09532218563514831
        ],
        [
          -0.04887512380264282,
          -0.05638923699992498,
          0.07432911558010426,
          -0.31633346699128134,
          -0.011265933152522306,
          0.18098779289467637,
          0.3763353084777203,
          0.10276679127000567,
          0.32587401374897357,
          -0.1300543695899936,
          -0.07558631930686475,
          0.04555232071418308,
          -0.008861581461880244,
          0.11630856894122191,
          0.31149993259973235,
          0.022602597836220085,
          0.28567672511097675,
          -0.3572927573592568
        ],
        [
          -0.3571177336893836,
          0.3546118916473786,
          0.1611678031188443,
          0.18251210958093894,
          -0.1860101547500905,
          -0.28515350515415416,
          0.14975556482967214,
          0.007866303995942842,
          -0.09869942649407999,
          -0.017335296238193867,
          0.20475435159679972,
          0.13917417477900368,
          0.18509009440825064,
          0.17432204123976203,
          -0.08808978597021662,
          -0.24565344603198333,
          0.06877249113721767,
          0.1188735670453171
        ],
        [
          0.3158173673528743,
          -0.16696134277172298,
          -0.11136883125077233,
          0.05081886078094413,
          -0.21568478358692847,
          -0.08304009177220577,
          -0.15278646447561403,
          0.15190628404594494,
          -0.055902395090784644,
          -0.16028026895453132,
          -0.26092326182638387,
          -0.33176574094017486,
          0.2617177457098188,
          -0.255051910265144,
          0.014348620202051762,
          -0.26704912573065676,
          -0.21956457983986516,
          -0.11185848263469303
        ],
        [
          -0.16657419020907582,
          -0.19460593931535336,
          -0.36866480928640233,
          0.14811740623522215,
          0.013683240054865,
          0.11977304367040034,
          -0.31012603977738357,
          -0.18365486061127065,
          0.20136335386877652,
          0.2562424293578404,
          -0.1791397571008836,
          -0.020052172618124017,
          -0.03603618738882849,
          0.3224175315540102,
          -0.2977255160554808,
          -0.15305147847727266,
          -0.17190955229731983,
          -0.24160884563946794
        ],
        [
          -0.14564021686235928,
          0.14374018514629142,
          -0.07150336622892405,
          0.11450677114528617,
          0.01494665748468157,
          0.2521193432789497,
          -0.14867309695961325,
          -0.16719236997496903,
          0.008555099880460867,
          0.04337546827449798,
          0.0388862823162968,
          -0.12822709078092867,
          -0.05423066037253233,
          -0.3201670432088226,
          0.47395609049729986,
          -0.24769713031670362,
          0.2601585991196865,
          -0.27577405072380545
        ],
        [
          0.047317893685488,
          -0.23796010588544814,
          0.1223547401525801,
          -0.05225833397161125,
          0.07675597903646067,
          -0.2805208957233268,
          -0.08425882548141354,
          -0.1361990154868255,
          -0.24488209399678282,
          0.14167418922037495,
          -0.08958709586500284,
          0.16108052869789188,
          -0.28418269508962785,
          0.3206320718085674,
          -0.157832628863302,
          0.09645603940900134,
          -0.18442779581697574,
          0.3123007624921202
        ],
        [
          -0.0076720782498337576,
          0.11131771073691897,
          0.5180337901417871,
          0.22528376630587515,
          -0.18703027448816154,
          0.24530901160598678,
          -0.1618249177191191,
          0.17525649149134861,
          -0.10971784070357848,
          -0.15631208670251032,
          -0.19111111150776214,
          -0.015630666461765197,
          -0.03999463075213884,
          -0.14922096431411114,
          0.09071913388915265,
          0.23418013151324815,
          0.0227933435860049,
          -0.07122160094639582
        ],
        [
          -0.2590957410520428,
          0.049880857097178787,
          -0.2709715047701206,
          0.1701922607747445,
          -0.27527490845213093,
          0.043627971892949924,
          -0.3467906189633895,
          0.05500254558203644,
          0.1577962270081506,
          0.17838755047334007,
          0.023496873101455457,
          0.15793020837985686,
          0.20065818960854612,
          0.13474856676959296,
          -0.0850527655995446,
          0.0018947231499804114,
          0.11091231642063176,
          -0.23564331510694117
        ],
        [
          0.21857667610427098,
          -0.29051552284126464,
          0.5267850463950497,
          -0.03478711110445005,
          -0.3404188799702513,
          -0.35372205805318785,
          -0.187270925152541,
          0.1356914001931258,
          -0.1712187868550124,
          -0.09979713769532378,
          -0.24135901181167604,
          0.09352005409759732,
          -0.13205762624911302,
          0.05392393386591266,
          0.49498320332533363,
          0.29206598744187906,
          0.3250023424850485,
          -0.3935519474765318
        ],
        [
          0.16180175133323585,
          -0.04428214965234059,
          -0.3462746093873697,
          -0.036075134028483793,
          0.04960128772690427,
          0.038307611330696725,
          -0.22268129051863203,
          0.4105980308432121,
          -0.25173719763972313,
          -0.03549875297689755,
          0.030854309431621808,
          0.13620998378547663,
          -0.324572568750996,
          -0.1417410338186725,
          0.0027572176974378615,
          0.23471200001082398,
          0.05770839306963228,
          0.1725297707989292
        ],
        [
          -0.13912318268021645,
          -0.015940701213541436,
          0.11634330182184816,
          0.02797094439127969,
          0.17581078790103657,
          -0.11358474779708527,
          0.1529795446685999,
          -0.33393875217321445,
          0.012275547324365919,
          0.04870375556700368,
          -0.11206406296268,
          0.05678368875428935,
          0.06951921202132526,
          -0.06798534543508133,
          0.4252328734252711,
          -0.06933709783684561,
          -0.222373388217112,
          -0.01543490637430049
        ],
        [
          -0.18858858849502966,
          0.3408449172148638,
          -0.3223153126765087,
          0.1261560430505253,
          -0.21079031290371206,
          0.27810699916504583,
          -0.07313216906301931,
          0.20145187434988895,
          -0.08141843283835778,
          0.24359790636976328,
          -0.07430431269669838,
          0.3638934744055195,
          -0.06178705345508561,
          -0.10002425123000121,
          -0.17625245720336188,
          -0.2493409947618365,
          0.07249586605288731,
          0.08828750800498844
        ],
        [
          0.3250313440238553,
          -0.160816692746343,
          -0.13818538222653512,
          0.0189965789743961,
          0.11841516340990485,
          0.09470705748335681,
          -0.1791963635913244,
          -0.0802738624884865,
          0.10469106514105722,
          -0.05836157015330937,
          -0.1596367621324113,
          -0.06597595132429467,
          0.021369861756543367,
          0.07579183845155885,
          0.26264714700693764,
          0.0009267558997691858,
          0.32610181695090934,
          -0.1386183905277866
        ],
        [
          -0.08205057816052892,
          -0.05078130679428433,
          -0.005711460252458932,
          0.27207956866079985,
          -0.15951928915546373,
          0.1848885001649633,
          0.0698549642830917,
          0.1343876397337515,
          0.1768501838931304,
          -0.10760639530823088,
          -0.24316335311627135,
          0.4268562960687601,
          -0.016057147822384422,
          0.14206725450564717,
          -0.21975244531438848,
          -0.14685796100022244,
          0.27824948683872586,
          0.1849646937685535
        ],
        [
          0.05805229092133047,
          -0.34496110324873874,
          0.4573002192384692,
          -0.21463827809067648,
          -0.024311239924196707,
          0.04790487889042974,
          -0.09684602609744566,
          0.1512456560573467,
          -0.17576526641896398,
          -0.33286977884361874,
          -0.22029963994841806,
          -0.06695117836604722,
          -0.11193661165521218,
          0.01657705269262413,
          0.23591905800183408,
          -0.21254441115554748,
          0.15588017313867536,
          0.10127111727575308
        ],
        [
          0.012608564906684645,
          0.023401767918342135,
          0.08472201012521997,
          0.36544195026472037,
          0.23699064161575556,
          0.31688025611415377,
          -0.06253237696292785,
          0.02887435779167419,
          -0.16012738751874173,
          0.19564352697651474,
          0.004372712483398197,
          -0.020395258483780754,
          0.030711599644153428,
          -0.23618248809685852,
          -0.39531532047370094,
          0.0635828370508282,
          0.03419389315626466,
          0.054096011238911106
        ],
        [
          -0.04426436478170678,
          -0.1516534934738875,
          0.5741349097393912,
          -0.08982753817804998,
          -0.3995436643859576,
          -0.19225744184808635,
          0.3305972220730454,
          -0.058682576953795924,
          -0.042983862558305254,
          -0.046982847032887645,
          0.313212846219044,
          0.2817325172217439,
          -0.15159575250509238,
          0.028188477503526325,
          0.15296132295376388,
          -0.1832132914528828,
          0.26788020049652694,
          -0.3653864186683583
        ]
      ]
    },
    {
      "activation": 1,
      "biases": [
        -0.07185354548400852,
        0.04425246117264087,
        -0.006870497750786153,
        0.06753740842803327,
        -0.046417776654655164,
        0.03437855189977965,
        0.06819927507060233
      ],
      "cols": 7,
      "rows": 18,
      "weights": [
        [
          -0.0883265582410617,
          0.5830562832547216,
          0.1319106490175258,
          0.35984999012795366,
          0.010757091409304408,
          0.027903373944976374,
          -0.1890877579220736
        ],
        [
          0.5442784744760012,
          -0.3846693078077607,
          -0.4058262206315549,
          -0.022398630145108827,
          0.34528694910379315,
          0.6511162436780176,
          -0.3300640726503554
        ],
        [
          -0.28994442118789754,
          0.6159247297790258,
          -0.22904098798369946,
          -0.4128055843599717,
          0.1761004965856159,
          -0.8667946371415187,
          -0.45517767795322833
        ],
        [
          0.5208793228294541,
          -0.566668022042648,
          -0.02453102802230776,
          -0.04919134237356103,
          -0.0866277388273269,
          -0.022441574823808663,
          0.6086517605310224
        ],
        [
          0.2769668502223049,
          -0.481608291626628,
          -0.03299510735499601,
          0.24514795142246312,
          0.06452565637117022,
          0.25982507778484165,
          -0.43022590486020584
        ],
        [
          -0.5134097517117195,
          -0.16372368461125802,
          -0.07451686750733762,
          -0.21232225415264577,
          -0.4473143286825192,
          0.26803672279667456,
          0.21189976666670965
        ],
        [
          0.24604182449441622,
          0.12234687766608617,
          -0.18829135815593545,
          0.3035246137989749,
          -0.16203854203176177,
          -0.5296759487350889,
          -0.5255889752486034
        ],
        [
          0.08735258123668788,
          -0.11734846180292449,
          0.32794705666842855,
          -0.5090020078560882,
          0.356629195899276,
          0.29965857432285475,
          0.6418786637817687
        ],
        [
          -0.27877928761798076,
          0.3466087899146653,
          0.22056018069582817,
          0.13261334835850921,
          0.10606411768287247,
          0.07978239098091434,
          0.009041253955079891
        ],
        [
          0.5402407523283886,
          -0.6241665689260074,
          0.16928055523658345,
          -0.3749710291317778,
          0.09961430540652455,
          0.14554652813169636,
          -0.05319694766137233
        ],
        [
          -0.10372219296025731,
          -0.3537418475488591,
          0.28782730137457785,
          -0.43289209684801283,
          -0.09398918238921045,
          -0.2576866042816972,
          -0.31738633905816016
        ],
        [
          0.39411955055627945,
          -0.336674921784873,
          0.24538221603497778,
          -0.21978932025994224,
          0.2648320324058396,
          0.10136219366438157,
          0.5947466315102126
        ],
        [
          -0.11860495275796419,
          0.13184374876167007,
          -0.10791492183840508,
          -0.22792394257485293,
          0.18339932498510653,
          -0.1729653315925605,
          0.003416509110013702
        ],
        [
          0.43204521808324586,
          -0.3104541062954554,
          0.21147851691412803,
          -0.27817689728342265,
          -0.32649237231086875,
          -0.16617294886994408,
          0.4286722199872561
        ],
        [
          0.07657849800867572,
          0.7298994780948003,
          -0.41371215242736886,
          0.5329695942458316,
          -0.10344685220083341,
          -0.7124203562937079,
          -0.2885530839832678
        ],
        [
          0.2837048401939619,
          0.3190020434569235,
          0.4096223952849122,
          -0.04264540819920814,
          0.23826155022114132,
          -0.09393258618099877,
          0.6040762495681613
        ],
        [
          -0.6551076854965341,
          0.40508525938226014,
          -0.15139971672764196,
          -0.3034401982094746,
          -0.1942791346659675,
          -0.005233663625967932,
          0.12073208154161028
        ],
        [
          0.08205439287243536,
          -0.6292075228441822,
          -0.1977962174934067,
          0.1996263841154167,
          -0.045721704130023445,
          0.4531866839748066,
          -0.254299091956289
        ]
      ]
    },
    {
      "activation": 0,
      "biases": [
        0.21676278250962264,
        0.0023276532404062126,
        -0.001011213944125978,
        0.02753199184281929,
        0.24386523261429408,
        0.26081920879696097
      ],
      "cols": 6,
      "rows": 7,
      "weights": [
        [
          1.02568798798605,
          0.3874081978144154,
          0.24368431731794948,
          0.44190479871954197,
          0.23690133010683334,
          0.37335822920964806
        ],
        [
          -1.2337358606164952,
          -0.2560759464954432,
          0.02960196783855309,
          -0.472066375890334,
          -0.44476586345343716,
          0.36370324977360396
        ],
        [
          -0.29709361727670897,
          -0.2699009617826045,
          -0.04622697760597581,
          0.6224175298327331,
          0.7494361527185526,
          -0.23318789041018198
        ],
        [
          -0.0755077072031785,
          0.4302921709791233,
          -0.5596838033527767,
          -0.7346485742479715,
          0.3759376524387068,
          0.4664543094765035
        ],
        [
          0.011810983672229465,
          0.019225517563450204,
          0.4656235054218251,
          0.8094883709087252,
          -0.32411171596010246,
          0.029466749529980605
        ],
        [
          0.8384453666877821,
          0.900289053664313,
          0.714254269775139,
          -0.290203373478624,
          0.5660523666074564,
          -0.23813048804068251
        ],
        [
          0.7425096473886097,
          -0.08799066085240284,
          0.6307343457207929,
          0.9481212096126441,
          -0.08914193118407497,
          0.3938126557883018
        ]
      ]
    }
  ]
}
