{
  "layers": [
    {
      "activation": 0,
      "biases": [
        -0.15859512151515126,
        -0.20122378546179748,
        -0.05552765187279708,
        0.04443865286530212,
        -0.2519978981299182,
        0.1792959813109207,
        -0.09696363939220419,
        0.10715984433639471,
        -0.20556998009969893,
        0.03051591445750602,
        0.037043024674968936,
        0.030727048269345716,
        0.02093967784249373,
        0.07901383093328468,
        0.10879059339297832,
        0.08828102831394988,
        -0.02087050356779856,
        0.029669243691547116,
        -0.2604527886877061,
        0.02629593196689091
      ],
      "cols": 20,
      "rows": 42,
      "weights": [
        [
          0.5252223173015373,
          -0.5531145632610166,
          0.01318355445454428,
          -0.18150828897985072,
          -0.46711123376945435,
          0.06516278062462114,
          -0.4106562319737124,
          -0.14605405488385068,
          1.0567518442630832,
          -0.7938971306543833,
          0.3274117221039257,
          -1.157287867287159,
          -0.16598906919400042,
          -1.0501442450565541,
          -0.23864881459396686,
          -0.5255592774322769,
          -0.000653700832655339,
          -0.4578322875262229,
          -0.08547248213212767,
          0.8729580447868298
        ],
        [
          -1.1951054559238703,
          -0.09350670169409757,
          0.41617293138948314,
          0.18468743775976204,
          -0.04131612428750448,
          0.7707861951758539,
          0.3601765336754877,
          0.06539389536629459,
          -0.29222457570253474,
          0.7054263992279426,
          0.5986016594306091,
          0.739537974950146,
          -0.2864614854537469,
          0.8072151000885308,
          0.2876206822111023,
          0.8245128900263516,
          -0.2531112684664196,
          0.17576401259501231,
          -0.062066585138829136,
          -0.7243847404304217
        ],
        [
          0.7531298155250704,
          0.11659036820768394,
          -0.3479047538726339,
          -0.17213048009591997,
          0.24812870634627063,
          -0.3806975682240386,
          -0.3785598826800395,
          0.0516304403479501,
          0.08253253335987966,
          -0.6970772569810724,
          -0.11218005752314603,
          -0.5430442197094784,
          0.5391870480073164,
          -0.13224108175184973,
          0.09796989546335211,
          -0.4733336490106094,
          0.46436869548770243,
          -0.47263082492971464,
          0.1466133606600807,
          0.16102022170727862
        ],
        [
          -0.7114234020340017,
          -0.35155418545945133,
          0.7986589014124226,
          0.05640744327294312,
          0.24234538596583444,
          1.2515774982389443,
          0.6833029939361681,
          0.5127071342872808,
          0.22000072478498028,
          0.9113083821861249,
          0.6689006085399123,
          0.18749136860826737,
          -0.3448003749059123,
          0.5837227561139926,
          0.7673760439874125,
          0.7097499971112525,
          0.03535696240128792,
          0.3746493844705926,
          -0.268876396193789,
          -0.7376749689441525
        ],
        [
          0.6812928142840581,
          0.5080495857023033,
          -0.7091651170952912,
          -0.24370814556389775,
          0.5266395953265267,
          -0.8142855077900126,
          0.10219988627969544,
          0.41121538425307663,
          -1.0355164277590465,
          -0.030663444259265205,
          -0.7550157873788903,
          -0.03753112782675948,
          0.259158472655154,
          0.8900922750155459,
          -0.38015171102675743,
          -0.04467713249025747,
          0.14224236115414654,
          0.061466024422039856,
          0.22168554001674665,
          -0.04194873581661075
        ],
        [
          0.5302523482073412,
          -0.17040766800138554,
          -0.29589623347506666,
          0.2210279204880569,
          0.46557489098341565,
          -0.12836448443924703,
          -0.28294637184102794,
          0.34663295526088267,
          0.16242962526510318,
          -0.4423676699998875,
          0.05447464992763911,
          -0.051324067723986254,
          -0.1257429526892802,
          0.05198087518823822,
          -0.10747866215650465,
          0.023817351817536445,
          0.2009966061811829,
          -0.37692011959114685,
          0.16402632139979167,
          0.2603159412175425
        ],
        [
          0.2874607232193267,
          0.29111982838450734,
          -0.571964328736789,
          0.086185408403395,
          0.36325486025164083,
          -0.5884348206859406,
          -0.01925562312295536,
          0.19042342403863272,
          -0.8678888550528254,
          0.23034822376298683,
          -0.2639545717631666,
          0.5074430620974236,
          0.1868212769211861,
          1.0437309503856103,
          -0.40991574331277353,
          -0.04172992041528655,
          0.17720243433281876,
          0.18372061298309048,
          0.021814788178082745,
          -0.69555190346222
        ],
        [
          0.2885687556119859,
          0.543876747138931,
          -0.6399309193049315,
          0.3056807115842944,
          0.4282640292290314,
          -0.37989086189479476,
          0.3402863519137396,
          0.5244126725336968,
          -0.8026623299735205,
          0.281708834188914,
          -0.6229438387164454,
          0.1951769324629137,
          0.25501453480569647,
          0.5827375848288574,
          -0.02252112142333242,
          -0.03572306708743721,
          0.3691954138052414,
          -0.2829539654683918,
          0.028636911653000315,
          -0.37045310466066417
        ],
        [
          -1.4851143752024925,
          -0.3825830175129049,
          0.4154245247168598,
          0.12138112226402292,
          0.2594524211649902,
          0.9885813866070875,
          0.4071975205687209,
          0.5145344132175559,
          -0.2695595647119963,
          1.1445062355749978,
          0.9203643669143684,
          0.852693698077427,
          0.07195169683860161,
          0.8808343174922318,
          0.733432435223505,
          1.1859026956500844,
          -0.1678436519499998,
          0.1935296262651906,
          -0.28618473649123555,
          -0.964694873139061
        ],
        [
          -0.4265598414665563,
          0.26723564574003894,
          -0.03021533772756082,
          -0.15132857707673128,
          -0.023587667999970245,
          -0.022623848657851924,
          0.1669692557275422,
          -0.3841923706845628,
          -0.5354235069747444,
          0.14298570586356601,
          0.0761132447936752,
          0.5046306460972853,
          0.2159641711737247,
          0.3622566945260355,
          -0.2105947610354164,
          -0.05700117273478148,
          -0.25204341919222606,
          0.021533088846840975,
          0.1874653307007889,
          -0.26460356968608073
        ],
        [
          -0.14981625416343344,
          0.2021491180547552,
          0.12404140140531428,
          0.21123263644734508,
          -0.19571199996158492,
          -0.28586510692086087,
          0.0787865644989152,
          0.2386813170851746,
          -0.02505316360404121,
          0.02628034485541814,
          -0.4480036963665269,
          0.41075419564216076,
          0.04769237334954265,
          -0.012757522935521985,
          -0.4329296576283509,
          0.08457680735980837,
          0.27685899919515766,
          0.14427073880134272,
          0.15895305400534637,
          0.042063451599533404
        ],
        [
          0.7879720141766455,
          -0.13844298929674298,
          -0.050706879232967,
          0.07883478936064706,
          -0.6106724621553783,
          -0.7975797967481336,
          -0.5789048118801178,
          -0.7732645585864397,
          0.1031989157051598,
          -1.0558767385007424,
          -0.20249676708584904,
          -0.6076293747279315,
          -0.09073971512536992,
          -0.7819836523520611,
          -0.3705792908662672,
          -0.8947897560029,
          0.23569661582452014,
          -0.5240869641095474,
          0.012320891987300462,
          0.8545816990224412
        ],
        [
          -0.8340893586734327,
          -0.4589706741456168,
          0.5178369678099677,
          0.06251842838414282,
          0.03925968637683736,
          0.8957696876816493,
          0.7587264581140979,
          0.609142545170423,
          -0.27955184955262713,
          0.6473057054770478,
          0.0926073407107023,
          0.2053607784316369,
          -0.08009012660887119,
          0.6240593833115098,
          0.4448546578359576,
          0.5858316542179899,
          -0.09692991717533381,
          0.05334218516753404,
          -0.24853150781264235,
          -0.6517420339196073
        ],
        [
          -0.22987345127468164,
          -0.06740212317174196,
          0.2118837533555366,
          0.05799373461898984,
          -0.2689357659069621,
          0.5748480008870444,
          -0.09711828651340713,
          0.15934185230183756,
          0.40099472200933556,
          -0.133197359216721,
          0.05187367994113575,
          -0.010324023484020681,
          -0.20229227185224358,
          -0.10345257936293215,
          0.3070555514741651,
          0.05538274741113114,
          -0.3000945331630759,
          -0.25591587137969224,
          0.010602370298883225,
          0.20808588951083554
        ],
        [
          -1.3076484517111426,
          -0.501270554339006,
          1.3884924050221432,
          -0.047465879767886174,
          -0.20248076183025276,
          1.8032468940383466,
          0.278329621492932,
          0.026520145833861843,
          0.04824562429323449,
          0.962116221941176,
          1.184658742221763,
          0.042309622354303134,
          -0.6021196119824338,
          0.5707584967779774,
          0.9317553534200149,
          0.8636559018517859,
          -0.30581717898019595,
          0.4724006600473483,
          -0.40321280130870707,
          -0.6505062180159886
        ],
        [
          -0.16290146716812964,
          -0.2065801287686424,
          0.0688363424865583,
          0.19775452828148102,
          0.036410411820805795,
          0.1405162857716547,
          0.219341151661985,
          -0.24403635048781705,
          0.6874233349558078,
          0.25690471098081963,
          0.10130933421712114,
          -0.21235909344499299,
          -0.026907196872595487,
          -0.2936552930430407,
          0.43304850260525857,
          0.17432750341866063,
          0.14929440889301696,
          0.2588429119219177,
          -0.07524331161809628,
          -0.08588313526317776
        ],
        [
          -1.550543383949313,
          -0.9882923755442022,
          1.3288860011112773,
          0.13696452535439121,
          -0.16996133009808104,
          1.5514525879138643,
          0.631519692842719,
          0.26699538205604656,
          0.3062546949446216,
          1.0774968213251632,
          0.9116594380527656,
          0.0741393595823399,
          -0.5923022226433492,
          0.17827403254380372,
          0.3520004813787876,
          0.7722795845569446,
          -0.32809305238397707,
          0.6767076252969962,
          -0.3737183210651608,
          -0.22695756631054226
        ],
        [
          0.875259639396941,
          0.7463871439610008,
          -0.9114271992125685,
          0.0006000728953760071,
          -0.24780317071471064,
          -1.260480644961404,
          -0.7018524212014382,
          -0.6827123937179874,
          0.046240695716799486,
          -0.6316617680202217,
          -0.685185609227954,
          -0.23681638309422037,
          0.3634294866240794,
          -0.533034919139017,
          -0.7791560393729714,
          -0.6684217098232272,
          0.11114131767317124,
          0.13976318440244148,
          0.09119400098403964,
          0.48551787874605307
        ],
        [
          0.2553254767966945,
          0.1876118776269416,
          -0.15241959321609116,
          0.17378705723927892,
          0.18281409135124,
          -0.3229408620803626,
          -0.2313596541154546,
          0.32006996156603207,
          -0.22374972732872567,
          -0.13782939164453245,
          -0.0760550122395705,
          0.26017421315232775,
          0.0243261530468877,
          -0.012878894153636317,
          0.15705708755772566,
          -0.10782571006437344,
          0.1407504359666357,
          0.24661424354827194,
          -0.13146621954213092,
          -0.057476621090353903
        ],
        [
          0.7426720510574628,
          0.35489734920384725,
          -0.30960357761094626,
          -0.3368999967430201,
          -0.4017355185832683,
          -0.6610294494997032,
          -0.5723386177910073,
          -0.20072184630403525,
          0.4571808416863572,
          -0.35763813119889976,
          -0.28887627099139085,
          -0.49073938783436577,
          0.13416914703544655,
          -1.1010053525374628,
          -0.6691568215560171,
          -0.346182830175756,
          -0.015265261490179581,
          -0.13881438861582668,
          0.11182188040694936,
          0.5987629541123382
        ],
        [
          0.13322907677260049,
          0.08684306460984727,
          -0.5339321662477285,
          0.27630298048608964,
          0.45235198698141793,
          -0.1583249935646149,
          0.14624815016830295,
          0.012148787747298991,
          -0.06672781072033168,
          -0.31083567081898483,
          -0.22285606940775982,
          0.35334566555983954,
          0.2629162835587208,
          0.15735052585551945,
          -0.09462884479603072,
          -0.013441253188940409,
          0.002316574574575598,
          0.017686343315500945,
          -0.07340039425360523,
          -0.13446405084747673
        ],
        [
          -0.655298893664453,
          -0.4405484292518812,
          0.6639180363897286,
          -0.25326058026185466,
          -0.5049831288249504,
          0.8342368928721842,
          0.08126701023407702,
          -0.21906623557433957,
          0.18922284261624406,
          0.5688663158523157,
          0.9208991367026923,
          0.3233162705144469,
          -0.6379147183644064,
          0.09261203424403228,
          0.1990117966305185,
          0.42497597679491833,
          -0.43491945568776574,
          0.26683834275831286,
          -0.48684892257824225,
          0.027184346769936044
        ],
        [
          0.014754670133305876,
          -0.2652478764359863,
          0.5096045513646659,
          0.07765450127017665,
          0.0579128170615965,
          0.24970305065849263,
          0.07028807405282449,
          -0.3734398828111044,
          0.35794129644761735,
          -0.34924767599245143,
          0.37972584897109424,
          -0.06357276935217421,
          -0.04700339874607565,
          -0.5851619006619462,
          -0.13093681864954096,
          -0.06730207476090158,
          -0.32325579963497497,
          0.046240200566828205,
          0.19651480763428084,
          0.4242636362008203
        ],
        [
          -0.7609696032006195,
          -0.4411357224081578,
          0.9785551360320766,
          0.2489006222701399,
          -0.16315464004274946,
          0.7946947049771665,
          0.11412130885487409,
          0.011937414922405978,
          0.33364697754876604,
          0.4705469808585696,
          0.7458466310207462,
          0.3603666058016983,
          -0.3599629658601673,
          -0.006601967348124065,
          0.24997089660277733,
          0.30064512904879487,
          -0.42996185903347384,
          0.1388572587804279,
          -0.11450351552134524,
          -0.18966502763060844
        ],
        [
          -0.2552685648839958,
          -0.4666555135251271,
          0.24077663999928006,
          -0.29978482162837466,
          -0.6908871498976838,
          0.1561096226853781,
          -0.013402644958289266,
          -0.17165751294700968,
          0.6986861823641521,
          -0.15140889034719876,
          0.7818990206975418,
          -0.01859345339832298,
          0.1511706662052663,
          -0.5043007377102783,
          0.15966191456957465,
          -0.09245635336967704,
          -0.40957792583387803,
          -0.004618705058827609,
          0.036016339754531355,
          0.5742423749578093
        ],
        [
          -0.9585352922220797,
          -0.4944728121775978,
          0.7368085708081403,
          -0.289778027943927,
          -0.38613492662799376,
          0.36799727476608873,
          0.2649813029142303,
          -0.24894934231433563,
          0.4161664682752564,
          0.13372162692961378,
          0.31469607875494354,
          -0.058801833199849,
          0.01263681262155643,
          -0.5367435165583551,
          0.08475453245809089,
          0.45473170146840564,
          -0.3186893163447462,
          0.15756847032986682,
          -0.05120924662672493,
          0.40255697157390463
        ],
        [
          -0.05738021487090962,
          0.21200847951987126,
          0.2133747411430557,
          -0.05726227259741466,
          -0.1601987025637069,
          -0.030232975272402013,
          0.13123510694564225,
          -0.3959832135100181,
          0.4404274067317912,
          -0.045888596089693666,
          0.38635691456172105,
          0.07360460579797774,
          0.12172326841656061,
          -0.3915875162759973,
          -0.15761035574392465,
          -0.07168804237579161,
          -0.31333621626862224,
          0.19678846974985564,
          0.22859697016209277,
          0.39423363253517063
        ],
        [
          -0.25843563569731004,
          -0.32109443584572284,
          0.34507737201611227,
          -0.33802753448281075,
          -0.11878496842926807,
          -0.13085559266106886,
          -0.16914640029110867,
          -0.15190133885814022,
          0.6454694303574204,
          -0.5518809461107237,
          0.07999215212680134,
          -0.14293964735109302,
          -0.09896412376987243,
          -0.9077222926753559,
          -0.0607282602204351,
          -0.18355923582936784,
          0.07688088699086078,
          -0.23697725357896637,
          0.1822947284738371,
          0.13544864237326568
        ],
        [
          0.47728479509298805,
          0.572773093104061,
          -0.46182981805108253,
          0.006328191575262665,
          0.22684182762737165,
          -0.8146261210082377,
          -0.2761318129875802,
          0.04460258724120409,
          -0.4376738032758392,
          -0.29702072764945703,
          -0.6741642614620867,
          0.1911260304163335,
          0.09795418800085116,
          -0.244761291125914,
          -0.0769567778046966,
          -0.1845751632672448,
          0.053050981221956534,
          -0.20687283188945657,
          0.3466236991035017,
          0.1025128538262419
        ],
        [
          -0.36226998002912225,
          -0.2620903821526155,
          -0.2431455114011653,
          -0.02703468909592472,
          0.011818551481924981,
          0.27264104089137564,
          0.051426365921656066,
          0.5381899342598347,
          -0.22818796154172968,
          0.29932653449407315,
          0.30689829860437656,
          0.15566555286781772,
          0.07154420297045942,
          0.3756192946312104,
          0.5426282390770725,
          0.2534109894723101,
          0.21574800012255987,
          0.02634420023490866,
          -0.28083718841560856,
          -0.19380568751314517
        ],
        [
          0.10874797347432312,
          -0.15458058731100874,
          -0.1585628489710877,
          0.1281192431349071,
          0.2405457111121743,
          0.17297432297978255,
          -0.3234080026653298,
          0.0061435586471570835,
          0.04630871307248065,
          -0.03919907853269971,
          -0.16727819659081192,
          -0.3983555894807981,
          -0.22721219529974243,
          0.0027787065051178704,
          0.29885974007522237,
          -0.11633137871173528,
          -0.11153879608230056,
          -0.12533523351939854,
          -0.31697841969837603,
          -0.14146832350961736
        ],
        [
          0.27796376192128713,
          -0.20933972852356705,
          0.09865542430798487,
          0.09625945396407351,
          0.031974407095325647,
          0.2877736638352059,
          0.013776043299396863,
          0.27950670180366216,
          0.32021519202412235,
          -0.21553735868269744,
          -0.01114026080073499,
          -0.20510159080640825,
          -0.24776637030775245,
          0.22892172622061685,
          0.37480696405595876,
          0.018203852694078274,
          0.1573589630670908,
          0.3133954543010346,
          -0.2311687646501424,
          -0.29188300103258585
        ],
        [
          0.0009342606182670386,
          -0.381838402710301,
          0.024255655649888797,
          -0.14695013264776466,
          0.28266503867985465,
          0.545866112006326,
          0.16580890361871511,
          0.3527993715071256,
          -0.0798681854788897,
          0.278575452936575,
          0.35527985386364597,
          -0.5708193191513311,
          -0.04236719022034604,
          0.3264153930883626,
          0.40756958559712897,
          0.022543632718384412,
          0.1790193410597187,
          -0.22949919944183333,
          -0.1290636344570646,
          -0.20442588359588507
        ],
        [
          0.7735800851140062,
          0.5579235919577678,
          -0.24438621049774878,
          0.057669094241695494,
          0.4753280141579779,
          -0.5186247407645682,
          0.11159166164821632,
          0.5179273899010481,
          -0.6017892796494574,
          -0.016202273502865374,
          -0.5885180543339867,
          -0.19490768817524828,
          0.07980885764467271,
          0.3782524061927904,
          0.10859942451051723,
          0.11987437459376847,
          0.3037628308417022,
          -0.2069247855644523,
          -0.2906174541453857,
          0.22071742424168533
        ],
        [
          0.30227905708854974,
          -0.37042698618393993,
          0.6532369055255551,
          -0.3390344236432786,
          -0.7019775409601794,
          -0.11453525651169043,
          -0.3769535239008912,
          -0.6973665016246875,
          1.625505847885357,
          -0.5975510107204909,
          0.4892710235383035,
          -0.24261287104729315,
          -0.043343072065229804,
          -1.413736084241234,
          -0.5761046442243868,
          0.04751398846011945,
          -0.3386198235289433,
          0.3720961571176854,
          0.19587938631775806,
          1.2410357772899863
        ],
        [
          -1.2450361707590045,
          -0.07882327492607351,
          0.7056349746766194,
          0.040868724505637576,
          -0.2851000855555225,
          0.9343699914914861,
          0.6766854628702101,
          -0.29530187727452534,
          0.22539861620751983,
          0.9846833173706523,
          0.16781227458353473,
          0.31692778306312974,
          -0.5141723396379779,
          -0.041201225776122355,
          0.2752458726394468,
          0.1276702187539099,
          -0.2157901685904784,
          0.390029759734452,
          0.2739829990984244,
          -0.3396609104502712
        ],
        [
          0.8297341739808237,
          0.7468988889249182,
          -0.757263448987248,
          -0.25752523849611947,
          -0.478381425522574,
          -1.3130339471375942,
          -0.37278969667865935,
          -0.8028557807448065,
          0.06907214622789096,
          -0.8750427058917524,
          -0.7126359265842315,
          0.13607813853368866,
          0.1938082978068374,
          -0.927947314202102,
          -0.7338515255308307,
          -0.6493373200786838,
          0.06939604567386787,
          0.1239909732329403,
          0.5715534851308437,
          0.7898285452649018
        ],
        [
          -0.43256085115476195,
          -0.45495283612179455,
          0.22622798077834755,
          -0.10321406036955857,
          0.07072577364876016,
          0.13099367693181554,
          0.17986126229860322,
          -0.33289307720125,
          0.36123540253738745,
          0.006438530219524284,
          0.2811529518503898,
          -0.2653900568505089,
          0.06820506549621524,
          -0.21814601121241814,
          -0.15073419806517221,
          0.21482197381163284,
          -0.22966174788119387,
          0.12318051997883885,
          -0.022695206531368764,
          -0.04173928563290579
        ],
        [
          0.6374011037374938,
          0.598708147374229,
          -0.5917166730294671,
          0.12499644606295891,
          -0.0019079203070943664,
          -1.213324909040147,
          -0.24057943945809432,
          -0.4764135273696637,
          -0.30096512625138006,
          -0.4623775161048165,
          -0.9447420119682443,
          -0.047320900000716315,
          0.48857271966980015,
          0.1195182322746369,
          -0.5445149852673842,
          -0.704267663229496,
          0.4052167561803218,
          -0.36558807614612054,
          0.1408916256025261,
          -0.0025511654260819932
        ],
        [
          0.8872825534097992,
          0.17083100058351516,
          -0.32926041154604474,
          0.21732019909299657,
          0.26897998540586204,
          -0.32057061331976267,
          -0.1374411639797447,
          -0.257975813458414,
          -0.4128933943040929,
          -0.21414214312282873,
          -0.3884898620552922,
          -0.09688245767455511,
          0.05935372187998758,
          0.08972779957572757,
          -0.30541239406399556,
          -0.40751141444249533,
          -0.02012380137860231,
          -0.12961521987973446,
          0.0065102556739885095,
          0.18416537131546268
        ],
        [
          1.105572597071939,
          0.9234352968473846,
          -1.0997975732180854,
          0.04465297654090192,
          0.3785580781588926,
          -0.6962137337003014,
          -0.18555992714589312,
          0.3544666581323513,
          -1.0170289735733642,
          0.027502482154792635,
          -1.0972048807210952,
          -0.17116525025706836,
          0.16291727065680303,
          0.6553090160670996,
          0.049361685441247555,
          -0.4069005110323315,
          0.6210656501390269,
          -0.5477406412945532,
          0.12546137291839793,
          -0.732551114787917
        ],
        [
          1.6192604967023745,
          1.448774663894789,
          -1.9018089274105225,
          0.04629817611134559,
          1.187728202103241,
          -1.9159165391150914,
          -0.40981830852548057,
          0.2988828945790061,
          -1.4629641359783807,
          -0.48335518390462423,
          -1.848451946904138,
          0.006508238262712357,
          0.6688403731259431,
          0.7325317180430831,
          -0.8320821925503504,
          -1.1057995643941563,
          0.39460242970928555,
          -0.6509880886030724,
          0.6419817972814426,
          -0.2885258304453138
        ]
      ]
    },
    {
      "activation": 0,
      "biases": [
        -0.05470896716130964,
        -0.07363070754243348,
        0.004968109082677916,
        0.03804205713366245,
        0.11755311653544938
      ],
      "cols": 5,
      "rows": 20,
      "weights": [
        [
          0.08152902944950778,
          -0.08862685502302592,
          -0.4517392910460141,
          -0.5899726640074866,
          0.40333336167653283
        ],
        [
          -0.5356797889310071,
          0.23466174232407003,
          0.2142993695558909,
          -0.04442660182891608,
          0.32973350339343854
        ],
        [
          0.1995937219976803,
          -0.07006593909617666,
          0.21123883390761972,
          0.3649998127136278,
          -0.40828261436051033
        ],
        [
          -0.14175802224590944,
          -0.04540874843976999,
          -0.10160484913457224,
          0.09241463852414435,
          0.012698104766601008
        ],
        [
          -0.23909864902990277,
          -0.2315285894482629,
          -0.36199458752975866,
          0.04565275056791166,
          0.18468220666417745
        ],
        [
          0.3713745795553706,
          -0.32577250194803253,
          -0.29075943705343177,
          0.5109184734250657,
          -0.4451120312949534
        ],
        [
          -0.1425001378323236,
          -0.04052857966723861,
          0.0595611509063162,
          0.29987625282896735,
          -0.08099552403125972
        ],
        [
          -0.03624993967906524,
          -0.2950636421417908,
          -0.5343092004868073,
          0.011340972874357487,
          0.106533842222707
        ],
        [
          0.5917388743724707,
          -0.057768517837892,
          0.07722231202818192,
          -0.10571377475715185,
          -0.3444962385292063
        ],
        [
          -0.20153677035767142,
          0.06503620140685513,
          -0.04408563858771719,
          0.5916239294858917,
          -0.07973966709919679
        ],
        [
          0.5298989398962115,
          -0.1080845387887154,
          -0.04796858487527716,
          0.10093222024853887,
          -0.3904999585850651
        ],
        [
          -0.45294538504883936,
          0.34749746503003115,
          0.4437185447236554,
          0.2551341129314297,
          0.04689704953701777
        ],
        [
          -0.10694935450067404,
          0.08117530277377766,
          0.03886172841820438,
          -0.23507073237834092,
          0.11217703808868539
        ],
        [
          -0.40350030284579175,
          -0.16783945875130035,
          -0.34573877221876365,
          0.16636691751859078,
          0.14940958146410643
        ],
        [
          0.19919396896822722,
          -0.32363780676232784,
          -0.4967678154448626,
          0.23434817307625438,
          -0.11684345231708045
        ],
        [
          -0.05099229548812615,
          0.022051729960534873,
          -0.01193735033648184,
          0.24527003646887233,
          -0.13953052905712496
        ],
        [
          0.022924443309012905,
          0.014095102193170225,
          -0.28720866642711007,
          -0.07995424816127603,
          0.21207647821958578
        ],
        [
          -0.1467050613485104,
          0.17312919260407575,
          0.2613695518841397,
          0.15912393627516694,
          -0.09082738300640908
        ],
        [
          -0.11741744680434552,
          0.14320955359895726,
          0.26269826247926337,
          -0.023928832150188657,
          0.060611132727199424
        ],
        [
          0.30563812832860077,
          0.07103743022842525,
          0.21216301993251238,
          -0.4243243644663321,
          -0.08506213268509344
        ]
      ]
    },
    {
      "activation": 0,
      "biases": [
        -0.03853013770160055,
        -0.009899238698611347,
        -0.08737635047262174
      ],
      "cols": 3,
      "rows": 5,
      "weights": [
        [
          -0.5878188075228135,
          0.579776655645797,
          0.8775840869707174
        ],
        [
          -0.2858479430556257,
          -0.5374029753300202,
          -0.34001294320970926
        ],
        [
          -0.5699855941993585,
          -0.9509194226703374,
          -0.08421696601158894
        ],
        [
          0.7319140072384676,
          -0.5627531518401518,
          0.5464704571495749
        ],
        [
          0.13596381698435944,
          0.15733281372920113,
          -0.8259054823766094
        ]
      ]
    },
    {
      "activation": 0,
      "biases": [
        -0.032020930247785954,
        0.34385241663655586,
        0.4394086564183213,
        0.7420708906693815,
        0.9110710711411547,
        0.8697934313465565
      ],
      "cols": 6,
      "rows": 3,
      "weights": [
        [
          0.34658442856310084,
          0.5641813923132726,
          -0.04291062584547425,
          -0.05916041328490066,
          -0.8541243308996938,
          0.12604426448035982
        ],
        [
          -0.29991826860944054,
          -0.8499078333019006,
          0.2698735855920685,
          0.48431799098460193,
          -0.5517818442904062,
          0.6781024120338154
        ],
        [
          0.7150287484208534,
          -0.2729963610767641,
          0.878429767529036,
          0.5820072357459972,
          0.13179236183914217,
          -0.13489424606008635
        ]
      ]
    }
  ]
}
