{
  "layers": [
    {
      "activation": 0,
      "biases": [
        -0.19051889234260255,
        -0.3747493878425391,
        0.1705392091191206,
        0.9120603103489932,
        -0.48294916841363517
      ],
      "cols": 5,
      "rows": 10,
      "weights": [
        [
          0.3405938433261273,
          0.20047303073250777,
          0.04073233113574871,
          0.3041579482462596,
          0.6618675797113364
        ],
        [
          0.9133550605910459,
          0.06980878986852063,
          0.4200172698788459,
          0.11186441977960206,
          -0.045413905851262044
        ],
        [
          0.4113205305023058,
          -0.3262715941372155,
          0.14612568581159305,
          -0.8280651619212891,
          -0.19473069372705
        ],
        [
          0.18512378854126002,
          -0.09519382133866565,
          1.2846726286286618,
          -0.6445793622808567,
          0.24480854894864346
        ],
        [
          -1.7118877377117865,
          -2.501292205495348,
          3.605057147408537,
          0.6131318558292257,
          -0.2499459650021357
        ],
        [
          -1.220686953931519,
          -1.0390385013622288,
          1.4397027520395775,
          -0.6112142799044084,
          0.7634560982476626
        ],
        [
          1.4687269554312559,
          2.45047679467563,
          -3.071313513007621,
          -0.815495952037987,
          0.09676706106594411
        ],
        [
          0.8000834272506895,
          2.0539780256041493,
          -2.492795843657004,
          0.7025094847715793,
          -0.34809276219495133
        ],
        [
          -0.20893860727051458,
          0.10897485463541423,
          0.06811332831561129,
          -0.3265744702425314,
          0.19069902539202324
        ],
        [
          0.6449732233970523,
          0.6022758727688574,
          -1.1264214814290692,
          -0.6981007869324641,
          0.3545085608186628
        ]
      ]
    },
    {
      "activation": 0,
      "biases": [
        -0.04895013733610037,
        0.05961237632048296,
        0.046241161144020514,
        0.12760566502662746,
        -0.07181276780974478,
        0.12292872516095715,
        -0.1671796803319634,
        -0.03234217009084277,
        0.03102107084973182,
        -0.020402864531044715,
        -0.028453850166218243,
        0.07246145431734732,
        -0.07431198459843275,
        -0.018789242019758477,
        0.025296763678119012,
        -0.0035420220729138635,
        -0.07764087162557742,
        0.02847230502973204,
        0.039015400347167835,
        0.057616597035636846
      ],
      "cols": 20,
      "rows": 5,
      "weights": [
        [
          -0.08890617090429608,
          0.2509841393698641,
          0.21550601308809433,
          0.05169799190767663,
          -0.022786375331563333,
          0.14274713364275782,
          0.1566474239244829,
          0.2679600718500055,
          0.28860315489761057,
          -0.10268791061712976,
          -0.17611136480741577,
          -0.10037166217354487,
          0.06622122186074679,
          0.09860898851350279,
          -0.24968996462115836,
          -0.22946479321559796,
          -0.19273575588410674,
          -0.06932535583743124,
          0.18551167652964348,
          0.13584038473102622
        ],
        [
          0.3925835373163644,
          0.14285237757106364,
          0.25936619580625114,
          -0.017283906712363777,
          0.393898877581719,
          0.05854932427922915,
          0.226900343292128,
          0.6627985473439885,
          0.0508260780982074,
          -0.04132186138801235,
          -0.48447666733004374,
          -0.34005466679931906,
          -0.045048263067540395,
          -0.22285047406261435,
          -0.37466696825583456,
          -0.2710378533323252,
          0.285118311238736,
          -0.1801639315394122,
          0.13012346546888545,
          -0.18973522581119295
        ],
        [
          -0.2442875965376074,
          -0.32485701881075374,
          -0.35237731626515334,
          0.01966673423522268,
          -0.5114269039166114,
          0.2631447659017315,
          0.2344973673878453,
          -0.3652497473793246,
          -0.26184538472106844,
          -0.02496176285611785,
          0.4064068178165624,
          0.09113212329377283,
          0.3391994453100134,
          0.3755766343184895,
          0.6266607979612473,
          0.23540891510969225,
          0.15743882330242528,
          -0.08648732328123535,
          -0.4457385637630547,
          -0.115557207734781
        ],
        [
          -0.12105740326007552,
          0.10031182285356306,
          0.14491391967307105,
          0.12820611993622072,
          -0.04712084525656426,
          0.765456927161545,
          -0.18078224598390977,
          -0.0407677773508049,
          0.0388642573397048,
          -0.18854008331195127,
          -0.030093464046932746,
          0.23139154168588325,
          -0.9093082013742368,
          0.025980211217290904,
          0.000974692270681546,
          -0.1821133052025547,
          0.1317706425538655,
          -0.26564788749440277,
          -0.07808719608429529,
          -0.16409364727143078
        ],
        [
          0.1628072610500472,
          -0.19220218076540488,
          -0.18879785837048296,
          -0.4158451712742429,
          0.22267787284851395,
          -0.5382448439425238,
          0.414781957845743,
          0.14715863887019243,
          0.11324464610044521,
          0.15553060861131163,
          0.08690836884553399,
          -0.11844361669811257,
          0.14611459051355588,
          0.38556200542686736,
          -0.07026150804161413,
          -0.2324159282029884,
          0.05030234282992741,
          0.05665222493237282,
          -0.3520012843780638,
          -0.16985198750298405
        ]
      ]
    },
    {
      "activation": 0,
      "biases": [
        -0.37742140905917076,
        0.2908225382994941,
        0.20035111719908005,
        -0.12715620752649767,
        0.04229651214733907
      ],
      "cols": 5,
      "rows": 20,
      "weights": [
        [
          -0.016445517924585748,
          0.5013593311643276,
          -0.05418801202322805,
          0.07184331775122313,
          0.08058249409571228
        ],
        [
          0.10671754103478065,
          0.021038056311251552,
          -0.3690324746378647,
          -0.08564098783803865,
          -0.06617787184257606
        ],
        [
          0.1608788181336985,
          0.10578681149421876,
          -0.36885555000975667,
          -0.06527016776333815,
          -0.038451379776733526
        ],
        [
          -0.031200510508955944,
          -0.2762323476300449,
          -0.2019354031395456,
          -0.0005069059391141112,
          -0.19281693693168078
        ],
        [
          0.2261609274075525,
          0.27785221753993733,
          -0.4118519038328028,
          -0.1627005633667607,
          0.12216154299279429
        ],
        [
          0.22264012718786338,
          -0.7562022166155818,
          -0.30343070019067536,
          -0.12771333500577983,
          0.0495413065038739
        ],
        [
          -0.04244155917144553,
          0.30156624910086743,
          0.32357197616862066,
          -0.09796181672887051,
          0.16606728136545829
        ],
        [
          0.37102095819387904,
          0.43198228318154236,
          -0.3049785798070059,
          -0.21415744966412992,
          0.09816608906454251
        ],
        [
          0.36049050724687354,
          0.009696409582000411,
          -0.20936833131321128,
          -0.23530164240101745,
          0.050835225224712635
        ],
        [
          0.1338682637270002,
          0.09313718984718822,
          0.10043909503997134,
          -0.03697602087642058,
          -0.015251523559512724
        ],
        [
          -0.36813554217789485,
          -0.20553784474309145,
          0.4320477285803409,
          0.1470064933532708,
          -0.0027808551674438904
        ],
        [
          -0.13016784115607452,
          -0.2518512711350205,
          0.05935441191995685,
          0.11068610576395095,
          0.018437180384538468
        ],
        [
          -0.46740671559090785,
          0.6115615889189282,
          0.6353755058846473,
          0.24280138597898251,
          -0.29848267168028075
        ],
        [
          0.07921247430011157,
          -0.00841549379697221,
          0.4761387942446654,
          -0.09283887161527156,
          0.2004718595682535
        ],
        [
          -0.1404544352769379,
          -0.41549386775924346,
          0.42174311540957204,
          0.10782878356869706,
          -0.011466069078191168
        ],
        [
          -0.38025414579125677,
          -0.16580608698911456,
          0.15931662332877305,
          0.22533235075005006,
          -0.20378786917099537
        ],
        [
          -0.08014469397709069,
          0.02444517672608109,
          0.011136275261783282,
          0.030712095303018574,
          0.15367122955968818
        ],
        [
          -0.005640248000383828,
          0.16119975675060003,
          0.12316628720744945,
          0.08210910363013037,
          -0.10807252664758518
        ],
        [
          -0.07204512834928001,
          0.20723735702319163,
          -0.37056329497631074,
          0.13286288608424948,
          -0.21753422504099837
        ],
        [
          -0.30431285918540474,
          0.0725811338289938,
          -0.04721599264143422,
          0.09573083467484234,
          -0.19491729490474402
        ]
      ]
    },
    {
      "activation": 0,
      "biases": [
        0.525439609922869,
        0.5360294942769904,
        0.6622368426500879,
        0.9882010567142114,
        0.1944726883866964,
        0.8980863557140221
      ],
      "cols": 6,
      "rows": 5,
      "weights": [
        [
          0.5706785718326647,
          -0.6674045785463378,
          0.5344750916307354,
          0.6242105592167199,
          -0.0019179737993236705,
          -0.2284936126218975
        ],
        [
          -0.25241255075266716,
          -0.790094527760476,
          0.29072598469893046,
          0.2202214287796143,
          1.1183476676380388,
          -0.20400985316877346
        ],
        [
          -0.7413685334846982,
          -0.8301238551887847,
          -0.29325415878800526,
          0.1501184508382478,
          -0.44823784631075514,
          0.616646306275839
        ],
        [
          -0.09251838296341787,
          -0.15399229324599106,
          -0.37809221726467324,
          -0.01677376389932842,
          -0.11605747597948002,
          -0.07438161779705187
        ],
        [
          0.2541623212044248,
          -0.11202887968039608,
          0.5166818215511807,
          0.36686840236398405,
          -0.204412240025523,
          0.3040911321015331
        ]
      ]
    }
  ]
}
