{
  "layers": [
    {
      "activation": 1,
      "biases": [
        -0.002248255156551432,
        0.22524484942743483,
        0.014111337406440114,
        0.020530725503713966,
        0.05646326751748874,
        -0.040607259350563585,
        0.02132501286998163,
        0.28170670242911133,
        -0.04717531975573538,
        -0.13785825632637103,
        -0.18847491573552783,
        -0.2682003410653133,
        -0.035070040019413704,
        0.017955482710495244,
        -0.12116793737349132,
        0.00021863338756820586,
        -0.30877074299469254,
        0.07207078821761946,
        -0.04432261892948477,
        0.4388170366433004
      ],
      "cols": 20,
      "rows": 10,
      "weights": [
        [
          -0.28849366486712225,
          -0.3790878180985566,
          0.3429247882515063,
          -0.24371751770334726,
          -0.0025457099021105136,
          1.403133165551411,
          -1.5995913818996448,
          -0.1605102812762563,
          -0.41622784770618826,
          0.1766899229163371,
          -0.8184227483860553,
          -1.0270667391098653,
          0.8282932623535906,
          -0.08617888686667675,
          0.28219868471932213,
          -0.07832131761776621,
          0.6602721457674555,
          -0.3827467701579823,
          -0.5940218231833054,
          -0.7362725826001704
        ],
        [
          -0.44995931231612124,
          0.46351199076620947,
          0.37869969266273673,
          0.40541801132009603,
          0.09778540143224793,
          -0.3497532165611182,
          -0.30562352615096555,
          0.26821860709553125,
          0.35815895374129025,
          -0.49200610543797485,
          -0.2201556391795879,
          0.2552420460682556,
          -0.05950694478751068,
          0.05592529213819176,
          -0.525661776735124,
          -0.09770899110040032,
          -0.2779375432608466,
          0.26379048357496393,
          -0.39667719081182146,
          0.47096089876395075
        ],
        [
          -0.08794768857663118,
          -0.9956238932828474,
          -0.4954835216744693,
          -0.039145279143582595,
          -0.5028597550723952,
          0.5266736012871098,
          -0.0507950902375211,
          -1.3228734345950428,
          0.0054663065311495625,
          0.8911571156401276,
          0.6063657090410068,
          0.07432725171639752,
          0.07536716254825357,
          0.3209192468707071,
          0.845469049684607,
          0.8732570327363754,
          0.7695245316113414,
          -1.1683642707431467,
          0.42561936758393293,
          -1.4017768254159548
        ],
        [
          0.22150644106263753,
          0.6659288891472633,
          0.34384339109932777,
          0.0663227721155524,
          -0.4204155997766295,
          0.5208391322892758,
          0.7530696358953684,
          0.21750563784074886,
          0.3038203536709925,
          0.1157801617951976,
          0.4879461469156908,
          0.06988020840250204,
          0.08424118743115999,
          -0.32879190489368915,
          0.4800686401783805,
          -0.2654529731394095,
          -0.09459060083824225,
          0.23577032625687158,
          -0.03251082036603224,
          0.6913392116269613
        ],
        [
          -0.39190816856764826,
          0.21230240921985416,
          0.001990880724798663,
          0.11254298040009825,
          0.13063987868963337,
          -0.4596986682273765,
          0.1777482365407689,
          -0.30783376765057224,
          0.4682508497713274,
          0.3237829196077409,
          0.3215496033770291,
          0.4083269891364982,
          -0.36433354744865415,
          0.28174631372683023,
          0.3412061192086753,
          -0.7735204289960502,
          -0.08387886498330643,
          0.695661785671205,
          0.5297662718206021,
          -0.014318765700308544
        ],
        [
          0.12300539772465821,
          0.032309020537703216,
          -0.47867734906333176,
          0.34724076646217306,
          0.17350208242468426,
          0.0886282235219901,
          -0.062278728795857524,
          0.6129176741098947,
          0.025619217271969984,
          -0.7179035830877059,
          0.21364371795606765,
          0.22788927401792627,
          -0.24817554842336895,
          -0.45164806870662794,
          -0.44750135742031977,
          0.1205762114993446,
          -0.4089413750508795,
          0.13174509784246147,
          -0.3413459574334655,
          0.22886642772905214
        ],
        [
          -0.32676895966244945,
          0.4264723462353912,
          0.32202278621218056,
          -0.48655380585030455,
          0.26159252202654465,
          -0.6686509682513815,
          0.508281592113127,
          0.27204358353957436,
          0.283643987590097,
          0.16139838635352619,
          0.162692209564259,
          0.38936737628857504,
          0.1674507589470606,
          0.29861957979386633,
          -0.2715203051860738,
          -0.4709860961159863,
          0.02018549519977794,
          0.7143156799102853,
          0.41522695149898214,
          0.5434968312239332
        ],
        [
          0.12747578305436688,
          -0.23163799514142752,
          -0.20631708421695996,
          0.19035005615844108,
          0.7320049520785505,
          -0.27555307821559216,
          -0.10467589640057084,
          0.8443017457179269,
          0.42073678054633273,
          -0.7132399620281187,
          -0.5585876081515493,
          0.17176029268445342,
          0.2730895355622265,
          -0.3582976239391183,
          -1.0031727685511511,
          0.17091512121631405,
          -0.39795166009111305,
          -0.21402967505536388,
          -0.7707683377439492,
          1.2018482568384925
        ],
        [
          -0.11480682814629926,
          0.20731604264543552,
          -0.42190587419976416,
          -0.3488600956411952,
          -0.2650882004556127,
          -0.3304309817864309,
          0.2929237776818207,
          -0.10334578130559394,
          0.022921924034801148,
          0.29445324405061807,
          -0.2123597644144134,
          0.20538665984200272,
          0.03843258104578955,
          0.2636026731731426,
          0.04693302185236085,
          -0.038325631001255266,
          0.2815123737800142,
          0.36651756226105864,
          -0.05080073720964398,
          -0.07830764410013942
        ],
        [
          0.37186271362438034,
          -0.0697137600875181,
          0.27802926834125047,
          0.09747477634695327,
          -0.07866907574439506,
          0.10924882465364476,
          -0.3318336627195775,
          0.25098727458268216,
          0.16781955674834656,
          -0.37478673755321246,
          0.09582840668051792,
          0.24765457007466907,
          0.16419813756107043,
          0.33552930093269256,
          -0.09465988996768233,
          0.15338988885194244,
          0.1987333792659305,
          0.1516533660301224,
          0.03899284198665829,
          -0.04594708930310517
        ]
      ]
    },
    {
      "activation": 1,
      "biases": [
        -0.018978937831697712,
        -0.15915029998720978,
        0.013046936658848632,
        0.20875177523694877,
        0.08580619881046278,
        0.1910783262361577,
        0.06435918812843702,
        -0.4529848181839629
      ],
      "cols": 8,
      "rows": 20,
      "weights": [
        [
          0.39785665635341344,
          0.0051992773028906565,
          0.37564187544006966,
          0.002231639259353063,
          0.35987895014572796,
          0.36374643085238895,
          -0.27687218921827866,
          -0.03799356273606422
        ],
        [
          0.10404893440382183,
          -0.7395969207864899,
          -0.1884124179917449,
          0.29272257258203266,
          -0.7784375204442007,
          -0.6260535493118206,
          -0.9180404538146288,
          0.1264887128604041
        ],
        [
          0.05517538949458163,
          -0.1470654960252284,
          0.20669262419888687,
          -0.08263856153571883,
          -0.652862961394285,
          0.2807977405894647,
          -0.1576612372482039,
          0.02645072318965622
        ],
        [
          0.15810118110591503,
          -0.15056899902443865,
          -0.1308101051165309,
          -0.16231050573653594,
          0.006171872179935538,
          -0.20134201397581855,
          0.06672029339897897,
          -0.6329808125008286
        ],
        [
          -0.0915604296944495,
          -0.5415819967098803,
          0.20922862953223675,
          0.6289637282536874,
          0.18985158006974734,
          -0.03502349303283419,
          -0.11576657246546752,
          -0.6661113204826512
        ],
        [
          0.5232318470764105,
          0.5452004493096134,
          -0.026300775809449322,
          -0.22123556912179293,
          -0.5376903253160723,
          0.9556036985949945,
          1.0877607338452784,
          0.28525297649652404
        ],
        [
          -0.43714466835673044,
          -0.27572941466084394,
          0.42566127001637466,
          -0.07120759285908297,
          0.40773774379269345,
          -1.0688947032182339,
          -1.133704161852457,
          0.4373643593110856
        ],
        [
          0.27926331792491993,
          -1.4927055908878704,
          0.43928164363479005,
          0.5041269728115162,
          -0.05767770454320803,
          -0.0721449623149643,
          -0.42612799241402943,
          -0.846503214245297
        ],
        [
          -0.11356504585291775,
          -0.6425795243496256,
          0.07054787359295342,
          -0.1491120804110863,
          0.04591192848508371,
          -0.28728900257327067,
          0.11135277253917904,
          0.14135571577339828
        ],
        [
          -0.20941202610729256,
          0.8500081119421722,
          -0.4744346376234993,
          0.013527348245367719,
          0.05074978227496105,
          0.3507732899279047,
          0.42131899329153993,
          0.7796005771041211
        ],
        [
          -0.5668235040436073,
          0.3969351990841618,
          0.10777446541055333,
          -0.030843756229953622,
          0.7459111476621788,
          -0.6317349277122599,
          -0.23102950012529624,
          0.3820911860843173
        ],
        [
          -0.5993433371379059,
          -0.19153855540258805,
          0.25088672814103447,
          0.12367795565548602,
          0.4580975357206661,
          -0.5679982742701267,
          -0.6582560682226758,
          0.2223646589127939
        ],
        [
          0.2949731614044557,
          -0.21035561159986718,
          -0.12616149396249227,
          -0.07973884406339916,
          -0.33455835097062514,
          0.2322035925985143,
          0.8644261267700541,
          -0.11731479038798663
        ],
        [
          -0.03724604689501239,
          0.47576261183465524,
          0.35835350513546943,
          -0.12330856463748918,
          -0.20951370188681576,
          -0.32375756207547457,
          0.4341852156001585,
          -0.05891517703295768
        ],
        [
          0.30114483425562394,
          1.231649355617642,
          0.1261356755794071,
          -0.30716774663345153,
          -0.30819338818441805,
          -0.22336232688259053,
          0.47745868459251284,
          0.6779287108080807
        ],
        [
          0.4275637474106311,
          0.6112337420173336,
          0.4280151527686213,
          -0.2614951819098769,
          0.8314320135826518,
          0.42335120952615896,
          0.2300727072360817,
          -0.7325698370956586
        ],
        [
          0.21398339625475882,
          0.9090107672752407,
          0.1529583055772941,
          -0.23143098945666388,
          -0.10051704149455086,
          0.7680392301136265,
          0.6143799947599142,
          0.369768395633602
        ],
        [
          -0.6402528685410191,
          -0.9201216165965773,
          0.2412823375388102,
          0.19465433531791737,
          -0.7165542349831697,
          0.003077488980415873,
          -0.9189381535990635,
          0.1400470102247683
        ],
        [
          -0.7197087285049865,
          0.5679484643324376,
          -0.3944137511886229,
          -0.42977206689374403,
          0.21292225751208976,
          -0.30268618117641977,
          -0.537093017309955,
          0.17331248448216313
        ],
        [
          0.5384669314867304,
          -1.734804468843152,
          -0.10608331074291727,
          0.5954838708723583,
          -0.5311135591952025,
          -0.7194040444707369,
          -1.0247852345262627,
          -0.4944457046031091
        ]
      ]
    },
    {
      "activation": 0,
      "biases": [
        -0.8193692346848992,
        -0.18059923540177794,
        -0.5085039141424083,
        0.0695191343129675,
        -0.2756920910483999,
        0.8123528209600029
      ],
      "cols": 6,
      "rows": 8,
      "weights": [
        [
          -0.3405015722310512,
          0.6289903308164098,
          1.1360287427798397,
          -0.5061685920514674,
          -0.06261717937537346,
          0.5374763701515092
        ],
        [
          2.3797004807110613,
          0.536838039931337,
          0.5191860128445535,
          1.777930976147372,
          0.8493952655795182,
          -0.4131098430818547
        ],
        [
          -0.4716348420821918,
          -0.7322194801406334,
          0.13173463663652615,
          -0.017456469697992194,
          -0.19197664918514407,
          0.5467586745214743
        ],
        [
          -1.3882906621380495,
          -0.551567874542434,
          -0.20692288270519263,
          -0.22034151575891384,
          -0.10529498446060807,
          -0.18619801871672195
        ],
        [
          0.8159943290335997,
          -1.4299441254331198,
          0.695103274899223,
          -0.18672185107533282,
          0.13716614234250146,
          -0.35193613483632397
        ],
        [
          0.09779237228471971,
          1.448355266536352,
          0.43699640543364904,
          -0.2953713877178972,
          1.0403248415340043,
          -0.6515679823361759
        ],
        [
          1.2419230037259104,
          1.6831258836120508,
          0.5956320889180143,
          -0.33999386375756807,
          1.353972774751408,
          -0.19182808233813017
        ],
        [
          1.0522222879957943,
          0.31488128192089876,
          -0.7769345916927883,
          1.2140700953113086,
          -0.789287262984923,
          0.3329463904205931
        ]
      ]
    }
  ]
}
